10,-0.9790540477708674,1.1832678103512844,-2.6794821867508976,-1.5725910907939413,1.4684196965904823,-0.8682377168023743,-1.6474000371916313,-0.9009476024197436,-2.359390847903712,1.786873841772815,-0.7870144281912315,2.9814843075404553,-2.3263067814925016,1.7694844907043477,-0.5613078299237473,0.24932976690406417,-0.8793144861058466,1.0009863445551037
20,-0.9792774321006407,1.1830415795354587,-2.679710663864306,-1.5727884599503812,1.4686362314757797,-0.8680157023486322,-1.6476206369790374,-0.9007198573180433,-2.3596220364356384,1.786873841772815,-0.7870144281912315,2.9814843075404553,-2.3263067814925016,1.7694844907043477,-0.5613078299237473,0.24932976690406417,-0.8793144861058466,1.0009863445551037
30,-0.9794812519503928,1.1830267289701715,-2.6799697036631307,-1.5729705444564144,1.4688741696266148,-0.8678132072690781,-1.6477678626262435,-0.9004630895758229,-2.3598772245690336,1.786873841772815,-0.7870144281912315,2.9814843075404553,-2.3263067814925016,1.7694844907043477,-0.5613078299237473,0.24932976690406417,-0.8793144861058466,1.0009863445551037
40,-0.979653419681265,1.1831756338127077,-2.6802393396336543,-1.573176471139384,1.4690599175403123,-0.8676573538843957,-1.6478792343904407,-0.900226967431453,-2.3601242229626136,1.786873841772815,-0.7870144281912315,2.9814843075404553,-2.3263067814925016,1.7694844907043477,-0.5613078299237473,0.24932976690406417,-0.8793144861058466,1.0009863445551037
50,-0.9797382190362959,1.183024620014789,-2.6804829082584662,-1.5732282377305271,1.4692748471114014,-0.8676562183645319,-1.64806990125956,-0.9000996115825007,-2.3602658927959226,1.786873841772815,-0.7870144281912315,2.9814843075404553,-2.3263067814925016,1.7694844907043477,-0.5613078299237473,0.24932976690406417,-0.8793144861058466,1.0009863445551037
60,-0.9797647979295608,1.1830594786282624,-2.6806803346757415,-1.5732213868929428,1.4692607898330905,-0.8677157591051199,-1.648016949110015,-0.9000560074794838,-2.360366878475259,1.786873841772815,-0.7870144281912315,2.9814843075404553,-2.3263067814925016,1.7694844907043477,-0.5613078299237473,0.24932976690406417,-0.8793144861058466,1.0009863445551037
70,-0.9795576250697627,1.1827954717703362,-2.6808907005527587,-1.5731062763109418,1.4689236216039725,-0.8679971760627567,-1.6481079387265691,-0.900368927064645,-2.360189779972604,1.786873841772815,-0.7870144281912315,2.9814843075404553,-2.3263067814925016,1.7694844907043477,-0.5613078299237473,0.24932976690406417,-0.8793144861058466,1.0009863445551037
80,-0.9793492300059288,1.1826553762847745,-2.6812347836306976,-1.5728199704750236,1.4685159915870603,-0.8682637589672858,-1.6482285718361092,-0.9007004666799154,-2.360114779236193,1.786873841772815,-0.7870144281912315,2.9814843075404553,-2.3263067814925016,1.7694844907043477,-0.5613078299237473,0.24932976690406417,-0.8793144861058466,1.0009863445551037
90,-0.9792137302906323,1.1826712635943417,-2.68162999088931,-1.5726937809898036,1.468146980504944,-0.8684233739896725,-1.6485021923776533,-0.9009814971568312,-2.360263853298248,1.786873841772815,-0.7870144281912315,2.9814843075404553,-2.3263067814925016,1.7694844907043477,-0.5613078299237473,0.24932976690406417,-0.8793144861058466,1.0009863445551037
100,-0.9791940374278093,1.1828643512718262,-2.6819836187037573,-1.5726592340768473,1.4679375407597424,-0.8685635583681871,-1.6484096313048295,-0.9011422881525405,-2.360539849849469,1.786873841772815,-0.7870144281912315,2.9814843075404553,-2.3263067814925016,1.7694844907043477,-0.5613078299237473,0.24932976690406417,-0.8793144861058466,1.0009863445551037
110,-0.9792128508657106,1.1832721515691536,-2.682249235684845,-1.572985403733755,1.4678332019514264,-0.8687063406396877,-1.648029234086081,-0.9010731016899332,-2.36089824618695,1.786873841772815,-0.7870144281912315,2.9814843075404553,-2.3263067814925016,1.7694844907043477,-0.5613078299237473,0.24932976690406417,-0.8793144861058466,1.0009863445551037
120,-0.9793225166366901,1.1837852859368816,-2.6826932450272727,-1.573324585023124,1.4678107969185372,-0.8689901728314445,-1.6475578409025111,-0.9007196014968432,-2.3613919712704194,1.786873841772815,-0.7870144281912315,2.9814843075404553,-2.3263067814925016,1.7694844907043477,-0.5613078299237473,0.24932976690406417,-0.8793144861058466,1.0009863445551037
130,-0.9793388137118034,1.1842692027773802,-2.683124729111709,-1.5737042195802335,1.467660427673316,-0.8693228088136612,-1.6470665967767892,-0.9003092639328458,-2.3618905811071125,1.786873841772815,-0.7870144281912315,2.9814843075404553,-2.3263067814925016,1.7694844907043477,-0.5613078299237473,0.24932976690406417,-0.8793144861058466,1.0009863445551037
140,-0.9792254891497867,1.184801567278922,-2.6836436116160827,-1.5740990084605406,1.4677841883816987,-0.8697787546432433,-1.6465308867536428,-0.899781740377671,-2.362439486925373,1.786873841772815,-0.7870144281912315,2.9814843075404553,-2.3263067814925016,1.7694844907043477,-0.5613078299237473,0.24932976690406417,-0.8793144861058466,1.0009863445551037
150,-0.9794606601167647,1.1851837697925465,-2.6841876761569945,-1.574380219614673,1.468278385463189,-0.8701554339480377,-1.6462609598733515,-0.8992398895597563,-2.3629440023118073,1.786873841772815,-0.7870144281912315,2.9814843075404553,-2.3263067814925016,1.7694844907043477,-0.5613078299237473,0.24932976690406417,-0.8793144861058466,1.0009863445551037
160,-0.9792602110708548,1.1857070034541566,-2.684729980584648,-1.5745054386125599,1.4687371686231987,-0.8706361301534211,-1.6458387229014417,-0.8986495791943396,-2.3634995720186263,1.786873841772815,-0.7870144281912315,2.9814843075404553,-2.3263067814925016,1.7694844907043477,-0.5613078299237473,0.24932976690406417,-0.8793144861058466,1.0009863445551037
170,-0.9792548325069406,1.186027312224134,-2.685139150544447,-1.5745339639281606,1.4691175163610708,-0.8710112296374395,-1.6456147564174957,-0.8982223332990267,-2.363888207485492,1.786873841772815,-0.7870144281912315,2.9814843075404553,-2.3263067814925016,1.7694844907043477,-0.5613078299237473,0.24932976690406417,-0.8793144861058466,1.0009863445551037
180,-0.9791601515701079,1.1863648591964968,-2.6855363111507162,-1.574585593608948,1.4695230912280364,-0.871402535430057,-1.6454221041151742,-0.8977862431423335,-2.3642825715062483,1.786873841772815,-0.7870144281912315,2.9814843075404553,-2.3263067814925016,1.7694844907043477,-0.5613078299237473,0.24932976690406417,-0.8793144861058466,1.0009863445551037
190,-0.9790422862525301,1.1867408014753336,-2.6858618979328974,-1.5746324287072229,1.469846374720244,-0.8717538771435078,-1.645225290096831,-0.8973613596350524,-2.3646433241259683,1.786873841772815,-0.7870144281912315,2.9814843075404553,-2.3263067814925016,1.7694844907043477,-0.5613078299237473,0.24932976690406417,-0.8793144861058466,1.0009863445551037
200,-0.9789714792331378,1.187026883295111,-2.6862119411892382,-1.5746795911323301,1.4702402669221406,-0.8720550108001671,-1.645021528759121,-0.8969832460405269,-2.3649844585725868,1.786873841772815,-0.7870144281912315,2.9814843075404553,-2.3263067814925016,1.7694844907043477,-0.5613078299237473,0.24932976690406417,-0.8793144861058466,1.0009863445551037
210,-0.9789637393670017,1.1873093696749581,-2.6865884117922256,-1.574651552185714,1.4707002122879504,-0.8723452332661771,-1.6448555020640534,-0.8965863357501236,-2.365351333795866,1.786873841772815,-0.7870144281912315,2.9814843075404553,-2.3263067814925016,1.7694844907043477,-0.5613078299237473,0.24932976690406417,-0.8793144861058466,1.0009863445551037
220,-0.9790362336841252,1.1874249985407574,-2.6868627193430266,-1.574747013997573,1.4709812658705368,-0.8725362127753664,-1.644814254992827,-0.8963444256924977,-2.3655802919510194,1.786873841772815,-0.7870144281912315,2.9814843075404553,-2.3263067814925016,1.7694844907043477,-0.5613078299237473,0.24932976690406417,-0.8793144861058466,1.0009863445551037
230,-0.9790581479234746,1.1875237383303496,-2.687129393315839,-1.5749681170104488,1.4711557788948444,-0.872724665404297,-1.6446726708812085,-0.8961366025028213,-2.3658070095297408,1.786873841772815,-0.7870144281912315,2.9814843075404553,-2.3263067814925016,1.7694844907043477,-0.5613078299237473,0.24932976690406417,-0.8793144861058466,1.0009863445551037
240,-0.9789411413161702,1.1876610155892642,-2.687417275549536,-1.5752560736930208,1.4713379018540245,-0.8729717899940549,-1.644417257468425,-0.8958958503980031,-2.36607127397598,1.786873841772815,-0.7870144281912315,2.9814843075404553,-2.3263067814925016,1.7694844907043477,-0.5613078299237473,0.24932976690406417,-0.8793144861058466,1.0009863445551037
250,-0.9789041639669137,1.1878024407381658,-2.6876325432936485,-1.5754859245068775,1.471466531364173,-0.8731533573359291,-1.6442005864023157,-0.8957095681946766,-2.3662908119257433,1.786873841772815,-0.7870144281912315,2.9814843075404553,-2.3263067814925016,1.7694844907043477,-0.5613078299237473,0.24932976690406417,-0.8793144861058466,1.0009863445551037
260,-0.9788823772507398,1.1879048206046208,-2.6878492337547297,-1.5756873839829184,1.4716131117495777,-0.8733618398472538,-1.6441391172002546,-0.8955053174033493,-2.3664664333957126,1.786873841772815,-0.7870144281912315,2.9814843075404553,-2.3263067814925016,1.7694844907043477,-0.5613078299237473,0.24932976690406417,-0.8793144861058466,1.0009863445551037
270,-0.9786656495176443,1.1881057292394053,-2.6880325769478324,-1.5756890285818126,1.4717711077115019,-0.8735469351704919,-1.6439751782400165,-0.8952913304020886,-2.3666670571291557,1.786873841772815,-0.7870144281912315,2.9814843075404553,-2.3263067814925016,1.7694844907043477,-0.5613078299237473,0.24932976690406417,-0.8793144861058466,1.0009863445551037
280,-0.9786809340695914,1.188075354514418,-2.6883170299289443,-1.5757156500403107,1.47204718571032,-0.8736715373629763,-1.6438857100662025,-0.8951537548314908,-2.366861856206742,1.786873841772815,-0.7870144281912315,2.9814843075404553,-2.3263067814925016,1.7694844907043477,-0.5613078299237473,0.24932976690406417,-0.8793144861058466,1.0009863445551037
290,-0.9786542661618364,1.1880826728402971,-2.6884899257886783,-1.575764148103982,1.4721970844014796,-0.8737737050851332,-1.6438197202355422,-0.8950453776670799,-2.366985334483229,1.786873841772815,-0.7870144281912315,2.9814843075404553,-2.3263067814925016,1.7694844907043477,-0.5613078299237473,0.24932976690406417,-0.8793144861058466,1.0009863445551037
300,-0.9786486649140627,1.1880521226299787,-2.688688415387144,-1.5757167632150115,1.472405410971186,-0.8738625991069829,-1.643835902224491,-0.8949244335698977,-2.367104874343758,1.786873841772815,-0.7870144281912315,2.9814843075404553,-2.3263067814925016,1.7694844907043477,-0.5613078299237473,0.24932976690406417,-0.8793144861058466,1.0009863445551037
310,-0.9785461914837795,1.1880873664844662,-2.6888307537273506,-1.5757989245934263,1.4724786804901004,-0.8739338688747973,-1.643650115902312,-0.8948558030714735,-2.367237552461666,1.786873841772815,-0.7870144281912315,2.9814843075404553,-2.3263067814925016,1.7694844907043477,-0.5613078299237473,0.24932976690406417,-0.8793144861058466,1.0009863445551037
320,-0.9784595567653738,1.188058692075784,-2.6890409810554297,-1.5757216255647297,1.4726921460518756,-0.8740277145094139,-1.6436342809431712,-0.8947292300895283,-2.3673720623199155,1.786873841772815,-0.7870144281912315,2.9814843075404553,-2.3263067814925016,1.7694844907043477,-0.5613078299237473,0.24932976690406417,-0.8793144861058466,1.0009863445551037
330,-0.9783623040787847,1.1880532077849348,-2.689188235701907,-1.5757155180625322,1.4728289042143856,-0.8741129052401316,-1.6435780155934663,-0.8946407202457187,-2.3674774192439716,1.786873841772815,-0.7870144281912315,2.9814843075404553,-2.3263067814925016,1.7694844907043477,-0.5613078299237473,0.24932976690406417,-0.8793144861058466,1.0009863445551037
340,-0.9783308057503038,1.1880092488077887,-2.689341710652446,-1.575566332573742,1.4730199826707366,-0.8741553645627442,-1.6436419259687916,-0.8945365124595718,-2.3675494882255212,1.786873841772815,-0.7870144281912315,2.9814843075404553,-2.3263067814925016,1.7694844907043477,-0.5613078299237473,0.24932976690406417,-0.8793144861058466,1.0009863445551037
350,-0.9781727221947798,1.1880334514407223,-2.6894705679620814,-1.5755464451182755,1.4731260605362317,-0.8742075882435656,-1.643520805612814,-0.8944508093915333,-2.367654024732114,1.786873841772815,-0.7870144281912315,2.9814843075404553,-2.3263067814925016,1.7694844907043477,-0.5613078299237473,0.24932976690406417,-0.8793144861058466,1.0009863445551037
360,-0.9780108911558466,1.1880984428916888,-2.6895890871939385,-1.5756169814798957,1.4732097304732832,-0.8743213580443517,-1.6433667459454901,-0.8943508742125227,-2.367771971703419,1.786873841772815,-0.7870144281912315,2.9814843075404553,-2.3263067814925016,1.7694844907043477,-0.5613078299237473,0.24932976690406417,-0.8793144861058466,1.0009863445551037
370,-0.977901824169077,1.1881378496863857,-2.689708505369102,-1.5757348699739433,1.473287652312589,-0.8744185717935528,-1.6432174525565075,-0.8942667246622552,-2.367883292725254,1.786873841772815,-0.7870144281912315,2.9814843075404553,-2.3263067814925016,1.7694844907043477,-0.5613078299237473,0.24932976690406417,-0.8793144861058466,1.0009863445551037
380,-0.9779208153473241,1.1881225127196329,-2.6898176863688517,-1.5757812264275124,1.4733723759634583,-0.874450849325049,-1.6431451099081291,-0.8942078227927197,-2.3679609906808063,1.786873841772815,-0.7870144281912315,2.9814843075404553,-2.3263067814925016,1.7694844907043477,-0.5613078299237473,0.24932976690406417,-0.8793144861058466,1.0009863445551037
390,-0.9779951872918127,1.1880463568665087,-2.6899580187522028,-1.5757566031491161,1.4734708326196038,-0.8744022610502942,-1.6430974172762915,-0.894162361786037,-2.3680328259620107,1.786873841772815,-0.7870144281912315,2.9814843075404553,-2.3263067814925016,1.7694844907043477,-0.5613078299237473,0.24932976690406417,-0.8793144861058466,1.0009863445551037
400,-0.9781240036641969,1.187968481564597,-2.6900627452581998,-1.575705801313315,1.4735612756536567,-0.8743485037550776,-1.6431281894769942,-0.8941222337071335,-2.3680694078374636,1.786873841772815,-0.7870144281912315,2.9814843075404553,-2.3263067814925016,1.7694844907043477,-0.5613078299237473,0.24932976690406417,-0.8793144861058466,1.0009863445551037
410,-0.9780696961241765,1.1879319672210273,-2.6901926925671025,-1.575796611821105,1.4736514714279034,-0.8744349379200399,-1.6430746769095588,-0.8940509272069628,-2.368152776615449,1.786873841772815,-0.7870144281912315,2.9814843075404553,-2.3263067814925016,1.7694844907043477,-0.5613078299237473,0.24932976690406417,-0.8793144861058466,1.0009863445551037
420,-0.9778326272353596,1.187958078499789,-2.6903468920031766,-1.5758543767322184,1.4737958096107864,-0.8746073567886111,-1.6429933061451907,-0.8939222184049698,-2.3682808235790196,1.786873841772815,-0.7870144281912315,2.9814843075404553,-2.3263067814925016,1.7694844907043477,-0.5613078299237473,0.24932976690406417,-0.8793144861058466,1.0009863445551037
430,-0.9776691447614722,1.1880159113076851,-2.6904095032725195,-1.5759698495602472,1.4738329370333538,-0.8747705288339828,-1.6429155427290052,-0.8938500801642821,-2.368353033368601,1.786873841772815,-0.7870144281912315,2.9814843075404553,-2.3263067814925016,1.7694844907043477,-0.5613078299237473,0.24932976690406417,-0.8793144861058466,1.0009863445551037
440,-0.9774669735644388,1.1881322464517292,-2.6904602509126376,-1.576247507260671,1.4737183268440786,-0.8749500519119826,-1.6426993834458965,-0.8937906621237319,-2.368449107930855,1.786873841772815,-0.7870144281912315,2.9814843075404553,-2.3263067814925016,1.7694844907043477,-0.5613078299237473,0.24932976690406417,-0.8793144861058466,1.0009863445551037
450,-0.9773185325459565,1.1881844342389922,-2.6905532397011567,-1.576371002179817,1.4736714085894629,-0.875028460647411,-1.642490815255481,-0.8937499657161068,-2.368551829083379,1.786873841772815,-0.7870144281912315,2.9814843075404553,-2.3263067814925016,1.7694844907043477,-0.5613078299237473,0.24932976690406417,-0.8793144861058466,1.0009863445551037
460,-0.97716200136414,1.1882010620748549,-2.690656994757534,-1.5763469617442878,1.473716088214994,-0.8750376416770298,-1.6423229189557391,-0.8937276069680302,-2.368645747448813,1.786873841772815,-0.7870144281912315,2.9814843075404553,-2.3263067814925016,1.7694844907043477,-0.5613078299237473,0.24932976690406417,-0.8793144861058466,1.0009863445551037
470,-0.9770395012869904,1.1882400088793967,-2.6907235578180995,-1.576352748943625,1.4737494943097151,-0.8750967737532441,-1.642258896261192,-0.893671722441901,-2.368705939236194,1.786873841772815,-0.7870144281912315,2.9814843075404553,-2.3263067814925016,1.7694844907043477,-0.5613078299237473,0.24932976690406417,-0.8793144861058466,1.0009863445551037
480,-0.9769728496540306,1.1882744571679529,-2.6907516734424384,-1.5763793684012315,1.4737535033420135,-0.8751408106427883,-1.6422139977718508,-0.8936411902885051,-2.368738940724592,1.786873841772815,-0.7870144281912315,2.9814843075404553,-2.3263067814925016,1.7694844907043477,-0.5613078299237473,0.24932976690406417,-0.8793144861058466,1.0009863445551037
490,-0.9769602370875957,1.1882855827506407,-2.6907679494410477,-1.5763870771423156,1.4737629763491402,-0.8751566549259489,-1.6422019736190014,-0.8936244764452838,-2.3687540371611666,1.786873841772815,-0.7870144281912315,2.9814843075404553,-2.3263067814925016,1.7694844907043477,-0.5613078299237473,0.24932976690406417,-0.8793144861058466,1.0009863445551037
500,-0.9769197789361792,1.188310225320751,-2.6907858912446043,-1.5764099753432568,1.473765410482101,-0.8751906468474352,-1.6421703673972632,-0.8936034435207322,-2.368775897424864,1.786873841772815,-0.7870144281912315,2.9814843075404553,-2.3263067814925016,1.7694844907043477,-0.5613078299237473,0.24932976690406417,-0.8793144861058466,1.0009863445551037
510,-0.9768507131994573,1.1882756855917926,-2.6909051043046093,-1.576260105520317,1.4738948908611045,-0.8752060635252074,-1.6421951109915713,-0.8935381295718454,-2.368831204091373,1.786873841772815,-0.7870144281912315,2.9814843075404553,-2.3263067814925016,1.7694844907043477,-0.5613078299237473,0.24932976690406417,-0.8793144861058466,1.0009863445551037
520,-0.9766521361554718,1.188325946032876,-2.6909755923972,-1.5762256735669666,1.4739639909853706,-0.875305022645757,-1.6421364270404557,-0.8934718542336062,-2.3688983648704935,1.786873841772815,-0.7870144281912315,2.9814843075404553,-2.3263067814925016,1.7694844907043477,-0.5613078299237473,0.24932976690406417,-0.8793144861058466,1.0009863445551037
530,-0.9766085683119587,1.1883127800258066,-2.691021602312186,-1.5761826901114389,1.474017762106333,-0.8753134953103577,-1.6421306130436966,-0.8934487835372942,-2.368925859124904,1.786873841772815,-0.7870144281912315,2.9814843075404553,-2.3263067814925016,1.7694844907043477,-0.5613078299237473,0.24932976690406417,-0.8793144861058466,1.0009863445551037
540,-0.9766300913966331,1.1882944106215363,-2.6910299634472006,-1.576166726943056,1.4740254958489987,-0.8752823726744299,-1.6421280897548807,-0.8934566422232959,-2.3689274715912085,1.786873841772815,-0.7870144281912315,2.9814843075404553,-2.3263067814925016,1.7694844907043477,-0.5613078299237473,0.24932976690406417,-0.8793144861058466,1.0009863445551037
550,-0.9766603274054073,1.1882794520029647,-2.6910356920094975,-1.5761603023210113,1.4740226677982007,-0.8752511983070564,-1.6421238828598046,-0.8934641601963029,-2.368927856079049,1.786873841772815,-0.7870144281912315,2.9814843075404553,-2.3263067814925016,1.7694844907043477,-0.5613078299237473,0.24932976690406417,-0.8793144861058466,1.0009863445551037
560,-0.97668935724632,1.188264398293088,-2.6910389168207782,-1.576156053454453,1.474021948843161,-0.8752233457029028,-1.6421252518322456,-0.8934711859163914,-2.3689260780652046,1.786873841772815,-0.7870144281912315,2.9814843075404553,-2.3263067814925016,1.7694844907043477,-0.5613078299237473,0.24932976690406417,-0.8793144861058466,1.0009863445551037
570,-0.9766894750708234,1.1882601462673403,-2.6910436417859334,-1.5761500467664593,1.4740269718193129,-0.8752181826316777,-1.6421254079265861,-0.8934708399348779,-2.3689283335687894,1.786873841772815,-0.7870144281912315,2.9814843075404553,-2.3263067814925016,1.7694844907043477,-0.5613078299237473,0.24932976690406417,-0.8793144861058466,1.0009863445551037
580,-0.9766676705426496,1.1882680492426476,-2.691048624159193,-1.5761521569708845,1.4740184371933944,-0.8752223609957822,-1.6421025713560156,-0.8934706690156968,-2.3689363906436216,1.786873841772815,-0.7870144281912315,2.9814843075404553,-2.3263067814925016,1.7694844907043477,-0.5613078299237473,0.24932976690406417,-0.8793144861058466,1.0009863445551037
590,-0.9766706872120164,1.188263065192675,-2.6910489140656444,-1.5761492978399392,1.4740149607988555,-0.8752119892542608,-1.642100320973153,-0.8934750455965478,-2.368935290940463,1.786873841772815,-0.7870144281912315,2.9814843075404553,-2.3263067814925016,1.7694844907043477,-0.5613078299237473,0.24932976690406417,-0.8793144861058466,1.0009863445551037
600,-0.9766236103370541,1.1882700415847507,-2.6910651851775933,-1.576162953264927,1.474026477675906,-0.8752414341922984,-1.6420775517043285,-0.8934650758030855,-2.3689510529260844,1.786873841772815,-0.7870144281912315,2.9814843075404553,-2.3263067814925016,1.7694844907043477,-0.5613078299237473,0.24932976690406417,-0.8793144861058466,1.0009863445551037
610,-0.9764570480635366,1.1882894363301968,-2.6911120630703946,-1.5761932692037892,1.4740634329668891,-0.875325919430091,-1.6419859657886458,-0.8934484126472698,-2.3689995045751955,1.786873841772815,-0.7870144281912315,2.9814843075404553,-2.3263067814925016,1.7694844907043477,-0.5613078299237473,0.24932976690406417,-0.8793144861058466,1.0009863445551037
620,-0.9764607479067933,1.1882777989451345,-2.691114604553986,-1.5761883209897882,1.4740624546703538,-0.8753112648910824,-1.6419820384194257,-0.8934579504540988,-2.368998698834267,1.786873841772815,-0.7870144281912315,2.9814843075404553,-2.3263067814925016,1.7694844907043477,-0.5613078299237473,0.24932976690406417,-0.8793144861058466,1.0009863445551037
630,-0.9764337725322663,1.1882805354962243,-2.6911158229977272,-1.5761809613064064,1.4740638694848607,-0.8753184862567472,-1.641975117073226,-0.8934596508494388,-2.3690011920950687,1.786873841772815,-0.7870144281912315,2.9814843075404553,-2.3263067814925016,1.7694844907043477,-0.5613078299237473,0.24932976690406417,-0.8793144861058466,1.0009863445551037
640,-0.9763500202492433,1.1883007722905747,-2.691122658416775,-1.5761694694631032,1.4740788009912227,-0.8753650982672675,-1.6419538382847279,-0.8934491182959083,-2.3690140796961208,1.786873841772815,-0.7870144281912315,2.9814843075404553,-2.3263067814925016,1.7694844907043477,-0.5613078299237473,0.24932976690406417,-0.8793144861058466,1.0009863445551037
650,-0.9763381351831927,1.1882973110463386,-2.6911152179951427,-1.5761540460000767,1.474068545611505,-0.8753489027830641,-1.641938495143764,-0.8934629945361986,-2.3690108528689464,1.786873841772815,-0.7870144281912315,2.9814843075404553,-2.3263067814925016,1.7694844907043477,-0.5613078299237473,0.24932976690406417,-0.8793144861058466,1.0009863445551037
660,-0.976401129423906,1.188261209181951,-2.6910995409631955,-1.5761080691126899,1.4740608389503627,-0.8752695383934773,-1.64196654121136,-0.893490764247135,-2.3689869893823277,1.786873841772815,-0.7870144281912315,2.9814843075404553,-2.3263067814925016,1.7694844907043477,-0.5613078299237473,0.24932976690406417,-0.8793144861058466,1.0009863445551037
670,-0.9764138594939787,1.188227436036612,-2.69111592443273,-1.576075065014523,1.4740768735797005,-0.875232304041684,-1.6419831747036588,-0.8934961721072349,-2.368985099695554,1.786873841772815,-0.7870144281912315,2.9814843075404553,-2.3263067814925016,1.7694844907043477,-0.5613078299237473,0.24932976690406417,-0.8793144861058466,1.0009863445551037
680,-0.9764182036488804,1.1882098733043742,-2.6911160774584477,-1.5760712327546051,1.4740685261392823,-0.8752137646110157,-1.6419903903562516,-0.8935079816249833,-2.3689791540152716,1.786873841772815,-0.7870144281912315,2.9814843075404553,-2.3263067814925016,1.7694844907043477,-0.5613078299237473,0.24932976690406417,-0.8793144861058466,1.0009863445551037
690,-0.9763979564508392,1.188184951053681,-2.6911158408101326,-1.5760636490273117,1.4740670218951795,-0.8751909180818492,-1.6419795589102002,-0.8935309740775261,-2.368976559493035,1.786873841772815,-0.7870144281912315,2.9814843075404553,-2.3263067814925016,1.7694844907043477,-0.5613078299237473,0.24932976690406417,-0.8793144861058466,1.0009863445551037
700,-0.9764272617967409,1.1881211585009952,-2.6911291255876564,-1.576066416792638,1.4740665375047977,-0.875130460214357,-1.6419638301727206,-0.8935694597218793,-2.368974826429144,1.786873841772815,-0.7870144281912315,2.9814843075404553,-2.3263067814925016,1.7694844907043477,-0.5613078299237473,0.24932976690406417,-0.8793144861058466,1.0009863445551037
710,-0.9763411510683694,1.1880996003629327,-2.691171844355962,-1.5760880158649528,1.4741012966425426,-0.8751835168068975,-1.6419349498818558,-0.8935621707898281,-2.3690051365653906,1.786873841772815,-0.7870144281912315,2.9814843075404553,-2.3263067814925016,1.7694844907043477,-0.5613078299237473,0.24932976690406417,-0.8793144861058466,1.0009863445551037
720,-0.9764065084827673,1.1880840799093055,-2.691120326107222,-1.5759940160851214,1.4741110866497296,-0.8751554018927945,-1.642078208452093,-0.8935761678427382,-2.368946177828852,1.786873841772815,-0.7870144281912315,2.9814843075404553,-2.3263067814925016,1.7694844907043477,-0.5613078299237473,0.24932976690406417,-0.8793144861058466,1.0009863445551037
730,-0.9765765100937066,1.1880221887947047,-2.691059856903118,-1.5759243740637379,1.4740772032733365,-0.8750386704570788,-1.6421974682479235,-0.8936358518378057,-2.368874440038629,1.786873841772815,-0.7870144281912315,2.9814843075404553,-2.3263067814925016,1.7694844907043477,-0.5613078299237473,0.24932976690406417,-0.8793144861058466,1.0009863445551037
740,-0.9767613514804869,1.1879255631420156,-2.690993089518177,-1.575788894886067,1.4740419705291152,-0.8748214530063757,-1.6423054620120057,-0.893725783468572,-2.3687927843798797,1.786873841772815,-0.7870144281912315,2.9814843075404553,-2.3263067814925016,1.7694844907043477,-0.5613078299237473,0.24932976690406417,-0.8793144861058466,1.0009863445551037
750,-0.9768908697010266,1.187874089652417,-2.690869746547881,-1.5757247041139806,1.473920250021691,-0.874632320389696,-1.642399991669821,-0.8938397662279353,-2.3686826182642102,1.786873841772815,-0.7870144281912315,2.9814843075404553,-2.3263067814925016,1.7694844907043477,-0.5613078299237473,0.24932976690406417,-0.8793144861058466,1.0009863445551037
760,-0.9772818466855545,1.1877159896778893,-2.6906676142791666,-1.575359539973357,1.4738319696253253,-0.8742710139252879,-1.6427787958028126,-0.8940228835648293,-2.3684502933707234,1.786873841772815,-0.7870144281912315,2.9814843075404553,-2.3263067814925016,1.7694844907043477,-0.5613078299237473,0.24932976690406417,-0.8793144861058466,1.0009863445551037
770,-0.9781531706922157,1.1873950502508317,-2.6902695025926864,-1.575093501518372,1.4735064940086904,-0.8735952532132616,-1.6434114482322055,-0.8943652453817827,-2.368014208703278,1.786873841772815,-0.7870144281912315,2.9814843075404553,-2.3263067814925016,1.7694844907043477,-0.5613078299237473,0.24932976690406417,-0.8793144861058466,1.0009863445551037
780,-0.9788913014093216,1.1868803033955235,-2.689988720573782,-1.5745836673703972,1.4732951888540076,-0.872810664474543,-1.6440105292740523,-0.8947616645841905,-2.367626973532073,1.786873841772815,-0.7870144281912315,2.9814843075404553,-2.3263067814925016,1.7694844907043477,-0.5613078299237473,0.24932976690406417,-0.8793144861058466,1.0009863445551037
790,-0.9796115756573178,1.1863401993376852,-2.689702565441263,-1.5740811331939797,1.4730994869117002,-0.8720569660730638,-1.6446378834853588,-0.8951585196649202,-2.3672540749682875,1.786873841772815,-0.7870144281912315,2.9814843075404553,-2.3263067814925016,1.7694844907043477,-0.5613078299237473,0.24932976690406417,-0.8793144861058466,1.0009863445551037
800,-0.9799909750074891,1.185998123359149,-2.689542084824543,-1.5738259734863151,1.4730210582975671,-0.8716746286496075,-1.6450562741871304,-0.8953833903382107,-2.367036464079681,1.786873841772815,-0.7870144281912315,2.9814843075404553,-2.3263067814925016,1.7694844907043477,-0.5613078299237473,0.24932976690406417,-0.8793144861058466,1.0009863445551037
810,-0.9806664903099858,1.1856095732878917,-2.689440851321166,-1.5736819737795027,1.4729545920045124,-0.8711064109680448,-1.6455405077020993,-0.8955290051422207,-2.3668792469583706,1.786873841772815,-0.7870144281912315,2.9814843075404553,-2.3263067814925016,1.7694844907043477,-0.5613078299237473,0.24932976690406417,-0.8793144861058466,1.0009863445551037
820,-0.9812482650067111,1.1853453554565034,-2.6894467105505004,-1.5736321941822997,1.473016405741932,-0.8706909291814767,-1.6459973458174109,-0.8955007812017356,-2.3668586583483107,1.786873841772815,-0.7870144281912315,2.9814843075404553,-2.3263067814925016,1.7694844907043477,-0.5613078299237473,0.24932976690406417,-0.8793144861058466,1.0009863445551037
830,-0.9814052212473096,1.1852561615489965,-2.689537036916794,-1.573531064766951,1.4732048765034473,-0.8705840094475084,-1.646224004361641,-0.8953666997499339,-2.3669306163143897,1.786873841772815,-0.7870144281912315,2.9814843075404553,-2.3263067814925016,1.7694844907043477,-0.5613078299237473,0.24932976690406417,-0.8793144861058466,1.0009863445551037
840,-0.9813136634404958,1.185375293795648,-2.68968811800271,-1.57357140281057,1.473498248283548,-0.8707413766262293,-1.6461631470932694,-0.8951166754555863,-2.3671276450777086,1.786873841772815,-0.7870144281912315,2.9814843075404553,-2.3263067814925016,1.7694844907043477,-0.5613078299237473,0.24932976690406417,-0.8793144861058466,1.0009863445551037
850,-0.9811818076610714,1.185448153163791,-2.6897870324764233,-1.5736109649070171,1.4736256434831414,-0.8708699117093854,-1.6461279255205745,-0.8949842528375485,-2.3672387648212694,1.786873841772815,-0.7870144281912315,2.9814843075404553,-2.3263067814925016,1.7694844907043477,-0.5613078299237473,0.24932976690406417,-0.8793144861058466,1.0009863445551037
860,-0.9810465857177203,1.1855099340553983,-2.6898711159469797,-1.5736613210204335,1.4737084205654052,-0.8709912364865451,-1.6460996082375001,-0.894882226556825,-2.3673262033518445,1.786873841772815,-0.7870144281912315,2.9814843075404553,-2.3263067814925016,1.7694844907043477,-0.5613078299237473,0.24932976690406417,-0.8793144861058466,1.0009863445551037
870,-0.9809060780494373,1.1855846474965803,-2.689934254647493,-1.5737624799348755,1.4737210016334175,-0.8711053319046789,-1.6460212141464985,-0.89480740999877,-2.3674106752616133,1.786873841772815,-0.7870144281912315,2.9814843075404553,-2.3263067814925016,1.7694844907043477,-0.5613078299237473,0.24932976690406417,-0.8793144861058466,1.0009863445551037
880,-0.9807864474611064,1.1856389163628702,-2.6899864926115646,-1.5737925809468272,1.4737401467168856,-0.8711945399205657,-1.64599173461845,-0.8947440708590574,-2.3674727408685876,1.786873841772815,-0.7870144281912315,2.9814843075404553,-2.3263067814925016,1.7694844907043477,-0.5613078299237473,0.24932976690406417,-0.8793144861058466,1.0009863445551037
890,-0.9806557733123434,1.185694661228012,-2.690042620991283,-1.57389081390253,1.4737328732976442,-0.8713007373799083,-1.6459415040843377,-0.89468609982722,-2.3675487490129936,1.786873841772815,-0.7870144281912315,2.9814843075404553,-2.3263067814925016,1.7694844907043477,-0.5613078299237473,0.24932976690406417,-0.8793144861058466,1.0009863445551037
900,-0.9804907040562642,1.1856929504671279,-2.690210036245204,-1.5738423586737553,1.4738729121554666,-0.8713897203186929,-1.6459360928764886,-0.8945833631730311,-2.367665349647826,1.786873841772815,-0.7870144281912315,2.9814843075404553,-2.3263067814925016,1.7694844907043477,-0.5613078299237473,0.24932976690406417,-0.8793144861058466,1.0009863445551037
910,-0.980351367521288,1.1857085646466738,-2.6903105541922967,-1.57385384358446,1.4739100817560078,-0.8714849623483663,-1.6459477247694856,-0.8945172763307269,-2.367746601699823,1.786873841772815,-0.7870144281912315,2.9814843075404553,-2.3263067814925016,1.7694844907043477,-0.5613078299237473,0.24932976690406417,-0.8793144861058466,1.0009863445551037
920,-0.980224422916908,1.1857168424824036,-2.690360735386408,-1.5738523081950393,1.473894957508079,-0.8715726325299566,-1.6460030986546776,-0.8944928895528969,-2.3677871768815284,1.786873841772815,-0.7870144281912315,2.9814843075404553,-2.3263067814925016,1.7694844907043477,-0.5613078299237473,0.24932976690406417,-0.8793144861058466,1.0009863445551037
930,-0.9801404424980744,1.1856750597703845,-2.6903268913564435,-1.5737822049801187,1.4738005124756715,-0.8715978500260306,-1.646153693788461,-0.8945693355559561,-2.3677357143698616,1.786873841772815,-0.7870144281912315,2.9814843075404553,-2.3263067814925016,1.7694844907043477,-0.5613078299237473,0.24932976690406417,-0.8793144861058466,1.0009863445551037
940,-0.9801363100275406,1.1854900546938334,-2.69027156137763,-1.5734700861378321,1.4736388422658053,-0.8715377054100926,-1.646459498397088,-0.894790003752978,-2.3675743674686625,1.786873841772815,-0.7870144281912315,2.9814843075404553,-2.3263067814925016,1.7694844907043477,-0.5613078299237473,0.24932976690406417,-0.8793144861058466,1.0009863445551037
950,-0.9800911172377696,1.1853149870638582,-2.6901988067860314,-1.5733031780252127,1.4733554577812207,-0.8715384234915974,-1.6467528675773906,-0.8951006071061992,-2.367392215021304,1.786873841772815,-0.7870144281912315,2.9814843075404553,-2.3263067814925016,1.7694844907043477,-0.5613078299237473,0.24932976690406417,-0.8793144861058466,1.0009863445551037
960,-0.9799228784408155,1.185257808855366,-2.6902167834673727,-1.5732711748676198,1.4731946710720043,-0.8716512430258916,-1.646974936472078,-0.8952536888868584,-2.3673124934735537,1.786873841772815,-0.7870144281912315,2.9814843075404553,-2.3263067814925016,1.7694844907043477,-0.5613078299237473,0.24932976690406417,-0.8793144861058466,1.0009863445551037
970,-0.979610300765448,1.1852700427269778,-2.690343641330065,-1.5732952071768596,1.4731189025264506,-0.8718755817505163,-1.647048588482588,-0.8952890663734899,-2.3673583606230997,1.786873841772815,-0.7870144281912315,2.9814843075404553,-2.3263067814925016,1.7694844907043477,-0.5613078299237473,0.24932976690406417,-0.8793144861058466,1.0009863445551037
980,-0.9793081568990768,1.1852989345619156,-2.690438321466591,-1.5732571202040957,1.473066755657985,-0.8720937089015334,-1.6471063867664701,-0.8953163359499153,-2.3673852712357006,1.786873841772815,-0.7870144281912315,2.9814843075404553,-2.3263067814925016,1.7694844907043477,-0.5613078299237473,0.24932976690406417,-0.8793144861058466,1.0009863445551037
990,-0.9791714098101698,1.1853119198781525,-2.6904723438957316,-1.5731672329781572,1.4731029252398578,-0.8721788470177574,-1.6471616371986182,-0.8953110513892555,-2.3673859999909435,1.786873841772815,-0.7870144281912315,2.9814843075404553,-2.3263067814925016,1.7694844907043477,-0.5613078299237473,0.24932976690406417,-0.8793144861058466,1.0009863445551037
1000,-0.9791722915498438,1.1852930216090771,-2.690436335763714,-1.573121492449286,1.4731275956375276,-0.8722054028769208,-1.647261213965825,-0.8953208497148736,-2.3673347163730147,1.786873841772815,-0.7870144281912315,2.9814843075404553,-2.3263067814925016,1.7694844907043477,-0.5613078299237473,0.24932976690406417,-0.8793144861058466,1.0009863445551037
1010,-0.9792379142092186,1.185309682609092,-2.6902722730461273,-1.573142357757703,1.4730458575000502,-0.8722069029169176,-1.6473371715009908,-0.8953960761357311,-2.3672211561321217,1.786873841772815,-0.7870144281912315,2.9814843075404553,-2.3263067814925016,1.7694844907043477,-0.5613078299237473,0.24932976690406417,-0.8793144861058466,1.0009863445551037
1020,-0.9793707478074215,1.185287371208606,-2.6899924903970223,-1.572918266905425,1.4729562616920524,-0.8720104065772231,-1.647364955840336,-0.895600605172936,-2.367017926536255,1.786873841772815,-0.7870144281912315,2.9814843075404553,-2.3263067814925016,1.7694844907043477,-0.5613078299237473,0.24932976690406417,-0.8793144861058466,1.0009863445551037
1030,-0.9796349309734511,1.1853314871050906,-2.6895683639799626,-1.5728145252464574,1.4726619454378258,-0.8718171609783157,-1.6474139990373189,-0.8958491646287052,-2.3667289518352352,1.786873841772815,-0.7870144281912315,2.9814843075404553,-2.3263067814925016,1.7694844907043477,-0.5613078299237473,0.24932976690406417,-0.8793144861058466,1.0009863445551037
1040,-0.979842921051979,1.1854997215358347,-2.6890393631101426,-1.5731311266820847,1.4721218810976198,-0.8717277319713921,-1.6472870105718043,-0.8961228740589129,-2.366441781867562,1.786873841772815,-0.7870144281912315,2.9814843075404553,-2.3263067814925016,1.7694844907043477,-0.5613078299237473,0.24932976690406417,-0.8793144861058466,1.0009863445551037
1050,-0.9798958164229485,1.185583179453,-2.6886455170909906,-1.5731625229499138,1.4717856727616967,-0.8716610617266534,-1.64717640028853,-0.8963580689991362,-2.3661796031928257,1.786873841772815,-0.7870144281912315,2.9814843075404553,-2.3263067814925016,1.7694844907043477,-0.5613078299237473,0.24932976690406417,-0.8793144861058466,1.0009863445551037
1060,-0.9797394818851364,1.1856224607981813,-2.6882863235948946,-1.5730010499324367,1.47164897547232,-0.871662800216104,-1.6471062297832115,-0.8965796408049252,-2.365891661181582,1.786873841772815,-0.7870144281912315,2.9814843075404553,-2.3263067814925016,1.7694844907043477,-0.5613078299237473,0.24932976690406417,-0.8793144861058466,1.0009863445551037
1070,-0.9796452308612394,1.1855095840687828,-2.687714222420395,-1.5724063127728982,1.4716081299839092,-0.8714954183184035,-1.6470698623567261,-0.8969941238231349,-2.3653342320519894,1.786873841772815,-0.7870144281912315,2.9814843075404553,-2.3263067814925016,1.7694844907043477,-0.5613078299237473,0.24932976690406417,-0.8793144861058466,1.0009863445551037
1080,-0.9790956432898467,1.1857046141822847,-2.687210479737443,-1.5720250825529833,1.4714768963826919,-0.8717613414752502,-1.646573150621523,-0.8973533780467262,-2.3649226090392075,1.786873841772815,-0.7870144281912315,2.9814843075404553,-2.3263067814925016,1.7694844907043477,-0.5613078299237473,0.24932976690406417,-0.8793144861058466,1.0009863445551037
1090,-0.9782336072479018,1.1862173357370813,-2.6868757613490373,-1.5719433409739652,1.471429832599607,-0.872502382198648,-1.6458162396862075,-0.8974759562330331,-2.3647619063733107,1.786873841772815,-0.7870144281912315,2.9814843075404553,-2.3263067814925016,1.7694844907043477,-0.5613078299237473,0.24932976690406417,-0.8793144861058466,1.0009863445551037
1100,-0.9776487410657706,1.186641518252554,-2.686741662772687,-1.572007469793595,1.4715541133301455,-0.8730286799734537,-1.6453321771172689,-0.897389434427016,-2.3647833476128404,1.786873841772815,-0.7870144281912315,2.9814843075404553,-2.3263067814925016,1.7694844907043477,-0.5613078299237473,0.24932976690406417,-0.8793144861058466,1.0009863445551037
1110,-0.9772340161656942,1.1869992676108778,-2.6866951982443137,-1.572104853973002,1.4718679465469158,-0.8734639623506077,-1.6450002412751423,-0.897165051511999,-2.3648574757011653,1.786873841772815,-0.7870144281912315,2.9814843075404553,-2.3263067814925016,1.7694844907043477,-0.5613078299237473,0.24932976690406417,-0.8793144861058466,1.0009863445551037
1120,-0.9769443494651541,1.1873037486609623,-2.6866808780214573,-1.5722219200492604,1.4721443297141354,-0.8737725317441678,-1.6447678779412098,-0.8969376379033299,-2.36493533244337,1.786873841772815,-0.7870144281912315,2.9814843075404553,-2.3263067814925016,1.7694844907043477,-0.5613078299237473,0.24932976690406417,-0.8793144861058466,1.0009863445551037
1130,-0.9766924565316295,1.187627212389453,-2.6866269606333923,-1.5723403169444041,1.4722308915003508,-0.8740782156682447,-1.644544323788752,-0.8967661816241617,-2.3650156838799403,1.786873841772815,-0.7870144281912315,2.9814843075404553,-2.3263067814925016,1.7694844907043477,-0.5613078299237473,0.24932976690406417,-0.8793144861058466,1.0009863445551037
1140,-0.9764466933444562,1.187939465582096,-2.6866313649266043,-1.5724709419232374,1.4722554136961843,-0.8743742360957505,-1.6443421579746698,-0.8965773444213099,-2.365146300838683,1.786873841772815,-0.7870144281912315,2.9814843075404553,-2.3263067814925016,1.7694844907043477,-0.5613078299237473,0.24932976690406417,-0.8793144861058466,1.0009863445551037
1150,-0.9762680452280993,1.188119297586289,-2.686720607054767,-1.5724893899286534,1.47245229841992,-0.8745896957355562,-1.6442578628467452,-0.8963740475735354,-2.365295249741868,1.786873841772815,-0.7870144281912315,2.9814843075404553,-2.3263067814925016,1.7694844907043477,-0.5613078299237473,0.24932976690406417,-0.8793144861058466,1.0009863445551037
1160,-0.9760001838261672,1.188345286574023,-2.686811747922468,-1.5724528499916863,1.4726968659856527,-0.8748362558805045,-1.6441704568182942,-0.8961422063361419,-2.3654634317468273,1.786873841772815,-0.7870144281912315,2.9814843075404553,-2.3263067814925016,1.7694844907043477,-0.5613078299237473,0.24932976690406417,-0.8793144861058466,1.0009863445551037
1170,-0.9758321255321957,1.1885250820551334,-2.6868439342119834,-1.572514721757812,1.4728201071630993,-0.8750290414453697,-1.6440298137347058,-0.895993861452573,-2.365578442389982,1.786873841772815,-0.7870144281912315,2.9814843075404553,-2.3263067814925016,1.7694844907043477,-0.5613078299237473,0.24932976690406417,-0.8793144861058466,1.0009863445551037
1180,-0.9757175348529175,1.188691466382942,-2.686815255258309,-1.5725892403071202,1.472921656783118,-0.875178314101192,-1.64395120682378,-0.8958750117470478,-2.365635837016922,1.786873841772815,-0.7870144281912315,2.9814843075404553,-2.3263067814925016,1.7694844907043477,-0.5613078299237473,0.24932976690406417,-0.8793144861058466,1.0009863445551037
1190,-0.975600019234967,1.1888417437194554,-2.6868018433489773,-1.5725962998290246,1.4730327380129018,-0.8753091987291418,-1.643884386641958,-0.8957612518891066,-2.3656858296786556,1.786873841772815,-0.7870144281912315,2.9814843075404553,-2.3263067814925016,1.7694844907043477,-0.5613078299237473,0.24932976690406417,-0.8793144861058466,1.0009863445551037
1200,-0.9754724192851617,1.1889608041516013,-2.686821412911573,-1.5725024771658278,1.4732508961547441,-0.8754088992944236,-1.6438524479475056,-0.895633903564896,-2.3657432196071233,1.786873841772815,-0.7870144281912315,2.9814843075404553,-2.3263067814925016,1.7694844907043477,-0.5613078299237473,0.24932976690406417,-0.8793144861058466,1.0009863445551037
1210,-0.9754477010980283,1.1890185663526314,-2.686796217323038,-1.572436862392793,1.4734143621605704,-0.8754478325628403,-1.6438791768397445,-0.895559795941379,-2.3657275289659427,1.786873841772815,-0.7870144281912315,2.9814843075404553,-2.3263067814925016,1.7694844907043477,-0.5613078299237473,0.24932976690406417,-0.8793144861058466,1.0009863445551037
1220,-0.9753486938652323,1.1891397808593107,-2.6867735237983603,-1.572385642640654,1.4735267958274896,-0.8755615214290636,-1.6438114829559334,-0.8954757373784524,-2.365781499142851,1.786873841772815,-0.7870144281912315,2.9814843075404553,-2.3263067814925016,1.7694844907043477,-0.5613078299237473,0.24932976690406417,-0.8793144861058466,1.0009863445551037
1230,-0.9753953524552281,1.1891546102206276,-2.6867000048743828,-1.572350751415351,1.4735848726416583,-0.875549488015562,-1.6438107499755676,-0.8954876055013758,-2.3657364280557145,1.786873841772815,-0.7870144281912315,2.9814843075404553,-2.3263067814925016,1.7694844907043477,-0.5613078299237473,0.24932976690406417,-0.8793144861058466,1.0009863445551037
1240,-0.9753025868376005,1.1892518690135567,-2.6867130148880425,-1.5722502596457173,1.4737603097571044,-0.8756375540413033,-1.6437647530613122,-0.8953872484540104,-2.3658098883806233,1.786873841772815,-0.7870144281912315,2.9814843075404553,-2.3263067814925016,1.7694844907043477,-0.5613078299237473,0.24932976690406417,-0.8793144861058466,1.0009863445551037
1250,-0.97517899453609,1.1893650580863702,-2.686768177792614,-1.572226013050577,1.473948126438279,-0.8757529088891137,-1.6436932914954654,-0.895246159995406,-2.365934985046656,1.786873841772815,-0.7870144281912315,2.9814843075404553,-2.3263067814925016,1.7694844907043477,-0.5613078299237473,0.24932976690406417,-0.8793144861058466,1.0009863445551037
1260,-0.9750732641226021,1.189459030984467,-2.6868888402319664,-1.5721996314135405,1.4741862575217897,-0.8758649486073057,-1.6436422358574367,-0.8950681600588041,-2.3661070541781393,1.786873841772815,-0.7870144281912315,2.9814843075404553,-2.3263067814925016,1.7694844907043477,-0.5613078299237473,0.24932976690406417,-0.8793144861058466,1.0009863445551037
1270,-0.9749107353489367,1.1896522396609772,-2.6870459354726863,-1.572273648124304,1.4744215006990948,-0.8760489035068416,-1.643565395134348,-0.8947721638175533,-2.366338273609668,1.786873841772815,-0.7870144281912315,2.9814843075404553,-2.3263067814925016,1.7694844907043477,-0.5613078299237473,0.24932976690406417,-0.8793144861058466,1.0009863445551037
1280,-0.9747111321595062,1.1898786689812237,-2.6872526696989545,-1.5724169833147494,1.4746904347784733,-0.876287002282566,-1.6434656672734334,-0.8944260676657984,-2.366624483570843,1.786873841772815,-0.7870144281912315,2.9814843075404553,-2.3263067814925016,1.7694844907043477,-0.5613078299237473,0.24932976690406417,-0.8793144861058466,1.0009863445551037
1290,-0.9745211359631606,1.1901195405120584,-2.68746968708821,-1.5725771683640803,1.4748960760080572,-0.8765111973400375,-1.64334719585699,-0.8940821983535763,-2.366912526154867,1.786873841772815,-0.7870144281912315,2.9814843075404553,-2.3263067814925016,1.7694844907043477,-0.5613078299237473,0.24932976690406417,-0.8793144861058466,1.0009863445551037
1300,-0.9742902468187514,1.1903595367476942,-2.6877279060838313,-1.5726700881672218,1.4751925675555162,-0.8767848358260699,-1.6432587440708901,-0.8937014914095381,-2.3672266880038126,1.786873841772815,-0.7870144281912315,2.9814843075404553,-2.3263067814925016,1.7694844907043477,-0.5613078299237473,0.24932976690406417,-0.8793144861058466,1.0009863445551037
1310,-0.974076131537219,1.1905798359727637,-2.688004745210329,-1.5726170699683957,1.4755577706773402,-0.8770361705297812,-1.643210512542238,-0.8933266343572535,-2.367540880206031,1.786873841772815,-0.7870144281912315,2.9814843075404553,-2.3263067814925016,1.7694844907043477,-0.5613078299237473,0.24932976690406417,-0.8793144861058466,1.0009863445551037
1320,-0.9739061771422726,1.1907756592211425,-2.688197235039218,-1.5727910057269725,1.4757368445097965,-0.877290740006637,-1.6431395714703112,-0.8930508309335331,-2.3677837975320406,1.786873841772815,-0.7870144281912315,2.9814843075404553,-2.3263067814925016,1.7694844907043477,-0.5613078299237473,0.24932976690406417,-0.8793144861058466,1.0009863445551037
1330,-0.9738149007586097,1.1908716408683222,-2.688377662365208,-1.573073200142796,1.4757669533129627,-0.8774707722473154,-1.6430515784183066,-0.8928794663930534,-2.3679760522533195,1.786873841772815,-0.7870144281912315,2.9814843075404553,-2.3263067814925016,1.7694844907043477,-0.5613078299237473,0.24932976690406417,-0.8793144861058466,1.0009863445551037
1340,-0.9738114998518974,1.1908757112760386,-2.6883955997637012,-1.573235090769376,1.4756435449589715,-0.8774806838536167,-1.6430195629604638,-0.8928760526227715,-2.3679825041750533,1.786873841772815,-0.7870144281912315,2.9814843075404553,-2.3263067814925016,1.7694844907043477,-0.5613078299237473,0.24932976690406417,-0.8793144861058466,1.0009863445551037
1350,-0.9737633562117844,1.190883448759348,-2.688528861908516,-1.5732125235266194,1.4757089740037626,-0.8775024020353779,-1.6430271757858574,-0.8927612684653395,-2.368070481400902,1.786873841772815,-0.7870144281912315,2.9814843075404553,-2.3263067814925016,1.7694844907043477,-0.5613078299237473,0.24932976690406417,-0.8793144861058466,1.0009863445551037
1360,-0.973714291485563,1.1907673775665895,-2.6887717091688303,-1.5732673352873252,1.4758653673110862,-0.8775301312523109,-1.6429753569618062,-0.8926703173203606,-2.368225434405796,1.786873841772815,-0.7870144281912315,2.9814843075404553,-2.3263067814925016,1.7694844907043477,-0.5613078299237473,0.24932976690406417,-0.8793144861058466,1.0009863445551037
1370,-0.9736687564612201,1.1906989436398938,-2.6889893629562276,-1.573274662910729,1.4759841555920574,-0.8775577861959063,-1.6429477638656054,-0.8925544302105926,-2.368364980429895,1.786873841772815,-0.7870144281912315,2.9814843075404553,-2.3263067814925016,1.7694844907043477,-0.5613078299237473,0.24932976690406417,-0.8793144861058466,1.0009863445551037
1380,-0.97364851189645,1.1906017662591653,-2.689153626168167,-1.5734302675377947,1.4760150719723695,-0.8775836171628206,-1.642875129889432,-0.8925190833842243,-2.368471057533715,1.786873841772815,-0.7870144281912315,2.9814843075404553,-2.3263067814925016,1.7694844907043477,-0.5613078299237473,0.24932976690406417,-0.8793144861058466,1.0009863445551037
1390,-0.9736228706930308,1.1905579727537057,-2.689276929605903,-1.5735198313386982,1.476062869878861,-0.8776264257316052,-1.6428633744088281,-0.892456221055761,-2.3685489993914093,1.786873841772815,-0.7870144281912315,2.9814843075404553,-2.3263067814925016,1.7694844907043477,-0.5613078299237473,0.24932976690406417,-0.8793144861058466,1.0009863445551037
1400,-0.9735665660500837,1.190539714623396,-2.689415848653032,-1.5735321962607174,1.4761911360916926,-0.8776890129059135,-1.642903092082674,-0.8923288001388596,-2.368638972350159,1.786873841772815,-0.7870144281912315,2.9814843075404553,-2.3263067814925016,1.7694844907043477,-0.5613078299237473,0.24932976690406417,-0.8793144861058466,1.0009863445551037
1410,-0.9735125616923352,1.1905467328933312,-2.6895432572642015,-1.57363470530501,1.4762191984984256,-0.8777491483782517,-1.6428701282232039,-0.8922330921453089,-2.3687412016008085,1.786873841772815,-0.7870144281912315,2.9814843075404553,-2.3263067814925016,1.7694844907043477,-0.5613078299237473,0.24932976690406417,-0.8793144861058466,1.0009863445551037
1420,-0.9734810416059706,1.1905401511611218,-2.6896321219118717,-1.5737566622576362,1.476206722224894,-0.877804756679325,-1.6428648585259025,-0.8921620129273127,-2.3688058067345783,1.786873841772815,-0.7870144281912315,2.9814843075404553,-2.3263067814925016,1.7694844907043477,-0.5613078299237473,0.24932976690406417,-0.8793144861058466,1.0009863445551037
1430,-0.9734323553018425,1.1905640631373877,-2.689683174389034,-1.5739227907895272,1.4761381924451773,-0.8778438085096455,-1.64279728760031,-0.8921231865913779,-2.368866356765034,1.786873841772815,-0.7870144281912315,2.9814843075404553,-2.3263067814925016,1.7694844907043477,-0.5613078299237473,0.24932976690406417,-0.8793144861058466,1.0009863445551037
1440,-0.9733300132875584,1.190656201452191,-2.689761242360996,-1.574149636957935,1.476066329568857,-0.8779277536333143,-1.64268672768719,-0.8920253016472741,-2.3689810845126313,1.786873841772815,-0.7870144281912315,2.9814843075404553,-2.3263067814925016,1.7694844907043477,-0.5613078299237473,0.24932976690406417,-0.8793144861058466,1.0009863445551037
1450,-0.9732768521702247,1.1906879653998144,-2.6898468062062775,-1.5743367801401424,1.476014251837106,-0.8779871846862753,-1.6426196299666254,-0.8919628636843508,-2.3690715363334256,1.786873841772815,-0.7870144281912315,2.9814843075404553,-2.3263067814925016,1.7694844907043477,-0.5613078299237473,0.24932976690406417,-0.8793144861058466,1.0009863445551037
1460,-0.9732046572793056,1.1907244698920993,-2.6899276564579804,-1.5745450917003192,1.4759502291101345,-0.8780592411165631,-1.6425179665575937,-0.8919183910789039,-2.3691718694239903,1.786873841772815,-0.7870144281912315,2.9814843075404553,-2.3263067814925016,1.7694844907043477,-0.5613078299237473,0.24932976690406417,-0.8793144861058466,1.0009863445551037
1470,-0.9731348915197501,1.19072221204782,-2.69003546868559,-1.5745738453885618,1.475964872635495,-0.8780707525935078,-1.642441552880763,-0.8918788495749023,-2.3692682348312926,1.786873841772815,-0.7870144281912315,2.9814843075404553,-2.3263067814925016,1.7694844907043477,-0.5613078299237473,0.24932976690406417,-0.8793144861058466,1.0009863445551037
1480,-0.9730458379471482,1.1907542386141123,-2.690139046488336,-1.5746292607472807,1.4759805049271182,-0.8781114335416902,-1.6423779697891807,-0.8918007935786136,-2.3693646861528532,1.786873841772815,-0.7870144281912315,2.9814843075404553,-2.3263067814925016,1.7694844907043477,-0.5613078299237473,0.24932976690406417,-0.8793144861058466,1.0009863445551037
1490,-0.9729888363752236,1.1907452755632961,-2.690255120723778,-1.5746972374658503,1.4760081588859568,-0.8781509307203879,-1.6423243382530324,-0.8917411584766588,-2.3694615223051585,1.786873841772815,-0.7870144281912315,2.9814843075404553,-2.3263067814925016,1.7694844907043477,-0.5613078299237473,0.24932976690406417,-0.8793144861058466,1.0009863445551037
1500,-0.9729589957043214,1.1907128722765197,-2.6903522544063727,-1.5747633126310758,1.4760443801969603,-0.8781932404626803,-1.642321449721843,-0.89168467605004,-2.3695230393114852,1.786873841772815,-0.7870144281912315,2.9814843075404553,-2.3263067814925016,1.7694844907043477,-0.5613078299237473,0.24932976690406417,-0.8793144861058466,1.0009863445551037
1510,-0.9729359882722578,1.1906850904394775,-2.6904262103779097,-1.5748331412565462,1.476051882280226,-0.8782113804745366,-1.6423169316235111,-0.8916446276305376,-2.369565078608297,1.786873841772815,-0.7870144281912315,2.9814843075404553,-2.3263067814925016,1.7694844907043477,-0.5613078299237473,0.24932976690406417,-0.8793144861058466,1.0009863445551037
1520,-0.9729006304363843,1.1906947125154441,-2.6904674712780112,-1.5748846899249673,1.4760588243075146,-0.8782395372583609,-1.6423098485250422,-0.8916059615448035,-2.369601023563717,1.786873841772815,-0.7870144281912315,2.9814843075404553,-2.3263067814925016,1.7694844907043477,-0.5613078299237473,0.24932976690406417,-0.8793144861058466,1.0009863445551037
1530,-0.9728261471074635,1.190715188436595,-2.690565259566773,-1.57485659605106,1.4761106424794501,-0.8782623086885399,-1.642269784009045,-0.891537944290282,-2.369688430488381,1.786873841772815,-0.7870144281912315,2.9814843075404553,-2.3263067814925016,1.7694844907043477,-0.5613078299237473,0.24932976690406417,-0.8793144861058466,1.0009863445551037
1540,-0.9727433001883465,1.1907445955770437,-2.690681328686524,-1.5749742144697154,1.4760774671533752,-0.8782976296692468,-1.642167957226022,-0.8914636965826532,-2.369805769193971,1.786873841772815,-0.7870144281912315,2.9814843075404553,-2.3263067814925016,1.7694844907043477,-0.5613078299237473,0.24932976690406417,-0.8793144861058466,1.0009863445551037
1550,-0.972702740393828,1.1907450137050375,-2.6907645360632837,-1.575075302598015,1.475998369510993,-0.8782908058038903,-1.6420782126059439,-0.8914386135622826,-2.369884907151182,1.786873841772815,-0.7870144281912315,2.9814843075404553,-2.3263067814925016,1.7694844907043477,-0.5613078299237473,0.24932976690406417,-0.8793144861058466,1.0009863445551037
1560,-0.9727066565264388,1.1907088822217042,-2.6908189253355097,-1.5751207298865764,1.4759527015747778,-0.8782708053404841,-1.6420645873177453,-0.891433897291411,-2.369914087317193,1.786873841772815,-0.7870144281912315,2.9814843075404553,-2.3263067814925016,1.7694844907043477,-0.5613078299237473,0.24932976690406417,-0.8793144861058466,1.0009863445551037
1570,-0.9727045079948982,1.190672747612519,-2.690901789816797,-1.5751259486637474,1.4760017094121491,-0.8782849448224339,-1.6421101823640623,-0.8913792847049694,-2.369958900491068,1.786873841772815,-0.7870144281912315,2.9814843075404553,-2.3263067814925016,1.7694844907043477,-0.5613078299237473,0.24932976690406417,-0.8793144861058466,1.0009863445551037
1580,-0.9726992638232066,1.1906638363547501,-2.6909450429656006,-1.5751589311357717,1.476003171645271,-0.878296784577145,-1.6421352354337877,-0.8913472154973027,-2.3699875287824317,1.786873841772815,-0.7870144281912315,2.9814843075404553,-2.3263067814925016,1.7694844907043477,-0.5613078299237473,0.24932976690406417,-0.8793144861058466,1.0009863445551037
1590,-0.9726783764661526,1.1906588398506086,-2.690988560814962,-1.5752464073299572,1.4759871989740747,-0.8783223420795554,-1.6421214386055276,-0.8913222257858531,-2.3700283010076877,1.786873841772815,-0.7870144281912315,2.9814843075404553,-2.3263067814925016,1.7694844907043477,-0.5613078299237473,0.24932976690406417,-0.8793144861058466,1.0009863445551037
1600,-0.9726478867261596,1.190637408633465,-2.691080419023899,-1.5753580795780664,1.4759833691999147,-0.8783557368670731,-1.642076248365969,-0.8912915220847198,-2.370108699552303,1.786873841772815,-0.7870144281912315,2.9814843075404553,-2.3263067814925016,1.7694844907043477,-0.5613078299237473,0.24932976690406417,-0.8793144861058466,1.0009863445551037
1610,-0.972584191661018,1.1906213060704682,-2.691229615492288,-1.575357463362287,1.4759781069687754,-0.8783407752606686,-1.6419765974521223,-0.891248836706495,-2.3702323956511795,1.786873841772815,-0.7870144281912315,2.9814843075404553,-2.3263067814925016,1.7694844907043477,-0.5613078299237473,0.24932976690406417,-0.8793144861058466,1.0009863445551037
1620,-0.9725866827494811,1.190530726067029,-2.691373797281555,-1.5753728165122043,1.4759479776461306,-0.8782915163301833,-1.6419042684327287,-0.8912497906559419,-2.370317668007912,1.786873841772815,-0.7870144281912315,2.9814843075404553,-2.3263067814925016,1.7694844907043477,-0.5613078299237473,0.24932976690406417,-0.8793144861058466,1.0009863445551037
1630,-0.9725961212902672,1.190479875161367,-2.6914373233472313,-1.5753649369792908,1.4759082558574543,-0.8782473634250954,-1.641881497611801,-0.8912671924301795,-2.370349551157991,1.786873841772815,-0.7870144281912315,2.9814843075404553,-2.3263067814925016,1.7694844907043477,-0.5613078299237473,0.24932976690406417,-0.8793144861058466,1.0009863445551037
1640,-0.9725401456716647,1.1904732555468867,-2.691548159837769,-1.5754965651409447,1.4758661404016942,-0.878276318269738,-1.6417633384474037,-0.891244243534903,-2.3704586071360683,1.786873841772815,-0.7870144281912315,2.9814843075404553,-2.3263067814925016,1.7694844907043477,-0.5613078299237473,0.24932976690406417,-0.8793144861058466,1.0009863445551037
1650,-0.9725086239468795,1.190432685711474,-2.6916582950679127,-1.5755590024280797,1.4758964903361185,-0.8782955882016896,-1.6417264454018459,-0.8912075872397676,-2.370541081281687,1.786873841772815,-0.7870144281912315,2.9814843075404553,-2.3263067814925016,1.7694844907043477,-0.5613078299237473,0.24932976690406417,-0.8793144861058466,1.0009863445551037
1660,-0.9724990746154683,1.1904098055617385,-2.6917100850913096,-1.5756304966963253,1.475873072043516,-0.8782996291806231,-1.6417034335544387,-0.8911995801659408,-2.370585421395443,1.786873841772815,-0.7870144281912315,2.9814843075404553,-2.3263067814925016,1.7694844907043477,-0.5613078299237473,0.24932976690406417,-0.8793144861058466,1.0009863445551037
1670,-0.972483041911279,1.1903574062016713,-2.6918142973034533,-1.5756246935858407,1.4759478102744699,-0.8783190790881483,-1.6417317264972735,-0.8911487569884113,-2.3706399689015862,1.786873841772815,-0.7870144281912315,2.9814843075404553,-2.3263067814925016,1.7694844907043477,-0.5613078299237473,0.24932976690406417,-0.8793144861058466,1.0009863445551037
1680,-0.9724641318054641,1.1903050738206025,-2.691941727545715,-1.5755987492996741,1.4760391686343661,-0.8783380328433605,-1.6417642273813169,-0.8910824354212803,-2.37071242422201,1.786873841772815,-0.7870144281912315,2.9814843075404553,-2.3263067814925016,1.7694844907043477,-0.5613078299237473,0.24932976690406417,-0.8793144861058466,1.0009863445551037
1690,-0.9724616932597537,1.190253837838339,-2.6920213733663525,-1.5756441763080251,1.4760431245129946,-0.8783352120235901,-1.641758671667736,-0.8910680202000475,-2.3707565752713653,1.786873841772815,-0.7870144281912315,2.9814843075404553,-2.3263067814925016,1.7694844907043477,-0.5613078299237473,0.24932976690406417,-0.8793144861058466,1.0009863445551037
1700,-0.9724379851359861,1.1902368329829334,-2.692099701046636,-1.5756909580566132,1.4760574774878885,-0.878359607763103,-1.6417655710085592,-0.891015847163581,-2.370805705385004,1.786873841772815,-0.7870144281912315,2.9814843075404553,-2.3263067814925016,1.7694844907043477,-0.5613078299237473,0.24932976690406417,-0.8793144861058466,1.0009863445551037
1710,-0.9724182653785229,1.1901822479392081,-2.6922078987558344,-1.5757089569900278,1.4761117821008816,-0.8783680567823561,-1.6417799225742935,-0.8909640055173689,-2.3708613983759292,1.786873841772815,-0.7870144281912315,2.9814843075404553,-2.3263067814925016,1.7694844907043477,-0.5613078299237473,0.24932976690406417,-0.8793144861058466,1.0009863445551037
1720,-0.9723787965092286,1.1901874618205293,-2.6922720100253614,-1.5758391465330894,1.4760485113495365,-0.8783924197615034,-1.6416910742793482,-0.8909496302635043,-2.3709316142338346,1.786873841772815,-0.7870144281912315,2.9814843075404553,-2.3263067814925016,1.7694844907043477,-0.5613078299237473,0.24932976690406417,-0.8793144861058466,1.0009863445551037
1730,-0.972380001482456,1.1901854255384707,-2.692304601066692,-1.57590596252452,1.4759977057527498,-0.8784010416101511,-1.6416751696201022,-0.8909410765866395,-2.3709593474334425,1.786873841772815,-0.7870144281912315,2.9814843075404553,-2.3263067814925016,1.7694844907043477,-0.5613078299237473,0.24932976690406417,-0.8793144861058466,1.0009863445551037
1740,-0.9723744713512008,1.1901611784555628,-2.692365207411169,-1.5759791136420715,1.4759736873358447,-0.8784183389283741,-1.6416382540757768,-0.8909319822574795,-2.3710074582930094,1.786873841772815,-0.7870144281912315,2.9814843075404553,-2.3263067814925016,1.7694844907043477,-0.5613078299237473,0.24932976690406417,-0.8793144861058466,1.0009863445551037
1750,-0.9723741554920623,1.1901407305750669,-2.6924043648823206,-1.576011429793942,1.4759679354728958,-0.8784245698089204,-1.6416453588479993,-0.8909160500025011,-2.3710294633357116,1.786873841772815,-0.7870144281912315,2.9814843075404553,-2.3263067814925016,1.7694844907043477,-0.5613078299237473,0.24932976690406417,-0.8793144861058466,1.0009863445551037
1760,-0.9723704117303512,1.1900856210506485,-2.6924849831548485,-1.576088561526434,1.475988811872385,-0.8784397106659401,-1.6416276503595484,-0.8909047674526008,-2.3710810862218463,1.786873841772815,-0.7870144281912315,2.9814843075404553,-2.3263067814925016,1.7694844907043477,-0.5613078299237473,0.24932976690406417,-0.8793144861058466,1.0009863445551037
1770,-0.9723707982544139,1.190068846938133,-2.692523041508454,-1.5761379934298576,1.47595896803535,-0.878439254964416,-1.6416032148100352,-0.8909055587699177,-2.371109519794374,1.786873841772815,-0.7870144281912315,2.9814843075404553,-2.3263067814925016,1.7694844907043477,-0.5613078299237473,0.24932976690406417,-0.8793144861058466,1.0009863445551037
1780,-0.9723524847576581,1.1900413962175378,-2.6925869793552724,-1.5761266195945738,1.4759786967199098,-0.8784310601716143,-1.6415863039663172,-0.8908912766513924,-2.371148721640299,1.786873841772815,-0.7870144281912315,2.9814843075404553,-2.3263067814925016,1.7694844907043477,-0.5613078299237473,0.24932976690406417,-0.8793144861058466,1.0009863445551037
1790,-0.9723406992883924,1.1900197310244391,-2.692630279032037,-1.5761111175626261,1.47598659224838,-0.8784174861972055,-1.6415744482275665,-0.8908859169461842,-2.3711744613503978,1.786873841772815,-0.7870144281912315,2.9814843075404553,-2.3263067814925016,1.7694844907043477,-0.5613078299237473,0.24932976690406417,-0.8793144861058466,1.0009863445551037
1800,-0.9723353543993032,1.1899932963073456,-2.6926736163683325,-1.5760948028377189,1.4760097247544322,-0.8784111146403057,-1.6415806573663454,-0.8908765018707662,-2.371194674663561,1.786873841772815,-0.7870144281912315,2.9814843075404553,-2.3263067814925016,1.7694844907043477,-0.5613078299237473,0.24932976690406417,-0.8793144861058466,1.0009863445551037
1810,-0.9723331753619094,1.1899709693438567,-2.692706182530172,-1.5761061042741262,1.4760261000768333,-0.8784121907754021,-1.6415811560064473,-0.8908687302825735,-2.3712143473379657,1.786873841772815,-0.7870144281912315,2.9814843075404553,-2.3263067814925016,1.7694844907043477,-0.5613078299237473,0.24932976690406417,-0.8793144861058466,1.0009863445551037
1820,-0.9723397123664654,1.1899533051195423,-2.6927351140088516,-1.5761218905546241,1.4760274387122392,-0.8784113515706892,-1.6415924778185287,-0.8908576872291029,-2.3712273922784792,1.786873841772815,-0.7870144281912315,2.9814843075404553,-2.3263067814925016,1.7694844907043477,-0.5613078299237473,0.24932976690406417,-0.8793144861058466,1.0009863445551037
1830,-0.9723362876765499,1.1899576102854348,-2.692761879702835,-1.5761460518395674,1.4759907892163733,-0.8784041607879137,-1.641565251434337,-0.8908533868640912,-2.3712520538759505,1.786873841772815,-0.7870144281912315,2.9814843075404553,-2.3263067814925016,1.7694844907043477,-0.5613078299237473,0.24932976690406417,-0.8793144861058466,1.0009863445551037
1840,-0.9723573312651026,1.1899392084894433,-2.6927810051251972,-1.5761652151180496,1.4759578895017793,-0.8783819677944332,-1.6415592893441067,-0.8908612436166217,-2.371258358498664,1.786873841772815,-0.7870144281912315,2.9814843075404553,-2.3263067814925016,1.7694844907043477,-0.5613078299237473,0.24932976690406417,-0.8793144861058466,1.0009863445551037
1850,-0.9723661044437906,1.1899222571985602,-2.692815764211436,-1.5761702779163413,1.475931831334103,-0.8783608995146232,-1.64153812418699,-0.890863949208886,-2.3712772654673393,1.786873841772815,-0.7870144281912315,2.9814843075404553,-2.3263067814925016,1.7694844907043477,-0.5613078299237473,0.24932976690406417,-0.8793144861058466,1.0009863445551037
1860,-0.9723762540924418,1.1899171467560392,-2.6928345851218767,-1.5762089265380488,1.475875353729295,-0.8783394696621962,-1.6415011844498395,-0.8908760450627916,-2.3712929628851183,1.786873841772815,-0.7870144281912315,2.9814843075404553,-2.3263067814925016,1.7694844907043477,-0.5613078299237473,0.24932976690406417,-0.8793144861058466,1.0009863445551037
1870,-0.9723764818140967,1.1899100143478805,-2.6928599069529064,-1.5762306521452958,1.4758436642536772,-0.8783167369855047,-1.6414700905750284,-0.8908811405091626,-2.371310569609767,1.786873841772815,-0.7870144281912315,2.9814843075404553,-2.3263067814925016,1.7694844907043477,-0.5613078299237473,0.24932976690406417,-0.8793144861058466,1.0009863445551037
1880,-0.9723901021697483,1.1898883281632966,-2.6928855142800017,-1.5762235861002207,1.4758341636443884,-0.8782891736031883,-1.641462890377475,-0.8908864983326849,-2.371317819541971,1.786873841772815,-0.7870144281912315,2.9814843075404553,-2.3263067814925016,1.7694844907043477,-0.5613078299237473,0.24932976690406417,-0.8793144861058466,1.0009863445551037
1890,-0.972414588660151,1.1898690856010123,-2.6928950569413415,-1.5762186685936996,1.47580758154624,-0.8782528172092136,-1.6414582448221993,-0.8909005136908204,-2.371313276729717,1.786873841772815,-0.7870144281912315,2.9814843075404553,-2.3263067814925016,1.7694844907043477,-0.5613078299237473,0.24932976690406417,-0.8793144861058466,1.0009863445551037
1900,-0.9724399843196336,1.1898552263001931,-2.692894741121231,-1.5762273961654965,1.4757719403999363,-0.8782175778896351,-1.6414469690657976,-0.8909203106513839,-2.371304103982825,1.786873841772815,-0.7870144281912315,2.9814843075404553,-2.3263067814925016,1.7694844907043477,-0.5613078299237473,0.24932976690406417,-0.8793144861058466,1.0009863445551037
1910,-0.9724740588139855,1.1898194310579104,-2.692914235801445,-1.5762001842126023,1.4757719128055984,-0.8781787668965767,-1.6414598911366844,-0.890930976307315,-2.3712939551376278,1.786873841772815,-0.7870144281912315,2.9814843075404553,-2.3263067814925016,1.7694844907043477,-0.5613078299237473,0.24932976690406417,-0.8793144861058466,1.0009863445551037
1920,-0.9725040658316529,1.189781163212483,-2.692938226464535,-1.576200901973858,1.4757601222252779,-0.878136786118485,-1.6414409463582802,-0.8909539143469984,-2.3712958137807147,1.786873841772815,-0.7870144281912315,2.9814843075404553,-2.3263067814925016,1.7694844907043477,-0.5613078299237473,0.24932976690406417,-0.8793144861058466,1.0009863445551037
1930,-0.9725353458564663,1.1897561026062153,-2.692948135934399,-1.5761928062156234,1.4757560035895374,-0.8781067565151213,-1.6414414877676022,-0.8909652009827864,-2.3712858638420053,1.786873841772815,-0.7870144281912315,2.9814843075404553,-2.3263067814925016,1.7694844907043477,-0.5613078299237473,0.24932976690406417,-0.8793144861058466,1.0009863445551037
1940,-0.9725677307561458,1.1897344524500542,-2.6929564716719168,-1.576179827508956,1.4757567791332389,-0.8780766744826772,-1.6414448194272804,-0.8909726883578077,-2.3712757513578757,1.786873841772815,-0.7870144281912315,2.9814843075404553,-2.3263067814925016,1.7694844907043477,-0.5613078299237473,0.24932976690406417,-0.8793144861058466,1.0009863445551037
1950,-0.9726068264485452,1.189714044128314,-2.6929584540041036,-1.5761673099748228,1.4757562438461787,-0.8780418132385741,-1.6414516894498115,-0.890981699462135,-2.3712604091806355,1.786873841772815,-0.7870144281912315,2.9814843075404553,-2.3263067814925016,1.7694844907043477,-0.5613078299237473,0.24932976690406417,-0.8793144861058466,1.0009863445551037
1960,-0.9726455226938139,1.1896875955600208,-2.6929731728099795,-1.576154341874711,1.4757630309691705,-0.8780058351787655,-1.641449460404604,-0.8909879697026891,-2.371251462147045,1.786873841772815,-0.7870144281912315,2.9814843075404553,-2.3263067814925016,1.7694844907043477,-0.5613078299237473,0.24932976690406417,-0.8793144861058466,1.0009863445551037
1970,-0.9726865397178881,1.1896693708580364,-2.692983636138455,-1.5761381753562091,1.475763195467206,-0.8779694796495383,-1.6414404240054616,-0.8909941397142218,-2.3712436039790132,1.786873841772815,-0.7870144281912315,2.9814843075404553,-2.3263067814925016,1.7694844907043477,-0.5613078299237473,0.24932976690406417,-0.8793144861058466,1.0009863445551037
1980,-0.9727182190091844,1.1896577787684033,-2.692996740397368,-1.5761472731440775,1.4757759967465491,-0.8779463013439216,-1.6414221927721777,-0.8909907804284656,-2.3712436640160997,1.786873841772815,-0.7870144281912315,2.9814843075404553,-2.3263067814925016,1.7694844907043477,-0.5613078299237473,0.24932976690406417,-0.8793144861058466,1.0009863445551037
1990,-0.9727610836532383,1.1896517697006845,-2.692990124540036,-1.5761510170590851,1.475776042611799,-0.8779171193353719,-1.6414109288356529,-0.8909956310981862,-2.3712271283076096,1.786873841772815,-0.7870144281912315,2.9814843075404553,-2.3263067814925016,1.7694844907043477,-0.5613078299237473,0.24932976690406417,-0.8793144861058466,1.0009863445551037
2000,-0.9727950440326104,1.1896580258490526,-2.6929878053176113,-1.576170350615724,1.4757667956761378,-0.8778959396741778,-1.6413746222166683,-0.8909964040907059,-2.371223264455823,1.786873841772815,-0.7870144281912315,2.9814843075404553,-2.3263067814925016,1.7694844907043477,-0.5613078299237473,0.24932976690406417,-0.8793144861058466,1.0009863445551037
2010,-0.9728375207929981,1.189659881156836,-2.692980974721784,-1.576177085986513,1.4757683180744174,-0.8778709084551328,-1.641355661479479,-0.8909966834340453,-2.371209345196761,1.786873841772815,-0.7870144281912315,2.9814843075404553,-2.3263067814925016,1.7694844907043477,-0.5613078299237473,0.24932976690406417,-0.8793144861058466,1.0009863445551037
2020,-0.9728749634250342,1.1896580995216792,-2.692991188784021,-1.5761755027499116,1.4757923627070832,-0.8778522777463704,-1.6413378156993348,-0.890985393966228,-2.3712070941896144,1.786873841772815,-0.7870144281912315,2.9814843075404553,-2.3263067814925016,1.7694844907043477,-0.5613078299237473,0.24932976690406417,-0.8793144861058466,1.0009863445551037
2030,-0.972912218629562,1.189654485906592,-2.6930047958336716,-1.5761688195851256,1.4758236687522202,-0.8778346128609059,-1.6413306762446707,-0.8909672000731889,-2.371203692642935,1.786873841772815,-0.7870144281912315,2.9814843075404553,-2.3263067814925016,1.7694844907043477,-0.5613078299237473,0.24932976690406417,-0.8793144861058466,1.0009863445551037
2040,-0.9729566925268225,1.189642853515824,-2.6930154228921426,-1.576168022430708,1.4758394544767124,-0.8778070945161447,-1.641312795334708,-0.8909606039026378,-2.371196285485488,1.786873841772815,-0.7870144281912315,2.9814843075404553,-2.3263067814925016,1.7694844907043477,-0.5613078299237473,0.24932976690406417,-0.8793144861058466,1.0009863445551037
2050,-0.9729997106254068,1.1896380078263542,-2.6930225508262544,-1.5761699297756027,1.4758451746555543,-0.8777890008654942,-1.6412867376295541,-0.8909547408521876,-2.371191432852282,1.786873841772815,-0.7870144281912315,2.9814843075404553,-2.3263067814925016,1.7694844907043477,-0.5613078299237473,0.24932976690406417,-0.8793144861058466,1.0009863445551037
2060,-0.973039251420461,1.1896381950429218,-2.6930245147504084,-1.5761858387016936,1.4758512364391538,-0.8777718263140145,-1.641262374548947,-0.8909463254548075,-2.371185810521501,1.786873841772815,-0.7870144281912315,2.9814843075404553,-2.3263067814925016,1.7694844907043477,-0.5613078299237473,0.24932976690406417,-0.8793144861058466,1.0009863445551037
2070,-0.9730795474055396,1.1896361307700227,-2.6930332113266764,-1.5762002112011364,1.4758538721833154,-0.8777466226933573,-1.6412377680390726,-0.8909398471102681,-2.3711867591812354,1.786873841772815,-0.7870144281912315,2.9814843075404553,-2.3263067814925016,1.7694844907043477,-0.5613078299237473,0.24932976690406417,-0.8793144861058466,1.0009863445551037
2080,-0.9731275348292411,1.1896293184643802,-2.6930264127981385,-1.5762134552340672,1.4758412555461091,-0.8777127653161356,-1.6412223974495026,-0.8909426233928622,-2.371171291510406,1.786873841772815,-0.7870144281912315,2.9814843075404553,-2.3263067814925016,1.7694844907043477,-0.5613078299237473,0.24932976690406417,-0.8793144861058466,1.0009863445551037
2090,-0.9731759423451566,1.1896170368990673,-2.6930204650564984,-1.5762160670141485,1.4758367185039631,-0.8776738429173955,-1.6412081175449797,-0.8909507029925733,-2.371157444915852,1.786873841772815,-0.7870144281912315,2.9814843075404553,-2.3263067814925016,1.7694844907043477,-0.5613078299237473,0.24932976690406417,-0.8793144861058466,1.0009863445551037
2100,-0.9732231254349276,1.1896043664895364,-2.6930191236235026,-1.576204562536598,1.475836791782882,-0.8776361897032798,-1.6411997799464124,-0.8909516142811548,-2.37114591519323,1.786873841772815,-0.7870144281912315,2.9814843075404553,-2.3263067814925016,1.7694844907043477,-0.5613078299237473,0.24932976690406417,-0.8793144861058466,1.0009863445551037
2110,-0.9732757802284233,1.1895942485243138,-2.6929996146809474,-1.5762050478301075,1.4758166276467206,-0.8775915279995976,-1.641187695246263,-0.8909653661461587,-2.3711241618338006,1.786873841772815,-0.7870144281912315,2.9814843075404553,-2.3263067814925016,1.7694844907043477,-0.5613078299237473,0.24932976690406417,-0.8793144861058466,1.0009863445551037
2120,-0.9733447442981947,1.1895622631529548,-2.6929742505859577,-1.5761998445193437,1.4758057842588532,-0.8775252063810277,-1.6411902605197604,-0.8909898102926812,-2.37109128554998,1.786873841772815,-0.7870144281912315,2.9814843075404553,-2.3263067814925016,1.7694844907043477,-0.5613078299237473,0.24932976690406417,-0.8793144861058466,1.0009863445551037
2130,-0.9734155131055485,1.1895292479794322,-2.69294957049675,-1.576181790391809,1.4758030548414933,-0.8774568333718457,-1.6412006339807907,-0.8910116819645175,-2.371059760269287,1.786873841772815,-0.7870144281912315,2.9814843075404553,-2.3263067814925016,1.7694844907043477,-0.5613078299237473,0.24932976690406417,-0.8793144861058466,1.0009863445551037
2140,-0.9734966085879446,1.1894925084986117,-2.6929267740043348,-1.576182399056773,1.4757995798975836,-0.877394391718501,-1.6412111114061343,-0.8910313476003564,-2.3710293344031728,1.786873841772815,-0.7870144281912315,2.9814843075404553,-2.3263067814925016,1.7694844907043477,-0.5613078299237473,0.24932976690406417,-0.8793144861058466,1.0009863445551037
2150,-0.9735806956086078,1.1894699634899388,-2.692888075683956,-1.5762015096402069,1.475776043386297,-0.8773401935406442,-1.6412204259062682,-0.8910497337109619,-2.370991966018401,1.786873841772815,-0.7870144281912315,2.9814843075404553,-2.3263067814925016,1.7694844907043477,-0.5613078299237473,0.24932976690406417,-0.8793144861058466,1.0009863445551037
2160,-0.9736643267777984,1.1894391344238835,-2.6928609249771385,-1.5762050383527018,1.4757659133738712,-0.8772800347087328,-1.6412231993482949,-0.8910674638100878,-2.37096325669859,1.786873841772815,-0.7870144281912315,2.9814843075404553,-2.3263067814925016,1.7694844907043477,-0.5613078299237473,0.24932976690406417,-0.8793144861058466,1.0009863445551037
2170,-0.9737466245297328,1.1894067072122605,-2.6928335996448802,-1.5762061827618865,1.4757676021449089,-0.8772171440009914,-1.6412323304176406,-0.8910814884390952,-2.3709334549265173,1.786873841772815,-0.7870144281912315,2.9814843075404553,-2.3263067814925016,1.7694844907043477,-0.5613078299237473,0.24932976690406417,-0.8793144861058466,1.0009863445551037
2180,-0.973822556209978,1.1893839634925527,-2.6928073032539515,-1.5762079269752722,1.4757704880420195,-0.8771602106555156,-1.641230094232899,-0.8910888232086708,-2.3709090301205977,1.786873841772815,-0.7870144281912315,2.9814843075404553,-2.3263067814925016,1.7694844907043477,-0.5613078299237473,0.24932976690406417,-0.8793144861058466,1.0009863445551037
2190,-0.9738846409234658,1.189378005232202,-2.6927850838642744,-1.5762149507016907,1.4757769637533267,-0.8771120771014159,-1.6412202632196289,-0.8910832679587132,-2.3708943512084932,1.786873841772815,-0.7870144281912315,2.9814843075404553,-2.3263067814925016,1.7694844907043477,-0.5613078299237473,0.24932976690406417,-0.8793144861058466,1.0009863445551037
2200,-0.9739411799960441,1.1893712496096316,-2.692776450253568,-1.5762124860974276,1.47580491855913,-0.8770784511291143,-1.6412190488390894,-0.8910624609379844,-2.370888134611364,1.786873841772815,-0.7870144281912315,2.9814843075404553,-2.3263067814925016,1.7694844907043477,-0.5613078299237473,0.24932976690406417,-0.8793144861058466,1.0009863445551037
2210,-0.9739766399699552,1.1893820998435798,-2.6927763344518794,-1.5762464058776584,1.475826662313253,-0.8770645326111893,-1.64119824667937,-0.8910348723647094,-2.37089909094553,1.786873841772815,-0.7870144281912315,2.9814843075404553,-2.3263067814925016,1.7694844907043477,-0.5613078299237473,0.24932976690406417,-0.8793144861058466,1.0009863445551037
2220,-0.9739990630984018,1.1894031166204249,-2.692780756135007,-1.5762709740560616,1.4758598202514135,-0.8770596322993028,-1.6411703883357824,-0.8909980727198185,-2.3709189131378254,1.786873841772815,-0.7870144281912315,2.9814843075404553,-2.3263067814925016,1.7694844907043477,-0.5613078299237473,0.24932976690406417,-0.8793144861058466,1.0009863445551037
2230,-0.974007196694812,1.1894221573129495,-2.692800359955577,-1.5762829769291804,1.4759105392205716,-0.8770639223485549,-1.641136008519325,-0.8909531588091169,-2.3709512967676387,1.786873841772815,-0.7870144281912315,2.9814843075404553,-2.3263067814925016,1.7694844907043477,-0.5613078299237473,0.24932976690406417,-0.8793144861058466,1.0009863445551037
2240,-0.9740038033943461,1.1894489694004762,-2.6928240655492854,-1.5762904776600475,1.475963416554665,-0.8770761941432758,-1.641107787702678,-0.8909001145545736,-2.3709865898417366,1.786873841772815,-0.7870144281912315,2.9814843075404553,-2.3263067814925016,1.7694844907043477,-0.5613078299237473,0.24932976690406417,-0.8793144861058466,1.0009863445551037
2250,-0.9740103605664404,1.1894679520519216,-2.6928497534324736,-1.576284131381686,1.4760195879450868,-0.8770910758245745,-1.6411006923164,-0.8908501086579917,-2.3710170497683425,1.786873841772815,-0.7870144281912315,2.9814843075404553,-2.3263067814925016,1.7694844907043477,-0.5613078299237473,0.24932976690406417,-0.8793144861058466,1.0009863445551037
2260,-0.974014770719958,1.189482343925831,-2.692882229451098,-1.5762730351818859,1.476079647070527,-0.8771102982723156,-1.6410957071879932,-0.8907996336897438,-2.3710505262914636,1.786873841772815,-0.7870144281912315,2.9814843075404553,-2.3263067814925016,1.7694844907043477,-0.5613078299237473,0.24932976690406417,-0.8793144861058466,1.0009863445551037
2270,-0.9740127858866362,1.189498464649085,-2.69290405445233,-1.576275462637647,1.4761220100432257,-0.877125059833552,-1.6410792957356344,-0.8907620673530251,-2.3710788025786074,1.786873841772815,-0.7870144281912315,2.9814843075404553,-2.3263067814925016,1.7694844907043477,-0.5613078299237473,0.24932976690406417,-0.8793144861058466,1.0009863445551037
2280,-0.9740197328386163,1.1895103001954799,-2.69291867357388,-1.5762935386247998,1.4761418404585642,-0.8771360687474211,-1.6410656955750507,-0.8907360773611527,-2.3711000214640934,1.786873841772815,-0.7870144281912315,2.9814843075404553,-2.3263067814925016,1.7694844907043477,-0.5613078299237473,0.24932976690406417,-0.8793144861058466,1.0009863445551037
2290,-0.9740290288169243,1.1895179448103792,-2.6929285615937206,-1.5763023473090345,1.4761615588945673,-0.8771405415934188,-1.6410608881138298,-0.8907120789133851,-2.371114008931517,1.786873841772815,-0.7870144281912315,2.9814843075404553,-2.3263067814925016,1.7694844907043477,-0.5613078299237473,0.24932976690406417,-0.8793144861058466,1.0009863445551037
2300,-0.974042229276303,1.1895208776882853,-2.6929295447841013,-1.5763073936483882,1.476176989370383,-0.8771358184168107,-1.641060656211973,-0.890696773126967,-2.371119142558843,1.786873841772815,-0.7870144281912315,2.9814843075404553,-2.3263067814925016,1.7694844907043477,-0.5613078299237473,0.24932976690406417,-0.8793144861058466,1.0009863445551037
2310,-0.9740722156183055,1.1895157919195964,-2.6929161313985244,-1.5763023214552234,1.4761791938940476,-0.8771158745726314,-1.6410702539694721,-0.8906965193935024,-2.37110843103174,1.786873841772815,-0.7870144281912315,2.9814843075404553,-2.3263067814925016,1.7694844907043477,-0.5613078299237473,0.24932976690406417,-0.8793144861058466,1.0009863445551037
2320,-0.9741171815167073,1.1895064730349552,-2.6928797491618988,-1.5762916492436732,1.4761612075591715,-0.8770806868287135,-1.6410905844198196,-0.890710669682099,-2.3710772210905993,1.786873841772815,-0.7870144281912315,2.9814843075404553,-2.3263067814925016,1.7694844907043477,-0.5613078299237473,0.24932976690406417,-0.8793144861058466,1.0009863445551037
2330,-0.9741813801109394,1.1894987014702727,-2.692813188051755,-1.5762941525989214,1.4761044898645244,-0.877029133449796,-1.641109004035672,-0.8907510543298063,-2.3710278685500734,1.786873841772815,-0.7870144281912315,2.9814843075404553,-2.3263067814925016,1.7694844907043477,-0.5613078299237473,0.24932976690406417,-0.8793144861058466,1.0009863445551037
2340,-0.9742577172544278,1.1894660430358697,-2.692752539081733,-1.5762472036716673,1.476086434737148,-0.87696058901133,-1.6411666603795798,-0.8907892366151144,-2.3709646211701014,1.786873841772815,-0.7870144281912315,2.9814843075404553,-2.3263067814925016,1.7694844907043477,-0.5613078299237473,0.24932976690406417,-0.8793144861058466,1.0009863445551037
2350,-0.9743235823085057,1.1894369751081058,-2.6926864893094478,-1.5762144029307166,1.4760515576004198,-0.8768877060272896,-1.6412010867834403,-0.8908386080719896,-2.3709028045602096,1.786873841772815,-0.7870144281912315,2.9814843075404553,-2.3263067814925016,1.7694844907043477,-0.5613078299237473,0.24932976690406417,-0.8793144861058466,1.0009863445551037
2360,-0.9744033446510723,1.189406448128351,-2.6926062717873713,-1.5761750928118916,1.4760138433013092,-0.8768255809502135,-1.641261014763916,-0.8908883947394463,-2.370822284345679,1.786873841772815,-0.7870144281912315,2.9814843075404553,-2.3263067814925016,1.7694844907043477,-0.5613078299237473,0.24932976690406417,-0.8793144861058466,1.0009863445551037
2370,-0.9744845760081734,1.1893444181762192,-2.6925479668283554,-1.5761017817081624,1.476020751826193,-0.8767444215729773,-1.641328602654899,-0.8909398861688448,-2.370746193925559,1.786873841772815,-0.7870144281912315,2.9814843075404553,-2.3263067814925016,1.7694844907043477,-0.5613078299237473,0.24932976690406417,-0.8793144861058466,1.0009863445551037
2380,-0.9745701866847022,1.189286961441577,-2.692481583803151,-1.5760471291619862,1.4760082857551118,-0.8766631837782992,-1.6413938457773734,-0.8909913365662575,-2.370666196010957,1.786873841772815,-0.7870144281912315,2.9814843075404553,-2.3263067814925016,1.7694844907043477,-0.5613078299237473,0.24932976690406417,-0.8793144861058466,1.0009863445551037
2390,-0.9746839990093661,1.1892151488475937,-2.6924022759542687,-1.5759600925390087,1.4760123439518844,-0.8765710993335224,-1.6415022843397469,-0.8910513975444309,-2.3705624850137204,1.786873841772815,-0.7870144281912315,2.9814843075404553,-2.3263067814925016,1.7694844907043477,-0.5613078299237473,0.24932976690406417,-0.8793144861058466,1.0009863445551037
2400,-0.9747895115481272,1.1891687799365036,-2.692310030270821,-1.575935642814264,1.4759397579006293,-0.8764670442824163,-1.6415430826142654,-0.8911361599001948,-2.3704716215088792,1.786873841772815,-0.7870144281912315,2.9814843075404553,-2.3263067814925016,1.7694844907043477,-0.5613078299237473,0.24932976690406417,-0.8793144861058466,1.0009863445551037
2410,-0.9749042796271513,1.1891105246037663,-2.692220655162409,-1.5759088583504919,1.4758773278864674,-0.8763583590957158,-1.6415840074428039,-0.8912280442820258,-2.370369887774779,1.786873841772815,-0.7870144281912315,2.9814843075404553,-2.3263067814925016,1.7694844907043477,-0.5613078299237473,0.24932976690406417,-0.8793144861058466,1.0009863445551037
2420,-0.9750033603369757,1.1890500056221995,-2.6921603066391153,-1.5758521390778222,1.475846398323295,-0.8762519386012664,-1.6416157272263883,-0.8913023612552445,-2.370284322835388,1.786873841772815,-0.7870144281912315,2.9814843075404553,-2.3263067814925016,1.7694844907043477,-0.5613078299237473,0.24932976690406417,-0.8793144861058466,1.0009863445551037
2430,-0.9750504150966853,1.189016552082583,-2.6921414633059637,-1.575827104914841,1.475843627615008,-0.876199547877508,-1.6416405039063031,-0.8913303354520449,-2.3702409584971083,1.786873841772815,-0.7870144281912315,2.9814843075404553,-2.3263067814925016,1.7694844907043477,-0.5613078299237473,0.24932976690406417,-0.8793144861058466,1.0009863445551037
2440,-0.9750477644936454,1.189005103864359,-2.6921532436707425,-1.5758193885086749,1.4758600934196857,-0.8761920403294529,-1.6416550127990015,-0.8913216289941566,-2.370235664752835,1.786873841772815,-0.7870144281912315,2.9814843075404553,-2.3263067814925016,1.7694844907043477,-0.5613078299237473,0.24932976690406417,-0.8793144861058466,1.0009863445551037
2450,-0.9750340945839423,1.1890009607908887,-2.6921673848371013,-1.575817307753787,1.475876094601253,-0.876197767502011,-1.641665564352025,-0.8913082717757582,-2.37023844643196,1.786873841772815,-0.7870144281912315,2.9814843075404553,-2.3263067814925016,1.7694844907043477,-0.5613078299237473,0.24932976690406417,-0.8793144861058466,1.0009863445551037
2460,-0.9750330209584658,1.1889919767198094,-2.692170237067479,-1.5758062030360203,1.475886774325955,-0.8761908142173995,-1.6416784760377685,-0.8913060758670122,-2.37022965469424,1.786873841772815,-0.7870144281912315,2.9814843075404553,-2.3263067814925016,1.7694844907043477,-0.5613078299237473,0.24932976690406417,-0.8793144861058466,1.0009863445551037
2470,-0.9750381715943118,1.188982859965069,-2.6921702870596627,-1.575796936059684,1.4758969576560137,-0.8761766177782375,-1.6416890905997952,-0.891306004661612,-2.3702176535229738,1.786873841772815,-0.7870144281912315,2.9814843075404553,-2.3263067814925016,1.7694844907043477,-0.5613078299237473,0.24932976690406417,-0.8793144861058466,1.0009863445551037
2480,-0.9750571495544434,1.1889697129400911,-2.6921636695313604,-1.5757920715601221,1.4759040004168353,-0.8761507547702813,-1.6417035929356896,-0.891308985439608,-2.3702022403470897,1.786873841772815,-0.7870144281912315,2.9814843075404553,-2.3263067814925016,1.7694844907043477,-0.5613078299237473,0.24932976690406417,-0.8793144861058466,1.0009863445551037
2490,-0.9751004215119525,1.1889414755934342,-2.6921535935018865,-1.575788955956703,1.475899429766886,-0.8761158798786678,-1.6417381815284966,-0.8913243501343874,-2.370177656648281,1.786873841772815,-0.7870144281912315,2.9814843075404553,-2.3263067814925016,1.7694844907043477,-0.5613078299237473,0.24932976690406417,-0.8793144861058466,1.0009863445551037
2500,-0.9751825040444146,1.1888742729376545,-2.692137771918363,-1.5757749458449801,1.4758822443918582,-0.8760363011033689,-1.6417993687878132,-0.891360682572724,-2.37013635759221,1.786873841772815,-0.7870144281912315,2.9814843075404553,-2.3263067814925016,1.7694844907043477,-0.5613078299237473,0.24932976690406417,-0.8793144861058466,1.0009863445551037
2510,-0.9752821036625428,1.188803634566131,-2.6920866653412063,-1.5757796352922695,1.4758469909798297,-0.8759594821022145,-1.6418955049512778,-0.8914114899880448,-2.3700605468321805,1.786873841772815,-0.7870144281912315,2.9814843075404553,-2.3263067814925016,1.7694844907043477,-0.5613078299237473,0.24932976690406417,-0.8793144861058466,1.0009863445551037
2520,-0.9754082424586297,1.1887098227389563,-2.6920222519904944,-1.5757413732613983,1.4757864662299338,-0.8758244591828936,-1.641994226149494,-0.8914878877477024,-2.369969286281919,1.786873841772815,-0.7870144281912315,2.9814843075404553,-2.3263067814925016,1.7694844907043477,-0.5613078299237473,0.24932976690406417,-0.8793144861058466,1.0009863445551037
2530,-0.9755535273012571,1.1886186098815217,-2.691922913815298,-1.5757279560640767,1.4756700425538873,-0.8756681252009969,-1.642064634856773,-0.8916002518580676,-2.369862612418387,1.786873841772815,-0.7870144281912315,2.9814843075404553,-2.3263067814925016,1.7694844907043477,-0.5613078299237473,0.24932976690406417,-0.8793144861058466,1.0009863445551037
2540,-0.975722305989469,1.1885099208151977,-2.691804999071022,-1.5757659616508162,1.4755338873989794,-0.8755220370414994,-1.6421408490649854,-0.8917367277106847,-2.369739818903964,1.786873841772815,-0.7870144281912315,2.9814843075404553,-2.3263067814925016,1.7694844907043477,-0.5613078299237473,0.24932976690406417,-0.8793144861058466,1.0009863445551037
2550,-0.9758856289960175,1.188386405700118,-2.691712713015737,-1.5757321101155028,1.4754370454505756,-0.8753675513046221,-1.6422536554947542,-0.8918535661262438,-2.369617706629811,1.786873841772815,-0.7870144281912315,2.9814843075404553,-2.3263067814925016,1.7694844907043477,-0.5613078299237473,0.24932976690406417,-0.8793144861058466,1.0009863445551037
2560,-0.9759541475914687,1.1883218893344711,-2.6916271769190323,-1.5756932429974007,1.4753423521878097,-0.87526747304056,-1.6422940957339045,-0.8919567943186109,-2.369524931167004,1.786873841772815,-0.7870144281912315,2.9814843075404553,-2.3263067814925016,1.7694844907043477,-0.5613078299237473,0.24932976690406417,-0.8793144861058466,1.0009863445551037
2570,-0.9759367519895369,1.1882955066039051,-2.6915839906285854,-1.5756742870304143,1.4752556934356882,-0.8752551472643033,-1.6422970007473465,-0.8920366826433391,-2.369478168700624,1.786873841772815,-0.7870144281912315,2.9814843075404553,-2.3263067814925016,1.7694844907043477,-0.5613078299237473,0.24932976690406417,-0.8793144861058466,1.0009863445551037
2580,-0.9758606885177616,1.1883073717945134,-2.691561214237505,-1.575658955369366,1.4751885111562104,-0.875297340383711,-1.6422696184978602,-0.8920900061310766,-2.3694632715527075,1.786873841772815,-0.7870144281912315,2.9814843075404553,-2.3263067814925016,1.7694844907043477,-0.5613078299237473,0.24932976690406417,-0.8793144861058466,1.0009863445551037
2590,-0.9757310541806616,1.1883429455109653,-2.6915670567770626,-1.5756843539752474,1.4751338422014968,-0.8753984109651171,-1.6422200659121446,-0.8921173578669005,-2.369482816501896,1.786873841772815,-0.7870144281912315,2.9814843075404553,-2.3263067814925016,1.7694844907043477,-0.5613078299237473,0.24932976690406417,-0.8793144861058466,1.0009863445551037
2600,-0.9755700455136532,1.1884059484530085,-2.6915994382419575,-1.575690006200888,1.4750866728041567,-0.8755280904368481,-1.6421725794719852,-0.892116125011548,-2.369526801835603,1.786873841772815,-0.7870144281912315,2.9814843075404553,-2.3263067814925016,1.7694844907043477,-0.5613078299237473,0.24932976690406417,-0.8793144861058466,1.0009863445551037
2610,-0.9754171111363659,1.1884499580935988,-2.6916409401124666,-1.5757089909988804,1.4750431797632526,-0.8756422386539977,-1.6421316034723126,-0.8921156524914293,-2.369577495585795,1.786873841772815,-0.7870144281912315,2.9814843075404553,-2.3263067814925016,1.7694844907043477,-0.5613078299237473,0.24932976690406417,-0.8793144861058466,1.0009863445551037
2620,-0.9752737228343392,1.1884799268361224,-2.691695833858197,-1.5757122565844768,1.4750205663382283,-0.8757388958138181,-1.6421253863745389,-0.8921088071856131,-2.3696286417108414,1.786873841772815,-0.7870144281912315,2.9814843075404553,-2.3263067814925016,1.7694844907043477,-0.5613078299237473,0.24932976690406417,-0.8793144861058466,1.0009863445551037
2630,-0.9751379078703002,1.1885044588435552,-2.6917526964897696,-1.5757306585946804,1.4750056196898222,-0.8758442503612615,-1.6421408574693617,-0.8920963624689018,-2.36968018926767,1.786873841772815,-0.7870144281912315,2.9814843075404553,-2.3263067814925016,1.7694844907043477,-0.5613078299237473,0.24932976690406417,-0.8793144861058466,1.0009863445551037
2640,-0.9749943311376156,1.188520286173576,-2.6918172179076514,-1.5757526642331976,1.4750036456713311,-0.875946124306269,-1.642164975298142,-0.8920777089101355,-2.369732127688816,1.786873841772815,-0.7870144281912315,2.9814843075404553,-2.3263067814925016,1.7694844907043477,-0.5613078299237473,0.24932976690406417,-0.8793144861058466,1.0009863445551037
2650,-0.9748467995433694,1.1885569543706616,-2.6918785116664123,-1.5758166007184113,1.4749635227627997,-0.8760733456210847,-1.6421534535658087,-0.892056045604578,-2.369798281658477,1.786873841772815,-0.7870144281912315,2.9814843075404553,-2.3263067814925016,1.7694844907043477,-0.5613078299237473,0.24932976690406417,-0.8793144861058466,1.0009863445551037
2660,-0.9746710124606892,1.1886287026206792,-2.6919599585272422,-1.5758632632890182,1.4749246559326235,-0.8762247982668546,-1.6421223882764207,-0.8920128790183011,-2.369895621134054,1.786873841772815,-0.7870144281912315,2.9814843075404553,-2.3263067814925016,1.7694844907043477,-0.5613078299237473,0.24932976690406417,-0.8793144861058466,1.0009863445551037
2670,-0.9744334659343353,1.1887022631268411,-2.6920908711023146,-1.5758601930187397,1.4749730186195478,-0.8763865299857779,-1.64208101143695,-0.8919383248563331,-2.3700376982021214,1.786873841772815,-0.7870144281912315,2.9814843075404553,-2.3263067814925016,1.7694844907043477,-0.5613078299237473,0.24932976690406417,-0.8793144861058466,1.0009863445551037
2680,-0.9741899676604161,1.1888063937797797,-2.692230114191745,-1.5758518108159298,1.475039654333121,-0.8765701073019304,-1.642048947495594,-0.8918322732748062,-2.370186680903606,1.786873841772815,-0.7870144281912315,2.9814843075404553,-2.3263067814925016,1.7694844907043477,-0.5613078299237473,0.24932976690406417,-0.8793144861058466,1.0009863445551037
2690,-0.9739924145565351,1.1888642524205484,-2.6923885334818607,-1.5758924096826061,1.4751342841569797,-0.8767441876318629,-1.6420413599615504,-0.8917256114708437,-2.370335130775929,1.786873841772815,-0.7870144281912315,2.9814843075404553,-2.3263067814925016,1.7694844907043477,-0.5613078299237473,0.24932976690406417,-0.8793144861058466,1.0009863445551037
2700,-0.9738024315933544,1.188939489218802,-2.6925131628500227,-1.5760724886840878,1.4751584188345812,-0.8769513421940169,-1.6419778130448017,-0.8916345596040159,-2.3704760820202435,1.786873841772815,-0.7870144281912315,2.9814843075404553,-2.3263067814925016,1.7694844907043477,-0.5613078299237473,0.24932976690406417,-0.8793144861058466,1.0009863445551037
2710,-0.9736013295705688,1.1890218772656258,-2.6926205428155763,-1.576152928463221,1.4752018723846736,-0.8771226013715991,-1.6419227349014496,-0.891548645347949,-2.370604648394421,1.786873841772815,-0.7870144281912315,2.9814843075404553,-2.3263067814925016,1.7694844907043477,-0.5613078299237473,0.24932976690406417,-0.8793144861058466,1.0009863445551037
2720,-0.9734472218547141,1.1890775828163016,-2.692706202196178,-1.5761744216789664,1.475257131397047,-0.8772451504388775,-1.6419076652890012,-0.8914832949564878,-2.3707015351659577,1.786873841772815,-0.7870144281912315,2.9814843075404553,-2.3263067814925016,1.7694844907043477,-0.5613078299237473,0.24932976690406417,-0.8793144861058466,1.0009863445551037
2730,-0.9733482123867094,1.1891227127493413,-2.6927432578294273,-1.5761864832057357,1.4752677833260663,-0.8773316735718306,-1.641910080045891,-0.8914467525827715,-2.3707538851764234,1.786873841772815,-0.7870144281912315,2.9814843075404553,-2.3263067814925016,1.7694844907043477,-0.5613078299237473,0.24932976690406417,-0.8793144861058466,1.0009863445551037
2740,-0.9732740889959977,1.1891522254234979,-2.692759297762094,-1.576212605662551,1.4752513088756507,-0.8773974732498422,-1.6419028151459927,-0.8914322947157014,-2.3707833465767916,1.786873841772815,-0.7870144281912315,2.9814843075404553,-2.3263067814925016,1.7694844907043477,-0.5613078299237473,0.24932976690406417,-0.8793144861058466,1.0009863445551037
2750,-0.9732230528781861,1.1891651883600767,-2.692771643128567,-1.5762184530495782,1.4752338776484062,-0.8774406770124947,-1.641899740814461,-0.8914299099926967,-2.37080097126885,1.786873841772815,-0.7870144281912315,2.9814843075404553,-2.3263067814925016,1.7694844907043477,-0.5613078299237473,0.24932976690406417,-0.8793144861058466,1.0009863445551037
2760,-0.9731935770414619,1.1891665852876554,-2.6927719652413487,-1.5762105806125284,1.4752127489143365,-0.8774593230819021,-1.6419090357023496,-0.8914410541641501,-2.370801609650533,1.786873841772815,-0.7870144281912315,2.9814843075404553,-2.3263067814925016,1.7694844907043477,-0.5613078299237473,0.24932976690406417,-0.8793144861058466,1.0009863445551037
2770,-0.9731831719563785,1.189154540134641,-2.692755400172757,-1.5761947973769908,1.475184674181114,-0.8774548376152406,-1.6419252236354418,-0.8914678614363942,-2.370783682737404,1.786873841772815,-0.7870144281912315,2.9814843075404553,-2.3263067814925016,1.7694844907043477,-0.5613078299237473,0.24932976690406417,-0.8793144861058466,1.0009863445551037
2780,-0.9731786026567586,1.1891396812158457,-2.6927213345689807,-1.5761753736041544,1.475150380636958,-0.8774336219023323,-1.6419359679409697,-0.8915056288584119,-2.3707527901268923,1.786873841772815,-0.7870144281912315,2.9814843075404553,-2.3263067814925016,1.7694844907043477,-0.5613078299237473,0.24932976690406417,-0.8793144861058466,1.0009863445551037
2790,-0.973202239035963,1.1891038102966551,-2.6926772528338496,-1.5761324732004702,1.47511955084777,-0.8773869222691837,-1.6419600694549343,-0.8915576200678408,-2.3707053271147487,1.786873841772815,-0.7870144281912315,2.9814843075404553,-2.3263067814925016,1.7694844907043477,-0.5613078299237473,0.24932976690406417,-0.8793144861058466,1.0009863445551037
2800,-0.9732335849381599,1.1890709437336056,-2.6926299387703714,-1.5760795525580171,1.475099492755202,-0.8773395274411693,-1.6419923251289357,-0.8916071825933736,-2.3706536149118054,1.786873841772815,-0.7870144281912315,2.9814843075404553,-2.3263067814925016,1.7694844907043477,-0.5613078299237473,0.24932976690406417,-0.8793144861058466,1.0009863445551037
2810,-0.973269341397309,1.1890416334276266,-2.692586544857624,-1.576039776204904,1.4750776734946947,-0.877294925017903,-1.6420150018518576,-0.8916554496835012,-2.370610226661106,1.786873841772815,-0.7870144281912315,2.9814843075404553,-2.3263067814925016,1.7694844907043477,-0.5613078299237473,0.24932976690406417,-0.8793144861058466,1.0009863445551037
