10,2.034486311683935,-2.0701023420372406,-1.6316618940645637,2.1055883646912408,-1.7116824049649813,1.2054043283256208,-2.2605578868527894,2.916678323248505,-1.0192263812225584,-0.3105958098589814,1.0577270256070017,-1.2617501683709884,-2.5601367035627853,1.9399686504443991,-0.31365781555016925,0.6043985147436035,-2.270589967117716,-0.09474050845703141,2.2950407761419953,1.7369337731519865
20,2.0342951892432537,-2.069881470865339,-1.6318877926180562,2.105366430802977,-1.7117617765233515,1.2054608367080086,-2.2605496662885733,2.9168807020229632,-1.0193575561872181,-0.3105958098589814,1.0577270256070017,-1.2617501683709884,-2.5601367035627853,1.9399686504443991,-0.31365781555016925,0.6043985147436035,-2.270589967117716,-0.09474050845703141,2.2950407761419953,1.7370079760657213
30,2.034064703941667,-2.0696149311300163,-1.6321464284817642,2.1051071199300857,-1.7116611485279962,1.2052556143782867,-2.260793028177833,2.917148104927561,-1.0195497797871098,-0.3105958098589814,1.0577270256070017,-1.2617501683709884,-2.5601367035627853,1.9399686504443991,-0.31365781555016925,0.6043985147436035,-2.270589967117716,-0.09474050845703141,2.2950407761419953,1.7368629997556404
40,2.0338829100625526,-2.06933293987229,-1.6323538432829425,2.104841379818128,-1.7114456946033882,1.2049917658050433,-2.2610233520917826,2.9173348626194784,-1.0194336108707112,-0.3105958098589814,1.0577270256070017,-1.2617501683709884,-2.5601367035627853,1.9399686504443991,-0.31365781555016925,0.6043985147436035,-2.270589967117716,-0.09474050845703141,2.2950407761419953,1.7366683391201012
50,2.0336489634374892,-2.0690091224717313,-1.6325750852138419,2.104560721738453,-1.7111203545645266,1.204724800171771,-2.261282875120501,2.9176015280545538,-1.0191233696080573,-0.3105958098589814,1.0577270256070017,-1.2617501683709884,-2.5601367035627853,1.9399686504443991,-0.31365781555016925,0.6043985147436035,-2.270589967117716,-0.09474050845703141,2.2950407761419953,1.7363977728714546
60,2.0333576157928475,-2.068702225306436,-1.6328608562789988,2.1042560786733273,-1.7108087100373783,1.2044210112271188,-2.261594491092832,2.9178786153252787,-1.0188119186728706,-0.3105958098589814,1.0577270256070017,-1.2617501683709884,-2.5601367035627853,1.9399686504443991,-0.31365781555016925,0.6043985147436035,-2.270589967117716,-0.09474050845703141,2.2950407761419953,1.7360874590676532
70,2.033059932563337,-2.0685104547394304,-1.6332047538223424,2.1039699979561144,-1.7105185781477394,1.2041336696630454,-2.261872094035531,2.918122606118057,-1.0184980522537395,-0.3105958098589814,1.0577270256070017,-1.2617501683709884,-2.5601367035627853,1.9399686504443991,-0.31365781555016925,0.6043985147436035,-2.270589967117716,-0.09474050845703141,2.2950407761419953,1.735776841296283
80,2.0327259420515107,-2.0682686829026355,-1.6336023920373863,2.1036409457347958,-1.7102329987855225,1.2037833625895438,-2.262201368592551,2.9184511252371728,-1.0181753542778893,-0.3105958098589814,1.0577270256070017,-1.2617501683709884,-2.5601367035627853,1.9399686504443991,-0.31365781555016925,0.6043985147436035,-2.270589967117716,-0.09474050845703141,2.2950407761419953,1.73543177660662
90,2.0325001838731405,-2.0679467011922683,-1.6339315868709947,2.103332755699982,-1.7099250676482405,1.2033936142546815,-2.2625412142532935,2.918772923238465,-1.017894915905245,-0.3105958098589814,1.0577270256070017,-1.2617501683709884,-2.5601367035627853,1.9399686504443991,-0.31365781555016925,0.6043985147436035,-2.270589967117716,-0.09474050845703141,2.2950407761419953,1.7350544771979484
100,2.032536335660027,-2.0675155740059425,-1.6342805859468645,2.1029596026543294,-1.7095218388138995,1.2029784682849052,-2.262934014725476,2.9191055202009735,-1.0175369801589347,-0.3105958098589814,1.0577270256070017,-1.2617501683709884,-2.5601367035627853,1.9399686504443991,-0.31365781555016925,0.6043985147436035,-2.270589967117716,-0.09474050845703141,2.2950407761419953,1.7346239339907636
110,2.0326038473257286,-2.0670823245635246,-1.634669533862494,2.1025546668484436,-1.7090487057005708,1.2025441463736721,-2.2633768630060143,2.919535714192592,-1.0171111884129012,-0.3105958098589814,1.0577270256070017,-1.2617501683709884,-2.5601367035627853,1.9399686504443991,-0.31365781555016925,0.6043985147436035,-2.270589967117716,-0.09474050845703141,2.2950407761419953,1.7341712942166279
120,2.0324721319098455,-2.066723078319891,-1.6350233104665508,2.102168526199203,-1.708658503015044,1.2021568059156813,-2.263775902627953,2.91990415349671,-1.0166824841365358,-0.3105958098589814,1.0577270256070017,-1.2617501683709884,-2.5601367035627853,1.9399686504443991,-0.31365781555016925,0.6043985147436035,-2.270589967117716,-0.09474050845703141,2.2950407761419953,1.7337666317408538
130,2.0325028677657437,-2.066335848554387,-1.635288853128496,2.1018139562176206,-1.7082400423680608,1.2017704144596302,-2.264190676577477,2.9203132490482884,-1.0162731053347782,-0.3105958098589814,1.0577270256070017,-1.2617501683709884,-2.5601367035627853,1.9399686504443991,-0.31365781555016925,0.6043985147436035,-2.270589967117716,-0.09474050845703141,2.2950407761419953,1.7333552254192797
140,2.032497590165926,-2.0660761310517186,-1.6356793935557083,2.101458018755972,-1.7078679202098868,1.201388212731664,-2.2645943576178587,2.9206638856348586,-1.015873539338867,-0.3105958098589814,1.0577270256070017,-1.2617501683709884,-2.5601367035627853,1.9399686504443991,-0.31365781555016925,0.6043985147436035,-2.270589967117716,-0.09474050845703141,2.2950407761419953,1.7329497788382002
150,2.032736364563842,-2.0658087104654737,-1.6359432666522316,2.1012261812159156,-1.707403506663426,1.2010180619170792,-2.2650000012231497,2.9209596273008605,-1.0154433726426633,-0.3105958098589814,1.0577270256070017,-1.2617501683709884,-2.5601367035627853,1.9399686504443991,-0.31365781555016925,0.6043985147436035,-2.270589967117716,-0.09474050845703141,2.2950407761419953,1.7325250755669828
160,2.032941501255072,-2.065328448310361,-1.636102287771653,2.1009309825149356,-1.7068565066505585,1.2005815976004575,-2.2654913304504056,2.921296114724452,-1.014940613751303,-0.3105958098589814,1.0577270256070017,-1.2617501683709884,-2.5601367035627853,1.9399686504443991,-0.31365781555016925,0.6043985147436035,-2.270589967117716,-0.09474050845703141,2.2950407761419953,1.7320161710994024
170,2.032934946160584,-2.064927984638563,-1.636534564995527,2.1004949157489263,-1.706340827262485,1.2000705715686732,-2.2659901731692442,2.9215301168130354,-1.0143878721065263,-0.3105958098589814,1.0577270256070017,-1.2617501683709884,-2.5601367035627853,1.9399686504443991,-0.31365781555016925,0.6043985147436035,-2.270589967117716,-0.09474050845703141,2.2950407761419953,1.7314638612659137
180,2.0325459447689815,-2.0645664027051405,-1.6370986140305133,2.099973873349604,-1.7057897588714326,1.199525141046697,-2.26656262169437,2.9220270246877473,-1.0138347941722303,-0.3105958098589814,1.0577270256070017,-1.2617501683709884,-2.5601367035627853,1.9399686504443991,-0.31365781555016925,0.6043985147436035,-2.270589967117716,-0.09474050845703141,2.2950407761419953,1.7308870074741876
190,2.0320461285593563,-2.064507778544385,-1.6376943927427,2.0994075466510376,-1.7052876451208212,1.1989706320333475,-2.267107211766818,2.9225329646174942,-1.0132939657823885,-0.3105958098589814,1.0577270256070017,-1.2617501683709884,-2.5601367035627853,1.9399686504443991,-0.31365781555016925,0.6043985147436035,-2.270589967117716,-0.09474050845703141,2.2950407761419953,1.7303364979596865
200,2.0321801900346936,-2.064020941859453,-1.6377876140268022,2.098996955252311,-1.7047008124080718,1.1984621559097475,-2.267657160680718,2.923083683219314,-1.0127736860187513,-0.3105958098589814,1.0577270256070017,-1.2617501683709884,-2.5601367035627853,1.9399686504443991,-0.31365781555016925,0.6043985147436035,-2.270589967117716,-0.09474050845703141,2.2950407761419953,1.7297897266258553
210,2.0319583148314164,-2.0635364041728947,-1.6380407168974747,2.098529743196848,-1.7042217509328539,1.1979666249288914,-2.268162442753936,2.9236377095104165,-1.012340082927548,-0.3105958098589814,1.0577270256070017,-1.2617501683709884,-2.5601367035627853,1.9399686504443991,-0.31365781555016925,0.6043985147436035,-2.270589967117716,-0.09474050845703141,2.2950407761419953,1.7292933107301731
220,2.0320042934273657,-2.0631733400031185,-1.6382860712345666,2.098181314133177,-1.7037504338489375,1.1975413261090448,-2.2686102276425326,2.92410498881503,-1.011922413145889,-0.3105958098589814,1.0577270256070017,-1.2617501683709884,-2.5601367035627853,1.9399686504443991,-0.31365781555016925,0.6043985147436035,-2.270589967117716,-0.09474050845703141,2.2950407761419953,1.7288410483136483
230,2.0315470552116826,-2.0628273229909477,-1.6386846704435356,2.097701123517957,-1.7034326361470407,1.1971287884662,-2.2690129909084717,2.9244849654161,-1.0115358791818487,-0.3105958098589814,1.0577270256070017,-1.2617501683709884,-2.5601367035627853,1.9399686504443991,-0.31365781555016925,0.6043985147436035,-2.270589967117716,-0.09474050845703141,2.2950407761419953,1.728439705624932
240,2.0313203700001314,-2.0627366338914457,-1.6390128351138424,2.097347995799306,-1.7031645285961325,1.1967506072641068,-2.2693655488747955,2.924832106335596,-1.0112003734674664,-0.3105958098589814,1.0577270256070017,-1.2617501683709884,-2.5601367035627853,1.9399686504443991,-0.31365781555016925,0.6043985147436035,-2.270589967117716,-0.09474050845703141,2.2950407761419953,1.7280903316677896
250,2.031289104930526,-2.0625021766694607,-1.6391422786429997,2.0971271879789164,-1.7028850723203477,1.196480696730234,-2.2696275866230486,2.925040726620747,-1.0109031274074811,-0.3105958098589814,1.0577270256070017,-1.2617501683709884,-2.5601367035627853,1.9399686504443991,-0.31365781555016925,0.6043985147436035,-2.270589967117716,-0.09474050845703141,2.2950407761419953,1.7278074439168134
260,2.0309572891809373,-2.062232022918729,-1.6395259685261403,2.096876836493119,-1.7027580418075392,1.1962226258123319,-2.2698301213651537,2.92515396035685,-1.0106397427526381,-0.3105958098589814,1.0577270256070017,-1.2617501683709884,-2.5601367035627853,1.9399686504443991,-0.31365781555016925,0.6043985147436035,-2.270589967117716,-0.09474050845703141,2.2950407761419953,1.7275777353080843
270,2.0307340409497647,-2.062082146901579,-1.6398107058827907,2.0966548053597567,-1.7026494070159912,1.196002993202235,-2.2700049536273115,2.925274747737,-1.0104383638753078,-0.3105958098589814,1.0577270256070017,-1.2617501683709884,-2.5601367035627853,1.9399686504443991,-0.31365781555016925,0.6043985147436035,-2.270589967117716,-0.09474050845703141,2.2950407761419953,1.7273869236640258
280,2.030596397944368,-2.0620942427336812,-1.640081928646852,2.096448863877745,-1.7025656806039606,1.1957979903848128,-2.270147723107945,2.9253333967500224,-1.0102461919874195,-0.3105958098589814,1.0577270256070017,-1.2617501683709884,-2.5601367035627853,1.9399686504443991,-0.31365781555016925,0.6043985147436035,-2.270589967117716,-0.09474050845703141,2.2950407761419953,1.7272230667100041
290,2.0304984714482686,-2.0621970217954693,-1.640297119934859,2.0963163258027806,-1.7024872334170533,1.1956483971658323,-2.2702680143229914,2.9254380931225814,-1.01011821292799,-0.3105958098589814,1.0577270256070017,-1.2617501683709884,-2.5601367035627853,1.9399686504443991,-0.31365781555016925,0.6043985147436035,-2.270589967117716,-0.09474050845703141,2.2950407761419953,1.7270909477786134
300,2.0303868426279954,-2.0621880314015066,-1.6404359675404914,2.096182503529822,-1.7024290700946767,1.1955152588758682,-2.2703914825890488,2.92558967483503,-1.0100239571972918,-0.3105958098589814,1.0577270256070017,-1.2617501683709884,-2.5601367035627853,1.9399686504443991,-0.31365781555016925,0.6043985147436035,-2.270589967117716,-0.09474050845703141,2.2950407761419953,1.7269788648953817
310,2.0303278691265527,-2.0622960254521723,-1.6405929443000418,2.0960948253985596,-1.702375307209788,1.195410104998717,-2.270484685412227,2.925674378439528,-1.0099356687210053,-0.3105958098589814,1.0577270256070017,-1.2617501683709884,-2.5601367035627853,1.9399686504443991,-0.31365781555016925,0.6043985147436035,-2.270589967117716,-0.09474050845703141,2.2950407761419953,1.7268891640104411
320,2.030341131999642,-2.0623420955622707,-1.640680998731762,2.0960496501638732,-1.7022859371778125,1.1953177194574132,-2.270575056319944,2.925783120904602,-1.0098672715287285,-0.3105958098589814,1.0577270256070017,-1.2617501683709884,-2.5601367035627853,1.9399686504443991,-0.31365781555016925,0.6043985147436035,-2.270589967117716,-0.09474050845703141,2.2950407761419953,1.7267956513794926
330,2.030305781553753,-2.0623029918371834,-1.6407507173275155,2.0960189702888052,-1.7022159493752882,1.1952461477493252,-2.2706393635276427,2.9258471383667084,-1.0098127468395173,-0.3105958098589814,1.0577270256070017,-1.2617501683709884,-2.5601367035627853,1.9399686504443991,-0.31365781555016925,0.6043985147436035,-2.270589967117716,-0.09474050845703141,2.2950407761419953,1.7267202044563956
340,2.030240488696392,-2.062310203473638,-1.6408815261925587,2.0959549885967594,-1.702192269908405,1.1951707390792106,-2.2706920618229725,2.9258780018455823,-1.0097572689199341,-0.3105958098589814,1.0577270256070017,-1.2617501683709884,-2.5601367035627853,1.9399686504443991,-0.31365781555016925,0.6043985147436035,-2.270589967117716,-0.09474050845703141,2.2950407761419953,1.726658529570923
350,2.0302275494011117,-2.062326828709854,-1.640986533501745,2.0959454798541803,-1.702141969089402,1.1950975508900603,-2.2707506863467146,2.925951161588229,-1.0097141023352891,-0.3105958098589814,1.0577270256070017,-1.2617501683709884,-2.5601367035627853,1.9399686504443991,-0.31365781555016925,0.6043985147436035,-2.270589967117716,-0.09474050845703141,2.2950407761419953,1.7265914750606486
360,2.0302241044231764,-2.062401872871243,-1.6410843376093474,2.0959155798089224,-1.7021071756140684,1.19503811354474,-2.2708028588659133,2.926018058669142,-1.0096784725708312,-0.3105958098589814,1.0577270256070017,-1.2617501683709884,-2.5601367035627853,1.9399686504443991,-0.31365781555016925,0.6043985147436035,-2.270589967117716,-0.09474050845703141,2.2950407761419953,1.7265378559029603
370,2.030224599971172,-2.062455253137335,-1.641186697334291,2.0959038412837723,-1.7020856745819777,1.1949957064994137,-2.2708398450859764,2.926053025636302,-1.0096537647174688,-0.3105958098589814,1.0577270256070017,-1.2617501683709884,-2.5601367035627853,1.9399686504443991,-0.31365781555016925,0.6043985147436035,-2.270589967117716,-0.09474050845703141,2.2950407761419953,1.7265026614366663
380,2.030207539802606,-2.0624876931891207,-1.6412647897386592,2.0958649960061466,-1.702067207261834,1.1949486901148514,-2.2708815007336707,2.9261001978561105,-1.009628230152997,-0.3105958098589814,1.0577270256070017,-1.2617501683709884,-2.5601367035627853,1.9399686504443991,-0.31365781555016925,0.6043985147436035,-2.270589967117716,-0.09474050845703141,2.2950407761419953,1.7264646899610174
390,2.0301855678024836,-2.062496100085674,-1.6413318424898982,2.09584529425246,-1.7020399889991484,1.1949042428957388,-2.2709145826166677,2.9261222694457345,-1.0095979947082003,-0.3105958098589814,1.0577270256070017,-1.2617501683709884,-2.5601367035627853,1.9399686504443991,-0.31365781555016925,0.6043985147436035,-2.270589967117716,-0.09474050845703141,2.2950407761419953,1.7264221768811483
400,2.0301501541020466,-2.0624878754009055,-1.6413645699578947,2.095830119737342,-1.7020263813751195,1.194882125696526,-2.27093245211911,2.9261376011320444,-1.0095889079383296,-0.3105958098589814,1.0577270256070017,-1.2617501683709884,-2.5601367035627853,1.9399686504443991,-0.31365781555016925,0.6043985147436035,-2.270589967117716,-0.09474050845703141,2.2950407761419953,1.7263938584786194
410,2.030117469594502,-2.0624883102614833,-1.6413804986737008,2.095830054336134,-1.7020209849581098,1.1948794631483224,-2.2709359082237506,2.926143141167907,-1.009596028847035,-0.3105958098589814,1.0577270256070017,-1.2617501683709884,-2.5601367035627853,1.9399686504443991,-0.31365781555016925,0.6043985147436035,-2.270589967117716,-0.09474050845703141,2.2950407761419953,1.726377432215398
420,2.0300871393053437,-2.0624897855136233,-1.6413886168298104,2.0958382927439927,-1.7020154773725613,1.1948837755290498,-2.270934841454844,2.926147210873681,-1.009608896619626,-0.3105958098589814,1.0577270256070017,-1.2617501683709884,-2.5601367035627853,1.9399686504443991,-0.31365781555016925,0.6043985147436035,-2.270589967117716,-0.09474050845703141,2.2950407761419953,1.726363699483125
430,2.030063932166581,-2.0624924503409345,-1.6413876753777075,2.0958541434146944,-1.7020120446754308,1.19489428465578,-2.2709291292707117,2.9261480662765047,-1.0096267476144842,-0.3105958098589814,1.0577270256070017,-1.2617501683709884,-2.5601367035627853,1.9399686504443991,-0.31365781555016925,0.6043985147436035,-2.270589967117716,-0.09474050845703141,2.2950407761419953,1.7263549984660649
440,2.030045347926797,-2.0624962610596875,-1.6413875066122292,2.0958692661435436,-1.7020119152444149,1.194904681552696,-2.2709218711298234,2.9261456565485355,-1.0096441614776333,-0.3105958098589814,1.0577270256070017,-1.2617501683709884,-2.5601367035627853,1.9399686504443991,-0.31365781555016925,0.6043985147436035,-2.270589967117716,-0.09474050845703141,2.2950407761419953,1.726350348670414
450,2.0300245886917465,-2.0625115507809655,-1.6413896286513372,2.0958808061854075,-1.702021905459787,1.1949172150107772,-2.270910442179669,2.9261394969442565,-1.0096656160187039,-0.3105958098589814,1.0577270256070017,-1.2617501683709884,-2.5601367035627853,1.9399686504443991,-0.31365781555016925,0.6043985147436035,-2.270589967117716,-0.09474050845703141,2.2950407761419953,1.7263530092365174
460,2.030016746222931,-2.062527167792185,-1.6413781039815798,2.0959053573735527,-1.7020369125908104,1.1949397599419387,-2.2708902936223962,2.9261270313538286,-1.009697261574396,-0.3105958098589814,1.0577270256070017,-1.2617501683709884,-2.5601367035627853,1.9399686504443991,-0.31365781555016925,0.6043985147436035,-2.270589967117716,-0.09474050845703141,2.2950407761419953,1.72636442165082
470,2.0300239485098848,-2.062539704719082,-1.6413479476802229,2.095943939526823,-1.7020533739012778,1.1949722550411914,-2.270864206271032,2.926111279404698,-1.009735054294214,-0.3105958098589814,1.0577270256070017,-1.2617501683709884,-2.5601367035627853,1.9399686504443991,-0.31365781555016925,0.6043985147436035,-2.270589967117716,-0.09474050845703141,2.2950407761419953,1.7263826093403394
480,2.0300593368789337,-2.0625595921636584,-1.6413033742841254,2.09600930227379,-1.7020708335995989,1.1950210528805703,-2.270823230466853,2.926076662418074,-1.009785075252415,-0.3105958098589814,1.0577270256070017,-1.2617501683709884,-2.5601367035627853,1.9399686504443991,-0.31365781555016925,0.6043985147436035,-2.270589967117716,-0.09474050845703141,2.2950407761419953,1.726412524061475
490,2.0300627705875276,-2.062611239917286,-1.6412694411579947,2.096073196204153,-1.7021052954370168,1.1950805428501865,-2.2707754676023084,2.9260569800220635,-1.0098574017203312,-0.3105958098589814,1.0577270256070017,-1.2617501683709884,-2.5601367035627853,1.9399686504443991,-0.31365781555016925,0.6043985147436035,-2.270589967117716,-0.09474050845703141,2.2950407761419953,1.7264514907735709
500,2.0300714379988403,-2.062674296726277,-1.6412346273809855,2.0961368923060104,-1.7021518080952263,1.1951395454110325,-2.2707215309976645,2.9260200611678666,-1.0099298337397464,-0.3105958098589814,1.0577270256070017,-1.2617501683709884,-2.5601367035627853,1.9399686504443991,-0.31365781555016925,0.6043985147436035,-2.270589967117716,-0.09474050845703141,2.2950407761419953,1.7264936413456762
510,2.0300694364852525,-2.062727061665307,-1.641209311456255,2.096188806830319,-1.7022051940743028,1.1951964933485741,-2.2706586878434902,2.925949373071695,-1.0099941356363582,-0.3105958098589814,1.0577270256070017,-1.2617501683709884,-2.5601367035627853,1.9399686504443991,-0.31365781555016925,0.6043985147436035,-2.270589967117716,-0.09474050845703141,2.2950407761419953,1.726536493024432
520,2.0301270745767472,-2.0627734782885545,-1.6411414910590034,2.0962816860206237,-1.7022344516236039,1.1952630712320214,-2.2706005410373122,2.9258980820323597,-1.010067377907686,-0.3105958098589814,1.0577270256070017,-1.2617501683709884,-2.5601367035627853,1.9399686504443991,-0.31365781555016925,0.6043985147436035,-2.270589967117716,-0.09474050845703141,2.2950407761419953,1.7265761050319137
530,2.0301816983735854,-2.0627956139705805,-1.6410859973418899,2.0963552670702206,-1.7022625530266453,1.1953209090655108,-2.2705496708290887,2.9258510448546633,-1.010132108493748,-0.3105958098589814,1.0577270256070017,-1.2617501683709884,-2.5601367035627853,1.9399686504443991,-0.31365781555016925,0.6043985147436035,-2.270589967117716,-0.09474050845703141,2.2950407761419953,1.7266074379087328
540,2.0302126032790277,-2.0627974473514605,-1.6410415161011735,2.096417657335807,-1.7022904008068238,1.1953723893147912,-2.2704975424426035,2.9258002637861042,-1.01019115821232,-0.3105958098589814,1.0577270256070017,-1.2617501683709884,-2.5601367035627853,1.9399686504443991,-0.31365781555016925,0.6043985147436035,-2.270589967117716,-0.09474050845703141,2.2950407761419953,1.7266349988306255
550,2.030241831578487,-2.06281274103047,-1.641010051222943,2.0964872740661065,-1.702313927776222,1.1954208538959041,-2.270446060499565,2.9257621004205707,-1.0102566904651025,-0.3105958098589814,1.0577270256070017,-1.2617501683709884,-2.5601367035627853,1.9399686504443991,-0.31365781555016925,0.6043985147436035,-2.270589967117716,-0.09474050845703141,2.2950407761419953,1.7266578250141909
560,2.030294920089102,-2.0628628558931417,-1.6409611143594636,2.096570944097557,-1.7023306500833464,1.1954774805827226,-2.270392396838574,2.925735354593272,-1.010333164461305,-0.3105958098589814,1.0577270256070017,-1.2617501683709884,-2.5601367035627853,1.9399686504443991,-0.31365781555016925,0.6043985147436035,-2.270589967117716,-0.09474050845703141,2.2950407761419953,1.726683746579529
570,2.0303341872209426,-2.062868524351185,-1.640878375188006,2.0966393313279537,-1.702348608607294,1.1955375442653502,-2.270333660127794,2.9256811029685994,-1.0103947697699864,-0.3105958098589814,1.0577270256070017,-1.2617501683709884,-2.5601367035627853,1.9399686504443991,-0.31365781555016925,0.6043985147436035,-2.270589967117716,-0.09474050845703141,2.2950407761419953,1.7267106977033246
580,2.030349619382788,-2.0628741381059026,-1.6408277661926325,2.096705918961531,-1.7023752762621414,1.1955948124932285,-2.270273942496699,2.9256158414570725,-1.0104580666762943,-0.3105958098589814,1.0577270256070017,-1.2617501683709884,-2.5601367035627853,1.9399686504443991,-0.31365781555016925,0.6043985147436035,-2.270589967117716,-0.09474050845703141,2.2950407761419953,1.7267387926040225
590,2.030406144437626,-2.062925642273973,-1.6407703757236018,2.096801040882515,-1.7023948478930837,1.1956606423652663,-2.2702136455291986,2.925574631324416,-1.0105421132867902,-0.3105958098589814,1.0577270256070017,-1.2617501683709884,-2.5601367035627853,1.9399686504443991,-0.31365781555016925,0.6043985147436035,-2.270589967117716,-0.09474050845703141,2.2950407761419953,1.7267707624542485
600,2.0305197456170805,-2.062932128815829,-1.640682854751151,2.0969199412746584,-1.7024199452087196,1.1957388965645572,-2.270132361801888,2.9254698952188747,-1.0106182055481991,-0.3105958098589814,1.0577270256070017,-1.2617501683709884,-2.5601367035627853,1.9399686504443991,-0.31365781555016925,0.6043985147436035,-2.270589967117716,-0.09474050845703141,2.2950407761419953,1.7268167580152565
610,2.030538241569767,-2.063020157297161,-1.6406501330417567,2.096997525502623,-1.7024790018910951,1.195818356766396,-2.2700561945498183,2.925415338476723,-1.0107150224993482,-0.3105958098589814,1.0577270256070017,-1.2617501683709884,-2.5601367035627853,1.9399686504443991,-0.31365781555016925,0.6043985147436035,-2.270589967117716,-0.09474050845703141,2.2950407761419953,1.7268716312438628
620,2.0306207681766595,-2.0630643421057746,-1.6405763348855662,2.097134505093903,-1.702578630777687,1.195934646696489,-2.2699213155333853,2.9252289714398416,-1.0108226392123614,-0.3105958098589814,1.0577270256070017,-1.2617501683709884,-2.5601367035627853,1.9399686504443991,-0.31365781555016925,0.6043985147436035,-2.270589967117716,-0.09474050845703141,2.2950407761419953,1.7269738659436817
630,2.030708180020422,-2.0631670507777997,-1.6405052388261647,2.0972392938802096,-1.7026686078389353,1.1960344160224978,-2.2698042987019185,2.925109403323179,-1.0109326422901783,-0.3105958098589814,1.0577270256070017,-1.2617501683709884,-2.5601367035627853,1.9399686504443991,-0.31365781555016925,0.6043985147436035,-2.270589967117716,-0.09474050845703141,2.2950407761419953,1.7270644268623112
640,2.030792500659441,-2.063302702366547,-1.6403946441964186,2.0973986221931216,-1.7027897608339966,1.1961877958689522,-2.2696497183406716,2.9249929276460795,-1.0111058357937717,-0.3105958098589814,1.0577270256070017,-1.2617501683709884,-2.5601367035627853,1.9399686504443991,-0.31365781555016925,0.6043985147436035,-2.270589967117716,-0.09474050845703141,2.2950407761419953,1.7272025900058912
650,2.0308453876438244,-2.063314201767849,-1.640298545239314,2.0975301824090855,-1.702946544807076,1.1963309997391764,-2.2694965685211193,2.924887779153648,-1.0112845614040455,-0.3105958098589814,1.0577270256070017,-1.2617501683709884,-2.5601367035627853,1.9399686504443991,-0.31365781555016925,0.6043985147436035,-2.270589967117716,-0.09474050845703141,2.2950407761419953,1.7273493784929113
660,2.030909249571356,-2.063300460690953,-1.640194651185194,2.097631708342389,-1.7030100668541202,1.1964290878842934,-2.2694072603759397,2.924835795052204,-1.0113959473630438,-0.3105958098589814,1.0577270256070017,-1.2617501683709884,-2.5601367035627853,1.9399686504443991,-0.31365781555016925,0.6043985147436035,-2.270589967117716,-0.09474050845703141,2.2950407761419953,1.727431355502406
670,2.031141242326499,-2.0633436973783614,-1.640032134509268,2.0978613773587105,-1.7030700940566526,1.1965866089388588,-2.269258892281245,2.924727275931375,-1.0115622592841276,-0.3105958098589814,1.0577270256070017,-1.2617501683709884,-2.5601367035627853,1.9399686504443991,-0.31365781555016925,0.6043985147436035,-2.270589967117716,-0.09474050845703141,2.2950407761419953,1.7275564125746399
680,2.031286723435045,-2.063389074198202,-1.639935614879433,2.098024718953321,-1.7031614066881118,1.1967099992783308,-2.269123501113877,2.924609264006171,-1.011701729744478,-0.3105958098589814,1.0577270256070017,-1.2617501683709884,-2.5601367035627853,1.9399686504443991,-0.31365781555016925,0.6043985147436035,-2.270589967117716,-0.09474050845703141,2.2950407761419953,1.7276688142795518
690,2.031469626961723,-2.0634231862118306,-1.6398341651916457,2.098202834804272,-1.703240690615779,1.1968335515982862,-2.2689930623849843,2.924539599179526,-1.011851772896016,-0.3105958098589814,1.0577270256070017,-1.2617501683709884,-2.5601367035627853,1.9399686504443991,-0.31365781555016925,0.6043985147436035,-2.270589967117716,-0.09474050845703141,2.2950407761419953,1.7277783852745514
700,2.0315361464627206,-2.0635135436256915,-1.6398212624913855,2.098362573984972,-1.7033765796927889,1.1969508743726354,-2.2688465009104224,2.924477213990014,-1.0120300188517772,-0.3105958098589814,1.0577270256070017,-1.2617501683709884,-2.5601367035627853,1.9399686504443991,-0.31365781555016925,0.6043985147436035,-2.270589967117716,-0.09474050845703141,2.2950407761419953,1.7278977116659875
710,2.031557949787571,-2.0634925748086173,-1.6397808054362486,2.0984784122107083,-1.7034933157897774,1.1970484807501722,-2.2687119334443713,2.9243487548804445,-1.0121505065186605,-0.3105958098589814,1.0577270256070017,-1.2617501683709884,-2.5601367035627853,1.9399686504443991,-0.31365781555016925,0.6043985147436035,-2.270589967117716,-0.09474050845703141,2.2950407761419953,1.7279984609453427
720,2.031564425826446,-2.0634553732551257,-1.6398248304647294,2.0985876499568166,-1.7035763569717493,1.1971049216668392,-2.2686234993050585,2.9242688630062985,-1.0122476374940852,-0.3105958098589814,1.0577270256070017,-1.2617501683709884,-2.5601367035627853,1.9399686504443991,-0.31365781555016925,0.6043985147436035,-2.270589967117716,-0.09474050845703141,2.2950407761419953,1.7280624739279227
730,2.0315868227766956,-2.063447658440854,-1.6398860832279767,2.0985635641355405,-1.7035544271618397,1.197042505885399,-2.2686769424177187,2.9243239519523363,-1.0122156956107986,-0.3105958098589814,1.0577270256070017,-1.2617501683709884,-2.5601367035627853,1.9399686504443991,-0.31365781555016925,0.6043985147436035,-2.270589967117716,-0.09474050845703141,2.2950407761419953,1.7280201106210904
740,2.031497912781068,-2.0633985892549878,-1.6399916988900392,2.0984245333503475,-1.7034569559209423,1.196890618805535,-2.2688269721870933,2.9244327089767452,-1.0120763968982618,-0.3105958098589814,1.0577270256070017,-1.2617501683709884,-2.5601367035627853,1.9399686504443991,-0.31365781555016925,0.6043985147436035,-2.270589967117716,-0.09474050845703141,2.2950407761419953,1.7278894028857528
750,2.031491873450736,-2.0633765140997404,-1.6401183223329614,2.0982974352361405,-1.7032879372248335,1.1967071686493993,-2.269026186696992,2.924636329033554,-1.011933718380268,-0.3105958098589814,1.0577270256070017,-1.2617501683709884,-2.5601367035627853,1.9399686504443991,-0.31365781555016925,0.6043985147436035,-2.270589967117716,-0.09474050845703141,2.2950407761419953,1.727714793818383
760,2.0313904850062303,-2.063238952028738,-1.6402643927206462,2.098102559217955,-1.7031708697628969,1.19651504667884,-2.2692231311611137,2.9248588568788225,-1.0117933610002152,-0.3105958098589814,1.0577270256070017,-1.2617501683709884,-2.5601367035627853,1.9399686504443991,-0.31365781555016925,0.6043985147436035,-2.270589967117716,-0.09474050845703141,2.2950407761419953,1.727554461775354
770,2.031226454776155,-2.063188303262838,-1.6404423031514233,2.0979180698420183,-1.7030884236441857,1.1963401556883866,-2.269391439588079,2.9250817311504393,-1.0116719462449137,-0.3105958098589814,1.0577270256070017,-1.2617501683709884,-2.5601367035627853,1.9399686504443991,-0.31365781555016925,0.6043985147436035,-2.270589967117716,-0.09474050845703141,2.2950407761419953,1.7274285289279419
780,2.0311110356517146,-2.063108487245324,-1.6405542251669132,2.097792474642738,-1.7030337540195017,1.1962331797930443,-2.2694856642302903,2.9251833981071624,-1.0115528764078645,-0.3105958098589814,1.0577270256070017,-1.2617501683709884,-2.5601367035627853,1.9399686504443991,-0.31365781555016925,0.6043985147436035,-2.270589967117716,-0.09474050845703141,2.2950407761419953,1.7273607296468774
790,2.031042341575268,-2.062991795396084,-1.640657303084244,2.097707815382401,-1.70293627587038,1.196122972861337,-2.26959819837242,2.925291282179925,-1.0113938052447553,-0.3105958098589814,1.0577270256070017,-1.2617501683709884,-2.5601367035627853,1.9399686504443991,-0.31365781555016925,0.6043985147436035,-2.270589967117716,-0.09474050845703141,2.2950407761419953,1.7272786460482572
800,2.030937065275381,-2.0629005473472386,-1.6407867005081562,2.0975592312211604,-1.702814103814863,1.195975399826975,-2.269743402984095,2.9254236633271535,-1.0112048424666793,-0.3105958098589814,1.0577270256070017,-1.2617501683709884,-2.5601367035627853,1.9399686504443991,-0.31365781555016925,0.6043985147436035,-2.270589967117716,-0.09474050845703141,2.2950407761419953,1.7271615231166855
810,2.030869488428334,-2.06287806559903,-1.6408678781768335,2.0974840985415684,-1.7027653043493263,1.1959004747108135,-2.269814675841899,2.925489452745412,-1.0111194930305747,-0.3105958098589814,1.0577270256070017,-1.2617501683709884,-2.5601367035627853,1.9399686504443991,-0.31365781555016925,0.6043985147436035,-2.270589967117716,-0.09474050845703141,2.2950407761419953,1.727103460446393
820,2.030807993424084,-2.0628948346144558,-1.6409244230439068,2.0974587176620028,-1.7027573452896219,1.1958608043220795,-2.2698445466819024,2.9255235117590974,-1.011089902457654,-0.3105958098589814,1.0577270256070017,-1.2617501683709884,-2.5601367035627853,1.9399686504443991,-0.31365781555016925,0.6043985147436035,-2.270589967117716,-0.09474050845703141,2.2950407761419953,1.7270752084271943
830,2.0307451272790527,-2.062893323667265,-1.6409801314297472,2.0974317849331334,-1.7027115945187203,1.1958039272190415,-2.26990287365857,2.9255907346477623,-1.0110459212831517,-0.3105958098589814,1.0577270256070017,-1.2617501683709884,-2.5601367035627853,1.9399686504443991,-0.31365781555016925,0.6043985147436035,-2.270589967117716,-0.09474050845703141,2.2950407761419953,1.7270127848772416
840,2.030750573067864,-2.0629726180807912,-1.6410333921121896,2.097412969585034,-1.7026342528265277,1.1957455404845851,-2.269975235372959,2.9256565032408757,-1.0109789242776575,-0.3105958098589814,1.0577270256070017,-1.2617501683709884,-2.5601367035627853,1.9399686504443991,-0.31365781555016925,0.6043985147436035,-2.270589967117716,-0.09474050845703141,2.2950407761419953,1.7269432627277117
850,2.030761080670441,-2.063014778580946,-1.6410615023683301,2.097403342966612,-1.7026012088393836,1.19570917345293,-2.270014716639439,2.9256836085301066,-1.0109399126765009,-0.3105958098589814,1.0577270256070017,-1.2617501683709884,-2.5601367035627853,1.9399686504443991,-0.31365781555016925,0.6043985147436035,-2.270589967117716,-0.09474050845703141,2.2950407761419953,1.7269061328371804
860,2.0307403988578177,-2.0630293633501586,-1.641096344417517,2.0974061798389725,-1.7025992250552624,1.1956926950893962,-2.270025796321268,2.9256803194421566,-1.0109280100313651,-0.3105958098589814,1.0577270256070017,-1.2617501683709884,-2.5601367035627853,1.9399686504443991,-0.31365781555016925,0.6043985147436035,-2.270589967117716,-0.09474050845703141,2.2950407761419953,1.726888626911886
870,2.0307364317279464,-2.0630517521552085,-1.64111019673182,2.0974285164473723,-1.7026049712571918,1.195694829343174,-2.2700210803693213,2.9256707269601008,-1.0109398323755079,-0.3105958098589814,1.0577270256070017,-1.2617501683709884,-2.5601367035627853,1.9399686504443991,-0.31365781555016925,0.6043985147436035,-2.270589967117716,-0.09474050845703141,2.2950407761419953,1.7268815050705544
880,2.030743552230736,-2.063076520681059,-1.641110519509293,2.0974636816397023,-1.7026143436698684,1.1957091365386874,-2.2700031897218724,2.925654574367981,-1.0109662077014718,-0.3105958098589814,1.0577270256070017,-1.2617501683709884,-2.5601367035627853,1.9399686504443991,-0.31365781555016925,0.6043985147436035,-2.270589967117716,-0.09474050845703141,2.2950407761419953,1.7268817757205317
890,2.0307658388164316,-2.063113688627915,-1.6410972700658086,2.0975258035241775,-1.7026364551233268,1.1957470013115568,-2.2699618177786203,2.925625869564521,-1.0110202468862821,-0.3105958098589814,1.0577270256070017,-1.2617501683709884,-2.5601367035627853,1.9399686504443991,-0.31365781555016925,0.6043985147436035,-2.270589967117716,-0.09474050845703141,2.2950407761419953,1.7268980087024455
900,2.0307904432002104,-2.0631674315622637,-1.6410769160784076,2.097592718872938,-1.7026659036072112,1.1957905705391025,-2.2699138956970994,2.9255873425600005,-1.011082369304199,-0.3105958098589814,1.0577270256070017,-1.2617501683709884,-2.5601367035627853,1.9399686504443991,-0.31365781555016925,0.6043985147436035,-2.270589967117716,-0.09474050845703141,2.2950407761419953,1.7269205494473026
910,2.0307903351564414,-2.0632043818831884,-1.6410697464807757,2.0976576371419293,-1.7026978745591146,1.1958317803263856,-2.269864848021472,2.925550429513944,-1.0111553979926569,-0.3105958098589814,1.0577270256070017,-1.2617501683709884,-2.5601367035627853,1.9399686504443991,-0.31365781555016925,0.6043985147436035,-2.270589967117716,-0.09474050845703141,2.2950407761419953,1.7269356690568534
920,2.0307924035027907,-2.063223270153327,-1.6410651236708598,2.0977253775425524,-1.7027234283691386,1.1958760095951175,-2.2698188404939703,2.925537319358897,-1.0112366514188784,-0.3105958098589814,1.0577270256070017,-1.2617501683709884,-2.5601367035627853,1.9399686504443991,-0.31365781555016925,0.6043985147436035,-2.270589967117716,-0.09474050845703141,2.2950407761419953,1.7269457614301071
930,2.0307909906233337,-2.0632504389598,-1.6410735101637437,2.097773457901072,-1.7027299974513053,1.1958955313903974,-2.26979476166713,2.925525710782073,-1.011286397741424,-0.3105958098589814,1.0577270256070017,-1.2617501683709884,-2.5601367035627853,1.9399686504443991,-0.31365781555016925,0.6043985147436035,-2.270589967117716,-0.09474050845703141,2.2950407761419953,1.7269350474341612
940,2.0307698222904027,-2.0632912117164337,-1.6411033190870739,2.0978010352626355,-1.702723956650279,1.19589334613478,-2.2697942633373214,2.925523918788542,-1.011316661152681,-0.3105958098589814,1.0577270256070017,-1.2617501683709884,-2.5601367035627853,1.9399686504443991,-0.31365781555016925,0.6043985147436035,-2.270589967117716,-0.09474050845703141,2.2950407761419953,1.7269045612381977
950,2.030737715410981,-2.0633102459038604,-1.6411438357251487,2.0978296740799385,-1.702723191335763,1.1958900741647605,-2.2697916869473374,2.9255244294508764,-1.0113500482042652,-0.3105958098589814,1.0577270256070017,-1.2617501683709884,-2.5601367035627853,1.9399686504443991,-0.31365781555016925,0.6043985147436035,-2.270589967117716,-0.09474050845703141,2.2950407761419953,1.7268785016573278
960,2.0307292175091125,-2.063281178084126,-1.6411607973682676,2.097848128910563,-1.702700903144203,1.1958742624415217,-2.2697970650691985,2.925501756075573,-1.0113535174294825,-0.3105958098589814,1.0577270256070017,-1.2617501683709884,-2.5601367035627853,1.9399686504443991,-0.31365781555016925,0.6043985147436035,-2.270589967117716,-0.09474050845703141,2.2950407761419953,1.7268361779122863
970,2.030732660172508,-2.0632834243451676,-1.6411648583548066,2.0978736647006886,-1.702681594533009,1.1958745873060768,-2.269793883404017,2.925495284443155,-1.0113744108686695,-0.3105958098589814,1.0577270256070017,-1.2617501683709884,-2.5601367035627853,1.9399686504443991,-0.31365781555016925,0.6043985147436035,-2.270589967117716,-0.09474050845703141,2.2950407761419953,1.726806633991041
980,2.0307441926979646,-2.0632991223655512,-1.6411698232760707,2.097905986554866,-1.7026512573436605,1.1958698551420255,-2.2698037225419396,2.9255014169997455,-1.011393494754567,-0.3105958098589814,1.0577270256070017,-1.2617501683709884,-2.5601367035627853,1.9399686504443991,-0.31365781555016925,0.6043985147436035,-2.270589967117716,-0.09474050845703141,2.2950407761419953,1.7267720608448387
990,2.030749284999445,-2.063331984980239,-1.6411913731419097,2.097929537013685,-1.7026278772241112,1.1958589107571502,-2.2698154876512984,2.9255044781497066,-1.0114089508969417,-0.3105958098589814,1.0577270256070017,-1.2617501683709884,-2.5601367035627853,1.9399686504443991,-0.31365781555016925,0.6043985147436035,-2.270589967117716,-0.09474050845703141,2.2950407761419953,1.7267354224618803
1000,2.030758494077815,-2.06335317213808,-1.6411991243221578,2.0979659233710124,-1.7026133490417972,1.1958603400186378,-2.2698162013273464,2.9255044376851864,-1.0114413946393692,-0.3105958098589814,1.0577270256070017,-1.2617501683709884,-2.5601367035627853,1.9399686504443991,-0.31365781555016925,0.6043985147436035,-2.270589967117716,-0.09474050845703141,2.2950407761419953,1.7267079001725816
1010,2.030771667498697,-2.0633653041863793,-1.6412080597598182,2.098001193489615,-1.702599736919494,1.19585973468732,-2.269817887607549,2.925510566405766,-1.01147357869691,-0.3105958098589814,1.0577270256070017,-1.2617501683709884,-2.5601367035627853,1.9399686504443991,-0.31365781555016925,0.6043985147436035,-2.270589967117716,-0.09474050845703141,2.2950407761419953,1.7266811104113793
1020,2.030782126728424,-2.0633729244550634,-1.6412093871167135,2.0980332515394204,-1.7025864447085373,1.1958626443801086,-2.269815295055278,2.925511355551895,-1.011502579933114,-0.3105958098589814,1.0577270256070017,-1.2617501683709884,-2.5601367035627853,1.9399686504443991,-0.31365781555016925,0.6043985147436035,-2.270589967117716,-0.09474050845703141,2.2950407761419953,1.7266566386195827
1030,2.030794646432988,-2.0633853609479074,-1.6412105534779515,2.098074207813655,-1.702576475819552,1.1958719059347762,-2.2698053374518676,2.925511718969027,-1.0115457637342018,-0.3105958098589814,1.0577270256070017,-1.2617501683709884,-2.5601367035627853,1.9399686504443991,-0.31365781555016925,0.6043985147436035,-2.270589967117716,-0.09474050845703141,2.2950407761419953,1.7266341542797126
1040,2.030805122645022,-2.0633771461056107,-1.6412131240720649,2.0981107363938603,-1.7025552153466206,1.1958714182462424,-2.269806049955072,2.925526109011132,-1.0115798719034919,-0.3105958098589814,1.0577270256070017,-1.2617501683709884,-2.5601367035627853,1.9399686504443991,-0.31365781555016925,0.6043985147436035,-2.270589967117716,-0.09474050845703141,2.2950407761419953,1.7266064397646586
1050,2.0308454690639097,-2.063343815610251,-1.6412004995250749,2.098139953047406,-1.7024923177063265,1.1958523233491132,-2.269828510880851,2.9255508760699165,-1.011572611225339,-0.3105958098589814,1.0577270256070017,-1.2617501683709884,-2.5601367035627853,1.9399686504443991,-0.31365781555016925,0.6043985147436035,-2.270589967117716,-0.09474050845703141,2.2950407761419953,1.7265555821207503
1060,2.0308432727146966,-2.063336822441609,-1.6412141628106522,2.0981315411227675,-1.702441067752439,1.1958191673180496,-2.2698687226887118,2.92560038038338,-1.0115590851496508,-0.3105958098589814,1.0577270256070017,-1.2617501683709884,-2.5601367035627853,1.9399686504443991,-0.31365781555016925,0.6043985147436035,-2.270589967117716,-0.09474050845703141,2.2950407761419953,1.7264992992976642
1070,2.030823869942068,-2.0633316918454936,-1.6412371755413209,2.098120312935618,-1.7024082642036151,1.1957907607736278,-2.269899394738126,2.92563294512471,-1.0115518795080092,-0.3105958098589814,1.0577270256070017,-1.2617501683709884,-2.5601367035627853,1.9399686504443991,-0.31365781555016925,0.6043985147436035,-2.270589967117716,-0.09474050845703141,2.2950407761419953,1.7264498469371494
1080,2.030788514315777,-2.063278148663003,-1.6412652133198318,2.0980915504253415,-1.7023687085052757,1.1957491091769814,-2.269938179140373,2.925660188051235,-1.0115271880594012,-0.3105958098589814,1.0577270256070017,-1.2617501683709884,-2.5601367035627853,1.9399686504443991,-0.31365781555016925,0.6043985147436035,-2.270589967117716,-0.09474050845703141,2.2950407761419953,1.7263920139417717
1090,2.0307633847730964,-2.063238119792889,-1.6412957159458164,2.098041980295265,-1.7023164663555728,1.1956880147834688,-2.2699962341430546,2.925685270137389,-1.0114608943800327,-0.3105958098589814,1.0577270256070017,-1.2617501683709884,-2.5601367035627853,1.9399686504443991,-0.31365781555016925,0.6043985147436035,-2.270589967117716,-0.09474050845703141,2.2950407761419953,1.726323134666731
1100,2.0307572186159915,-2.0633307731527823,-1.641374187233245,2.09794969287036,-1.7022021859951342,1.1955717246424924,-2.2701091111334946,2.9257265598443625,-1.011296227380341,-0.3105958098589814,1.0577270256070017,-1.2617501683709884,-2.5601367035627853,1.9399686504443991,-0.31365781555016925,0.6043985147436035,-2.270589967117716,-0.09474050845703141,2.2950407761419953,1.7262024988908076
1110,2.030767682102859,-2.0633968551789255,-1.641419239132752,2.0978958670071903,-1.7021160046673414,1.1954964459806479,-2.2701840162356617,2.925755706723319,-1.0111870673650531,-0.3105958098589814,1.0577270256070017,-1.2617501683709884,-2.5601367035627853,1.9399686504443991,-0.31365781555016925,0.6043985147436035,-2.270589967117716,-0.09474050845703141,2.2950407761419953,1.7261172489457286
1120,2.0307700186561646,-2.0634072112251456,-1.6414284920583584,2.0978958768844214,-1.7020968882966385,1.1954850755581077,-2.2701932018439286,2.9257620835647886,-1.0111772521602322,-0.3105958098589814,1.0577270256070017,-1.2617501683709884,-2.5601367035627853,1.9399686504443991,-0.31365781555016925,0.6043985147436035,-2.270589967117716,-0.09474050845703141,2.2950407761419953,1.7260940964560345
1130,2.030765964656876,-2.0633910702912543,-1.6414331506867266,2.097896740290918,-1.7020797462203388,1.1954786688129024,-2.270198031288754,2.925759647407061,-1.0111697870154346,-0.3105958098589814,1.0577270256070017,-1.2617501683709884,-2.5601367035627853,1.9399686504443991,-0.31365781555016925,0.6043985147436035,-2.270589967117716,-0.09474050845703141,2.2950407761419953,1.7260754791394173
1140,2.0307736654572404,-2.0633697489083285,-1.6414330165481252,2.0979004627074795,-1.702053635610725,1.1954681410896706,-2.270207429686957,2.925761117258832,-1.0111572317831286,-0.3105958098589814,1.0577270256070017,-1.2617501683709884,-2.5601367035627853,1.9399686504443991,-0.31365781555016925,0.6043985147436035,-2.270589967117716,-0.09474050845703141,2.2950407761419953,1.7260521184600115
1150,2.030790234300769,-2.06335183359774,-1.6414323748609552,2.097899106975341,-1.702018510372182,1.1954494240030134,-2.2702283577628934,2.9257892322886603,-1.0111444416007427,-0.3105958098589814,1.0577270256070017,-1.2617501683709884,-2.5601367035627853,1.9399686504443991,-0.31365781555016925,0.6043985147436035,-2.270589967117716,-0.09474050845703141,2.2950407761419953,1.7260229761885262
1160,2.0307819918961143,-2.0633463267756205,-1.641441820327584,2.097884674752897,-1.7019969439524625,1.195433373684831,-2.2702460703094736,2.9258065478020203,-1.0111315012410602,-0.3105958098589814,1.0577270256070017,-1.2617501683709884,-2.5601367035627853,1.9399686504443991,-0.31365781555016925,0.6043985147436035,-2.270589967117716,-0.09474050845703141,2.2950407761419953,1.7259982144809303
1170,2.0307710324211197,-2.0633249606634276,-1.6414447929743097,2.097864619524873,-1.7019784917015552,1.1954182023098094,-2.270260117845391,2.925816130824549,-1.0111166028831862,-0.3105958098589814,1.0577270256070017,-1.2617501683709884,-2.5601367035627853,1.9399686504443991,-0.31365781555016925,0.6043985147436035,-2.270589967117716,-0.09474050845703141,2.2950407761419953,1.7259756393335024
1180,2.030760947904693,-2.063288350842016,-1.6414505048634815,2.09784341643949,-1.701950084994138,1.1953984808524116,-2.270280680593146,2.9258164073088997,-1.011084259246465,-0.3105958098589814,1.0577270256070017,-1.2617501683709884,-2.5601367035627853,1.9399686504443991,-0.31365781555016925,0.6043985147436035,-2.270589967117716,-0.09474050845703141,2.2950407761419953,1.7259460591261822
1190,2.0307865037022443,-2.0632699794907365,-1.6414788600250612,2.097809582101228,-1.7018698086977653,1.1953438821259954,-2.2703407922634424,2.925840805891538,-1.0109984384671526,-0.3105958098589814,1.0577270256070017,-1.2617501683709884,-2.5601367035627853,1.9399686504443991,-0.31365781555016925,0.6043985147436035,-2.270589967117716,-0.09474050845703141,2.2950407761419953,1.7258793601438023
1200,2.030799639337702,-2.063264559435823,-1.6415207274156511,2.0977644880651405,-1.7017936734284551,1.1952765568859036,-2.270413560962162,2.925888756037179,-1.0109174257198537,-0.3105958098589814,1.0577270256070017,-1.2617501683709884,-2.5601367035627853,1.9399686504443991,-0.31365781555016925,0.6043985147436035,-2.270589967117716,-0.09474050845703141,2.2950407761419953,1.7258060435103315
1210,2.0307251788364984,-2.0632413241345984,-1.6415957031139694,2.0976737430447474,-1.701754424613696,1.1952001074089886,-2.2704903499365106,2.925952590966735,-1.0108490483831472,-0.3105958098589814,1.0577270256070017,-1.2617501683709884,-2.5601367035627853,1.9399686504443991,-0.31365781555016925,0.6043985147436035,-2.270589967117716,-0.09474050845703141,2.2950407761419953,1.725737193769974
1220,2.0307001853278956,-2.06322228682834,-1.6416323826213943,2.097632692835765,-1.7017209646687543,1.195158045566303,-2.2705328435061554,2.9259838657849895,-1.0108016523737622,-0.3105958098589814,1.0577270256070017,-1.2617501683709884,-2.5601367035627853,1.9399686504443991,-0.31365781555016925,0.6043985147436035,-2.270589967117716,-0.09474050845703141,2.2950407761419953,1.7256957330782452
1230,2.030682584877011,-2.063210012095244,-1.6416519729758738,2.0976079386722875,-1.7016982026575427,1.1951298488083628,-2.2705620708997003,2.9260019679096314,-1.010767909886772,-0.3105958098589814,1.0577270256070017,-1.2617501683709884,-2.5601367035627853,1.9399686504443991,-0.31365781555016925,0.6043985147436035,-2.270589967117716,-0.09474050845703141,2.2950407761419953,1.7256698071228882
1240,2.0306817047587566,-2.063204428971149,-1.641659719985446,2.0975910595537206,-1.7016757431155265,1.1951074789621408,-2.2705870713236265,2.9260159043424285,-1.0107391755461785,-0.3105958098589814,1.0577270256070017,-1.2617501683709884,-2.5601367035627853,1.9399686504443991,-0.31365781555016925,0.6043985147436035,-2.270589967117716,-0.09474050845703141,2.2950407761419953,1.7256488998047204
1250,2.030676278926027,-2.0631968272035284,-1.6416656219196397,2.0975763915566694,-1.7016642386867888,1.1950918591198845,-2.2706038293704163,2.9260216660310676,-1.010716899214796,-0.3105958098589814,1.0577270256070017,-1.2617501683709884,-2.5601367035627853,1.9399686504443991,-0.31365781555016925,0.6043985147436035,-2.270589967117716,-0.09474050845703141,2.2950407761419953,1.7256369328499859
1260,2.030680254765757,-2.063195338335731,-1.6416595143493449,2.097569370574817,-1.7016607131452381,1.1950876902890053,-2.270610129064674,2.9260195751542533,-1.010705344973667,-0.3105958098589814,1.0577270256070017,-1.2617501683709884,-2.5601367035627853,1.9399686504443991,-0.31365781555016925,0.6043985147436035,-2.270589967117716,-0.09474050845703141,2.2950407761419953,1.7256364655955163
1270,2.0306820550472553,-2.063194874109092,-1.641645440034922,2.0975732779636154,-1.701666229534652,1.1950973342688131,-2.2706054114892815,2.926014867395735,-1.010706735489861,-0.3105958098589814,1.0577270256070017,-1.2617501683709884,-2.5601367035627853,1.9399686504443991,-0.31365781555016925,0.6043985147436035,-2.270589967117716,-0.09474050845703141,2.2950407761419953,1.7256474180084145
1280,2.030697438051859,-2.0632036421211155,-1.6416243946586475,2.0975887590344713,-1.7016753354694907,1.1951142987876826,-2.2705936040286603,2.92600292272305,-1.010715099474943,-0.3105958098589814,1.0577270256070017,-1.2617501683709884,-2.5601367035627853,1.9399686504443991,-0.31365781555016925,0.6043985147436035,-2.270589967117716,-0.09474050845703141,2.2950407761419953,1.725666646688996
1290,2.030713327773715,-2.063186788749297,-1.6415903227077917,2.0976006326811447,-1.7016818899821509,1.1951305552142664,-2.270579706016556,2.92598531519771,-1.0107218817108161,-0.3105958098589814,1.0577270256070017,-1.2617501683709884,-2.5601367035627853,1.9399686504443991,-0.31365781555016925,0.6043985147436035,-2.270589967117716,-0.09474050845703141,2.2950407761419953,1.7256850676746056
1300,2.0307184022111806,-2.063203396536019,-1.641565639277278,2.0976197274598922,-1.7017066792860809,1.1951633042580603,-2.270553252353181,2.925953432921273,-1.010739769723541,-0.3105958098589814,1.0577270256070017,-1.2617501683709884,-2.5601367035627853,1.9399686504443991,-0.31365781555016925,0.6043985147436035,-2.270589967117716,-0.09474050845703141,2.2950407761419953,1.7257185063771339
1310,2.03071749905239,-2.0632293814668383,-1.641547369835977,2.0976276920377197,-1.7017472308533759,1.1952004520575612,-2.2705193710469262,2.925911378444386,-1.0107611607170062,-0.3105958098589814,1.0577270256070017,-1.2617501683709884,-2.5601367035627853,1.9399686504443991,-0.31365781555016925,0.6043985147436035,-2.270589967117716,-0.09474050845703141,2.2950407761419953,1.725761715688257
1320,2.0307553624816577,-2.063291638096664,-1.6415005703503596,2.097647507880221,-1.7017856205306559,1.1952488602904292,-2.270476801321963,2.9258558778582615,-1.0107866761045257,-0.3105958098589814,1.0577270256070017,-1.2617501683709884,-2.5601367035627853,1.9399686504443991,-0.31365781555016925,0.6043985147436035,-2.270589967117716,-0.09474050845703141,2.2950407761419953,1.7258130013734145
1330,2.030778702700229,-2.0633717498416426,-1.6414618740259626,2.097661285480634,-1.7018436717015484,1.1952982423675067,-2.27043467566108,2.9258274236432964,-1.0108316909565997,-0.3105958098589814,1.0577270256070017,-1.2617501683709884,-2.5601367035627853,1.9399686504443991,-0.31365781555016925,0.6043985147436035,-2.270589967117716,-0.09474050845703141,2.2950407761419953,1.7258705007899602
1340,2.0308313088535495,-2.063420811517449,-1.6413703863391251,2.097687681274806,-1.7018842347026555,1.1953622616987643,-2.2703912074391708,2.9258272735694466,-1.0108916697075792,-0.3105958098589814,1.0577270256070017,-1.2617501683709884,-2.5601367035627853,1.9399686504443991,-0.31365781555016925,0.6043985147436035,-2.270589967117716,-0.09474050845703141,2.2950407761419953,1.7259321484460184
1350,2.0309404552642354,-2.063473352144925,-1.6412572177725477,2.0977691288525193,-1.7019243537665865,1.1954488136002728,-2.270322364151491,2.9257895508788168,-1.0109624769762748,-0.3105958098589814,1.0577270256070017,-1.2617501683709884,-2.5601367035627853,1.9399686504443991,-0.31365781555016925,0.6043985147436035,-2.270589967117716,-0.09474050845703141,2.2950407761419953,1.72601884213633
1360,2.031080235961207,-2.063413893853674,-1.6410770708869713,2.0978635281775713,-1.7019619421253829,1.1955557556155958,-2.270235767248956,2.9257098217951154,-1.0110302228774843,-0.3105958098589814,1.0577270256070017,-1.2617501683709884,-2.5601367035627853,1.9399686504443991,-0.31365781555016925,0.6043985147436035,-2.270589967117716,-0.09474050845703141,2.2950407761419953,1.7261170218298587
1370,2.0311294918908955,-2.063438783451874,-1.640999045444817,2.097952362932573,-1.702063447977405,1.1956792935582097,-2.2701054215629495,2.9255380896162047,-1.0110987583245612,-0.3105958098589814,1.0577270256070017,-1.2617501683709884,-2.5601367035627853,1.9399686504443991,-0.31365781555016925,0.6043985147436035,-2.270589967117716,-0.09474050845703141,2.2950407761419953,1.7262465735660808
1380,2.0312169978158874,-2.0635299214818756,-1.6408737555791888,2.0980333396930977,-1.7021794568504491,1.195813845631768,-2.269985453964333,2.9254347985997344,-1.0111983742951736,-0.3105958098589814,1.0577270256070017,-1.2617501683709884,-2.5601367035627853,1.9399686504443991,-0.31365781555016925,0.6043985147436035,-2.270589967117716,-0.09474050845703141,2.2950407761419953,1.7263919902546088
1390,2.0313736081454628,-2.063527552423959,-1.6406177097150456,2.098104732163518,-1.702288147502681,1.1959639612957764,-2.269850419837437,2.9253167628266046,-1.0113014294870217,-0.3105958098589814,1.0577270256070017,-1.2617501683709884,-2.5601367035627853,1.9399686504443991,-0.31365781555016925,0.6043985147436035,-2.270589967117716,-0.09474050845703141,2.2950407761419953,1.7265582409020792
1400,2.0314454434887597,-2.063492836033982,-1.6404370369519532,2.098185401277294,-1.7024265145481308,1.196139387841488,-2.2696914421155725,2.9251815053675463,-1.0114229636052587,-0.3105958098589814,1.0577270256070017,-1.2617501683709884,-2.5601367035627853,1.9399686504443991,-0.31365781555016925,0.6043985147436035,-2.270589967117716,-0.09474050845703141,2.2950407761419953,1.72675812062001
1410,2.031530256023319,-2.0634378147920893,-1.640225544007745,2.0983199064459046,-1.702639929200567,1.1963868523005128,-2.2694522803640136,2.924960449517762,-1.01159175726475,-0.3105958098589814,1.0577270256070017,-1.2617501683709884,-2.5601367035627853,1.9399686504443991,-0.31365781555016925,0.6043985147436035,-2.270589967117716,-0.09474050845703141,2.2950407761419953,1.7270483923128062
1420,2.0316149635396408,-2.063382771859537,-1.640004247611169,2.098473029230025,-1.7027840352461416,1.196617987502456,-2.269242434006361,2.9247758473414316,-1.011713559397294,-0.3105958098589814,1.0577270256070017,-1.2617501683709884,-2.5601367035627853,1.9399686504443991,-0.31365781555016925,0.6043985147436035,-2.270589967117716,-0.09474050845703141,2.2950407761419953,1.7272942759979102
1430,2.0317730280095265,-2.063191256790031,-1.639705498658962,2.0986724799622203,-1.7029374380739795,1.1968781617357915,-2.269008979419742,2.9246437756392063,-1.0119110006272583,-0.3105958098589814,1.0577270256070017,-1.2617501683709884,-2.5601367035627853,1.9399686504443991,-0.31365781555016925,0.6043985147436035,-2.270589967117716,-0.09474050845703141,2.2950407761419953,1.7275722396495985
1440,2.03189585522906,-2.063178870701488,-1.6394900330016955,2.098762144862298,-1.7030580278062974,1.1970942614796338,-2.2688488125126933,2.924616361944664,-1.012073099842218,-0.3105958098589814,1.0577270256070017,-1.2617501683709884,-2.5601367035627853,1.9399686504443991,-0.31365781555016925,0.6043985147436035,-2.270589967117716,-0.09474050845703141,2.2950407761419953,1.7278107698213017
1450,2.0321826765959394,-2.063165863187602,-1.6392290306504118,2.098813089847969,-1.7031151045882853,1.197233520351459,-2.268737550573771,2.924571583611185,-1.0121594791040789,-0.3105958098589814,1.0577270256070017,-1.2617501683709884,-2.5601367035627853,1.9399686504443991,-0.31365781555016925,0.6043985147436035,-2.270589967117716,-0.09474050845703141,2.2950407761419953,1.728007538676817
1460,2.0322471670243223,-2.063056897300138,-1.639136645324905,2.0986977397759614,-1.703204707408452,1.1972548179411022,-2.268702304646799,2.9245318872835084,-1.01210820354576,-0.3105958098589814,1.0577270256070017,-1.2617501683709884,-2.5601367035627853,1.9399686504443991,-0.31365781555016925,0.6043985147436035,-2.270589967117716,-0.09474050845703141,2.2950407761419953,1.7281458036894155
1470,2.0322245212696113,-2.0629434081009905,-1.6391349489401477,2.098500898657749,-1.7032389610833294,1.197205370731256,-2.26874116703629,2.9245616908936998,-1.0119849532281222,-0.3105958098589814,1.0577270256070017,-1.2617501683709884,-2.5601367035627853,1.9399686504443991,-0.31365781555016925,0.6043985147436035,-2.270589967117716,-0.09474050845703141,2.2950407761419953,1.7282258946791067
1480,2.0322494938460314,-2.06283812258038,-1.6392120153353662,2.098267847875533,-1.7031819062164033,1.197057563088901,-2.2688705739638193,2.92460507625154,-1.011739859522035,-0.3105958098589814,1.0577270256070017,-1.2617501683709884,-2.5601367035627853,1.9399686504443991,-0.31365781555016925,0.6043985147436035,-2.270589967117716,-0.09474050845703141,2.2950407761419953,1.7282164899067178
1490,2.0322326049099493,-2.0626358987138818,-1.6392957777639028,2.098020513435764,-1.7030311195077248,1.1968587692806292,-2.2690725325782544,2.9247768685724718,-1.0114589243647512,-0.3105958098589814,1.0577270256070017,-1.2617501683709884,-2.5601367035627853,1.9399686504443991,-0.31365781555016925,0.6043985147436035,-2.270589967117716,-0.09474050845703141,2.2950407761419953,1.728120879179009
1500,2.0321858226394864,-2.0624289645839413,-1.6394757972728566,2.0977134234255113,-1.7028433099432043,1.1965782695808287,-2.2693471095425997,2.9250357773122255,-1.011145437813914,-0.3105958098589814,1.0577270256070017,-1.2617501683709884,-2.5601367035627853,1.9399686504443991,-0.31365781555016925,0.6043985147436035,-2.270589967117716,-0.09474050845703141,2.2950407761419953,1.7279474590453028
1510,2.032079302472853,-2.062298579291608,-1.639699185337037,2.0974193083182473,-1.702689554834154,1.196317828849162,-2.2696014861741816,2.92526927875575,-1.0108522499166837,-0.3105958098589814,1.0577270256070017,-1.2617501683709884,-2.5601367035627853,1.9399686504443991,-0.31365781555016925,0.6043985147436035,-2.270589967117716,-0.09474050845703141,2.2950407761419953,1.727773877899952
1520,2.0319816046974144,-2.062133471219786,-1.6399207314414161,2.0972013815474497,-1.7024943215964237,1.1960838529060902,-2.2698264400480106,2.9254326839545124,-1.0105588910365513,-0.3105958098589814,1.0577270256070017,-1.2617501683709884,-2.5601367035627853,1.9399686504443991,-0.31365781555016925,0.6043985147436035,-2.270589967117716,-0.09474050845703141,2.2950407761419953,1.727589369434538
1530,2.031853813199069,-2.061940259994559,-1.6401035912581112,2.096919579720703,-1.7023119177084363,1.1958452090301575,-2.2700559305037546,2.925571901422155,-1.0102468135894076,-0.3105958098589814,1.0577270256070017,-1.2617501683709884,-2.5601367035627853,1.9399686504443991,-0.31365781555016925,0.6043985147436035,-2.270589967117716,-0.09474050845703141,2.2950407761419953,1.7274001771094425
1540,2.031718982350403,-2.0618137548338598,-1.6403083669679532,2.096643226341294,-1.7021366487426854,1.1956063099785135,-2.270272153106177,2.925698697822923,-1.0099369688978934,-0.3105958098589814,1.0577270256070017,-1.2617501683709884,-2.5601367035627853,1.9399686504443991,-0.31365781555016925,0.6043985147436035,-2.270589967117716,-0.09474050845703141,2.2950407761419953,1.7272063564102926
1550,2.031650153310868,-2.061728138685664,-1.6404557869754228,2.096493036720666,-1.7019531585888135,1.1953789534098307,-2.27048636869512,2.925898100303502,-1.009695746209047,-0.3105958098589814,1.0577270256070017,-1.2617501683709884,-2.5601367035627853,1.9399686504443991,-0.31365781555016925,0.6043985147436035,-2.270589967117716,-0.09474050845703141,2.2950407761419953,1.7270152247459019
1560,2.031586594950796,-2.0617133705277806,-1.6406572077685098,2.0963671572670304,-1.7018217035363563,1.1951853522089841,-2.270673627394532,2.9261255633021523,-1.0095260838779265,-0.3105958098589814,1.0577270256070017,-1.2617501683709884,-2.5601367035627853,1.9399686504443991,-0.31365781555016925,0.6043985147436035,-2.270589967117716,-0.09474050845703141,2.2950407761419953,1.726863252118914
1570,2.0316261837033176,-2.061755852696728,-1.640802656260656,2.096241793067755,-1.7016967851450506,1.1950132198635048,-2.2708376223767925,2.926283775692059,-1.0093687662878335,-0.3105958098589814,1.0577270256070017,-1.2617501683709884,-2.5601367035627853,1.9399686504443991,-0.31365781555016925,0.6043985147436035,-2.270589967117716,-0.09474050845703141,2.2950407761419953,1.7267378107025702
1580,2.0316850945803124,-2.061921019961391,-1.6409711103539353,2.0961265090065653,-1.701610349372497,1.194867011396723,-2.2709770889037726,2.9264127866314547,-1.0092446169228253,-0.3105958098589814,1.0577270256070017,-1.2617501683709884,-2.5601367035627853,1.9399686504443991,-0.31365781555016925,0.6043985147436035,-2.270589967117716,-0.09474050845703141,2.2950407761419953,1.7266479325725868
1590,2.031689429598685,-2.0620695466441092,-1.6411053488697636,2.0960211683821575,-1.701553482810894,1.194761706309851,-2.2710784687920027,2.9264843272420005,-1.009134423413474,-0.3105958098589814,1.0577270256070017,-1.2617501683709884,-2.5601367035627853,1.9399686504443991,-0.31365781555016925,0.6043985147436035,-2.270589967117716,-0.09474050845703141,2.2950407761419953,1.726586725628393
1600,2.0316961220870517,-2.062181496156203,-1.6412102024821562,2.095927926694119,-1.7014999154558343,1.1946642900097377,-2.2711773902893095,2.926589057867009,-1.0090502439632343,-0.3105958098589814,1.0577270256070017,-1.2617501683709884,-2.5601367035627853,1.9399686504443991,-0.31365781555016925,0.6043985147436035,-2.270589967117716,-0.09474050845703141,2.2950407761419953,1.7265270406169944
1610,2.031693169434528,-2.0621580006964986,-1.6412772649451721,2.0958891696445177,-1.7014358126213276,1.19458681801634,-2.271253544675975,2.926699304137383,-1.0089986178548294,-0.3105958098589814,1.0577270256070017,-1.2617501683709884,-2.5601367035627853,1.9399686504443991,-0.31365781555016925,0.6043985147436035,-2.270589967117716,-0.09474050845703141,2.2950407761419953,1.7264751169738222
1620,2.031694404709946,-2.062174275154017,-1.6413243061512566,2.095885686030233,-1.7014297753530803,1.1945531619468936,-2.271290197766994,2.9267795871129763,-1.009002398493311,-0.3105958098589814,1.0577270256070017,-1.2617501683709884,-2.5601367035627853,1.9399686504443991,-0.31365781555016925,0.6043985147436035,-2.270589967117716,-0.09474050845703141,2.2950407761419953,1.7264609449828145
1630,2.0317025589555064,-2.0622705149939513,-1.641374037480798,2.0959323713998628,-1.7014805211059916,1.194574816629599,-2.271262188795152,2.9267929931813814,-1.0090761896412546,-0.3105958098589814,1.0577270256070017,-1.2617501683709884,-2.5601367035627853,1.9399686504443991,-0.31365781555016925,0.6043985147436035,-2.270589967117716,-0.09474050845703141,2.2950407761419953,1.7264945903343043
1640,2.0316281768642015,-2.0623700240474503,-1.6414640012997268,2.0959695255908426,-1.7015839293831774,1.1945963920504776,-2.2712180293793924,2.9268096942473494,-1.0091900224089871,-0.3105958098589814,1.0577270256070017,-1.2617501683709884,-2.5601367035627853,1.9399686504443991,-0.31365781555016925,0.6043985147436035,-2.270589967117716,-0.09474050845703141,2.2950407761419953,1.7265478542799173
1650,2.0315924433109878,-2.062392999450684,-1.6415409961460772,2.096067955469317,-1.701665955029124,1.1946302191859735,-2.271151836276984,2.9267974649491193,-1.0093157602274523,-0.3105958098589814,1.0577270256070017,-1.2617501683709884,-2.5601367035627853,1.9399686504443991,-0.31365781555016925,0.6043985147436035,-2.270589967117716,-0.09474050845703141,2.2950407761419953,1.72660722103886
1660,2.0316793724955944,-2.0625678751259975,-1.6415870067271956,2.0962054905677605,-1.7017576864753579,1.194691259820005,-2.271075793915159,2.926835042490723,-1.0095034957619222,-0.3105958098589814,1.0577270256070017,-1.2617501683709884,-2.5601367035627853,1.9399686504443991,-0.31365781555016925,0.6043985147436035,-2.270589967117716,-0.09474050845703141,2.2950407761419953,1.7266826100959203
1670,2.031621522643469,-2.0626477153130396,-1.641694784014728,2.0962564977914573,-1.7018535946403048,1.1947177020705555,-2.2710125520636506,2.926817919685382,-1.009622804833414,-0.3105958098589814,1.0577270256070017,-1.2617501683709884,-2.5601367035627853,1.9399686504443991,-0.31365781555016925,0.6043985147436035,-2.270589967117716,-0.09474050845703141,2.2950407761419953,1.7267351710288283
1680,2.0315702660636346,-2.06277434952363,-1.6418423353623153,2.0962930940837103,-1.70194516726529,1.1947305392191065,-2.270959945364879,2.9268012873392277,-1.0097300664648854,-0.3105958098589814,1.0577270256070017,-1.2617501683709884,-2.5601367035627853,1.9399686504443991,-0.31365781555016925,0.6043985147436035,-2.270589967117716,-0.09474050845703141,2.2950407761419953,1.726778624023124
1690,2.0315229080861985,-2.062887814392832,-1.6419413577857287,2.096331731976923,-1.702039098068343,1.194751586978941,-2.2709022775826364,2.926781055789234,-1.0098443371748056,-0.3105958098589814,1.0577270256070017,-1.2617501683709884,-2.5601367035627853,1.9399686504443991,-0.31365781555016925,0.6043985147436035,-2.270589967117716,-0.09474050845703141,2.2950407761419953,1.7268276003583782
1700,2.031470146441481,-2.062987222330249,-1.6420328934714163,2.0963473639806263,-1.7021422629683685,1.194760977610385,-2.2708536835617914,2.9267915317940245,-1.0099600325940492,-0.3105958098589814,1.0577270256070017,-1.2617501683709884,-2.5601367035627853,1.9399686504443991,-0.31365781555016925,0.6043985147436035,-2.270589967117716,-0.09474050845703141,2.2950407761419953,1.7268725768404398
1710,2.0313575809683915,-2.0630648892472068,-1.6421786617790166,2.0963806175578807,-1.7022580958333056,1.194777719989283,-2.2707956412310386,2.9267387470532347,-1.0100432745359917,-0.3105958098589814,1.0577270256070017,-1.2617501683709884,-2.5601367035627853,1.9399686504443991,-0.31365781555016925,0.6043985147436035,-2.270589967117716,-0.09474050845703141,2.2950407761419953,1.726916367956488
1720,2.031326901113696,-2.0631591948104524,-1.6422737988001057,2.096432071592977,-1.70235078638975,1.1948065431307087,-2.2707315987167735,2.926693088052359,-1.0101349470059882,-0.3105958098589814,1.0577270256070017,-1.2617501683709884,-2.5601367035627853,1.9399686504443991,-0.31365781555016925,0.6043985147436035,-2.270589967117716,-0.09474050845703141,2.2950407761419953,1.726960629105401
1730,2.0313801014041273,-2.063213731718939,-1.6423421630301855,2.0965119741922966,-1.7023665406145645,1.1947959121654983,-2.270722845477861,2.9267439161815183,-1.010201515807088,-0.3105958098589814,1.0577270256070017,-1.2617501683709884,-2.5601367035627853,1.9399686504443991,-0.31365781555016925,0.6043985147436035,-2.270589967117716,-0.09474050845703141,2.2950407761419953,1.7269720283389423
1740,2.031366112216702,-2.063215141047392,-1.642422531274054,2.0965448682483236,-1.702395267583678,1.194771373363586,-2.270716980239752,2.926793858728438,-1.0102540599771237,-0.3105958098589814,1.0577270256070017,-1.2617501683709884,-2.5601367035627853,1.9399686504443991,-0.31365781555016925,0.6043985147436035,-2.270589967117716,-0.09474050845703141,2.2950407761419953,1.7269733198518447
1750,2.031288978082479,-2.0632350696398167,-1.6425869083724625,2.096555796084382,-1.7024318865293226,1.1947363555659325,-2.2707141134701896,2.9268433384662256,-1.010295535007869,-0.3105958098589814,1.0577270256070017,-1.2617501683709884,-2.5601367035627853,1.9399686504443991,-0.31365781555016925,0.6043985147436035,-2.270589967117716,-0.09474050845703141,2.2950407761419953,1.7269708090261702
1760,2.0312374861098696,-2.0633610119433814,-1.6427194442531883,2.0965903909945127,-1.7024789593094318,1.1947144121160502,-2.2707085569061087,2.9269028888734416,-1.0103586839564718,-0.3105958098589814,1.0577270256070017,-1.2617501683709884,-2.5601367035627853,1.9399686504443991,-0.31365781555016925,0.6043985147436035,-2.270589967117716,-0.09474050845703141,2.2950407761419953,1.726979546428705
1770,2.031192537397451,-2.0634598499766783,-1.6428043428902037,2.09660202947761,-1.702532078996127,1.1947118145030717,-2.2706820296143295,2.9269080234944123,-1.0104100174568102,-0.3105958098589814,1.0577270256070017,-1.2617501683709884,-2.5601367035627853,1.9399686504443991,-0.31365781555016925,0.6043985147436035,-2.270589967117716,-0.09474050845703141,2.2950407761419953,1.7269943170930055
1780,2.0311803156683976,-2.063475998923057,-1.6428620455370644,2.096599743803305,-1.7025403343406145,1.1946731135037152,-2.2707039473535704,2.9270485374754567,-1.010464501261778,-0.3105958098589814,1.0577270256070017,-1.2617501683709884,-2.5601367035627853,1.9399686504443991,-0.31365781555016925,0.6043985147436035,-2.270589967117716,-0.09474050845703141,2.2950407761419953,1.7269822190939732
1790,2.031248290990269,-2.063493635936163,-1.6429258360542223,2.0965608953149553,-1.702531107658014,1.1945762770738602,-2.2707894619892244,2.9272949117756855,-1.0105083565791095,-0.3105958098589814,1.0577270256070017,-1.2617501683709884,-2.5601367035627853,1.9399686504443991,-0.31365781555016925,0.6043985147436035,-2.270589967117716,-0.09474050845703141,2.2950407761419953,1.7269507443365828
1800,2.0312335352212205,-2.0635998235150943,-1.6430620013260726,2.0965802413090584,-1.7025743687986539,1.1945430287041852,-2.270785051595474,2.927356587989189,-1.0105737979976763,-0.3105958098589814,1.0577270256070017,-1.2617501683709884,-2.5601367035627853,1.9399686504443991,-0.31365781555016925,0.6043985147436035,-2.270589967117716,-0.09474050845703141,2.2950407761419953,1.7269525628673483
1810,2.0311975970988674,-2.0636419240263644,-1.6431673155235562,2.0965736249410867,-1.7026260805132054,1.1945159696715961,-2.270770795802063,2.92737674598659,-1.0106274056383342,-0.3105958098589814,1.0577270256070017,-1.2617501683709884,-2.5601367035627853,1.9399686504443991,-0.31365781555016925,0.6043985147436035,-2.270589967117716,-0.09474050845703141,2.2950407761419953,1.7269573570501848
1820,2.031122671308638,-2.0637793597183323,-1.643319495953126,2.096516692789666,-1.702663584813381,1.1944677072216834,-2.2707889519652227,2.927431527335335,-1.010637078859498,-0.3105958098589814,1.0577270256070017,-1.2617501683709884,-2.5601367035627853,1.9399686504443991,-0.31365781555016925,0.6043985147436035,-2.270589967117716,-0.09474050845703141,2.2950407761419953,1.726948431731327
1830,2.031103277794313,-2.0638397431298716,-1.6434452492174825,2.096496773062964,-1.702683857559964,1.1944279409638043,-2.270801659680623,2.9274614992161823,-1.0106536868563645,-0.3105958098589814,1.0577270256070017,-1.2617501683709884,-2.5601367035627853,1.9399686504443991,-0.31365781555016925,0.6043985147436035,-2.270589967117716,-0.09474050845703141,2.2950407761419953,1.7269420703420375
1840,2.0309967159503177,-2.0640101790798333,-1.6436633523493458,2.0963857072985426,-1.7027190072722962,1.1943463195756256,-2.2708452801664945,2.9275235886906916,-1.0106337172636768,-0.3105958098589814,1.0577270256070017,-1.2617501683709884,-2.5601367035627853,1.9399686504443991,-0.31365781555016925,0.6043985147436035,-2.270589967117716,-0.09474050845703141,2.2950407761419953,1.726925831771639
1850,2.0308016478682767,-2.064174170741669,-1.6439274583103094,2.096299950990766,-1.70275018619087,1.194273956568392,-2.2708841833237856,2.9275881258278718,-1.0106069970989136,-0.3105958098589814,1.0577270256070017,-1.2617501683709884,-2.5601367035627853,1.9399686504443991,-0.31365781555016925,0.6043985147436035,-2.270589967117716,-0.09474050845703141,2.2950407761419953,1.7269018714942266
1860,2.030558630130109,-2.0642115837715567,-1.6441540690629466,2.0961513109599785,-1.7027857674698106,1.194165134443553,-2.2709593299694335,2.9277149474119604,-1.0105665781404674,-0.3105958098589814,1.0577270256070017,-1.2617501683709884,-2.5601367035627853,1.9399686504443991,-0.31365781555016925,0.6043985147436035,-2.270589967117716,-0.09474050845703141,2.2950407761419953,1.7268678652758367
1870,2.0304691797469356,-2.0643398942310913,-1.6443218964316197,2.0960954383418806,-1.7028215972385752,1.1941075781130035,-2.2709859456322965,2.927765072550226,-1.0105632024562845,-0.3105958098589814,1.0577270256070017,-1.2617501683709884,-2.5601367035627853,1.9399686504443991,-0.31365781555016925,0.6043985147436035,-2.270589967117716,-0.09474050845703141,2.2950407761419953,1.7268569290521276
1880,2.0304872882186307,-2.0644756857314794,-1.6444722976524024,2.096063715880911,-1.7028217300028154,1.1940358977463965,-2.2710225258160466,2.927838781775323,-1.0105614938832643,-0.3105958098589814,1.0577270256070017,-1.2617501683709884,-2.5601367035627853,1.9399686504443991,-0.31365781555016925,0.6043985147436035,-2.270589967117716,-0.09474050845703141,2.2950407761419953,1.7268432181651394
1890,2.030474223383882,-2.0644191422555678,-1.6445741537138792,2.0960161534608224,-1.702826556995419,1.1939595413554818,-2.2710483105746637,2.9278669051902066,-1.010546533277626,-0.3105958098589814,1.0577270256070017,-1.2617501683709884,-2.5601367035627853,1.9399686504443991,-0.31365781555016925,0.6043985147436035,-2.270589967117716,-0.09474050845703141,2.2950407761419953,1.726823411791407
1900,2.030378252701891,-2.064348309076547,-1.644681359518487,2.09595823504277,-1.702827664880049,1.1939023807814724,-2.271071353933128,2.9279075691129983,-1.010519677736405,-0.3105958098589814,1.0577270256070017,-1.2617501683709884,-2.5601367035627853,1.9399686504443991,-0.31365781555016925,0.6043985147436035,-2.270589967117716,-0.09474050845703141,2.2950407761419953,1.72679925355056
1910,2.0302872289914555,-2.0642293943176497,-1.6447506669869543,2.095952111142676,-1.7028015035610926,1.1938651275562926,-2.2710871272615165,2.9279885156777277,-1.010515021748422,-0.3105958098589814,1.0577270256070017,-1.2617501683709884,-2.5601367035627853,1.9399686504443991,-0.31365781555016925,0.6043985147436035,-2.270589967117716,-0.09474050845703141,2.2950407761419953,1.7267687567059526
1920,2.030195099360843,-2.064227419053154,-1.6447731260805216,2.0960468898147124,-1.7028210632714649,1.1939273762865037,-2.271012901782614,2.9280155204754283,-1.0106397247507155,-0.3105958098589814,1.0577270256070017,-1.2617501683709884,-2.5601367035627853,1.9399686504443991,-0.31365781555016925,0.6043985147436035,-2.270589967117716,-0.09474050845703141,2.2950407761419953,1.7267614188825218
1930,2.0301701894791426,-2.0642454248055557,-1.6447387520170726,2.096160902949061,-1.7028287477074078,1.1940085225899337,-2.270938150210691,2.9280126550499577,-1.010746751418986,-0.3105958098589814,1.0577270256070017,-1.2617501683709884,-2.5601367035627853,1.9399686504443991,-0.31365781555016925,0.6043985147436035,-2.270589967117716,-0.09474050845703141,2.2950407761419953,1.7267566430043155
1940,2.030181692840425,-2.0642533136701555,-1.6446816219956657,2.0962969140196233,-1.7028452729946204,1.1941019434754636,-2.2708408438696437,2.927941233021033,-1.0108631747720664,-0.3105958098589814,1.0577270256070017,-1.2617501683709884,-2.5601367035627853,1.9399686504443991,-0.31365781555016925,0.6043985147436035,-2.270589967117716,-0.09474050845703141,2.2950407761419953,1.7267576501838429
1950,2.03018562535623,-2.0642214697633037,-1.6446114508276504,2.0964726135041034,-1.7028766936954736,1.1942265489954407,-2.270698674909299,2.927765529955221,-1.010989677463331,-0.3105958098589814,1.0577270256070017,-1.2617501683709884,-2.5601367035627853,1.9399686504443991,-0.31365781555016925,0.6043985147436035,-2.270589967117716,-0.09474050845703141,2.2950407761419953,1.7267653374131549
1960,2.030188408111611,-2.0642478932063644,-1.6445246407215683,2.096639595048178,-1.7028986082595068,1.194349759556229,-2.2705764790684806,2.9276701943634613,-1.0111464320204002,-0.3105958098589814,1.0577270256070017,-1.2617501683709884,-2.5601367035627853,1.9399686504443991,-0.31365781555016925,0.6043985147436035,-2.270589967117716,-0.09474050845703141,2.2950407761419953,1.7267616259902527
1970,2.0301645704765225,-2.064297482544363,-1.6444675401560047,2.0967760834846265,-1.702931895871927,1.1944635021130843,-2.2704615533410957,2.92755928867429,-1.0112919447696107,-0.3105958098589814,1.0577270256070017,-1.2617501683709884,-2.5601367035627853,1.9399686504443991,-0.31365781555016925,0.6043985147436035,-2.270589967117716,-0.09474050845703141,2.2950407761419953,1.7267519818958912
1980,2.03012837162217,-2.064346565961823,-1.6444355563122972,2.096920457457011,-1.702941993413475,1.194567807514562,-2.270359149263579,2.9274833847846002,-1.011432247689529,-0.3105958098589814,1.0577270256070017,-1.2617501683709884,-2.5601367035627853,1.9399686504443991,-0.31365781555016925,0.6043985147436035,-2.270589967117716,-0.09474050845703141,2.2950407761419953,1.7267304557915097
1990,2.0300987404526043,-2.0643957634353747,-1.6443984154707645,2.097043376000262,-1.7029306525971541,1.1946475817979538,-2.2702847001970157,2.927439488789043,-1.0115412345657109,-0.3105958098589814,1.0577270256070017,-1.2617501683709884,-2.5601367035627853,1.9399686504443991,-0.31365781555016925,0.6043985147436035,-2.270589967117716,-0.09474050845703141,2.2950407761419953,1.7266982896947891
2000,2.0300636032803903,-2.064428031607208,-1.6443683609561432,2.0971514493497283,-1.702917318024081,1.1947212600938226,-2.2702171627413428,2.9273876352605885,-1.01161937096046,-0.3105958098589814,1.0577270256070017,-1.2617501683709884,-2.5601367035627853,1.9399686504443991,-0.31365781555016925,0.6043985147436035,-2.270589967117716,-0.09474050845703141,2.2950407761419953,1.726666742947952
2010,2.0299783860770404,-2.0644570120419203,-1.644362707769659,2.097226299043854,-1.7028998360469352,1.1947771533400624,-2.2701642103020516,2.9273588257429326,-1.0116794552106094,-0.3105958098589814,1.0577270256070017,-1.2617501683709884,-2.5601367035627853,1.9399686504443991,-0.31365781555016925,0.6043985147436035,-2.270589967117716,-0.09474050845703141,2.2950407761419953,1.7266313750298965
2020,2.0299093033427287,-2.064485266002304,-1.6443547982687725,2.097304331766917,-1.702875995062588,1.1948218079087582,-2.270122994422519,2.927332762237843,-1.0117119951973494,-0.3105958098589814,1.0577270256070017,-1.2617501683709884,-2.5601367035627853,1.9399686504443991,-0.31365781555016925,0.6043985147436035,-2.270589967117716,-0.09474050845703141,2.2950407761419953,1.726591288645568
2030,2.0298380502144404,-2.0645139659808724,-1.6443597384624138,2.097370800543594,-1.702838907401791,1.194851236373355,-2.270098413785503,2.9273196846750977,-1.0117240458173753,-0.3105958098589814,1.0577270256070017,-1.2617501683709884,-2.5601367035627853,1.9399686504443991,-0.31365781555016925,0.6043985147436035,-2.270589967117716,-0.09474050845703141,2.2950407761419953,1.7265384841067177
2040,2.0297582987471845,-2.064590573660474,-1.6443940263096835,2.0974144191476904,-1.702791380114854,1.1948544172183873,-2.270102290581097,2.9273257282569745,-1.0117257337743937,-0.3105958098589814,1.0577270256070017,-1.2617501683709884,-2.5601367035627853,1.9399686504443991,-0.31365781555016925,0.6043985147436035,-2.270589967117716,-0.09474050845703141,2.2950407761419953,1.7264711273612567
2050,2.0296246319462194,-2.064678537340456,-1.6444792470019425,2.0974246542417734,-1.702751087119551,1.1948164515566615,-2.2701524076293786,2.92735723669657,-1.0117010108518423,-0.3105958098589814,1.0577270256070017,-1.2617501683709884,-2.5601367035627853,1.9399686504443991,-0.31365781555016925,0.6043985147436035,-2.270589967117716,-0.09474050845703141,2.2950407761419953,1.7263924957656285
2060,2.0295117099381876,-2.064727017300749,-1.6445989458726784,2.0973253187330707,-1.7027064678502335,1.1946832088632227,-2.2702825999042306,2.9274018806745103,-1.0115964199718883,-0.3105958098589814,1.0577270256070017,-1.2617501683709884,-2.5601367035627853,1.9399686504443991,-0.31365781555016925,0.6043985147436035,-2.270589967117716,-0.09474050845703141,2.2950407761419953,1.7263095847282286
2070,2.0294345069526667,-2.064855062588014,-1.644802499016412,2.0971929916032095,-1.7026163368510723,1.1944491456651265,-2.2705260647434877,2.9276007877963512,-1.0114553558859034,-0.3105958098589814,1.0577270256070017,-1.2617501683709884,-2.5601367035627853,1.9399686504443991,-0.31365781555016925,0.6043985147436035,-2.270589967117716,-0.09474050845703141,2.2950407761419953,1.7261976760397615
2080,2.0294149480081978,-2.0647473988520417,-1.6449128430432032,2.0969818973338468,-1.7024715787656248,1.1941593359459388,-2.270837510935289,2.9278489260412415,-1.0112117972107717,-0.3105958098589814,1.0577270256070017,-1.2617501683709884,-2.5601367035627853,1.9399686504443991,-0.31365781555016925,0.6043985147436035,-2.270589967117716,-0.09474050845703141,2.2950407761419953,1.726072466283309
2090,2.029334107825417,-2.0647319654707346,-1.6449800182444576,2.0969890479409927,-1.7024013519323595,1.1941021325789778,-2.2709048231705555,2.927941642974338,-1.0112102756166974,-0.3105958098589814,1.0577270256070017,-1.2617501683709884,-2.5601367035627853,1.9399686504443991,-0.31365781555016925,0.6043985147436035,-2.270589967117716,-0.09474050845703141,2.2950407761419953,1.725990782034087
2100,2.029290692012117,-2.0648331011213585,-1.6449714293154174,2.0972175924101077,-1.7023708833470803,1.194224557300307,-2.270786988724443,2.927858008644661,-1.0113881608300852,-0.3105958098589814,1.0577270256070017,-1.2617501683709884,-2.5601367035627853,1.9399686504443991,-0.31365781555016925,0.6043985147436035,-2.270589967117716,-0.09474050845703141,2.2950407761419953,1.7259216314767507
2110,2.0292644105830373,-2.064951450541249,-1.6449109180721697,2.097526979739993,-1.702312846160684,1.1943940316333659,-2.2706308002392053,2.927781177136382,-1.0116507725041999,-0.3105958098589814,1.0577270256070017,-1.2617501683709884,-2.5601367035627853,1.9399686504443991,-0.31365781555016925,0.6043985147436035,-2.270589967117716,-0.09474050845703141,2.2950407761419953,1.725822015270624
2120,2.029229680998624,-2.065019871913666,-1.6448143979174563,2.0978201387811612,-1.702247270742535,1.194563147566942,-2.2704852586283444,2.9277111621342806,-1.0118979488622717,-0.3105958098589814,1.0577270256070017,-1.2617501683709884,-2.5601367035627853,1.9399686504443991,-0.31365781555016925,0.6043985147436035,-2.270589967117716,-0.09474050845703141,2.2950407761419953,1.7257196815943874
2130,2.029105831446547,-2.0651162524081474,-1.6447470730321394,2.0980828443948183,-1.7021748230491232,1.1947349584646194,-2.270325196188763,2.9275906536609675,-1.0121295176622092,-0.3105958098589814,1.0577270256070017,-1.2617501683709884,-2.5601367035627853,1.9399686504443991,-0.31365781555016925,0.6043985147436035,-2.270589967117716,-0.09474050845703141,2.2950407761419953,1.725607727382907
2140,2.0289170797429663,-2.065196854935437,-1.6446964158424064,2.0983403253155744,-1.7021303494300142,1.1949199507113033,-2.2701568260185616,2.927520553482781,-1.012412452822363,-0.3105958098589814,1.0577270256070017,-1.2617501683709884,-2.5601367035627853,1.9399686504443991,-0.31365781555016925,0.6043985147436035,-2.270589967117716,-0.09474050845703141,2.2950407761419953,1.725492195331895
2150,2.0287553123776525,-2.0652934750053884,-1.6446279208118932,2.0986137435015175,-1.7021188695345564,1.195121880283445,-2.2699551626195635,2.9273777947516066,-1.0126983145728514,-0.3105958098589814,1.0577270256070017,-1.2617501683709884,-2.5601367035627853,1.9399686504443991,-0.31365781555016925,0.6043985147436035,-2.270589967117716,-0.09474050845703141,2.2950407761419953,1.7254025022062764
2160,2.0286435287570033,-2.0650866624653395,-1.6443637213271352,2.0989089435255117,-1.7020540792264838,1.1953556546413606,-2.269759909641016,2.9273031611391716,-1.0129908363750577,-0.3105958098589814,1.0577270256070017,-1.2617501683709884,-2.5601367035627853,1.9399686504443991,-0.31365781555016925,0.6043985147436035,-2.270589967117716,-0.09474050845703141,2.2950407761419953,1.7253168545278519
2170,2.0285929325721543,-2.0650395396072816,-1.6442013897144045,2.0991459574623397,-1.7020357491116413,1.1955610299614734,-2.2695789724229907,2.9271742414288187,-1.0132392995596529,-0.3105958098589814,1.0577270256070017,-1.2617501683709884,-2.5601367035627853,1.9399686504443991,-0.31365781555016925,0.6043985147436035,-2.270589967117716,-0.09474050845703141,2.2950407761419953,1.725266339342947
2180,2.0286165978857493,-2.065149153992918,-1.6440493272924297,2.099430756787297,-1.7020562332646,1.1957917080360314,-2.2693742615497836,2.9270808999193827,-1.0135705922604852,-0.3105958098589814,1.0577270256070017,-1.2617501683709884,-2.5601367035627853,1.9399686504443991,-0.31365781555016925,0.6043985147436035,-2.270589967117716,-0.09474050845703141,2.2950407761419953,1.7252381662752017
2190,2.028654509083089,-2.065184631383466,-1.6438323557173327,2.0998288238541103,-1.7021965447792828,1.1961442373580387,-2.269021033166922,2.9268075889716614,-1.0139888353820854,-0.3105958098589814,1.0577270256070017,-1.2617501683709884,-2.5601367035627853,1.9399686504443991,-0.31365781555016925,0.6043985147436035,-2.270589967117716,-0.09474050845703141,2.2950407761419953,1.7253728529982342
2200,2.0289592375836527,-2.0650955959092783,-1.6435201725003128,2.1000201842152912,-1.702347681670589,1.1963669836760666,-2.268806935029067,2.926627665710826,-1.0141762595986157,-0.3105958098589814,1.0577270256070017,-1.2617501683709884,-2.5601367035627853,1.9399686504443991,-0.31365781555016925,0.6043985147436035,-2.270589967117716,-0.09474050845703141,2.2950407761419953,1.725642720392551
2210,2.0291037971930326,-2.06504022369734,-1.643345692570441,2.100039876959787,-1.702683583381456,1.196532440591576,-2.2686320002127935,2.9265185231287623,-1.0143441101099862,-0.3105958098589814,1.0577270256070017,-1.2617501683709884,-2.5601367035627853,1.9399686504443991,-0.31365781555016925,0.6043985147436035,-2.270589967117716,-0.09474050845703141,2.2950407761419953,1.7259974355218253
2220,2.029388844221461,-2.0649960960110563,-1.6431525399550686,2.100066874347764,-1.7029455062283494,1.19666396374134,-2.268502394662629,2.9264001686956815,-1.0144215729576522,-0.3105958098589814,1.0577270256070017,-1.2617501683709884,-2.5601367035627853,1.9399686504443991,-0.31365781555016925,0.6043985147436035,-2.270589967117716,-0.09474050845703141,2.2950407761419953,1.7263521821418788
2230,2.029605226477345,-2.0649607784579507,-1.643057703755092,2.099954441941175,-1.703246039571845,1.196707275031108,-2.268434645421494,2.9262911982150612,-1.0143833645629043,-0.3105958098589814,1.0577270256070017,-1.2617501683709884,-2.5601367035627853,1.9399686504443991,-0.31365781555016925,0.6043985147436035,-2.270589967117716,-0.09474050845703141,2.2950407761419953,1.7267174977455528
2240,2.0298191588603864,-2.0649099900082946,-1.6430198577054032,2.0997281046551683,-1.703564865686816,1.1966713376330802,-2.268445341885163,2.926238289835289,-1.0142376123798298,-0.3105958098589814,1.0577270256070017,-1.2617501683709884,-2.5601367035627853,1.9399686504443991,-0.31365781555016925,0.6043985147436035,-2.270589967117716,-0.09474050845703141,2.2950407761419953,1.7270709464647678
2250,2.029931521092003,-2.0648473048520564,-1.6430211179441072,2.099452050704468,-1.7037584207250571,1.1965810505626229,-2.268514540768404,2.9262351866937366,-1.0140316393297573,-0.3105958098589814,1.0577270256070017,-1.2617501683709884,-2.5601367035627853,1.9399686504443991,-0.31365781555016925,0.6043985147436035,-2.270589967117716,-0.09474050845703141,2.2950407761419953,1.727350368175476
2260,2.030023646142903,-2.064742549190105,-1.64305298601308,2.099060174731078,-1.703921701565368,1.1964124997729184,-2.268673027365243,2.9262767413098922,-1.0137183065262174,-0.3105958098589814,1.0577270256070017,-1.2617501683709884,-2.5601367035627853,1.9399686504443991,-0.31365781555016925,0.6043985147436035,-2.270589967117716,-0.09474050845703141,2.2950407761419953,1.7276100864210324
2270,2.030110381466911,-2.0647357563116087,-1.6432101150393095,2.0986586445916204,-1.7040258608105514,1.196189534529641,-2.268893668153713,2.926408808795762,-1.013397014714255,-0.3105958098589814,1.0577270256070017,-1.2617501683709884,-2.5601367035627853,1.9399686504443991,-0.31365781555016925,0.6043985147436035,-2.270589967117716,-0.09474050845703141,2.2950407761419953,1.7277884165702064
2280,2.030060539516603,-2.064650652267983,-1.6434199461936896,2.098210841253686,-1.7041060913613615,1.1959369260198554,-2.269137397316205,2.926543216417093,-1.013055888419678,-0.3105958098589814,1.0577270256070017,-1.2617501683709884,-2.5601367035627853,1.9399686504443991,-0.31365781555016925,0.6043985147436035,-2.270589967117716,-0.09474050845703141,2.2950407761419953,1.727908276146886
2290,2.030153156430981,-2.0644846566458805,-1.6435049900011578,2.0978339220527635,-1.7041073792777512,1.1956850772214425,-2.269397781989241,2.9266633609768506,-1.0126944604507635,-0.3105958098589814,1.0577270256070017,-1.2617501683709884,-2.5601367035627853,1.9399686504443991,-0.31365781555016925,0.6043985147436035,-2.270589967117716,-0.09474050845703141,2.2950407761419953,1.727981951321909
2300,2.0302153479463425,-2.064304055592617,-1.643610532735835,2.097466685146675,-1.7040705723875118,1.1954083719573092,-2.2696759402403157,2.9268209948345527,-1.0123405709567157,-0.3105958098589814,1.0577270256070017,-1.2617501683709884,-2.5601367035627853,1.9399686504443991,-0.31365781555016925,0.6043985147436035,-2.270589967117716,-0.09474050845703141,2.2950407761419953,1.728004727442633
2310,2.0303124089676685,-2.0641504956818775,-1.6436830616108828,2.0971427081666922,-1.703952643299479,1.1951317088321822,-2.269961690213953,2.926977766635245,-1.0119651113842916,-0.3105958098589814,1.0577270256070017,-1.2617501683709884,-2.5601367035627853,1.9399686504443991,-0.31365781555016925,0.6043985147436035,-2.270589967117716,-0.09474050845703141,2.2950407761419953,1.727974382962785
2320,2.030270528615594,-2.064087513960482,-1.6438497964706542,2.0968075234579144,-1.7038592237985573,1.1948678694388484,-2.2702244397284863,2.9271688225149846,-1.0116382688163577,-0.3105958098589814,1.0577270256070017,-1.2617501683709884,-2.5601367035627853,1.9399686504443991,-0.31365781555016925,0.6043985147436035,-2.270589967117716,-0.09474050845703141,2.2950407761419953,1.7279224537203892
2330,2.0302483855367703,-2.063949944234743,-1.6440056258005318,2.096572937753418,-1.7037634415659437,1.1946432134140568,-2.270459881796485,2.9273983113165056,-1.011397474561112,-0.3105958098589814,1.0577270256070017,-1.2617501683709884,-2.5601367035627853,1.9399686504443991,-0.31365781555016925,0.6043985147436035,-2.270589967117716,-0.09474050845703141,2.2950407761419953,1.7278651569236643
2340,2.030193214414215,-2.063982244189693,-1.6442141782425883,2.0963337396709756,-1.703702564361545,1.194429691780343,-2.270654911554214,2.927581953719295,-1.0111954934929028,-0.3105958098589814,1.0577270256070017,-1.2617501683709884,-2.5601367035627853,1.9399686504443991,-0.31365781555016925,0.6043985147436035,-2.270589967117716,-0.09474050845703141,2.2950407761419953,1.7278144256180479
2350,2.0301882468931876,-2.063949106427443,-1.6443119689325942,2.0961209457558727,-1.7036377051976042,1.1942601521009075,-2.2708211005295587,2.927712047808009,-1.0109914392666526,-0.3105958098589814,1.0577270256070017,-1.2617501683709884,-2.5601367035627853,1.9399686504443991,-0.31365781555016925,0.6043985147436035,-2.270589967117716,-0.09474050845703141,2.2950407761419953,1.7277766179994445
2360,2.030138528588327,-2.0638938542740908,-1.6444509441788029,2.0959512870038695,-1.7035954237856874,1.1941084641811124,-2.2709658358615563,2.9278483837774614,-1.0108325600939831,-0.3105958098589814,1.0577270256070017,-1.2617501683709884,-2.5601367035627853,1.9399686504443991,-0.31365781555016925,0.6043985147436035,-2.270589967117716,-0.09474050845703141,2.2950407761419953,1.727737409574929
2370,2.03015179807329,-2.063900726621327,-1.6445367891803937,2.0958419395598265,-1.7035452413275167,1.1939934443536933,-2.2710853643850766,2.9279962474332435,-1.0107277212206842,-0.3105958098589814,1.0577270256070017,-1.2617501683709884,-2.5601367035627853,1.9399686504443991,-0.31365781555016925,0.6043985147436035,-2.270589967117716,-0.09474050845703141,2.2950407761419953,1.7277063947845548
2380,2.0300862112591505,-2.0639018944980196,-1.6446332478814092,2.095738673548212,-1.7035114990511115,1.1938887956681095,-2.2711722482516565,2.928077331890305,-1.0106243225968896,-0.3105958098589814,1.0577270256070017,-1.2617501683709884,-2.5601367035627853,1.9399686504443991,-0.31365781555016925,0.6043985147436035,-2.270589967117716,-0.09474050845703141,2.2950407761419953,1.7276754773903458
2390,2.030082340422492,-2.063875427362683,-1.644678229606764,2.095692034798072,-1.7034729262117099,1.1938245857563534,-2.271227256778196,2.928127318664706,-1.0105545344021472,-0.3105958098589814,1.0577270256070017,-1.2617501683709884,-2.5601367035627853,1.9399686504443991,-0.31365781555016925,0.6043985147436035,-2.270589967117716,-0.09474050845703141,2.2950407761419953,1.7276558391754018
2400,2.0300351263934067,-2.06382582657367,-1.6447540546165935,2.095660939818109,-1.7034635837365624,1.1937788101245996,-2.2712615538624874,2.9281593126109033,-1.0105188371193592,-0.3105958098589814,1.0577270256070017,-1.2617501683709884,-2.5601367035627853,1.9399686504443991,-0.31365781555016925,0.6043985147436035,-2.270589967117716,-0.09474050845703141,2.2950407761419953,1.727648322208918
2410,2.0300344206673877,-2.063844600451376,-1.6448055147504683,2.0956566565238015,-1.703461152019103,1.1937573464641902,-2.271274821509303,2.928178923079559,-1.010513829504955,-0.3105958098589814,1.0577270256070017,-1.2617501683709884,-2.5601367035627853,1.9399686504443991,-0.31365781555016925,0.6043985147436035,-2.270589967117716,-0.09474050845703141,2.2950407761419953,1.7276468430701368
2420,2.030096940611061,-2.0638640512096003,-1.6447885645497466,2.095725682191136,-1.7034669521966133,1.193792524863924,-2.2712361690559186,2.9281598138748524,-1.0105728993814764,-0.3105958098589814,1.0577270256070017,-1.2617501683709884,-2.5601367035627853,1.9399686504443991,-0.31365781555016925,0.6043985147436035,-2.270589967117716,-0.09474050845703141,2.2950407761419953,1.7276584853314438
2430,2.03010981334702,-2.063904811512864,-1.6447761650496024,2.0958261591600733,-1.7035045191523082,1.1938634157840662,-2.2711559175578393,2.9281247349569375,-1.0106987224485593,-0.3105958098589814,1.0577270256070017,-1.2617501683709884,-2.5601367035627853,1.9399686504443991,-0.31365781555016925,0.6043985147436035,-2.270589967117716,-0.09474050845703141,2.2950407761419953,1.7276778281210485
2440,2.030155827415825,-2.063955086571613,-1.6447354504857647,2.0959571651355113,-1.7035422710294887,1.1939595130545415,-2.2710573548990842,2.928096082731342,-1.0108598446285932,-0.3105958098589814,1.0577270256070017,-1.2617501683709884,-2.5601367035627853,1.9399686504443991,-0.31365781555016925,0.6043985147436035,-2.270589967117716,-0.09474050845703141,2.2950407761419953,1.7277001546022746
2450,2.0301964797615795,-2.0640406134769766,-1.644707748474797,2.0960946189005605,-1.7035805922890115,1.194055679466913,-2.2709533967278683,2.9280498421386607,-1.0110149964573996,-0.3105958098589814,1.0577270256070017,-1.2617501683709884,-2.5601367035627853,1.9399686504443991,-0.31365781555016925,0.6043985147436035,-2.270589967117716,-0.09474050845703141,2.2950407761419953,1.7277188269758161
2460,2.030196572770869,-2.064125621651139,-1.6446997153878482,2.096227918148525,-1.7036166566327897,1.1941511943604792,-2.2708464673263653,2.928005705357815,-1.0111701815236431,-0.3105958098589814,1.0577270256070017,-1.2617501683709884,-2.5601367035627853,1.9399686504443991,-0.31365781555016925,0.6043985147436035,-2.270589967117716,-0.09474050845703141,2.2950407761419953,1.727730290957019
2470,2.0301751303496727,-2.0642462294302737,-1.6446886959795348,2.0963629368203356,-1.7036715579402464,1.1942629781115606,-2.270729026121632,2.927947318649606,-1.0113459990553721,-0.3105958098589814,1.0577270256070017,-1.2617501683709884,-2.5601367035627853,1.9399686504443991,-0.31365781555016925,0.6043985147436035,-2.270589967117716,-0.09474050845703141,2.2950407761419953,1.727746576866243
2480,2.030111968505586,-2.0643339399573315,-1.6446998326541133,2.096499650321436,-1.7037220292878643,1.1943691139403279,-2.270601598098311,2.9278495007237515,-1.011510219212892,-0.3105958098589814,1.0577270256070017,-1.2617501683709884,-2.5601367035627853,1.9399686504443991,-0.31365781555016925,0.6043985147436035,-2.270589967117716,-0.09474050845703141,2.2950407761419953,1.727753202345303
2490,2.0300423124064904,-2.0644100436610966,-1.6447076110231593,2.0966153954728033,-1.7037610136778656,1.1944562288987948,-2.270496711421386,2.927789309496235,-1.0116644445620842,-0.3105958098589814,1.0577270256070017,-1.2617501683709884,-2.5601367035627853,1.9399686504443991,-0.31365781555016925,0.6043985147436035,-2.270589967117716,-0.09474050845703141,2.2950407761419953,1.7277487586455416
2500,2.0299708350983683,-2.0644704333417208,-1.6447159547093795,2.0967229998332213,-1.7037896434516444,1.194540033243911,-2.2704033651224025,2.927750361402163,-1.0118047188171737,-0.3105958098589814,1.0577270256070017,-1.2617501683709884,-2.5601367035627853,1.9399686504443991,-0.31365781555016925,0.6043985147436035,-2.270589967117716,-0.09474050845703141,2.2950407761419953,1.727741389776612
2510,2.029944484739055,-2.0645401672543087,-1.6447174732574188,2.0968353043059516,-1.7038044442301485,1.1946193244863088,-2.270321504341114,2.927725714840869,-1.0119352519121676,-0.3105958098589814,1.0577270256070017,-1.2617501683709884,-2.5601367035627853,1.9399686504443991,-0.31365781555016925,0.6043985147436035,-2.270589967117716,-0.09474050845703141,2.2950407761419953,1.7277344450651113
2520,2.0299449916866057,-2.0645810865905854,-1.6447021697248274,2.0969534152442164,-1.7038264881073883,1.1947041130000104,-2.270237497562776,2.9277065846249437,-1.0120762861294494,-0.3105958098589814,1.0577270256070017,-1.2617501683709884,-2.5601367035627853,1.9399686504443991,-0.31365781555016925,0.6043985147436035,-2.270589967117716,-0.09474050845703141,2.2950407761419953,1.7277328000829697
2530,2.029966443281751,-2.064635428245337,-1.6446845703611064,2.09706580745504,-1.7038431531102725,1.194777403823651,-2.2701586369754545,2.9276713320702137,-1.012195455843924,-0.3105958098589814,1.0577270256070017,-1.2617501683709884,-2.5601367035627853,1.9399686504443991,-0.31365781555016925,0.6043985147436035,-2.270589967117716,-0.09474050845703141,2.2950407761419953,1.7277354483160254
2540,2.0299814032026307,-2.0646798927070815,-1.6446855769811641,2.0971259220097926,-1.7038531693197216,1.194805443383512,-2.2701242778715027,2.927667573802581,-1.012257398749704,-0.3105958098589814,1.0577270256070017,-1.2617501683709884,-2.5601367035627853,1.9399686504443991,-0.31365781555016925,0.6043985147436035,-2.270589967117716,-0.09474050845703141,2.2950407761419953,1.7277443948112698
