10,-1.619487129687535,0.18121255269353298,-1.49569792862989,-1.6979346932615134,-2.7007345454600635,0.08099952570344306,1.2577624221265777,1.7862270657669659,1.5743883400348426,-2.8695504146754454,-0.10524231334578316,0.57755675093206,1.797558596044996,-1.8966553421056214,-0.16794699062698593,-2.2693383785418897,-1.8268331111962752,2.2173429077455697
20,-1.6192956913023684,0.18108180332761004,-1.495526180885898,-1.697723087513469,-2.7005909284495178,0.08112605444595518,1.2576950963455313,1.7860372061008676,1.574271829410218,-2.8695504146754454,-0.10524231334578316,0.57755675093206,1.797558596044996,-1.8966553421056214,-0.16794699062698593,-2.2693383785418897,-1.8268331111962752,2.2173429077455697
30,-1.6191781591623442,0.18093065252401228,-1.4952970365465152,-1.6975007602062266,-2.7005419403077036,0.08111134189113389,1.2577154673285682,1.785797592284794,1.5742662666670109,-2.8695504146754454,-0.10524231334578316,0.57755675093206,1.797558596044996,-1.8966553421056214,-0.16794699062698593,-2.2693383785418897,-1.8268331111962752,2.2173429077455697
40,-1.619083490342342,0.18075844423690804,-1.4950426420469891,-1.6972853965863595,-2.7006298723208277,0.08095664448028995,1.2577015450693954,1.785567554606945,1.5743931664677737,-2.8695504146754454,-0.10524231334578316,0.57755675093206,1.797558596044996,-1.8966553421056214,-0.16794699062698593,-2.2693383785418897,-1.8268331111962752,2.2173429077455697
50,-1.619169214765874,0.18052579127587612,-1.4947873769745375,-1.6970682180511378,-2.7008314629613888,0.08093038755898746,1.2579173395323726,1.78535934755791,1.5746099682504844,-2.8695504146754454,-0.10524231334578316,0.57755675093206,1.797558596044996,-1.8966553421056214,-0.16794699062698593,-2.2693383785418897,-1.8268331111962752,2.2173429077455697
60,-1.619420544160905,0.18049329949146184,-1.4947990727023368,-1.6970551274679124,-2.701033808291705,0.08088955686001295,1.2582056561027186,1.7852847563016025,1.574883702819364,-2.8695504146754454,-0.10524231334578316,0.57755675093206,1.797558596044996,-1.8966553421056214,-0.16794699062698593,-2.2693383785418897,-1.8268331111962752,2.2173429077455697
70,-1.6196194415002503,0.1804828030907279,-1.4949259434760374,-1.6970681463944486,-2.7013061290980813,0.08062268013567114,1.2583875019958428,1.785179115068865,1.5751848096051477,-2.8695504146754454,-0.10524231334578316,0.57755675093206,1.797558596044996,-1.8966553421056214,-0.16794699062698593,-2.2693383785418897,-1.8268331111962752,2.2173429077455697
80,-1.619693130118314,0.18025929889045644,-1.4948211973153012,-1.6968578344688265,-2.7016903086088457,0.08039064991872982,1.2585705966553686,1.784917207772759,1.575556432249843,-2.8695504146754454,-0.10524231334578316,0.57755675093206,1.797558596044996,-1.8966553421056214,-0.16794699062698593,-2.2693383785418897,-1.8268331111962752,2.2173429077455697
90,-1.6198364912065224,0.17985244880264795,-1.4945386029382624,-1.6965057410540225,-2.702081204533935,0.08032890143580426,1.258894460913863,1.7846291858646735,1.5759730978568676,-2.8695504146754454,-0.10524231334578316,0.57755675093206,1.797558596044996,-1.8966553421056214,-0.16794699062698593,-2.2693383785418897,-1.8268331111962752,2.2173429077455697
100,-1.6197426852180397,0.17956122007299494,-1.4942210781272782,-1.6961378013445605,-2.7024567976683938,0.08023756464509182,1.2592826983776397,1.7842999365021939,1.5763628672208798,-2.8695504146754454,-0.10524231334578316,0.57755675093206,1.797558596044996,-1.8966553421056214,-0.16794699062698593,-2.2693383785418897,-1.8268331111962752,2.2173429077455697
110,-1.6196163509235517,0.17919351425282465,-1.4938904535134319,-1.6957993058505654,-2.7027802949549105,0.07990741923833866,1.2594124501422623,1.783925773206155,1.5766619737431784,-2.8695504146754454,-0.10524231334578316,0.57755675093206,1.797558596044996,-1.8966553421056214,-0.16794699062698593,-2.2693383785418897,-1.8268331111962752,2.2173429077455697
120,-1.6195328672731164,0.1788275242355457,-1.493504662017654,-1.6954002630037714,-2.7032268075790564,0.07965802511373844,1.2597559711846036,1.7836128016021011,1.5770900719234058,-2.8695504146754454,-0.10524231334578316,0.57755675093206,1.797558596044996,-1.8966553421056214,-0.16794699062698593,-2.2693383785418897,-1.8268331111962752,2.2173429077455697
130,-1.6198237335256458,0.1785274307808332,-1.4931572430468136,-1.6950561141162923,-2.7036944736472246,0.07989690610026698,1.2601427441013346,1.7834462260508934,1.5775524455527385,-2.8695504146754454,-0.10524231334578316,0.57755675093206,1.797558596044996,-1.8966553421056214,-0.16794699062698593,-2.2693383785418897,-1.8268331111962752,2.2173429077455697
140,-1.6197932578135097,0.17805663446558442,-1.4926774138319867,-1.6945873758398495,-2.704121864111862,0.07990831530535794,1.2604823849528497,1.783129527310084,1.5779544768626843,-2.8695504146754454,-0.10524231334578316,0.57755675093206,1.797558596044996,-1.8966553421056214,-0.16794699062698593,-2.2693383785418897,-1.8268331111962752,2.2173429077455697
150,-1.6202052018868325,0.17746238323505759,-1.4920990883670797,-1.6940014016294813,-2.704690000193211,0.0797994028964354,1.260929532066348,1.7828859033878306,1.5785187659684479,-2.8695504146754454,-0.10524231334578316,0.57755675093206,1.797558596044996,-1.8966553421056214,-0.16794699062698593,-2.2693383785418897,-1.8268331111962752,2.2173429077455697
160,-1.6204888676526326,0.1769318125964895,-1.49159441301079,-1.6935044322119661,-2.7051588845521937,0.0793375236587141,1.2613369149489069,1.7823465767251032,1.5789910746821352,-2.8695504146754454,-0.10524231334578316,0.57755675093206,1.797558596044996,-1.8966553421056214,-0.16794699062698593,-2.2693383785418897,-1.8268331111962752,2.2173429077455697
170,-1.6205120254118897,0.17641405009329275,-1.491100027297612,-1.6930180207621115,-2.7055984249367766,0.07888187433578539,1.2617545984604324,1.7819419909100223,1.5794208898949071,-2.8695504146754454,-0.10524231334578316,0.57755675093206,1.797558596044996,-1.8966553421056214,-0.16794699062698593,-2.2693383785418897,-1.8268331111962752,2.2173429077455697
180,-1.6209240650738768,0.1758961389617535,-1.490721996036077,-1.6926207195202916,-2.7060460037857244,0.07847200613725472,1.2622950788117784,1.7813630818675832,1.5799155651975847,-2.8695504146754454,-0.10524231334578316,0.57755675093206,1.797558596044996,-1.8966553421056214,-0.16794699062698593,-2.2693383785418897,-1.8268331111962752,2.2173429077455697
190,-1.6211016423107163,0.17539479619139725,-1.4902146159760215,-1.6920961043260294,-2.706567816203735,0.07811928286226513,1.2626022973761735,1.7809500253294333,1.5803930933916217,-2.8695504146754454,-0.10524231334578316,0.57755675093206,1.797558596044996,-1.8966553421056214,-0.16794699062698593,-2.2693383785418897,-1.8268331111962752,2.2173429077455697
200,-1.6208407381238108,0.17492304983428938,-1.4896326322221827,-1.6915321758268305,-2.70706922261939,0.07809137983185958,1.262858980890127,1.7806303818925895,1.5807922703581316,-2.8695504146754454,-0.10524231334578316,0.57755675093206,1.797558596044996,-1.8966553421056214,-0.16794699062698593,-2.2693383785418897,-1.8268331111962752,2.2173429077455697
210,-1.6213828314166272,0.17433829417732183,-1.4891999085822696,-1.691075999543549,-2.7076208767088366,0.07779684049606513,1.2634851052935618,1.7802116454645383,1.5814030207495582,-2.8695504146754454,-0.10524231334578316,0.57755675093206,1.797558596044996,-1.8966553421056214,-0.16794699062698593,-2.2693383785418897,-1.8268331111962752,2.2173429077455697
220,-1.621787101423079,0.1738853881706867,-1.4888145030332323,-1.690655400473762,-2.7081380748828234,0.07771784412750242,1.2638764025852984,1.7800285573198673,1.5818984740772257,-2.8695504146754454,-0.10524231334578316,0.57755675093206,1.797558596044996,-1.8966553421056214,-0.16794699062698593,-2.2693383785418897,-1.8268331111962752,2.2173429077455697
230,-1.6218573069278692,0.1734345805948861,-1.488321463633637,-1.69013966530312,-2.708590524182393,0.07742555824509309,1.264119260619831,1.7795836913252163,1.5822819595969149,-2.8695504146754454,-0.10524231334578316,0.57755675093206,1.797558596044996,-1.8966553421056214,-0.16794699062698593,-2.2693383785418897,-1.8268331111962752,2.2173429077455697
240,-1.6220413791816395,0.17299702251785237,-1.4880171746501187,-1.6898143044423284,-2.708837294704205,0.07702750472415142,1.264405948037115,1.7790406218444301,1.582563746657496,-2.8695504146754454,-0.10524231334578316,0.57755675093206,1.797558596044996,-1.8966553421056214,-0.16794699062698593,-2.2693383785418897,-1.8268331111962752,2.2173429077455697
250,-1.6222136241961849,0.17263816005891508,-1.4877475161315672,-1.6895466061606383,-2.708975057716923,0.07680140984958665,1.2648234639677187,1.778597596316003,1.5827733090150315,-2.8695504146754454,-0.10524231334578316,0.57755675093206,1.797558596044996,-1.8966553421056214,-0.16794699062698593,-2.2693383785418897,-1.8268331111962752,2.2173429077455697
260,-1.6223826623844377,0.1724021600830673,-1.4875756360068009,-1.6893702931438412,-2.7091204302702936,0.07673754447652734,1.2650721066591302,1.778359864129182,1.5829661036934324,-2.8695504146754454,-0.10524231334578316,0.57755675093206,1.797558596044996,-1.8966553421056214,-0.16794699062698593,-2.2693383785418897,-1.8268331111962752,2.2173429077455697
270,-1.6226466634029686,0.17210667475472394,-1.4874716111983142,-1.689223173080207,-2.7092406702896032,0.07629505588648054,1.2654008494424827,1.7778837862328127,1.5832242256243725,-2.8695504146754454,-0.10524231334578316,0.57755675093206,1.797558596044996,-1.8966553421056214,-0.16794699062698593,-2.2693383785418897,-1.8268331111962752,2.2173429077455697
280,-1.62281885724729,0.17192861291701292,-1.4873727180684688,-1.6890897637014157,-2.7093722811614827,0.07616893848420006,1.265604047863718,1.7776390381323655,1.5834096330146976,-2.8695504146754454,-0.10524231334578316,0.57755675093206,1.797558596044996,-1.8966553421056214,-0.16794699062698593,-2.2693383785418897,-1.8268331111962752,2.2173429077455697
290,-1.6230014145202967,0.17181131925070034,-1.4873059700308875,-1.6889852750175285,-2.709539547800482,0.07616046624675026,1.2657679662526133,1.777529853635509,1.5835989176180008,-2.8695504146754454,-0.10524231334578316,0.57755675093206,1.797558596044996,-1.8966553421056214,-0.16794699062698593,-2.2693383785418897,-1.8268331111962752,2.2173429077455697
300,-1.623135630398597,0.17169156827675175,-1.4872203078052744,-1.6888846139423166,-2.709659855942406,0.07617699282518554,1.2659046718672171,1.7774683544567456,1.583734719903386,-2.8695504146754454,-0.10524231334578316,0.57755675093206,1.797558596044996,-1.8966553421056214,-0.16794699062698593,-2.2693383785418897,-1.8268331111962752,2.2173429077455697
310,-1.6231720369943128,0.17160483760616868,-1.487128608406359,-1.6887916465957844,-2.709725998404703,0.07617491567168856,1.2659829534167053,1.7774061800199072,1.5838027938880213,-2.8695504146754454,-0.10524231334578316,0.57755675093206,1.797558596044996,-1.8966553421056214,-0.16794699062698593,-2.2693383785418897,-1.8268331111962752,2.2173429077455697
320,-1.6232701645852394,0.17149990317364944,-1.4870580035309335,-1.688714277732454,-2.7097967305041233,0.07612987925173278,1.266106486580758,1.77731750870568,1.5839003359042207,-2.8695504146754454,-0.10524231334578316,0.57755675093206,1.797558596044996,-1.8966553421056214,-0.16794699062698593,-2.2693383785418897,-1.8268331111962752,2.2173429077455697
330,-1.6234008081305835,0.17139001332819429,-1.4869819740619095,-1.6886250905703908,-2.709907109198804,0.07613155632141239,1.266256271812475,1.777243752362119,1.5840299731671874,-2.8695504146754454,-0.10524231334578316,0.57755675093206,1.797558596044996,-1.8966553421056214,-0.16794699062698593,-2.2693383785418897,-1.8268331111962752,2.2173429077455697
340,-1.6234925411288375,0.1712812487459435,-1.4868941745090452,-1.6885258241385992,-2.710010308410293,0.07606094897231408,1.266343729586367,1.7771526567878286,1.5841391193073857,-2.8695504146754454,-0.10524231334578316,0.57755675093206,1.797558596044996,-1.8966553421056214,-0.16794699062698593,-2.2693383785418897,-1.8268331111962752,2.2173429077455697
350,-1.6234709518412789,0.1712035164428287,-1.4867638728870225,-1.6883987794275117,-2.710082711548008,0.07606811068266961,1.2663967090550907,1.7770803233695631,1.5841905216609062,-2.8695504146754454,-0.10524231334578316,0.57755675093206,1.797558596044996,-1.8966553421056214,-0.16794699062698593,-2.2693383785418897,-1.8268331111962752,2.2173429077455697
360,-1.6234712491090613,0.1711166483380848,-1.4866323017029868,-1.6882698914888714,-2.710174280680202,0.07608831150587606,1.2664750268918015,1.7770066369825368,1.5842567803005978,-2.8695504146754454,-0.10524231334578316,0.57755675093206,1.797558596044996,-1.8966553421056214,-0.16794699062698593,-2.2693383785418897,-1.8268331111962752,2.2173429077455697
370,-1.623456253125198,0.17101400430210045,-1.4864935285013652,-1.6881285301633655,-2.7102650581866627,0.07604552593096207,1.266515825953598,1.776911082020669,1.5843197083086626,-2.8695504146754454,-0.10524231334578316,0.57755675093206,1.797558596044996,-1.8966553421056214,-0.16794699062698593,-2.2693383785418897,-1.8268331111962752,2.2173429077455697
380,-1.6234303986220506,0.1708962202783042,-1.486342557106756,-1.6879742483340419,-2.7103526853125075,0.07602016963746894,1.2665499534945666,1.7768301773029382,1.5843758405746975,-2.8695504146754454,-0.10524231334578316,0.57755675093206,1.797558596044996,-1.8966553421056214,-0.16794699062698593,-2.2693383785418897,-1.8268331111962752,2.2173429077455697
390,-1.6234934112795316,0.17081507413129748,-1.4862758231147437,-1.6878986959813567,-2.710429111866751,0.07600139541657867,1.266615796716349,1.7767844568563633,1.5844532803095077,-2.8695504146754454,-0.10524231334578316,0.57755675093206,1.797558596044996,-1.8966553421056214,-0.16794699062698593,-2.2693383785418897,-1.8268331111962752,2.2173429077455697
400,-1.623538883852369,0.1707565672029673,-1.486221251225069,-1.6878424353431387,-2.7104803085551006,0.07600633493177889,1.2666981146302343,1.7767436957984915,1.5845110483788085,-2.8695504146754454,-0.10524231334578316,0.57755675093206,1.797558596044996,-1.8966553421056214,-0.16794699062698593,-2.2693383785418897,-1.8268331111962752,2.2173429077455697
410,-1.6236291555571696,0.17069514215577677,-1.4861835660154301,-1.687797774651668,-2.7105529828511763,0.07605057824494352,1.2667780852532269,1.7767357271550648,1.584589978058435,-2.8695504146754454,-0.10524231334578316,0.57755675093206,1.797558596044996,-1.8966553421056214,-0.16794699062698593,-2.2693383785418897,-1.8268331111962752,2.2173429077455697
420,-1.6236733822365033,0.1706493512086058,-1.4861238950875062,-1.6877391343183126,-2.7106246585840768,0.07612291750644985,1.2668424232341822,1.7767462454340996,1.5846529007486034,-2.8695504146754454,-0.10524231334578316,0.57755675093206,1.797558596044996,-1.8966553421056214,-0.16794699062698593,-2.2693383785418897,-1.8268331111962752,2.2173429077455697
430,-1.623699600985932,0.17059128581933147,-1.4860606516890538,-1.6876768566858522,-2.710680153681442,0.07612730479784134,1.2668989259968728,1.7767005335766286,1.584707215275907,-2.8695504146754454,-0.10524231334578316,0.57755675093206,1.797558596044996,-1.8966553421056214,-0.16794699062698593,-2.2693383785418897,-1.8268331111962752,2.2173429077455697
440,-1.623727450615831,0.17053128094778613,-1.486008150863635,-1.6876232434934508,-2.710725315615224,0.07612494170138671,1.2669440320467644,1.7766617463681451,1.5847507083768402,-2.8695504146754454,-0.10524231334578316,0.57755675093206,1.797558596044996,-1.8966553421056214,-0.16794699062698593,-2.2693383785418897,-1.8268331111962752,2.2173429077455697
450,-1.6237440311023126,0.17049146825691122,-1.4859705413116737,-1.6875828330841953,-2.7107598414779313,0.07611307968125706,1.2669656904779796,1.776637510856777,1.5847807760178527,-2.8695504146754454,-0.10524231334578316,0.57755675093206,1.797558596044996,-1.8966553421056214,-0.16794699062698593,-2.2693383785418897,-1.8268331111962752,2.2173429077455697
460,-1.6237587755663048,0.17045321791690143,-1.4859316374056375,-1.68754393942969,-2.710786856211273,0.07610545942607105,1.2670016982682362,1.7766120162514514,1.5848075185280712,-2.8695504146754454,-0.10524231334578316,0.57755675093206,1.797558596044996,-1.8966553421056214,-0.16794699062698593,-2.2693383785418897,-1.8268331111962752,2.2173429077455697
470,-1.62378380736768,0.17042704799379352,-1.4859095103175357,-1.6875192753691122,-2.7108157728254025,0.07610461104919251,1.267031042037761,1.7766003114099445,1.5848361255613945,-2.8695504146754454,-0.10524231334578316,0.57755675093206,1.797558596044996,-1.8966553421056214,-0.16794699062698593,-2.2693383785418897,-1.8268331111962752,2.2173429077455697
480,-1.623795487115569,0.17041625584608008,-1.4859009771940075,-1.6875093308278235,-2.710829362217353,0.07610323208768113,1.2670419519739295,1.7765962907421504,1.5848488698277405,-2.8695504146754454,-0.10524231334578316,0.57755675093206,1.797558596044996,-1.8966553421056214,-0.16794699062698593,-2.2693383785418897,-1.8268331111962752,2.2173429077455697
490,-1.6237952802663558,0.17042034679234555,-1.4859035093195045,-1.6875106863692821,-2.710831646184257,0.07608677979078696,1.2670323680695357,1.7765929329632622,1.5848506813160148,-2.8695504146754454,-0.10524231334578316,0.57755675093206,1.797558596044996,-1.8966553421056214,-0.16794699062698593,-2.2693383785418897,-1.8268331111962752,2.2173429077455697
500,-1.623787678001878,0.1704252444877938,-1.4859011287018866,-1.6875082623147741,-2.7108343746536603,0.07608804625543772,1.2670263636298171,1.7765954077350639,1.584849309240503,-2.8695504146754454,-0.10524231334578316,0.57755675093206,1.797558596044996,-1.8966553421056214,-0.16794699062698593,-2.2693383785418897,-1.8268331111962752,2.2173429077455697
510,-1.6237838277756176,0.17043097478263305,-1.485904366262146,-1.6875119086311763,-2.7108322466034713,0.07608905306701354,1.2670236072364736,1.7765980655307003,1.5848465512391121,-2.8695504146754454,-0.10524231334578316,0.57755675093206,1.797558596044996,-1.8966553421056214,-0.16794699062698593,-2.2693383785418897,-1.8268331111962752,2.2173429077455697
520,-1.6237795698169208,0.17043224348682434,-1.48590376336486,-1.6875132457790116,-2.7108283585158657,0.07608881509489393,1.2670260073689066,1.7765994728981946,1.5848430912359337,-2.8695504146754454,-0.10524231334578316,0.57755675093206,1.797558596044996,-1.8966553421056214,-0.16794699062698593,-2.2693383785418897,-1.8268331111962752,2.2173429077455697
530,-1.6237800260377453,0.1704380477576376,-1.4859127027466652,-1.6875232723454388,-2.710821816554014,0.07609099629185165,1.2670243783582407,1.7766066460924352,1.584837988696141,-2.8695504146754454,-0.10524231334578316,0.57755675093206,1.797558596044996,-1.8966553421056214,-0.16794699062698593,-2.2693383785418897,-1.8268331111962752,2.2173429077455697
540,-1.623783652063468,0.17044660547803364,-1.4859270480851534,-1.687537684327117,-2.710815237719754,0.07608867559027224,1.267019299989148,1.7766111738913215,1.5848338833510058,-2.8695504146754454,-0.10524231334578316,0.57755675093206,1.797558596044996,-1.8966553421056214,-0.16794699062698593,-2.2693383785418897,-1.8268331111962752,2.2173429077455697
550,-1.6237824094097328,0.17045734631334256,-1.4859413917569826,-1.687553594635845,-2.710803475902425,0.07608953226720054,1.2670143341967242,1.7766211290708664,1.584824934518628,-2.8695504146754454,-0.10524231334578316,0.57755675093206,1.797558596044996,-1.8966553421056214,-0.16794699062698593,-2.2693383785418897,-1.8268331111962752,2.2173429077455697
560,-1.6237140879439507,0.17049714686075973,-1.4859444896108567,-1.6875729139596898,-2.710774418123611,0.07609634174534687,1.2669824205045104,1.7766404759695902,1.5847747139489399,-2.8695504146754454,-0.10524231334578316,0.57755675093206,1.797558596044996,-1.8966553421056214,-0.16794699062698593,-2.2693383785418897,-1.8268331111962752,2.2173429077455697
570,-1.6237101896086654,0.1705096434321116,-1.485962453900908,-1.6875946219616313,-2.710759412984433,0.07609068720404816,1.2669667827454494,1.7766575562977425,1.5847600131114157,-2.8695504146754454,-0.10524231334578316,0.57755675093206,1.797558596044996,-1.8966553421056214,-0.16794699062698593,-2.2693383785418897,-1.8268331111962752,2.2173429077455697
580,-1.6237209052113128,0.17052477705932914,-1.4859892861954798,-1.687624446364835,-2.7107338172389968,0.07608814806089123,1.266967243185281,1.7766783161776736,1.5847449675129173,-2.8695504146754454,-0.10524231334578316,0.57755675093206,1.797558596044996,-1.8966553421056214,-0.16794699062698593,-2.2693383785418897,-1.8268331111962752,2.2173429077455697
590,-1.6237337387304729,0.17057452367381598,-1.4860643706997987,-1.6876976893607374,-2.710703106329085,0.07610544574655904,1.266919598381278,1.776721716551868,1.5847196654989466,-2.8695504146754454,-0.10524231334578316,0.57755675093206,1.797558596044996,-1.8966553421056214,-0.16794699062698593,-2.2693383785418897,-1.8268331111962752,2.2173429077455697
600,-1.6236672409367434,0.17067468331384136,-1.4861661811261895,-1.6878086556766054,-2.7105965321124352,0.0760130291171673,1.2668068907511643,1.776749769472295,1.5846300149046724,-2.8695504146754454,-0.10524231334578316,0.57755675093206,1.797558596044996,-1.8966553421056214,-0.16794699062698593,-2.2693383785418897,-1.8268331111962752,2.2173429077455697
610,-1.6236329174852144,0.17075318672619177,-1.486232838785749,-1.6878834879204325,-2.7105222927545936,0.07600725081646988,1.2667520093186881,1.7768093234337088,1.5845694873957206,-2.8695504146754454,-0.10524231334578316,0.57755675093206,1.797558596044996,-1.8966553421056214,-0.16794699062698593,-2.2693383785418897,-1.8268331111962752,2.2173429077455697
620,-1.6236426487629607,0.17080851388489904,-1.4863009507451048,-1.6879523911826302,-2.7104779452120495,0.07599077088061824,1.2667221809896434,1.7768574607398342,1.584539461941538,-2.8695504146754454,-0.10524231334578316,0.57755675093206,1.797558596044996,-1.8966553421056214,-0.16794699062698593,-2.2693383785418897,-1.8268331111962752,2.2173429077455697
630,-1.6235876501536728,0.1709987226267848,-1.4864497123651115,-1.6881207953001798,-2.7104129724904236,0.07622508484555812,1.2665628698019207,1.7771228612097965,1.584424703323279,-2.8695504146754454,-0.10524231334578316,0.57755675093206,1.797558596044996,-1.8966553421056214,-0.16794699062698593,-2.2693383785418897,-1.8268331111962752,2.2173429077455697
640,-1.6232167839481353,0.17129095230202815,-1.4865372337163982,-1.688267418262844,-2.7102658733625162,0.07646197713760898,1.266223380645411,1.7774253380124738,1.5841197115343217,-2.8695504146754454,-0.10524231334578316,0.57755675093206,1.797558596044996,-1.8966553421056214,-0.16794699062698593,-2.2693383785418897,-1.8268331111962752,2.2173429077455697
650,-1.623106131112175,0.17150609034986974,-1.4867053631718385,-1.688444454987618,-2.710154077209643,0.0764811994431308,1.2660147646746895,1.7776143191454854,1.583967872018068,-2.8695504146754454,-0.10524231334578316,0.57755675093206,1.797558596044996,-1.8966553421056214,-0.16794699062698593,-2.2693383785418897,-1.8268331111962752,2.2173429077455697
660,-1.6230615314051453,0.1717133781859284,-1.4869872045031012,-1.6887269677730563,-2.709936992121402,0.07631458290943448,1.2657714136604319,1.777724786542644,1.5838063362042598,-2.8695504146754454,-0.10524231334578316,0.57755675093206,1.797558596044996,-1.8966553421056214,-0.16794699062698593,-2.2693383785418897,-1.8268331111962752,2.2173429077455697
670,-1.6229562852500294,0.17190387957429,-1.48720056989654,-1.6889533276457234,-2.709734736919302,0.07630239872526368,1.2655358714824458,1.7778838993496147,1.5836211734980097,-2.8695504146754454,-0.10524231334578316,0.57755675093206,1.797558596044996,-1.8966553421056214,-0.16794699062698593,-2.2693383785418897,-1.8268331111962752,2.2173429077455697
680,-1.6228264202514149,0.17217243450960834,-1.487384155950708,-1.6891602839172362,-2.709609525040078,0.07651034417614183,1.2652108357622665,1.7782055026542347,1.5834303113515944,-2.8695504146754454,-0.10524231334578316,0.57755675093206,1.797558596044996,-1.8966553421056214,-0.16794699062698593,-2.2693383785418897,-1.8268331111962752,2.2173429077455697
690,-1.6225062960538912,0.1724189957069925,-1.4875452537443414,-1.6893826874788096,-2.7093037048122506,0.07659348877739684,1.2649384803206472,1.7783658723237623,1.583101187610767,-2.8695504146754454,-0.10524231334578316,0.57755675093206,1.797558596044996,-1.8966553421056214,-0.16794699062698593,-2.2693383785418897,-1.8268331111962752,2.2173429077455697
700,-1.6219991838803287,0.17278056330429473,-1.48770992976734,-1.689635518535089,-2.708876780990875,0.07655749344431904,1.264614420839708,1.778464947018561,1.5826400610798244,-2.8695504146754454,-0.10524231334578316,0.57755675093206,1.797558596044996,-1.8966553421056214,-0.16794699062698593,-2.2693383785418897,-1.8268331111962752,2.2173429077455697
710,-1.6218014784084516,0.1732811867575225,-1.4881271214061509,-1.6900754975369074,-2.7085840910895564,0.07657954744525236,1.2643365222386873,1.7787998398354978,1.5823442973501782,-2.8695504146754454,-0.10524231334578316,0.57755675093206,1.797558596044996,-1.8966553421056214,-0.16794699062698593,-2.2693383785418897,-1.8268331111962752,2.2173429077455697
720,-1.621921139023544,0.17371847872286714,-1.488761083931783,-1.6907005301341083,-2.7083006548957855,0.07652278287702903,1.2640644545416537,1.7792436879636775,1.582147636037165,-2.8695504146754454,-0.10524231334578316,0.57755675093206,1.797558596044996,-1.8966553421056214,-0.16794699062698593,-2.2693383785418897,-1.8268331111962752,2.2173429077455697
730,-1.6218665343727636,0.17417192567260867,-1.4892605491527882,-1.6912122554505484,-2.708032540561754,0.07687301585441492,1.263790944424575,1.7797670324521004,1.5818732560569577,-2.8695504146754454,-0.10524231334578316,0.57755675093206,1.797558596044996,-1.8966553421056214,-0.16794699062698593,-2.2693383785418897,-1.8268331111962752,2.2173429077455697
740,-1.6218480482643753,0.17433610245781805,-1.489386897853335,-1.6913391807357343,-2.708058080177662,0.07707507885645254,1.263687494124101,1.7800042034200505,1.5818337531017819,-2.8695504146754454,-0.10524231334578316,0.57755675093206,1.797558596044996,-1.8966553421056214,-0.16794699062698593,-2.2693383785418897,-1.8268331111962752,2.2173429077455697
750,-1.6219029887715872,0.17409931423207062,-1.4890988085462615,-1.691014785846275,-2.7083788148813492,0.07693328352483655,1.2638085290143561,1.7798786573104843,1.582077651125668,-2.8695504146754454,-0.10524231334578316,0.57755675093206,1.797558596044996,-1.8966553421056214,-0.16794699062698593,-2.2693383785418897,-1.8268331111962752,2.2173429077455697
760,-1.622044263741361,0.17359433054248175,-1.488554436991026,-1.6904203178160924,-2.7088846112538736,0.0766910283426333,1.2642306100503666,1.7794666443441314,1.5825257200049776,-2.8695504146754454,-0.10524231334578316,0.57755675093206,1.797558596044996,-1.8966553421056214,-0.16794699062698593,-2.2693383785418897,-1.8268331111962752,2.2173429077455697
770,-1.6220942585166056,0.17314865691188863,-1.488031440040177,-1.689820801174207,-2.7093789699183044,0.07635103293811059,1.2644412906161795,1.7790369330427505,1.5829006884456773,-2.8695504146754454,-0.10524231334578316,0.57755675093206,1.797558596044996,-1.8966553421056214,-0.16794699062698593,-2.2693383785418897,-1.8268331111962752,2.2173429077455697
780,-1.6221041353506283,0.1727599738741943,-1.4875381655271265,-1.689280292196938,-2.7097751277358393,0.07614522302718514,1.264668373028739,1.7786382441400936,1.5832052020697804,-2.8695504146754454,-0.10524231334578316,0.57755675093206,1.797558596044996,-1.8966553421056214,-0.16794699062698593,-2.2693383785418897,-1.8268331111962752,2.2173429077455697
790,-1.6223145934877912,0.17251030126202768,-1.4872804870678855,-1.6889515191195823,-2.710176604561883,0.07626143533956521,1.2648197061481807,1.7785364871422735,1.5835405782004406,-2.8695504146754454,-0.10524231334578316,0.57755675093206,1.797558596044996,-1.8966553421056214,-0.16794699062698593,-2.2693383785418897,-1.8268331111962752,2.2173429077455697
800,-1.6223777510825828,0.1723158559851327,-1.4870159484939987,-1.6886604559490848,-2.7104385076433357,0.07636211370414174,1.2649803807716002,1.7784286611571203,1.5837578198823326,-2.8695504146754454,-0.10524231334578316,0.57755675093206,1.797558596044996,-1.8966553421056214,-0.16794699062698593,-2.2693383785418897,-1.8268331111962752,2.2173429077455697
810,-1.6224745415402255,0.17210930118378037,-1.4867921999301243,-1.6884079727880643,-2.710682584412438,0.07636782562783044,1.2651721315796687,1.778249672451158,1.5839741880476337,-2.8695504146754454,-0.10524231334578316,0.57755675093206,1.797558596044996,-1.8966553421056214,-0.16794699062698593,-2.2693383785418897,-1.8268331111962752,2.2173429077455697
820,-1.622556909877593,0.1719116235789698,-1.4866229683534482,-1.688221730243467,-2.710820696485869,0.0763255573426155,1.2653488981813263,1.7781040668120707,1.5841185984148485,-2.8695504146754454,-0.10524231334578316,0.57755675093206,1.797558596044996,-1.8966553421056214,-0.16794699062698593,-2.2693383785418897,-1.8268331111962752,2.2173429077455697
830,-1.6225479138760055,0.17179360801823687,-1.4864811540003835,-1.6880759683794224,-2.7109024332482496,0.07631662789699674,1.2654588754883451,1.778003620556263,1.5841886420070912,-2.8695504146754454,-0.10524231334578316,0.57755675093206,1.797558596044996,-1.8966553421056214,-0.16794699062698593,-2.2693383785418897,-1.8268331111962752,2.2173429077455697
840,-1.6225828171816972,0.17169078378732905,-1.4863620695496307,-1.6879535402156927,-2.7109927188321605,0.07641301481387852,1.2656090992700781,1.7779583302407387,1.5842707315192295,-2.8695504146754454,-0.10524231334578316,0.57755675093206,1.797558596044996,-1.8966553421056214,-0.16794699062698593,-2.2693383785418897,-1.8268331111962752,2.2173429077455697
850,-1.622593248831387,0.17160449390871685,-1.486262214657312,-1.6878378152802296,-2.7110794098841753,0.07638816397410564,1.2656394899936103,1.7778839989470334,1.584337327470235,-2.8695504146754454,-0.10524231334578316,0.57755675093206,1.797558596044996,-1.8966553421056214,-0.16794699062698593,-2.2693383785418897,-1.8268331111962752,2.2173429077455697
860,-1.6226944925474063,0.17149548426867237,-1.4861864667491014,-1.6877487983414856,-2.7111867998867933,0.07647781226208167,1.2657917139557142,1.7778284519568492,1.584443251823969,-2.8695504146754454,-0.10524231334578316,0.57755675093206,1.797558596044996,-1.8966553421056214,-0.16794699062698593,-2.2693383785418897,-1.8268331111962752,2.2173429077455697
870,-1.6227591882942531,0.1713940674353575,-1.486109218702673,-1.6876616684912538,-2.711270520431662,0.07647776638997124,1.2658758598234487,1.7777513392165014,1.5845289336258574,-2.8695504146754454,-0.10524231334578316,0.57755675093206,1.797558596044996,-1.8966553421056214,-0.16794699062698593,-2.2693383785418897,-1.8268331111962752,2.2173429077455697
880,-1.6227493141591358,0.17130246285843823,-1.4860188827836933,-1.6875706001593205,-2.711317579149863,0.07648447902469391,1.2659165501655187,1.7776753623801929,1.5845653822295906,-2.8695504146754454,-0.10524231334578316,0.57755675093206,1.797558596044996,-1.8966553421056214,-0.16794699062698593,-2.2693383785418897,-1.8268331111962752,2.2173429077455697
890,-1.622767885617791,0.17123400311697098,-1.4859555293607252,-1.6875003046189891,-2.7113708770824156,0.07648300689703146,1.265975304870693,1.7776054786478088,1.5846167696059577,-2.8695504146754454,-0.10524231334578316,0.57755675093206,1.797558596044996,-1.8966553421056214,-0.16794699062698593,-2.2693383785418897,-1.8268331111962752,2.2173429077455697
900,-1.622823489409751,0.17117160774261603,-1.485909716438033,-1.6874439718887546,-2.711441845175395,0.07647551652027566,1.2660342824099697,1.7775640568313373,1.5846820266176374,-2.8695504146754454,-0.10524231334578316,0.57755675093206,1.797558596044996,-1.8966553421056214,-0.16794699062698593,-2.2693383785418897,-1.8268331111962752,2.2173429077455697
910,-1.6228980115962073,0.1710865294315459,-1.4858697643811765,-1.6873787786171324,-2.711513868701524,0.07644672394807893,1.2660592195343934,1.7774924902232265,1.5847614977633702,-2.8695504146754454,-0.10524231334578316,0.57755675093206,1.797558596044996,-1.8966553421056214,-0.16794699062698593,-2.2693383785418897,-1.8268331111962752,2.2173429077455697
920,-1.6229703717394819,0.17100019042789502,-1.4858293568852454,-1.6873197009154142,-2.71156964783386,0.07641931836266863,1.2661325864957615,1.7774171202728337,1.5848392652933379,-2.8695504146754454,-0.10524231334578316,0.57755675093206,1.797558596044996,-1.8966553421056214,-0.16794699062698593,-2.2693383785418897,-1.8268331111962752,2.2173429077455697
930,-1.6230403939113887,0.17090879150951335,-1.485782903213213,-1.6872585562460838,-2.7116258975040703,0.07639117758013246,1.2661929977997353,1.7773423802789103,1.5849151534682997,-2.8695504146754454,-0.10524231334578316,0.57755675093206,1.797558596044996,-1.8966553421056214,-0.16794699062698593,-2.2693383785418897,-1.8268331111962752,2.2173429077455697
940,-1.623036904787725,0.17085863859528555,-1.4857365705322676,-1.6872037404616258,-2.711664368057536,0.07638278596454712,1.2662119685323212,1.777288024012305,1.5849428945006916,-2.8695504146754454,-0.10524231334578316,0.57755675093206,1.797558596044996,-1.8966553421056214,-0.16794699062698593,-2.2693383785418897,-1.8268331111962752,2.2173429077455697
950,-1.6230436483967812,0.17080168538489704,-1.485675626864391,-1.687137824632286,-2.7117066846962556,0.07636890116754325,1.2662588701848099,1.7772289959832535,1.5849819877760771,-2.8695504146754454,-0.10524231334578316,0.57755675093206,1.797558596044996,-1.8966553421056214,-0.16794699062698593,-2.2693383785418897,-1.8268331111962752,2.2173429077455697
960,-1.6230735250483979,0.17075176206844578,-1.4856246379603184,-1.6870787211833875,-2.7117640385314625,0.07637665245838135,1.266298316021968,1.7772062637413413,1.585036424918054,-2.8695504146754454,-0.10524231334578316,0.57755675093206,1.797558596044996,-1.8966553421056214,-0.16794699062698593,-2.2693383785418897,-1.8268331111962752,2.2173429077455697
970,-1.6230912318879247,0.17071110791882377,-1.4855731277714452,-1.6870231973353587,-2.711816174469681,0.0764005083670039,1.2663485291945973,1.7771975430748064,1.5850798697646968,-2.8695504146754454,-0.10524231334578316,0.57755675093206,1.797558596044996,-1.8966553421056214,-0.16794699062698593,-2.2693383785418897,-1.8268331111962752,2.2173429077455697
980,-1.6231071499701417,0.17067704059278885,-1.4855236240039547,-1.6869672862783751,-2.711870485208577,0.0764390618334384,1.2663919343106855,1.7771966429496506,1.5851221429593205,-2.8695504146754454,-0.10524231334578316,0.57755675093206,1.797558596044996,-1.8966553421056214,-0.16794699062698593,-2.2693383785418897,-1.8268331111962752,2.2173429077455697
990,-1.6231607488554483,0.17063108746762437,-1.485485355394876,-1.6869185596503986,-2.711938096808197,0.07647023955116451,1.2664573753451611,1.777187130572347,1.5851836366211007,-2.8695504146754454,-0.10524231334578316,0.57755675093206,1.797558596044996,-1.8966553421056214,-0.16794699062698593,-2.2693383785418897,-1.8268331111962752,2.2173429077455697
1000,-1.6232346072882027,0.170563660043747,-1.4854539540529546,-1.686872706032115,-2.7119957795006258,0.07643115689454151,1.2665362477511273,1.7771306723449398,1.5852597414940761,-2.8695504146754454,-0.10524231334578316,0.57755675093206,1.797558596044996,-1.8966553421056214,-0.16794699062698593,-2.2693383785418897,-1.8268331111962752,2.2173429077455697
1010,-1.6232602929140896,0.1705191043102642,-1.485409467618026,-1.686820453623774,-2.7120439912452508,0.07643836036531071,1.266601485139257,1.7770978812440732,1.5853043537625993,-2.8695504146754454,-0.10524231334578316,0.57755675093206,1.797558596044996,-1.8966553421056214,-0.16794699062698593,-2.2693383785418897,-1.8268331111962752,2.2173429077455697
1020,-1.6232983781501902,0.17046763490207748,-1.4853649795764514,-1.6867693393610612,-2.7120997990698164,0.07643110856459925,1.2666684059130424,1.77705054441774,1.5853568057911624,-2.8695504146754454,-0.10524231334578316,0.57755675093206,1.797558596044996,-1.8966553421056214,-0.16794699062698593,-2.2693383785418897,-1.8268331111962752,2.2173429077455697
1030,-1.6233268227926907,0.17041967738703281,-1.4853198707302686,-1.6867203043136736,-2.712151979445513,0.07645216016796692,1.2667477419202289,1.777018259453425,1.5854019334054266,-2.8695504146754454,-0.10524231334578316,0.57755675093206,1.797558596044996,-1.8966553421056214,-0.16794699062698593,-2.2693383785418897,-1.8268331111962752,2.2173429077455697
1040,-1.6234057246227178,0.17037175474004385,-1.4852958477162475,-1.686679155359398,-2.712231047189931,0.07648463725249441,1.2667907449815554,1.777028939531049,1.5854837233551722,-2.8695504146754454,-0.10524231334578316,0.57755675093206,1.797558596044996,-1.8966553421056214,-0.16794699062698593,-2.2693383785418897,-1.8268331111962752,2.2173429077455697
1050,-1.6234737534984538,0.17030469744024815,-1.485260325550791,-1.6866361750640602,-2.7122855632228995,0.0764469347812253,1.266853327943896,1.7769930103051677,1.585555140543897,-2.8695504146754454,-0.10524231334578316,0.57755675093206,1.797558596044996,-1.8966553421056214,-0.16794699062698593,-2.2693383785418897,-1.8268331111962752,2.2173429077455697
1060,-1.6234903632297777,0.17026254632750704,-1.48521248020736,-1.6865890208591658,-2.7123282017745654,0.07646479314619191,1.2669162099777844,1.776972961198842,1.5855946450746523,-2.8695504146754454,-0.10524231334578316,0.57755675093206,1.797558596044996,-1.8966553421056214,-0.16794699062698593,-2.2693383785418897,-1.8268331111962752,2.2173429077455697
1070,-1.623532162436892,0.17021222152676027,-1.4851714253521147,-1.6865418886558516,-2.712380651498488,0.07646633195419686,1.2669925897754517,1.7769322486685595,1.5856502835536042,-2.8695504146754454,-0.10524231334578316,0.57755675093206,1.797558596044996,-1.8966553421056214,-0.16794699062698593,-2.2693383785418897,-1.8268331111962752,2.2173429077455697
1080,-1.6235953403987191,0.1701264948272931,-1.4851316897176654,-1.686488831756526,-2.7124087379843673,0.07639815648201101,1.2671064160761316,1.776842860779064,1.5857186119340543,-2.8695504146754454,-0.10524231334578316,0.57755675093206,1.797558596044996,-1.8966553421056214,-0.16794699062698593,-2.2693383785418897,-1.8268331111962752,2.2173429077455697
1090,-1.6236279994596297,0.1700851129195874,-1.485099490609056,-1.6864397181619761,-2.7124506390270913,0.07639596543730647,1.2671542942030718,1.7768165505103628,1.585769603104963,-2.8695504146754454,-0.10524231334578316,0.57755675093206,1.797558596044996,-1.8966553421056214,-0.16794699062698593,-2.2693383785418897,-1.8268331111962752,2.2173429077455697
1100,-1.6236975567647827,0.17003628606015841,-1.4850844575726205,-1.6864079606791218,-2.712495607694619,0.07640562777243108,1.2672003968367294,1.7768010845068438,1.5858329485394314,-2.8695504146754454,-0.10524231334578316,0.57755675093206,1.797558596044996,-1.8966553421056214,-0.16794699062698593,-2.2693383785418897,-1.8268331111962752,2.2173429077455697
1110,-1.6237043811887801,0.17000609004584952,-1.485054778890908,-1.6863745522263218,-2.7125164542393505,0.07640809829469497,1.2672211249785001,1.7767823304362327,1.5858545296236248,-2.8695504146754454,-0.10524231334578316,0.57755675093206,1.797558596044996,-1.8966553421056214,-0.16794699062698593,-2.2693383785418897,-1.8268331111962752,2.2173429077455697
1120,-1.623693555848645,0.16998758446611928,-1.4850239750935905,-1.686345281193829,-2.7125282021791115,0.07641759456500154,1.2672474288435436,1.776770101544731,1.585863009609206,-2.8695504146754454,-0.10524231334578316,0.57755675093206,1.797558596044996,-1.8966553421056214,-0.16794699062698593,-2.2693383785418897,-1.8268331111962752,2.2173429077455697
1130,-1.623699143946321,0.16997263680193322,-1.4850097955322488,-1.6863297150730852,-2.7125435866825613,0.07642703516893586,1.2672580099131516,1.7767666817457761,1.5858746397311183,-2.8695504146754454,-0.10524231334578316,0.57755675093206,1.797558596044996,-1.8966553421056214,-0.16794699062698593,-2.2693383785418897,-1.8268331111962752,2.2173429077455697
1140,-1.6237120721981892,0.16996230627480993,-1.4849992496348718,-1.6863152609673657,-2.7125656402253058,0.0764592758801102,1.2672561049306896,1.7767815556501074,1.5858899262856714,-2.8695504146754454,-0.10524231334578316,0.57755675093206,1.797558596044996,-1.8966553421056214,-0.16794699062698593,-2.2693383785418897,-1.8268331111962752,2.2173429077455697
1150,-1.623735929323366,0.1699480355402963,-1.484990536728499,-1.6863044728351366,-2.7125873660551396,0.07648494520594683,1.2672769194556959,1.7767886483310111,1.585910082177645,-2.8695504146754454,-0.10524231334578316,0.57755675093206,1.797558596044996,-1.8966553421056214,-0.16794699062698593,-2.2693383785418897,-1.8268331111962752,2.2173429077455697
1160,-1.6237518340114974,0.16994146395900758,-1.4849840716244662,-1.6862970555743746,-2.7126054779225908,0.07650919384540701,1.2672942820621225,1.776794874878732,1.5859236199487678,-2.8695504146754454,-0.10524231334578316,0.57755675093206,1.797558596044996,-1.8966553421056214,-0.16794699062698593,-2.2693383785418897,-1.8268331111962752,2.2173429077455697
1170,-1.6237599923745905,0.16993756034222757,-1.4849791587220367,-1.6862930239935705,-2.712613843392439,0.07652293295809692,1.2673045768016378,1.7767979979199662,1.585929777996142,-2.8695504146754454,-0.10524231334578316,0.57755675093206,1.797558596044996,-1.8966553421056214,-0.16794699062698593,-2.2693383785418897,-1.8268331111962752,2.2173429077455697
1180,-1.6237608499547114,0.16993655106377825,-1.4849771104048846,-1.686292847722426,-2.712614285392034,0.07652688768799241,1.267307673361382,1.7767968664062694,1.5859300624745156,-2.8695504146754454,-0.10524231334578316,0.57755675093206,1.797558596044996,-1.8966553421056214,-0.16794699062698593,-2.2693383785418897,-1.8268331111962752,2.2173429077455697
1190,-1.6237550402067054,0.16994959541213175,-1.4849838455144484,-1.6863034187355188,-2.7126052148233946,0.07653901691283227,1.267306579172182,1.7768077914134384,1.5859207838486618,-2.8695504146754454,-0.10524231334578316,0.57755675093206,1.797558596044996,-1.8966553421056214,-0.16794699062698593,-2.2693383785418897,-1.8268331111962752,2.2173429077455697
1200,-1.6237509566984623,0.16996354530362676,-1.4849978568633626,-1.6863221146205238,-2.712587555788627,0.07654770976000147,1.2673010745355708,1.7768232729148181,1.5859075447556992,-2.8695504146754454,-0.10524231334578316,0.57755675093206,1.797558596044996,-1.8966553421056214,-0.16794699062698593,-2.2693383785418897,-1.8268331111962752,2.2173429077455697
1210,-1.623710438291056,0.16998491232840457,-1.4850046609536005,-1.686338921739437,-2.7125550152090936,0.0765235948659198,1.2672814790944988,1.7768250451912955,1.5858718477916183,-2.8695504146754454,-0.10524231334578316,0.57755675093206,1.797558596044996,-1.8966553421056214,-0.16794699062698593,-2.2693383785418897,-1.8268331111962752,2.2173429077455697
1220,-1.6236790387557651,0.17001407653078468,-1.4850155484379168,-1.686354895949417,-2.712537292503611,0.07653270789078537,1.2672540647551032,1.776845941688727,1.585845045309237,-2.8695504146754454,-0.10524231334578316,0.57755675093206,1.797558596044996,-1.8966553421056214,-0.16794699062698593,-2.2693383785418897,-1.8268331111962752,2.2173429077455697
1230,-1.623659844945011,0.1700372812031408,-1.4850304834576018,-1.686372937958069,-2.7125206958995545,0.07653649226936239,1.267236719023537,1.7768588656282387,1.5858240527122247,-2.8695504146754454,-0.10524231334578316,0.57755675093206,1.797558596044996,-1.8966553421056214,-0.16794699062698593,-2.2693383785418897,-1.8268331111962752,2.2173429077455697
1240,-1.623663019941873,0.17005028976902353,-1.4850534862167473,-1.686395783834666,-2.7125056329860033,0.07652518803918239,1.2672229262317574,1.77686302972809,1.5858141534819403,-2.8695504146754454,-0.10524231334578316,0.57755675093206,1.797558596044996,-1.8966553421056214,-0.16794699062698593,-2.2693383785418897,-1.8268331111962752,2.2173429077455697
1250,-1.6236588682027253,0.17006670581216993,-1.485074064049581,-1.6864160331978624,-2.7124900636424942,0.07652942317904804,1.2671989863824866,1.7768834680182628,1.585797446546676,-2.8695504146754454,-0.10524231334578316,0.57755675093206,1.797558596044996,-1.8966553421056214,-0.16794699062698593,-2.2693383785418897,-1.8268331111962752,2.2173429077455697
1260,-1.6236526372441031,0.17008615779755978,-1.4850950550840982,-1.686438341952741,-2.7124721045856055,0.07652965639046876,1.267184729444757,1.7768987390149615,1.585782514493633,-2.8695504146754454,-0.10524231334578316,0.57755675093206,1.797558596044996,-1.8966553421056214,-0.16794699062698593,-2.2693383785418897,-1.8268331111962752,2.2173429077455697
1270,-1.6236581606757845,0.17010097215336137,-1.4851203871497385,-1.6864626689832318,-2.7124549977256494,0.07651940197372772,1.2671739294729525,1.7769070091629675,1.5857728190990397,-2.8695504146754454,-0.10524231334578316,0.57755675093206,1.797558596044996,-1.8966553421056214,-0.16794699062698593,-2.2693383785418897,-1.8268331111962752,2.2173429077455697
1280,-1.623655111837528,0.1701276045757601,-1.4851464464256627,-1.686488642115251,-2.7124388574212306,0.07652652819426464,1.2671530233399022,1.7769315657554177,1.5857578333404716,-2.8695504146754454,-0.10524231334578316,0.57755675093206,1.797558596044996,-1.8966553421056214,-0.16794699062698593,-2.2693383785418897,-1.8268331111962752,2.2173429077455697
1290,-1.623646426255902,0.17015565775529615,-1.485174544839981,-1.6865167417232176,-2.7124163947315156,0.07652037106246293,1.2671230826956181,1.7769507223842957,1.585736887554953,-2.8695504146754454,-0.10524231334578316,0.57755675093206,1.797558596044996,-1.8966553421056214,-0.16794699062698593,-2.2693383785418897,-1.8268331111962752,2.2173429077455697
1300,-1.6236388050180381,0.17017432954222056,-1.4852006587912345,-1.6865426490028923,-2.7123915337239253,0.07650112012211636,1.2670909210225185,1.7769567643410735,1.5857186235654852,-2.8695504146754454,-0.10524231334578316,0.57755675093206,1.797558596044996,-1.8966553421056214,-0.16794699062698593,-2.2693383785418897,-1.8268331111962752,2.2173429077455697
1310,-1.6235962537904343,0.17021231402958356,-1.4852233182648862,-1.686568889132653,-2.712360567538707,0.07650175721741577,1.2670366735741914,1.7769771647860755,1.5856792252650196,-2.8695504146754454,-0.10524231334578316,0.57755675093206,1.797558596044996,-1.8966553421056214,-0.16794699062698593,-2.2693383785418897,-1.8268331111962752,2.2173429077455697
1320,-1.6235645168037465,0.17024390117352423,-1.4852435878985024,-1.6865944929243408,-2.7123248863691387,0.0764898937309036,1.2670067863000674,1.7769967907032291,1.585645604155446,-2.8695504146754454,-0.10524231334578316,0.57755675093206,1.797558596044996,-1.8966553421056214,-0.16794699062698593,-2.2693383785418897,-1.8268331111962752,2.2173429077455697
1330,-1.6235330653153468,0.17028816752146328,-1.4852765510913721,-1.6866292031734944,-2.7122926832688288,0.07651041744576027,1.2669517221318447,1.7770393903563264,1.5856069130409554,-2.8695504146754454,-0.10524231334578316,0.57755675093206,1.797558596044996,-1.8966553421056214,-0.16794699062698593,-2.2693383785418897,-1.8268331111962752,2.2173429077455697
1340,-1.623483804062011,0.17034066240487927,-1.4853063857119289,-1.6866653821255428,-2.7122492198930996,0.07651423925436215,1.266904560140558,1.7770744382486918,1.585556452430792,-2.8695504146754454,-0.10524231334578316,0.57755675093206,1.797558596044996,-1.8966553421056214,-0.16794699062698593,-2.2693383785418897,-1.8268331111962752,2.2173429077455697
1350,-1.6234375267465482,0.17040162431855624,-1.4853424263506458,-1.686706536164249,-2.7121976667496037,0.07649862039247945,1.266852261195427,1.7770967331256402,1.5855058188620024,-2.8695504146754454,-0.10524231334578316,0.57755675093206,1.797558596044996,-1.8966553421056214,-0.16794699062698593,-2.2693383785418897,-1.8268331111962752,2.2173429077455697
1360,-1.623365312350937,0.17046525093407588,-1.4853868378818742,-1.6867642520266966,-2.712124268533337,0.07649648073995606,1.2667648593705483,1.7771415634195256,1.5854222020189643,-2.8695504146754454,-0.10524231334578316,0.57755675093206,1.797558596044996,-1.8966553421056214,-0.16794699062698593,-2.2693383785418897,-1.8268331111962752,2.2173429077455697
1370,-1.6233480718801327,0.17051587109742372,-1.4854409055739664,-1.686826931726908,-2.7120621377159524,0.07652239776268992,1.2667062779391969,1.7772131278049843,1.58536424938492,-2.8695504146754454,-0.10524231334578316,0.57755675093206,1.797558596044996,-1.8966553421056214,-0.16794699062698593,-2.2693383785418897,-1.8268331111962752,2.2173429077455697
1380,-1.6233470588925747,0.1706159861693208,-1.4855242233525925,-1.6869190755972754,-2.7120174408592694,0.07659200059743046,1.2666640968819178,1.7773243085516404,1.585313372172943,-2.8695504146754454,-0.10524231334578316,0.57755675093206,1.797558596044996,-1.8966553421056214,-0.16794699062698593,-2.2693383785418897,-1.8268331111962752,2.2173429077455697
1390,-1.6232456622652494,0.17073824171869262,-1.4856040811089293,-1.6870115245271935,-2.711922836173157,0.07661194919369141,1.2665211261916687,1.7774131167654486,1.5851959754138039,-2.8695504146754454,-0.10524231334578316,0.57755675093206,1.797558596044996,-1.8966553421056214,-0.16794699062698593,-2.2693383785418897,-1.8268331111962752,2.2173429077455697
1400,-1.6232132914071626,0.17083650684109064,-1.4857124694839947,-1.6871247136626413,-2.711833278811116,0.07664724602626749,1.2663947509826858,1.7774821513465204,1.5851063540460708,-2.8695504146754454,-0.10524231334578316,0.57755675093206,1.797558596044996,-1.8966553421056214,-0.16794699062698593,-2.2693383785418897,-1.8268331111962752,2.2173429077455697
1410,-1.6230051647358934,0.1710347082874036,-1.4857951765224375,-1.6872353179475168,-2.711696088803193,0.0767360145608564,1.2661684957785646,1.777599109808605,1.584915921059166,-2.8695504146754454,-0.10524231334578316,0.57755675093206,1.797558596044996,-1.8966553421056214,-0.16794699062698593,-2.2693383785418897,-1.8268331111962752,2.2173429077455697
1420,-1.6229188711602975,0.17120824785949212,-1.4859313932468243,-1.687386620688226,-2.7115754454584686,0.0768712163764011,1.2660199938144865,1.777753610520254,1.5847679399425694,-2.8695504146754454,-0.10524231334578316,0.57755675093206,1.797558596044996,-1.8966553421056214,-0.16794699062698593,-2.2693383785418897,-1.8268331111962752,2.2173429077455697
1430,-1.6228967527628055,0.1713622548146099,-1.4861009554333373,-1.6875702193019952,-2.711440163950521,0.07693072033763762,1.265897772610757,1.7778923822898756,1.5846486938962423,-2.8695504146754454,-0.10524231334578316,0.57755675093206,1.797558596044996,-1.8966553421056214,-0.16794699062698593,-2.2693383785418897,-1.8268331111962752,2.2173429077455697
1440,-1.6229226901469895,0.17162938666322744,-1.486388498384312,-1.687852938772363,-2.7113207633811807,0.07693960175554648,1.265702825436172,1.7780640632534295,1.5845463418411148,-2.8695504146754454,-0.10524231334578316,0.57755675093206,1.797558596044996,-1.8966553421056214,-0.16794699062698593,-2.2693383785418897,-1.8268331111962752,2.2173429077455697
1450,-1.622808251336837,0.17187069767755572,-1.4866487960953316,-1.6881530369575701,-2.7110358561197505,0.07682081388983869,1.2655808563906172,1.7781588085070548,1.5843189172142298,-2.8695504146754454,-0.10524231334578316,0.57755675093206,1.797558596044996,-1.8966553421056214,-0.16794699062698593,-2.2693383785418897,-1.8268331111962752,2.2173429077455697
1460,-1.6225577170442522,0.17216527646374086,-1.486872257079685,-1.6884236807528883,-2.7107063357490797,0.07696144625448406,1.2654048580833237,1.7783311936898412,1.5839929337041878,-2.8695504146754454,-0.10524231334578316,0.57755675093206,1.797558596044996,-1.8966553421056214,-0.16794699062698593,-2.2693383785418897,-1.8268331111962752,2.2173429077455697
1470,-1.6226138936754235,0.17237858984721616,-1.4872195114999436,-1.6887891871222813,-2.710428753383675,0.07700744531124191,1.2652696068486333,1.7784769275461274,1.5838056605515132,-2.8695504146754454,-0.10524231334578316,0.57755675093206,1.797558596044996,-1.8966553421056214,-0.16794699062698593,-2.2693383785418897,-1.8268331111962752,2.2173429077455697
1480,-1.6225388225955757,0.1726894927075977,-1.4875697885642072,-1.6891708988503027,-2.710134027538701,0.0770962998131222,1.2649855208901708,1.7788127255253199,1.583513600977829,-2.8695504146754454,-0.10524231334578316,0.57755675093206,1.797558596044996,-1.8966553421056214,-0.16794699062698593,-2.2693383785418897,-1.8268331111962752,2.2173429077455697
1490,-1.6227582044631284,0.17304591144494944,-1.488115634948236,-1.6897058580272004,-2.709905760901298,0.07713612782105372,1.264754454789575,1.7791564867178236,1.5833626284395805,-2.8695504146754454,-0.10524231334578316,0.57755675093206,1.797558596044996,-1.8966553421056214,-0.16794699062698593,-2.2693383785418897,-1.8268331111962752,2.2173429077455697
1500,-1.6230456280104653,0.1734011064106832,-1.488706847936478,-1.6903004906101482,-2.7096283022316867,0.07742899850004235,1.2647124723606054,1.779545652134472,1.5831886429550164,-2.8695504146754454,-0.10524231334578316,0.57755675093206,1.797558596044996,-1.8966553421056214,-0.16794699062698593,-2.2693383785418897,-1.8268331111962752,2.2173429077455697
1510,-1.6229230849488507,0.17375722304647906,-1.4891439439659486,-1.6907410034530794,-2.7092197939058082,0.07727792174854298,1.2642570827756985,1.7796723613269665,1.582852526640039,-2.8695504146754454,-0.10524231334578316,0.57755675093206,1.797558596044996,-1.8966553421056214,-0.16794699062698593,-2.2693383785418897,-1.8268331111962752,2.2173429077455697
1520,-1.6228516448356585,0.1739534537717207,-1.4893759564243558,-1.6909869747059763,-2.7089604489290795,0.07729911550299617,1.2640866283651162,1.7796949258537471,1.582647459623113,-2.8695504146754454,-0.10524231334578316,0.57755675093206,1.797558596044996,-1.8966553421056214,-0.16794699062698593,-2.2693383785418897,-1.8268331111962752,2.2173429077455697
1530,-1.622788165169504,0.1739528427054896,-1.4893469404607076,-1.6909632011301214,-2.708892324503635,0.07728056871139036,1.2641564534638694,1.7795448120896311,1.582603502993723,-2.8695504146754454,-0.10524231334578316,0.57755675093206,1.797558596044996,-1.8966553421056214,-0.16794699062698593,-2.2693383785418897,-1.8268331111962752,2.2173429077455697
1540,-1.6226709112721331,0.17383879855599824,-1.4891062706181026,-1.690720357884183,-2.70901154583498,0.07736253456786543,1.2643564148507984,1.7793347555389194,1.5826718349450328,-2.8695504146754454,-0.10524231334578316,0.57755675093206,1.797558596044996,-1.8966553421056214,-0.16794699062698593,-2.2693383785418897,-1.8268331111962752,2.2173429077455697
1550,-1.6227688374575622,0.17356482242259488,-1.4888764114891873,-1.6904605072563776,-2.709215266754903,0.07709443545590132,1.264518791599947,1.7790633661835675,1.582891879880989,-2.8695504146754454,-0.10524231334578316,0.57755675093206,1.797558596044996,-1.8966553421056214,-0.16794699062698593,-2.2693383785418897,-1.8268331111962752,2.2173429077455697
1560,-1.6229412241074037,0.17333928734776483,-1.4886446983955408,-1.6902293620070743,-2.7094453622266395,0.07712327345589903,1.2649012120410348,1.778918582060462,1.5831341305907132,-2.8695504146754454,-0.10524231334578316,0.57755675093206,1.797558596044996,-1.8966553421056214,-0.16794699062698593,-2.2693383785418897,-1.8268331111962752,2.2173429077455697
1570,-1.6230293279175325,0.17319642561720883,-1.4884895606822353,-1.6900759714421736,-2.7095660791447203,0.07718982607679557,1.265198283586343,1.7788503677866776,1.5832668337509561,-2.8695504146754454,-0.10524231334578316,0.57755675093206,1.797558596044996,-1.8966553421056214,-0.16794699062698593,-2.2693383785418897,-1.8268331111962752,2.2173429077455697
1580,-1.623098077804226,0.17315363074614867,-1.4884716420968809,-1.6900584034236403,-2.7095775362391668,0.0772481641619977,1.2653357257100426,1.7788332312369466,1.5833093940277105,-2.8695504146754454,-0.10524231334578316,0.57755675093206,1.797558596044996,-1.8966553421056214,-0.16794699062698593,-2.2693383785418897,-1.8268331111962752,2.2173429077455697
1590,-1.6231037945195306,0.1732021515683914,-1.4885448290749057,-1.6901270192185682,-2.70950368879917,0.07727427306804488,1.2653439187389288,1.7788501795533502,1.583262598163903,-2.8695504146754454,-0.10524231334578316,0.57755675093206,1.797558596044996,-1.8966553421056214,-0.16794699062698593,-2.2693383785418897,-1.8268331111962752,2.2173429077455697
1600,-1.6231025594982915,0.17326569374615394,-1.4886337197324153,-1.69020689360208,-2.709421801682576,0.0772718783098417,1.2653529154132028,1.778872505313164,1.5832065797324224,-2.8695504146754454,-0.10524231334578316,0.57755675093206,1.797558596044996,-1.8966553421056214,-0.16794699062698593,-2.2693383785418897,-1.8268331111962752,2.2173429077455697
1610,-1.6230378954617986,0.17332630053033865,-1.4885345796526694,-1.6901176557431117,-2.7095672127833423,0.07742662203931792,1.2653185140213565,1.7789723452365023,1.5832640854675877,-2.8695504146754454,-0.10524231334578316,0.57755675093206,1.797558596044996,-1.8966553421056214,-0.16794699062698593,-2.2693383785418897,-1.8268331111962752,2.2173429077455697
1620,-1.6230409049985404,0.17333651356839339,-1.4884678930435065,-1.6900416802121057,-2.709692179339037,0.07753756170954898,1.2653126961405199,1.7790403837333848,1.583332607479022,-2.8695504146754454,-0.10524231334578316,0.57755675093206,1.797558596044996,-1.8966553421056214,-0.16794699062698593,-2.2693383785418897,-1.8268331111962752,2.2173429077455697
1630,-1.6230495335836785,0.17334787480371577,-1.4884879461332965,-1.6900477542424144,-2.7097001314105267,0.07754855056085663,1.265325946528969,1.7790286850985682,1.5833414191193065,-2.8695504146754454,-0.10524231334578316,0.57755675093206,1.797558596044996,-1.8966553421056214,-0.16794699062698593,-2.2693383785418897,-1.8268331111962752,2.2173429077455697
1640,-1.622983411417316,0.17326239836226226,-1.4883848247076177,-1.6899506317629867,-2.7097034879600286,0.07765501609200234,1.2654805787837025,1.7789030873680078,1.5833260561939542,-2.8695504146754454,-0.10524231334578316,0.57755675093206,1.797558596044996,-1.8966553421056214,-0.16794699062698593,-2.2693383785418897,-1.8268331111962752,2.2173429077455697
1650,-1.622995771791754,0.17320024319138094,-1.4883372283278766,-1.6898982277985581,-2.7097445152855766,0.07770247026349758,1.265556433952638,1.7788509705973456,1.5833574797335075,-2.8695504146754454,-0.10524231334578316,0.57755675093206,1.797558596044996,-1.8966553421056214,-0.16794699062698593,-2.2693383785418897,-1.8268331111962752,2.2173429077455697
1660,-1.6228993974116803,0.1731710491224469,-1.4882624093614913,-1.6898323096089767,-2.7097669600110583,0.07768167218557437,1.2655826114437674,1.7787953880250755,1.5833440466901343,-2.8695504146754454,-0.10524231334578316,0.57755675093206,1.797558596044996,-1.8966553421056214,-0.16794699062698593,-2.2693383785418897,-1.8268331111962752,2.2173429077455697
1670,-1.6228879614743414,0.173157409832465,-1.4882521754881213,-1.6898128946336566,-2.709784298624524,0.07765121153140067,1.2655792310254041,1.7788075295464638,1.5833547632903533,-2.8695504146754454,-0.10524231334578316,0.57755675093206,1.797558596044996,-1.8966553421056214,-0.16794699062698593,-2.2693383785418897,-1.8268331111962752,2.2173429077455697
1680,-1.6228973855510416,0.17315455391513213,-1.4882501742229934,-1.6897926224387274,-2.7098327400187103,0.07762813327288562,1.265573790174657,1.7788332470978163,1.5833907968381604,-2.8695504146754454,-0.10524231334578316,0.57755675093206,1.797558596044996,-1.8966553421056214,-0.16794699062698593,-2.2693383785418897,-1.8268331111962752,2.2173429077455697
1690,-1.622961808974542,0.1730588751287902,-1.488143317183564,-1.6896750560196097,-2.7099834975349903,0.0776503195146569,1.265697710906724,1.7788657281762188,1.583510054957441,-2.8695504146754454,-0.10524231334578316,0.57755675093206,1.797558596044996,-1.8966553421056214,-0.16794699062698593,-2.2693383785418897,-1.8268331111962752,2.2173429077455697
1700,-1.623057475370791,0.17314051153999696,-1.488390694065476,-1.6898718652111013,-2.709879519931685,0.07752694451509827,1.2654561459415639,1.7789657409577468,1.583447917793326,-2.8695504146754454,-0.10524231334578316,0.57755675093206,1.797558596044996,-1.8966553421056214,-0.16794699062698593,-2.2693383785418897,-1.8268331111962752,2.2173429077455697
1710,-1.6230795956332087,0.17349923569001133,-1.4888097958541273,-1.6902701779835916,-2.709594237907268,0.077569324668786,1.2652694686867278,1.7793532039075783,1.583229350078359,-2.8695504146754454,-0.10524231334578316,0.57755675093206,1.797558596044996,-1.8966553421056214,-0.16794699062698593,-2.2693383785418897,-1.8268331111962752,2.2173429077455697
1720,-1.6235113088425503,0.17363021158954917,-1.4892484006921367,-1.6906408518590648,-2.709436135829343,0.07747864845087662,1.265204550538512,1.7796410549264141,1.5832235343535,-2.8695504146754454,-0.10524231334578316,0.57755675093206,1.797558596044996,-1.8966553421056214,-0.16794699062698593,-2.2693383785418897,-1.8268331111962752,2.2173429077455697
1730,-1.6237573867332873,0.17360101848961318,-1.4893642445304025,-1.6907296383776074,-2.7094331968435283,0.07745162056361601,1.2653126108167336,1.7796892646635778,1.5832951515446514,-2.8695504146754454,-0.10524231334578316,0.57755675093206,1.797558596044996,-1.8966553421056214,-0.16794699062698593,-2.2693383785418897,-1.8268331111962752,2.2173429077455697
1740,-1.6238401287476578,0.1735712314846991,-1.4893585194507653,-1.690721994050082,-2.7094683330930898,0.07745520239034967,1.2653968186226614,1.779681546424798,1.5833448020892857,-2.8695504146754454,-0.10524231334578316,0.57755675093206,1.797558596044996,-1.8966553421056214,-0.16794699062698593,-2.2693383785418897,-1.8268331111962752,2.2173429077455697
1750,-1.6238502174246072,0.17361112100510243,-1.4894118994387702,-1.6907653648419827,-2.709443528636483,0.07746285759606217,1.2653833693347019,1.7797262447926232,1.5833259301291043,-2.8695504146754454,-0.10524231334578316,0.57755675093206,1.797558596044996,-1.8966553421056214,-0.16794699062698593,-2.2693383785418897,-1.8268331111962752,2.2173429077455697
1760,-1.623771849657212,0.1736964380950272,-1.4894709432023727,-1.6908224400409066,-2.709374542118337,0.07746922530205794,1.2653234722218378,1.7797861961643746,1.5832521049342547,-2.8695504146754454,-0.10524231334578316,0.57755675093206,1.797558596044996,-1.8966553421056214,-0.16794699062698593,-2.2693383785418897,-1.8268331111962752,2.2173429077455697
1770,-1.6237291190044882,0.1737805529260717,-1.489541289216961,-1.69088850839789,-2.709316562293931,0.07755263770364806,1.2652900095216564,1.779877687680299,1.583188787821866,-2.8695504146754454,-0.10524231334578316,0.57755675093206,1.797558596044996,-1.8966553421056214,-0.16794699062698593,-2.2693383785418897,-1.8268331111962752,2.2173429077455697
1780,-1.6237088284777925,0.17384585531686683,-1.489591126268718,-1.6909388747919691,-2.709273813309965,0.07760468612297966,1.2652777660345744,1.779938694200448,1.5831506402052375,-2.8695504146754454,-0.10524231334578316,0.57755675093206,1.797558596044996,-1.8966553421056214,-0.16794699062698593,-2.2693383785418897,-1.8268331111962752,2.2173429077455697
1790,-1.623679396897723,0.1738990883375875,-1.4896292132697133,-1.6909804453356783,-2.709230665598934,0.07764600473106602,1.265247629510702,1.7799964413829277,1.583108052858676,-2.8695504146754454,-0.10524231334578316,0.57755675093206,1.797558596044996,-1.8966553421056214,-0.16794699062698593,-2.2693383785418897,-1.8268331111962752,2.2173429077455697
1800,-1.623684312825215,0.17389731744130876,-1.4896190932423128,-1.6909751606916803,-2.709251165397566,0.07758944161901957,1.2651692078168904,1.7800343820866638,1.5831234155528802,-2.8695504146754454,-0.10524231334578316,0.57755675093206,1.797558596044996,-1.8966553421056214,-0.16794699062698593,-2.2693383785418897,-1.8268331111962752,2.2173429077455697
1810,-1.6235149706694627,0.17379029547134522,-1.4893745744293003,-1.6908239667284914,-2.7093157845157156,0.07757432910620289,1.2651138930696104,1.7799650550249415,1.5831192906404188,-2.8695504146754454,-0.10524231334578316,0.57755675093206,1.797558596044996,-1.8966553421056214,-0.16794699062698593,-2.2693383785418897,-1.8268331111962752,2.2173429077455697
1820,-1.6234807935978581,0.1737877589432101,-1.4893370430466073,-1.6908108672088284,-2.709336906283534,0.07757789242850043,1.2650619358110722,1.7799889819427486,1.5831192281960902,-2.8695504146754454,-0.10524231334578316,0.57755675093206,1.797558596044996,-1.8966553421056214,-0.16794699062698593,-2.2693383785418897,-1.8268331111962752,2.2173429077455697
1830,-1.6235056903793954,0.17376045481090518,-1.4893055972560056,-1.6907817169521429,-2.7093879711035767,0.0775300531442445,1.265035367852202,1.7800027073425322,1.583164219684947,-2.8695504146754454,-0.10524231334578316,0.57755675093206,1.797558596044996,-1.8966553421056214,-0.16794699062698593,-2.2693383785418897,-1.8268331111962752,2.2173429077455697
1840,-1.6235093521477229,0.17374904113545928,-1.4892779226511477,-1.6907563982061284,-2.7094234063146927,0.07753507419336868,1.2650278695653174,1.7800372666357829,1.5831891238817404,-2.8695504146754454,-0.10524231334578316,0.57755675093206,1.797558596044996,-1.8966553421056214,-0.16794699062698593,-2.2693383785418897,-1.8268331111962752,2.2173429077455697
1850,-1.623516688903883,0.1737326666578169,-1.4892484223055114,-1.6907249493900003,-2.709461657744816,0.07752411701058842,1.2650232582646144,1.7800550202456005,1.5832191094394858,-2.8695504146754454,-0.10524231334578316,0.57755675093206,1.797558596044996,-1.8966553421056214,-0.16794699062698593,-2.2693383785418897,-1.8268331111962752,2.2173429077455697
1860,-1.6234987908219902,0.17370718123396386,-1.4892111071753114,-1.6906838054027769,-2.709487999196498,0.07746585389900876,1.264969399715886,1.7800348618556676,1.5832369693964168,-2.8695504146754454,-0.10524231334578316,0.57755675093206,1.797558596044996,-1.8966553421056214,-0.16794699062698593,-2.2693383785418897,-1.8268331111962752,2.2173429077455697
1870,-1.6235028505809397,0.17366684122713882,-1.4891475690703897,-1.6906181923583394,-2.7095608571059104,0.07749421449159449,1.2649879369953372,1.780033345735852,1.5832880589378737,-2.8695504146754454,-0.10524231334578316,0.57755675093206,1.797558596044996,-1.8966553421056214,-0.16794699062698593,-2.2693383785418897,-1.8268331111962752,2.2173429077455697
1880,-1.6235324249803833,0.17360541932203793,-1.4890634218228163,-1.6905315320382386,-2.709667653745122,0.07754187642790258,1.2650455927275785,1.7800331540855447,1.583367319971197,-2.8695504146754454,-0.10524231334578316,0.57755675093206,1.797558596044996,-1.8966553421056214,-0.16794699062698593,-2.2693383785418897,-1.8268331111962752,2.2173429077455697
1890,-1.6234659600092127,0.1735326799564425,-1.4889138345922452,-1.6903867736137368,-2.7097813209137622,0.07755408387820054,1.2650470621423946,1.7800107097336517,1.583427939502949,-2.8695504146754454,-0.10524231334578316,0.57755675093206,1.797558596044996,-1.8966553421056214,-0.16794699062698593,-2.2693383785418897,-1.8268331111962752,2.2173429077455697
1900,-1.6234343410330763,0.17334349647947428,-1.4887079783735053,-1.690158904446496,-2.7099477092415487,0.07736104110655545,1.2650383927840043,1.7797959524003908,1.5835592637511953,-2.8695504146754454,-0.10524231334578316,0.57755675093206,1.797558596044996,-1.8966553421056214,-0.16794699062698593,-2.2693383785418897,-1.8268331111962752,2.2173429077455697
1910,-1.623539455315651,0.17300473185335344,-1.4884135208151412,-1.689808760456956,-2.7102672995229695,0.07710988993661959,1.2651549986859332,1.7795091528440878,1.5838400056930118,-2.8695504146754454,-0.10524231334578316,0.57755675093206,1.797558596044996,-1.8966553421056214,-0.16794699062698593,-2.2693383785418897,-1.8268331111962752,2.2173429077455697
1920,-1.6238995727506886,0.17257322813245365,-1.4881345547071179,-1.6894710135904945,-2.7107079779530396,0.07701926176377483,1.2655628521120714,1.779328426805167,1.5842700269206453,-2.8695504146754454,-0.10524231334578316,0.57755675093206,1.797558596044996,-1.8966553421056214,-0.16794699062698593,-2.2693383785418897,-1.8268331111962752,2.2173429077455697
1930,-1.6240976629070147,0.17223987876026114,-1.4877883165169972,-1.6890844349921892,-2.711155073674377,0.07710131475569977,1.2659023661158197,1.7792903758987757,1.5846596740510945,-2.8695504146754454,-0.10524231334578316,0.57755675093206,1.797558596044996,-1.8966553421056214,-0.16794699062698593,-2.2693383785418897,-1.8268331111962752,2.2173429077455697
1940,-1.6243439718290553,0.17181749871139843,-1.4874958026649034,-1.6887197014014361,-2.711504779292611,0.07691767599124553,1.2661613317849547,1.7790064784481252,1.585030926091643,-2.8695504146754454,-0.10524231334578316,0.57755675093206,1.797558596044996,-1.8966553421056214,-0.16794699062698593,-2.2693383785418897,-1.8268331111962752,2.2173429077455697
1950,-1.6244664401384183,0.17160109367934234,-1.4872707159698573,-1.688474332391682,-2.7117732342710266,0.07701458478790005,1.2665063176723979,1.7788762455372715,1.5852848716211454,-2.8695504146754454,-0.10524231334578316,0.57755675093206,1.797558596044996,-1.8966553421056214,-0.16794699062698593,-2.2693383785418897,-1.8268331111962752,2.2173429077455697
1960,-1.624568449394534,0.17133945634656317,-1.4870266844984936,-1.6882246573780995,-2.711951285400524,0.07707833285388963,1.2668924584086758,1.7786892829043672,1.5854848631903555,-2.8695504146754454,-0.10524231334578316,0.57755675093206,1.797558596044996,-1.8966553421056214,-0.16794699062698593,-2.2693383785418897,-1.8268331111962752,2.2173429077455697
1970,-1.6246665457712357,0.17119789488235726,-1.4868778225123693,-1.6880669914011308,-2.712124966951213,0.07722451445974189,1.267141238051327,1.7786379856406345,1.585636068880074,-2.8695504146754454,-0.10524231334578316,0.57755675093206,1.797558596044996,-1.8966553421056214,-0.16794699062698593,-2.2693383785418897,-1.8268331111962752,2.2173429077455697
1980,-1.624994924496129,0.1709477476368513,-1.4868220849438212,-1.6879769231222381,-2.7122608411126476,0.07713323679426677,1.2673959803866297,1.7784310811890447,1.5858801053141762,-2.8695504146754454,-0.10524231334578316,0.57755675093206,1.797558596044996,-1.8966553421056214,-0.16794699062698593,-2.2693383785418897,-1.8268331111962752,2.2173429077455697
1990,-1.6251333817325586,0.1708157070172907,-1.4867997924772451,-1.68794903039809,-2.712260673580635,0.0770729815801851,1.267527093047363,1.7782658043464223,1.585962065205576,-2.8695504146754454,-0.10524231334578316,0.57755675093206,1.797558596044996,-1.8966553421056214,-0.16794699062698593,-2.2693383785418897,-1.8268331111962752,2.2173429077455697
2000,-1.6251002696103678,0.17082075553613593,-1.4868274404240975,-1.687995841245606,-2.7121346249969713,0.07710226078319744,1.2675301422789633,1.7781653793399084,1.5858838303941907,-2.8695504146754454,-0.10524231334578316,0.57755675093206,1.797558596044996,-1.8966553421056214,-0.16794699062698593,-2.2693383785418897,-1.8268331111962752,2.2173429077455697
2010,-1.625117943588314,0.17084107930418313,-1.4868717582658046,-1.6880503625418524,-2.7120466544264663,0.07716512771189558,1.2675552291942975,1.7781119433621626,1.585834854997704,-2.8695504146754454,-0.10524231334578316,0.57755675093206,1.797558596044996,-1.8966553421056214,-0.16794699062698593,-2.2693383785418897,-1.8268331111962752,2.2173429077455697
2020,-1.6251592242396011,0.17084882510280044,-1.4869168482662083,-1.6881006264989222,-2.7119695832855597,0.0772483412605288,1.267538111336974,1.7781131397349945,1.585791176973324,-2.8695504146754454,-0.10524231334578316,0.57755675093206,1.797558596044996,-1.8966553421056214,-0.16794699062698593,-2.2693383785418897,-1.8268331111962752,2.2173429077455697
2030,-1.6252204321586596,0.17081950606958113,-1.48693123765155,-1.6881208506149858,-2.7119301472371875,0.07735902735914182,1.2675729635099708,1.7780988788917953,1.5857796556460542,-2.8695504146754454,-0.10524231334578316,0.57755675093206,1.797558596044996,-1.8966553421056214,-0.16794699062698593,-2.2693383785418897,-1.8268331111962752,2.2173429077455697
2040,-1.6252675938090895,0.17081177623627541,-1.486944673851983,-1.6881395350674206,-2.711898769137299,0.07746219271706178,1.2676073180849148,1.7780716630963542,1.5857685646900166,-2.8695504146754454,-0.10524231334578316,0.57755675093206,1.797558596044996,-1.8966553421056214,-0.16794699062698593,-2.2693383785418897,-1.8268331111962752,2.2173429077455697
2050,-1.625220701860086,0.17077980538036006,-1.4868468524050757,-1.6880557247657717,-2.711916807016641,0.0775755815997271,1.2676621054526052,1.7780228210223836,1.5857721342946616,-2.8695504146754454,-0.10524231334578316,0.57755675093206,1.797558596044996,-1.8966553421056214,-0.16794699062698593,-2.2693383785418897,-1.8268331111962752,2.2173429077455697
2060,-1.6252090870514604,0.17067892013970565,-1.4867242242667653,-1.6879425375074475,-2.7119452650233997,0.07767246799142921,1.267779142178379,1.777901702524645,1.5858052259110977,-2.8695504146754454,-0.10524231334578316,0.57755675093206,1.797558596044996,-1.8966553421056214,-0.16794699062698593,-2.2693383785418897,-1.8268331111962752,2.2173429077455697
2070,-1.6253411738206445,0.1705001241219412,-1.4866428777080105,-1.6878565763661029,-2.7119677775658495,0.07780193007040372,1.2679724834693067,1.7778041455475595,1.5858893407294188,-2.8695504146754454,-0.10524231334578316,0.57755675093206,1.797558596044996,-1.8966553421056214,-0.16794699062698593,-2.2693383785418897,-1.8268331111962752,2.2173429077455697
2080,-1.6253665467912903,0.17044858410368552,-1.4866396906148387,-1.6878571270026563,-2.7119092992052054,0.07785845941201316,1.2680680827347177,1.7776841649041428,1.585873068088719,-2.8695504146754454,-0.10524231334578316,0.57755675093206,1.797558596044996,-1.8966553421056214,-0.16794699062698593,-2.2693383785418897,-1.8268331111962752,2.2173429077455697
2090,-1.6253937806630938,0.1704004591393564,-1.486640526825306,-1.687854249907653,-2.7118465812014816,0.07791715134701947,1.2681667915188177,1.7775694903723014,1.585859375749195,-2.8695504146754454,-0.10524231334578316,0.57755675093206,1.797558596044996,-1.8966553421056214,-0.16794699062698593,-2.2693383785418897,-1.8268331111962752,2.2173429077455697
2100,-1.6254551876924876,0.17033647876874497,-1.4866238226223458,-1.6878297855916498,-2.71185699707397,0.07792458764482821,1.268239202771528,1.7774378807810742,1.5859048005673984,-2.8695504146754454,-0.10524231334578316,0.57755675093206,1.797558596044996,-1.8966553421056214,-0.16794699062698593,-2.2693383785418897,-1.8268331111962752,2.2173429077455697
2110,-1.6254701184112779,0.1701935164844949,-1.4865238255306494,-1.6877387031354887,-2.7118824466675995,0.0780296589159098,1.2683584958016736,1.777291833843239,1.5859328896617115,-2.8695504146754454,-0.10524231334578316,0.57755675093206,1.797558596044996,-1.8966553421056214,-0.16794699062698593,-2.2693383785418897,-1.8268331111962752,2.2173429077455697
2120,-1.6254740558211562,0.17014697001078374,-1.4864899754098584,-1.6877213346498805,-2.7118487723794455,0.07817010827991806,1.268472842837994,1.7772198663711634,1.5859199154828538,-2.8695504146754454,-0.10524231334578316,0.57755675093206,1.797558596044996,-1.8966553421056214,-0.16794699062698593,-2.2693383785418897,-1.8268331111962752,2.2173429077455697
2130,-1.625502654440069,0.1700614938807027,-1.4864516361530977,-1.6876852355548664,-2.7118154977023754,0.0781231166729026,1.2685870484493618,1.7770488236013051,1.5859406384932566,-2.8695504146754454,-0.10524231334578316,0.57755675093206,1.797558596044996,-1.8966553421056214,-0.16794699062698593,-2.2693383785418897,-1.8268331111962752,2.2173429077455697
2140,-1.6256048863102355,0.16982502152149592,-1.486312881370089,-1.6875499851788633,-2.7118644387115314,0.07796056498553236,1.26880453781157,1.776733572635966,1.5860609624261985,-2.8695504146754454,-0.10524231334578316,0.57755675093206,1.797558596044996,-1.8966553421056214,-0.16794699062698593,-2.2693383785418897,-1.8268331111962752,2.2173429077455697
2150,-1.625693936795311,0.16971527518125243,-1.4862383324229747,-1.6874762128526533,-2.711910492928576,0.07803209965955993,1.2689800537237717,1.7766313643392424,1.5861425047934092,-2.8695504146754454,-0.10524231334578316,0.57755675093206,1.797558596044996,-1.8966553421056214,-0.16794699062698593,-2.2693383785418897,-1.8268331111962752,2.2173429077455697
2160,-1.6256898794311712,0.16963967179982234,-1.4861405961727332,-1.6874008196760244,-2.7119272949659843,0.07817654265531689,1.2691486464850994,1.7765713058691035,1.586172813850833,-2.8695504146754454,-0.10524231334578316,0.57755675093206,1.797558596044996,-1.8966553421056214,-0.16794699062698593,-2.2693383785418897,-1.8268331111962752,2.2173429077455697
2170,-1.625730675396401,0.16959357369763187,-1.4861092669536147,-1.6873771691017927,-2.711933092012948,0.07832738016605999,1.269285236935445,1.7765433278729812,1.5861980053911953,-2.8695504146754454,-0.10524231334578316,0.57755675093206,1.797558596044996,-1.8966553421056214,-0.16794699062698593,-2.2693383785418897,-1.8268331111962752,2.2173429077455697
2180,-1.6257759645474021,0.1695864601783295,-1.486132611685781,-1.6873984975215466,-2.711904021993046,0.07839419697146949,1.269355628117853,1.7765120090574615,1.5862015907339717,-2.8695504146754454,-0.10524231334578316,0.57755675093206,1.797558596044996,-1.8966553421056214,-0.16794699062698593,-2.2693383785418897,-1.8268331111962752,2.2173429077455697
2190,-1.6258477372355342,0.169523375118338,-1.4861425915801418,-1.6874023302742938,-2.7118882792068306,0.0784304384908554,1.2694215175118062,1.7764296238316521,1.5862377063998083,-2.8695504146754454,-0.10524231334578316,0.57755675093206,1.797558596044996,-1.8966553421056214,-0.16794699062698593,-2.2693383785418897,-1.8268331111962752,2.2173429077455697
2200,-1.6259320510049644,0.16948236822270954,-1.4861666670506202,-1.6874124958387093,-2.7119031431324676,0.07845689088609029,1.2694772906318568,1.7763443467720437,1.5862917824747391,-2.8695504146754454,-0.10524231334578316,0.57755675093206,1.797558596044996,-1.8966553421056214,-0.16794699062698593,-2.2693383785418897,-1.8268331111962752,2.2173429077455697
2210,-1.625983933119547,0.16947175442524626,-1.4862016005178387,-1.6874377066426172,-2.7118839055756743,0.07848623683467185,1.2695079563155491,1.7763116947527187,1.5863035516366153,-2.8695504146754454,-0.10524231334578316,0.57755675093206,1.797558596044996,-1.8966553421056214,-0.16794699062698593,-2.2693383785418897,-1.8268331111962752,2.2173429077455697
2220,-1.6260814092686855,0.1694610632319525,-1.4862443420704057,-1.6874646650336658,-2.7118918630169433,0.07855890926148326,1.2695562857790776,1.7763183245063958,1.5863406847118464,-2.8695504146754454,-0.10524231334578316,0.57755675093206,1.797558596044996,-1.8966553421056214,-0.16794699062698593,-2.2693383785418897,-1.8268331111962752,2.2173429077455697
2230,-1.6260988345148246,0.16946236847153995,-1.4862862514689956,-1.687493032436218,-2.711862538334792,0.07852939226020307,1.2695785643063937,1.7762509312416501,1.5863354122776543,-2.8695504146754454,-0.10524231334578316,0.57755675093206,1.797558596044996,-1.8966553421056214,-0.16794699062698593,-2.2693383785418897,-1.8268331111962752,2.2173429077455697
2240,-1.6261164437688926,0.16949925848902758,-1.4863352032203798,-1.68753021427417,-2.7118413920116398,0.07862761530629439,1.2696007381562524,1.776267644803563,1.5863312518827068,-2.8695504146754454,-0.10524231334578316,0.57755675093206,1.797558596044996,-1.8966553421056214,-0.16794699062698593,-2.2693383785418897,-1.8268331111962752,2.2173429077455697
2250,-1.6262275830060706,0.16950628978985896,-1.4864222982729691,-1.687580384791838,-2.711819474225265,0.07868612266194112,1.2696590291065053,1.7762758620447843,1.5863653809152924,-2.8695504146754454,-0.10524231334578316,0.57755675093206,1.797558596044996,-1.8966553421056214,-0.16794699062698593,-2.2693383785418897,-1.8268331111962752,2.2173429077455697
2260,-1.6262751175399632,0.1695302875526939,-1.4864987983148834,-1.6876374466063198,-2.7117680962243567,0.07874278780678236,1.2696943446063877,1.776293556064966,1.5863527841962113,-2.8695504146754454,-0.10524231334578316,0.57755675093206,1.797558596044996,-1.8966553421056214,-0.16794699062698593,-2.2693383785418897,-1.8268331111962752,2.2173429077455697
2270,-1.626342841362177,0.1695607824966534,-1.486574132886031,-1.6876957753533781,-2.711739294757624,0.07884683028471819,1.2697473844717548,1.7763355318848,1.5863596960341837,-2.8695504146754454,-0.10524231334578316,0.57755675093206,1.797558596044996,-1.8966553421056214,-0.16794699062698593,-2.2693383785418897,-1.8268331111962752,2.2173429077455697
2280,-1.6264058815161229,0.1695380974839665,-1.4865844430868815,-1.6877041024346597,-2.71174900624242,0.07888045093132433,1.2698392504737939,1.7763186440242926,1.5863990684988847,-2.8695504146754454,-0.10524231334578316,0.57755675093206,1.797558596044996,-1.8966553421056214,-0.16794699062698593,-2.2693383785418897,-1.8268331111962752,2.2173429077455697
2290,-1.626597868696172,0.16938478541462398,-1.4865334146032148,-1.6876526953901025,-2.7118329461964583,0.07882804974873579,1.2700226644691808,1.7762025009597777,1.586554337855415,-2.8695504146754454,-0.10524231334578316,0.57755675093206,1.797558596044996,-1.8966553421056214,-0.16794699062698593,-2.2693383785418897,-1.8268331111962752,2.2173429077455697
2300,-1.6267765656221407,0.16925716644018382,-1.4864915829536618,-1.6875994080666776,-2.7119537823939743,0.07885850571735266,1.2700879886323975,1.7761474315999746,1.5867239342460415,-2.8695504146754454,-0.10524231334578316,0.57755675093206,1.797558596044996,-1.8966553421056214,-0.16794699062698593,-2.2693383785418897,-1.8268331111962752,2.2173429077455697
2310,-1.6268473260035365,0.1691756117240388,-1.4864117175245473,-1.6875431337161058,-2.7120547944639863,0.07890407742707385,1.2701612858011473,1.7760892934574903,1.5868313464244075,-2.8695504146754454,-0.10524231334578316,0.57755675093206,1.797558596044996,-1.8966553421056214,-0.16794699062698593,-2.2693383785418897,-1.8268331111962752,2.2173429077455697
2320,-1.6268651547716177,0.16908705097565327,-1.486310012600659,-1.6874699225482852,-2.7121392151316934,0.07889513268439712,1.270216343693886,1.776024792534965,1.5869116298960944,-2.8695504146754454,-0.10524231334578316,0.57755675093206,1.797558596044996,-1.8966553421056214,-0.16794699062698593,-2.2693383785418897,-1.8268331111962752,2.2173429077455697
2330,-1.6268643299278014,0.16901772535230408,-1.486230002677906,-1.6874113438803406,-2.712190643770959,0.07888116913205599,1.2702548160242237,1.7759716288975538,1.5869577100663828,-2.8695504146754454,-0.10524231334578316,0.57755675093206,1.797558596044996,-1.8966553421056214,-0.16794699062698593,-2.2693383785418897,-1.8268331111962752,2.2173429077455697
2340,-1.626872364818519,0.16897629934065542,-1.4861861470603008,-1.687375463938153,-2.712224210502819,0.07888715621078099,1.2702652571253021,1.7759410531805477,1.5869879162781133,-2.8695504146754454,-0.10524231334578316,0.57755675093206,1.797558596044996,-1.8966553421056214,-0.16794699062698593,-2.2693383785418897,-1.8268331111962752,2.2173429077455697
2350,-1.6268728800051881,0.1689607705483701,-1.4861760707720126,-1.6873623134954912,-2.7122235524038545,0.07888049569744168,1.2702632169550363,1.7759179417909103,1.5869905387316754,-2.8695504146754454,-0.10524231334578316,0.57755675093206,1.797558596044996,-1.8966553421056214,-0.16794699062698593,-2.2693383785418897,-1.8268331111962752,2.2173429077455697
2360,-1.6268860085528905,0.16894762367867966,-1.486178492790067,-1.6873572395045047,-2.7122098102895165,0.07887694837549705,1.2702862148065062,1.7758924734545325,1.5869913254397863,-2.8695504146754454,-0.10524231334578316,0.57755675093206,1.797558596044996,-1.8966553421056214,-0.16794699062698593,-2.2693383785418897,-1.8268331111962752,2.2173429077455697
2370,-1.6269211257339817,0.1689502279500388,-1.4862074037650155,-1.6873685013903814,-2.7121966465233394,0.07891253504952526,1.2702936369071771,1.7758975338283984,1.586996292863346,-2.8695504146754454,-0.10524231334578316,0.57755675093206,1.797558596044996,-1.8966553421056214,-0.16794699062698593,-2.2693383785418897,-1.8268331111962752,2.2173429077455697
2380,-1.62692943880296,0.16897264465452136,-1.4862422128482844,-1.6873899479651502,-2.7121682899333814,0.0789785379504952,1.2703013147417288,1.7759082345465642,1.5869825364071515,-2.8695504146754454,-0.10524231334578316,0.57755675093206,1.797558596044996,-1.8966553421056214,-0.16794699062698593,-2.2693383785418897,-1.8268331111962752,2.2173429077455697
2390,-1.626928003846513,0.16899337561848835,-1.4862736061504578,-1.6874079735219836,-2.7121339820120673,0.07902795545579991,1.2703080253549426,1.7759221597657677,1.5869590806157459,-2.8695504146754454,-0.10524231334578316,0.57755675093206,1.797558596044996,-1.8966553421056214,-0.16794699062698593,-2.2693383785418897,-1.8268331111962752,2.2173429077455697
2400,-1.6269373916061787,0.16900026673686555,-1.486303343470109,-1.6874223241452098,-2.7121006194607773,0.07906974628193701,1.2703269768441554,1.7759305236059248,1.5869392746072994,-2.8695504146754454,-0.10524231334578316,0.57755675093206,1.797558596044996,-1.8966553421056214,-0.16794699062698593,-2.2693383785418897,-1.8268331111962752,2.2173429077455697
2410,-1.6269688490267589,0.16898501925074516,-1.4863103653872933,-1.6874169187581587,-2.712099643753244,0.07910835988968602,1.2703515761258588,1.7759259678667583,1.5869504465469926,-2.8695504146754454,-0.10524231334578316,0.57755675093206,1.797558596044996,-1.8966553421056214,-0.16794699062698593,-2.2693383785418897,-1.8268331111962752,2.2173429077455697
2420,-1.6269753878064084,0.16895227873084503,-1.4862827560721192,-1.6873901819894954,-2.7121128717495546,0.07911104705613035,1.270375238288366,1.7758732247093667,1.5869681853834723,-2.8695504146754454,-0.10524231334578316,0.57755675093206,1.797558596044996,-1.8966553421056214,-0.16794699062698593,-2.2693383785418897,-1.8268331111962752,2.2173429077455697
2430,-1.6269635424037012,0.16891905896224632,-1.4862218845657118,-1.6873445559309368,-2.7121421890878556,0.07915519823442507,1.2704414018222432,1.7758284512757172,1.5869942275497175,-2.8695504146754454,-0.10524231334578316,0.57755675093206,1.797558596044996,-1.8966553421056214,-0.16794699062698593,-2.2693383785418897,-1.8268331111962752,2.2173429077455697
2440,-1.6270440861266549,0.16885900000396856,-1.4861884353842025,-1.6873101176500847,-2.7121811507399105,0.0791954539568598,1.2705426213821853,1.775795422516203,1.5870626528736458,-2.8695504146754454,-0.10524231334578316,0.57755675093206,1.797558596044996,-1.8966553421056214,-0.16794699062698593,-2.2693383785418897,-1.8268331111962752,2.2173429077455697
2450,-1.6271521394738584,0.16878970668479903,-1.4861654974403247,-1.6872834957115819,-2.712223488218574,0.07919017157840816,1.270632412471682,1.7757481106357527,1.5871452536219135,-2.8695504146754454,-0.10524231334578316,0.57755675093206,1.797558596044996,-1.8966553421056214,-0.16794699062698593,-2.2693383785418897,-1.8268331111962752,2.2173429077455697
2460,-1.6271636940404992,0.16875066289580598,-1.4861344565571577,-1.6872595716031724,-2.7122363440661443,0.07918659608807034,1.270672938677459,1.775709469542168,1.587168909061495,-2.8695504146754454,-0.10524231334578316,0.57755675093206,1.797558596044996,-1.8966553421056214,-0.16794699062698593,-2.2693383785418897,-1.8268331111962752,2.2173429077455697
2470,-1.6271575424557667,0.1687199322864548,-1.486123108605757,-1.6872465241665244,-2.712230858412406,0.07911610229184356,1.2707032912659295,1.775628105425221,1.587176067982849,-2.8695504146754454,-0.10524231334578316,0.57755675093206,1.797558596044996,-1.8966553421056214,-0.16794699062698593,-2.2693383785418897,-1.8268331111962752,2.2173429077455697
2480,-1.6271819907861238,0.16868794135869833,-1.4861179782955232,-1.687234970979079,-2.712241460675569,0.0790968626124948,1.2707195525290638,1.7755774525846988,1.5872029370068914,-2.8695504146754454,-0.10524231334578316,0.57755675093206,1.797558596044996,-1.8966553421056214,-0.16794699062698593,-2.2693383785418897,-1.8268331111962752,2.2173429077455697
2490,-1.6272096426228058,0.16865528884714864,-1.486104697307229,-1.6872197754909302,-2.712254384033025,0.07910036376874238,1.270748434859386,1.7755401787754381,1.5872300001407535,-2.8695504146754454,-0.10524231334578316,0.57755675093206,1.797558596044996,-1.8966553421056214,-0.16794699062698593,-2.2693383785418897,-1.8268331111962752,2.2173429077455697
2500,-1.6272219588070458,0.1686299601405444,-1.4860952022210447,-1.6872103628750137,-2.712258468118279,0.07913454142120392,1.2707845526671606,1.7755145109183685,1.5872418285962144,-2.8695504146754454,-0.10524231334578316,0.57755675093206,1.797558596044996,-1.8966553421056214,-0.16794699062698593,-2.2693383785418897,-1.8268331111962752,2.2173429077455697
2510,-1.6272183032692007,0.16860519279145286,-1.4860797510681023,-1.687198382516996,-2.7122572796692612,0.0791584297920231,1.2708116686099786,1.7754879129781445,1.587245033388431,-2.8695504146754454,-0.10524231334578316,0.57755675093206,1.797558596044996,-1.8966553421056214,-0.16794699062698593,-2.2693383785418897,-1.8268331111962752,2.2173429077455697
2520,-1.6272300610403299,0.16859420525305466,-1.4860778132968737,-1.6871954204626818,-2.7122657470409566,0.07920792798173204,1.2708345128482652,1.7754833628875257,1.5872559916796907,-2.8695504146754454,-0.10524231334578316,0.57755675093206,1.797558596044996,-1.8966553421056214,-0.16794699062698593,-2.2693383785418897,-1.8268331111962752,2.2173429077455697
2530,-1.6272671599304942,0.16857910514614893,-1.48608291526695,-1.68719248447263,-2.7122755016993447,0.07925515795921687,1.2708595724438267,1.7754858608905668,1.5872818897989982,-2.8695504146754454,-0.10524231334578316,0.57755675093206,1.797558596044996,-1.8966553421056214,-0.16794699062698593,-2.2693383785418897,-1.8268331111962752,2.2173429077455697
2540,-1.6273141774414954,0.1685582010688862,-1.486087065739995,-1.687189764050753,-2.7122890222308507,0.07927904266247195,1.270892294299659,1.775472270651582,1.5873147407582857,-2.8695504146754454,-0.10524231334578316,0.57755675093206,1.797558596044996,-1.8966553421056214,-0.16794699062698593,-2.2693383785418897,-1.8268331111962752,2.2173429077455697
2550,-1.6273461065022583,0.16855606369826412,-1.4861035611311608,-1.6871947723963239,-2.712289997640334,0.07930618561546553,1.2709132554110085,1.7754689570615194,1.5873305481555817,-2.8695504146754454,-0.10524231334578316,0.57755675093206,1.797558596044996,-1.8966553421056214,-0.16794699062698593,-2.2693383785418897,-1.8268331111962752,2.2173429077455697
2560,-1.6273959549201,0.16853018655247728,-1.4861198148861188,-1.6871961278254066,-2.7122860781326303,0.07925797450026917,1.2709875721147106,1.775404874117576,1.5873588990489056,-2.8695504146754454,-0.10524231334578316,0.57755675093206,1.797558596044996,-1.8966553421056214,-0.16794699062698593,-2.2693383785418897,-1.8268331111962752,2.2173429077455697
2570,-1.6274461460453733,0.16851289622190632,-1.4861413340480876,-1.6872030941552398,-2.7122800110844514,0.07921278932511681,1.2710512785229062,1.7753490259975007,1.587382973957786,-2.8695504146754454,-0.10524231334578316,0.57755675093206,1.797558596044996,-1.8966553421056214,-0.16794699062698593,-2.2693383785418897,-1.8268331111962752,2.2173429077455697
2580,-1.6274789334970994,0.16850877403176476,-1.486160212608461,-1.6872104096835319,-2.712273292657173,0.07921330813606153,1.2710889696996575,1.7753274993248571,1.5873972223193435,-2.8695504146754454,-0.10524231334578316,0.57755675093206,1.797558596044996,-1.8966553421056214,-0.16794699062698593,-2.2693383785418897,-1.8268331111962752,2.2173429077455697
2590,-1.6275333859134702,0.16850084350634983,-1.4861809206038228,-1.6872174039228034,-2.712285461789107,0.07925472704824149,1.271114539315517,1.7753305635037528,1.587431903315194,-2.8695504146754454,-0.10524231334578316,0.57755675093206,1.797558596044996,-1.8966553421056214,-0.16794699062698593,-2.2693383785418897,-1.8268331111962752,2.2173429077455697
2600,-1.627531217897673,0.1685063387528388,-1.4861879289806692,-1.6872215103184356,-2.712275739664777,0.0792877902466361,1.2711354882144037,1.7753232854931256,1.5874294551020982,-2.8695504146754454,-0.10524231334578316,0.57755675093206,1.797558596044996,-1.8966553421056214,-0.16794699062698593,-2.2693383785418897,-1.8268331111962752,2.2173429077455697
2610,-1.62752217722139,0.16852045136270127,-1.4862086687456986,-1.6872343283932743,-2.712249750635517,0.07932479399589812,1.2711552855863792,1.7753228821936866,1.587412886552893,-2.8695504146754454,-0.10524231334578316,0.57755675093206,1.797558596044996,-1.8966553421056214,-0.16794699062698593,-2.2693383785418897,-1.8268331111962752,2.2173429077455697
2620,-1.627522895680987,0.16853644333581025,-1.4862384744292434,-1.6872522983388003,-2.712220594712584,0.07937070526489984,1.27118010816337,1.775327760846209,1.5873958205656147,-2.8695504146754454,-0.10524231334578316,0.57755675093206,1.797558596044996,-1.8966553421056214,-0.16794699062698593,-2.2693383785418897,-1.8268331111962752,2.2173429077455697
2630,-1.6275145091641214,0.1685586408160818,-1.4862732934194984,-1.68727202999291,-2.712184171975518,0.07940686167115202,1.2712032545539524,1.7753285704743627,1.587373203394235,-2.8695504146754454,-0.10524231334578316,0.57755675093206,1.797558596044996,-1.8966553421056214,-0.16794699062698593,-2.2693383785418897,-1.8268331111962752,2.2173429077455697
2640,-1.627503859492083,0.16858104737072452,-1.486311486329485,-1.6872927142066867,-2.7121459634548994,0.07941833507162559,1.271233132279565,1.775310497705317,1.5873499389382018,-2.8695504146754454,-0.10524231334578316,0.57755675093206,1.797558596044996,-1.8966553421056214,-0.16794699062698593,-2.2693383785418897,-1.8268331111962752,2.2173429077455697
2650,-1.6275061656768006,0.16860542804805673,-1.4863546395467337,-1.6873163748734572,-2.712108900134985,0.07943792901553351,1.271259762312053,1.7753035134360957,1.587330644682263,-2.8695504146754454,-0.10524231334578316,0.57755675093206,1.797558596044996,-1.8966553421056214,-0.16794699062698593,-2.2693383785418897,-1.8268331111962752,2.2173429077455697
2660,-1.6275235637766958,0.16862708653106576,-1.4863957272518273,-1.687338596425489,-2.7120843287856182,0.0794765747678103,1.2712904682816493,1.7753099710643676,1.5873236254724652,-2.8695504146754454,-0.10524231334578316,0.57755675093206,1.797558596044996,-1.8966553421056214,-0.16794699062698593,-2.2693383785418897,-1.8268331111962752,2.2173429077455697
2670,-1.627548637787986,0.16865014694857858,-1.4864448509220418,-1.6873617122931934,-2.7120541266730886,0.07951040980725241,1.2713308692912748,1.7753243582695488,1.5873136035695004,-2.8695504146754454,-0.10524231334578316,0.57755675093206,1.797558596044996,-1.8966553421056214,-0.16794699062698593,-2.2693383785418897,-1.8268331111962752,2.2173429077455697
2680,-1.6275837398503303,0.16866546660152526,-1.4865005507194422,-1.6873788085145476,-2.7120174555792262,0.07950782179244936,1.271386154659601,1.775341766368365,1.5873007503189855,-2.8695504146754454,-0.10524231334578316,0.57755675093206,1.797558596044996,-1.8966553421056214,-0.16794699062698593,-2.2693383785418897,-1.8268331111962752,2.2173429077455697
2690,-1.627604007675728,0.16866847740925767,-1.4865251963214725,-1.6873828043438348,-2.7120035600475756,0.07952544484477744,1.2714437790397568,1.7753464822076463,1.5873040651132957,-2.8695504146754454,-0.10524231334578316,0.57755675093206,1.797558596044996,-1.8966553421056214,-0.16794699062698593,-2.2693383785418897,-1.8268331111962752,2.2173429077455697
2700,-1.6276157347318263,0.16866004473966884,-1.4865199441778256,-1.6873750676133705,-2.7120086800197467,0.07951482799604936,1.271498836227522,1.7753300254679378,1.5873161696487421,-2.8695504146754454,-0.10524231334578316,0.57755675093206,1.797558596044996,-1.8966553421056214,-0.16794699062698593,-2.2693383785418897,-1.8268331111962752,2.2173429077455697
2710,-1.6276516660936116,0.16864121683757985,-1.4865108222013579,-1.6873630511013886,-2.7120415423421362,0.07950602777615161,1.2715412827294867,1.7753078022105844,1.5873532789260512,-2.8695504146754454,-0.10524231334578316,0.57755675093206,1.797558596044996,-1.8966553421056214,-0.16794699062698593,-2.2693383785418897,-1.8268331111962752,2.2173429077455697
2720,-1.6276583319760836,0.16861914301373737,-1.4865027051336355,-1.6873495817525055,-2.712050535838631,0.07947308726494401,1.2715730904165434,1.775268657587937,1.5873691039789293,-2.8695504146754454,-0.10524231334578316,0.57755675093206,1.797558596044996,-1.8966553421056214,-0.16794699062698593,-2.2693383785418897,-1.8268331111962752,2.2173429077455697
2730,-1.627653248270059,0.16860906527125025,-1.4864977566965043,-1.6873400492195132,-2.7120498937776025,0.07946234503535171,1.2716023993969647,1.7752380107106656,1.5873724876858881,-2.8695504146754454,-0.10524231334578316,0.57755675093206,1.797558596044996,-1.8966553421056214,-0.16794699062698593,-2.2693383785418897,-1.8268331111962752,2.2173429077455697
2740,-1.6276759469169204,0.1685986825530257,-1.4864989624220053,-1.6873335123724242,-2.7120554918041107,0.07946853857705256,1.271643843020413,1.775216271451673,1.5873878746320587,-2.8695504146754454,-0.10524231334578316,0.57755675093206,1.797558596044996,-1.8966553421056214,-0.16794699062698593,-2.2693383785418897,-1.8268331111962752,2.2173429077455697
2750,-1.6276873787963118,0.1685972800851995,-1.4865107784525067,-1.6873358138106271,-2.7120482191640525,0.0794744741101435,1.2716758435349673,1.7751906896033842,1.5873907430879628,-2.8695504146754454,-0.10524231334578316,0.57755675093206,1.797558596044996,-1.8966553421056214,-0.16794699062698593,-2.2693383785418897,-1.8268331111962752,2.2173429077455697
2760,-1.627693014967621,0.1686091182158987,-1.4865342141116702,-1.6873451041367136,-2.71203452622674,0.07951079130178709,1.271690547547721,1.775193444979523,1.5873862701223953,-2.8695504146754454,-0.10524231334578316,0.57755675093206,1.797558596044996,-1.8966553421056214,-0.16794699062698593,-2.2693383785418897,-1.8268331111962752,2.2173429077455697
2770,-1.6277039740353911,0.16862889340382445,-1.4865727729826799,-1.6873616652225296,-2.7120044808270882,0.07954986891318261,1.2717220574418817,1.775187625668258,1.5873724820495132,-2.8695504146754454,-0.10524231334578316,0.57755675093206,1.797558596044996,-1.8966553421056214,-0.16794699062698593,-2.2693383785418897,-1.8268331111962752,2.2173429077455697
2780,-1.6277295968370868,0.16863794611674546,-1.4866020141198344,-1.6873690283042024,-2.7119908416814056,0.07958216393097678,1.271739734266132,1.7751922003671547,1.5873762277291321,-2.8695504146754454,-0.10524231334578316,0.57755675093206,1.797558596044996,-1.8966553421056214,-0.16794699062698593,-2.2693383785418897,-1.8268331111962752,2.2173429077455697
2790,-1.6277394744076787,0.16864354512299423,-1.4866207461466596,-1.6873669311611046,-2.7119750356161134,0.07960167157265273,1.2717608054992808,1.7751885466690878,1.5873728731836252,-2.8695504146754454,-0.10524231334578316,0.57755675093206,1.797558596044996,-1.8966553421056214,-0.16794699062698593,-2.2693383785418897,-1.8268331111962752,2.2173429077455697
2800,-1.6277395837593915,0.16864962564415312,-1.48664244688562,-1.687359928370454,-2.7119497806340322,0.07959989191785728,1.271798828791561,1.775194599925263,1.5873573413725914,-2.8695504146754454,-0.10524231334578316,0.57755675093206,1.797558596044996,-1.8966553421056214,-0.16794699062698593,-2.2693383785418897,-1.8268331111962752,2.2173429077455697
2810,-1.6277523189595526,0.16867448867133983,-1.4866771647391035,-1.6873557903356116,-2.7119297720267324,0.07960099497430731,1.2718237831282155,1.775207715916249,1.587345030728708,-2.8695504146754454,-0.10524231334578316,0.57755675093206,1.797558596044996,-1.8966553421056214,-0.16794699062698593,-2.2693383785418897,-1.8268331111962752,2.2173429077455697
