10,-0.7569135137072118,-0.19145563135223034,-2.159749779236794,0.13951904938557452,2.9159290081230136,-2.7068780648509763,2.47740648970726,1.79873902697323,0.6147118628003362,-0.8728212735845453,2.9666599924996158,2.2767300243173727,1.1173441125009775,-1.2738846286858445,-2.8160738328391166,2.703745570384206,2.900722715066106,-0.9048865815809592
20,-0.756682334694043,-0.19128564824861402,-2.1596388528923476,0.1393216844112253,2.9160573127283866,-2.7070914523350265,2.4775115801682905,1.7988556279072299,0.6148181388682409,-0.8728212735845453,2.9666599924996158,2.2767300243173727,1.1173441125009775,-1.2738846286858445,-2.8160738328391166,2.703745570384206,2.900722715066106,-0.9048865815809592
30,-0.7564395167495878,-0.1910523261652173,-2.1596348386923276,0.13908523846368398,2.9162274293636172,-2.7073419147234405,2.477454308021786,1.7988683525211853,0.614975896210677,-0.8728212735845453,2.9666599924996158,2.2767300243173727,1.1173441125009775,-1.2738846286858445,-2.8160738328391166,2.703745570384206,2.900722715066106,-0.9048865815809592
40,-0.7561450528742303,-0.19080349036675934,-2.1597973517370224,0.13894808918254078,2.91644567417875,-2.707636589640982,2.4772432553588337,1.7987097582431035,0.6151786907858194,-0.8728212735845453,2.9666599924996158,2.2767300243173727,1.1173441125009775,-1.2738846286858445,-2.8160738328391166,2.703745570384206,2.900722715066106,-0.9048865815809592
50,-0.7558241377892807,-0.1905328714368764,-2.159974447662393,0.13868583069333645,2.916714640366021,-2.7079059131566106,2.477019800632657,1.7985267854581992,0.615456802195257,-0.8728212735845453,2.9666599924996158,2.2767300243173727,1.1173441125009775,-1.2738846286858445,-2.8160738328391166,2.703745570384206,2.900722715066106,-0.9048865815809592
60,-0.7555638794252624,-0.19025914249186623,-2.160225558462631,0.13844932609101546,2.916891449450262,-2.7081400473324724,2.476750502572974,1.79830279015801,0.6156786398969684,-0.8728212735845453,2.9666599924996158,2.2767300243173727,1.1173441125009775,-1.2738846286858445,-2.8160738328391166,2.703745570384206,2.900722715066106,-0.9048865815809592
70,-0.755372704185043,-0.18996479494162558,-2.1602184742222503,0.13822949741471477,2.9171713102764647,-2.7083274355865097,2.4766173028779908,1.7982459737171668,0.6159094907804988,-0.8728212735845453,2.9666599924996158,2.2767300243173727,1.1173441125009775,-1.2738846286858445,-2.8160738328391166,2.703745570384206,2.900722715066106,-0.9048865815809592
80,-0.7550410012633092,-0.18959706089795386,-2.160550424295862,0.13784090138877853,2.9174730178267514,-2.7086329483185723,2.4762206239372326,1.7978823147013796,0.6161488561059396,-0.8728212735845453,2.9666599924996158,2.2767300243173727,1.1173441125009775,-1.2738846286858445,-2.8160738328391166,2.703745570384206,2.900722715066106,-0.9048865815809592
90,-0.7546430450408363,-0.18918443826312387,-2.1609715060511845,0.13743929817993408,2.9178647210320565,-2.7089705701274633,2.4757883361564508,1.7974417444874808,0.6164917221013486,-0.8728212735845453,2.9666599924996158,2.2767300243173727,1.1173441125009775,-1.2738846286858445,-2.8160738328391166,2.703745570384206,2.900722715066106,-0.9048865815809592
100,-0.7541925289262973,-0.1887789360205064,-2.161419484886324,0.13702432688497124,2.918262387018213,-2.709426607919213,2.4753340222244433,1.7969916919287834,0.6168177421705584,-0.8728212735845453,2.9666599924996158,2.2767300243173727,1.1173441125009775,-1.2738846286858445,-2.8160738328391166,2.703745570384206,2.900722715066106,-0.9048865815809592
110,-0.7537007720432252,-0.1884388526684537,-2.1618835898957616,0.1365396076670023,2.918766747106539,-2.709916113640609,2.474879415341343,1.7965396275457537,0.6172937120988488,-0.8728212735845453,2.9666599924996158,2.2767300243173727,1.1173441125009775,-1.2738846286858445,-2.8160738328391166,2.703745570384206,2.900722715066106,-0.9048865815809592
120,-0.7531664234638616,-0.18794031434899802,-2.1623955739969425,0.13631666340242185,2.919279847087815,-2.710401577792242,2.4743800259329074,1.796035395979192,0.6175863883586635,-0.8728212735845453,2.9666599924996158,2.2767300243173727,1.1173441125009775,-1.2738846286858445,-2.8160738328391166,2.703745570384206,2.900722715066106,-0.9048865815809592
130,-0.7527208874137616,-0.18748233940607542,-2.1628720579777174,0.13610031265476225,2.9197521677670237,-2.710864404983445,2.473923081330677,1.7955476381019815,0.6178557582997641,-0.8728212735845453,2.9666599924996158,2.2767300243173727,1.1173441125009775,-1.2738846286858445,-2.8160738328391166,2.703745570384206,2.900722715066106,-0.9048865815809592
140,-0.7521879502574015,-0.18690580385038513,-2.163442070713894,0.13561998825827667,2.9203150704693934,-2.7113689280237456,2.4733704665344804,1.7949889798900758,0.6183537304422493,-0.8728212735845453,2.9666599924996158,2.2767300243173727,1.1173441125009775,-1.2738846286858445,-2.8160738328391166,2.703745570384206,2.900722715066106,-0.9048865815809592
150,-0.7516902302917083,-0.1864762427897081,-2.1639383425380534,0.13509769498246701,2.920762214880679,-2.7119111568665195,2.4728454679008434,1.794438422664306,0.618627326585829,-0.8728212735845453,2.9666599924996158,2.2767300243173727,1.1173441125009775,-1.2738846286858445,-2.8160738328391166,2.703745570384206,2.900722715066106,-0.9048865815809592
160,-0.7513328569628499,-0.18616622796084087,-2.164355537972907,0.13456967106006867,2.9211176197671356,-2.712323533575246,2.4723963670789937,1.7939881042393924,0.6187566151731505,-0.8728212735845453,2.9666599924996158,2.2767300243173727,1.1173441125009775,-1.2738846286858445,-2.8160738328391166,2.703745570384206,2.900722715066106,-0.9048865815809592
170,-0.7511193823670158,-0.18591167479824458,-2.1646781014916554,0.13407776429195511,2.921465544920697,-2.7125133765826925,2.472037269203279,1.7936581341561602,0.6189478410576931,-0.8728212735845453,2.9666599924996158,2.2767300243173727,1.1173441125009775,-1.2738846286858445,-2.8160738328391166,2.703745570384206,2.900722715066106,-0.9048865815809592
180,-0.7508179839701546,-0.18560838085314124,-2.165051760247428,0.13364932299860854,2.921884833699349,-2.712759473309306,2.4716619279416134,1.7932822166907874,0.6193033504626108,-0.8728212735845453,2.9666599924996158,2.2767300243173727,1.1173441125009775,-1.2738846286858445,-2.8160738328391166,2.703745570384206,2.900722715066106,-0.9048865815809592
190,-0.7504876884511368,-0.18524254965083725,-2.1654299208712797,0.1333197997539484,2.9222661635695686,-2.7130122641221806,2.4712620956838345,1.7928808392660904,0.6196298925802053,-0.8728212735845453,2.9666599924996158,2.2767300243173727,1.1173441125009775,-1.2738846286858445,-2.8160738328391166,2.703745570384206,2.900722715066106,-0.9048865815809592
200,-0.7502386781866294,-0.18514266585018518,-2.165692054067104,0.13302842323554087,2.9225535349620655,-2.7132588780104996,2.471046660458404,1.7926291518166786,0.6199863514291784,-0.8728212735845453,2.9666599924996158,2.2767300243173727,1.1173441125009775,-1.2738846286858445,-2.8160738328391166,2.703745570384206,2.900722715066106,-0.9048865815809592
210,-0.7501392431232243,-0.18508785981289091,-2.165806465609982,0.13287143204551405,2.922713257964864,-2.7133685744419314,2.47095888128638,1.7925266180353925,0.620198933701239,-0.8728212735845453,2.9666599924996158,2.2767300243173727,1.1173441125009775,-1.2738846286858445,-2.8160738328391166,2.703745570384206,2.900722715066106,-0.9048865815809592
220,-0.7500629145415272,-0.18498236866373474,-2.1658778205907545,0.13278123247466722,2.922868309318865,-2.713435520252026,2.470891710748381,1.7924620287409243,0.6203930075435354,-0.8728212735845453,2.9666599924996158,2.2767300243173727,1.1173441125009775,-1.2738846286858445,-2.8160738328391166,2.703745570384206,2.900722715066106,-0.9048865815809592
230,-0.749946102202715,-0.18485654223135678,-2.1659503941933242,0.1326930546141314,2.923022470894976,-2.7135513532656512,2.470787633119767,1.7923592549306464,0.6205888775882891,-0.8728212735845453,2.9666599924996158,2.2767300243173727,1.1173441125009775,-1.2738846286858445,-2.8160738328391166,2.703745570384206,2.900722715066106,-0.9048865815809592
240,-0.7498082152874634,-0.18474940865204792,-2.166070254301037,0.13259883386588314,2.923179530079618,-2.7136728883565464,2.4706696803385286,1.7922374817833968,0.6207498165541371,-0.8728212735845453,2.9666599924996158,2.2767300243173727,1.1173441125009775,-1.2738846286858445,-2.8160738328391166,2.703745570384206,2.900722715066106,-0.9048865815809592
250,-0.749698411741766,-0.18464281612438166,-2.16621368929533,0.13244632995952177,2.923334790963195,-2.713791666692863,2.4705401935564226,1.792098132456974,0.6208631524867572,-0.8728212735845453,2.9666599924996158,2.2767300243173727,1.1173441125009775,-1.2738846286858445,-2.8160738328391166,2.703745570384206,2.900722715066106,-0.9048865815809592
260,-0.7495474445115323,-0.18449516221929796,-2.1663416538978373,0.13233859157600406,2.923491201317252,-2.7139540569520735,2.4704031234419848,1.7919683515490459,0.6210165783984926,-0.8728212735845453,2.9666599924996158,2.2767300243173727,1.1173441125009775,-1.2738846286858445,-2.8160738328391166,2.703745570384206,2.900722715066106,-0.9048865815809592
270,-0.7494317135381804,-0.18433258317667467,-2.1664732245408143,0.13215510903429242,2.923649828449642,-2.714069751156807,2.4702618847852484,1.7918588985942117,0.62121732761657,-0.8728212735845453,2.9666599924996158,2.2767300243173727,1.1173441125009775,-1.2738846286858445,-2.8160738328391166,2.703745570384206,2.900722715066106,-0.9048865815809592
280,-0.7493535078123896,-0.18421776817864,-2.1665716163852196,0.13207629333810164,2.923742200573923,-2.7141337343710457,2.4701541220370764,1.7917597419660551,0.621345623851011,-0.8728212735845453,2.9666599924996158,2.2767300243173727,1.1173441125009775,-1.2738846286858445,-2.8160738328391166,2.703745570384206,2.900722715066106,-0.9048865815809592
290,-0.7492504685477167,-0.18407644474877985,-2.166679776962944,0.13192878472801725,2.923866824494949,-2.7142259328675067,2.4700578515684866,1.7916883318603982,0.6215342653982986,-0.8728212735845453,2.9666599924996158,2.2767300243173727,1.1173441125009775,-1.2738846286858445,-2.8160738328391166,2.703745570384206,2.900722715066106,-0.9048865815809592
300,-0.7491606804161018,-0.18395062066501766,-2.166778592854332,0.1318461026132861,2.9239644863703895,-2.7143076954007053,2.4699761635442443,1.7915936264775116,0.6216618280767474,-0.8728212735845453,2.9666599924996158,2.2767300243173727,1.1173441125009775,-1.2738846286858445,-2.8160738328391166,2.703745570384206,2.900722715066106,-0.9048865815809592
310,-0.7490881034543201,-0.1838850659236142,-2.166839879523147,0.13179778585311797,2.9240279992297964,-2.7143823995685423,2.469910237645381,1.7915308850428002,0.6217321502306622,-0.8728212735845453,2.9666599924996158,2.2767300243173727,1.1173441125009775,-1.2738846286858445,-2.8160738328391166,2.703745570384206,2.900722715066106,-0.9048865815809592
320,-0.7490627501312259,-0.18385752114850346,-2.166864711983531,0.13177337760338764,2.9240520608028238,-2.714405557978106,2.469886418906342,1.79150996924471,0.6217614309450143,-0.8728212735845453,2.9666599924996158,2.2767300243173727,1.1173441125009775,-1.2738846286858445,-2.8160738328391166,2.703745570384206,2.900722715066106,-0.9048865815809592
330,-0.7490536408850935,-0.18384584470509935,-2.166878126990248,0.13176497293380862,2.9240675316341114,-2.714412760298638,2.4698751212920316,1.7914969062388444,0.6217786882525996,-0.8728212735845453,2.9666599924996158,2.2767300243173727,1.1173441125009775,-1.2738846286858445,-2.8160738328391166,2.703745570384206,2.900722715066106,-0.9048865815809592
340,-0.7490554570232775,-0.18384658749751726,-2.166878178741268,0.1317627936128493,2.9240699023686796,-2.71441053153718,2.4698772590501554,1.791498608061399,0.6217804366336502,-0.8728212735845453,2.9666599924996158,2.2767300243173727,1.1173441125009775,-1.2738846286858445,-2.8160738328391166,2.703745570384206,2.900722715066106,-0.9048865815809592
350,-0.7490786154073072,-0.18385817020450196,-2.1668614148655574,0.13177579016835958,2.92405287176017,-2.7143831080376017,2.4698974444716857,1.7915181647310334,0.6217680542578146,-0.8728212735845453,2.9666599924996158,2.2767300243173727,1.1173441125009775,-1.2738846286858445,-2.8160738328391166,2.703745570384206,2.900722715066106,-0.9048865815809592
360,-0.7491237335317793,-0.18391226474353808,-2.1668251765763507,0.13178229560608043,2.924001564690435,-2.714332099452878,2.4699458636015654,1.7915651687901442,0.6217247616400391,-0.8728212735845453,2.9666599924996158,2.2767300243173727,1.1173441125009775,-1.2738846286858445,-2.8160738328391166,2.703745570384206,2.900722715066106,-0.9048865815809592
370,-0.7491716909635286,-0.18396842722311635,-2.1667750753431063,0.13182978024313866,2.923930043489721,-2.714281583139598,2.470002786732522,1.7916224957480567,0.621652666160803,-0.8728212735845453,2.9666599924996158,2.2767300243173727,1.1173441125009775,-1.2738846286858445,-2.8160738328391166,2.703745570384206,2.900722715066106,-0.9048865815809592
380,-0.7492415049367802,-0.18404633020028863,-2.166703847384603,0.13187200041951255,2.9238581041774645,-2.714224829041961,2.4700832786730293,1.7916984211826608,0.621563099637682,-0.8728212735845453,2.9666599924996158,2.2767300243173727,1.1173441125009775,-1.2738846286858445,-2.8160738328391166,2.703745570384206,2.900722715066106,-0.9048865815809592
390,-0.7493551399050651,-0.18413637361280405,-2.1666110265229883,0.13194378878215038,2.923773996257503,-2.714117149699425,2.470177066466977,1.7917898604555402,0.621504783756346,-0.8728212735845453,2.9666599924996158,2.2767300243173727,1.1173441125009775,-1.2738846286858445,-2.8160738328391166,2.703745570384206,2.900722715066106,-0.9048865815809592
400,-0.7494431462191731,-0.1842743864673473,-2.1665238267163343,0.1320090936827943,2.9237140926314966,-2.714025207152179,2.470275792962132,1.7918802977867831,0.6214463011130775,-0.8728212735845453,2.9666599924996158,2.2767300243173727,1.1173441125009775,-1.2738846286858445,-2.8160738328391166,2.703745570384206,2.900722715066106,-0.9048865815809592
410,-0.7495240539564789,-0.1843460950831911,-2.1664494196497746,0.13204578484275348,2.923681377522766,-2.7139435785488084,2.470363337216019,1.791966448651216,0.6213922546144781,-0.8728212735845453,2.9666599924996158,2.2767300243173727,1.1173441125009775,-1.2738846286858445,-2.8160738328391166,2.703745570384206,2.900722715066106,-0.9048865815809592
420,-0.7495264012570554,-0.18434556284185422,-2.1664444780999994,0.1321127729074104,2.9237125559673727,-2.7139466621594837,2.4703975520198087,1.7919976810882918,0.6214207781186075,-0.8728212735845453,2.9666599924996158,2.2767300243173727,1.1173441125009775,-1.2738846286858445,-2.8160738328391166,2.703745570384206,2.900722715066106,-0.9048865815809592
430,-0.7494651413523438,-0.1842916610359084,-2.166496324656344,0.13213506311150547,2.9238005205610778,-2.714026306171695,2.4703613758277627,1.7919552121112383,0.621558998983457,-0.8728212735845453,2.9666599924996158,2.2767300243173727,1.1173441125009775,-1.2738846286858445,-2.8160738328391166,2.703745570384206,2.900722715066106,-0.9048865815809592
440,-0.749434512284209,-0.18424550267155496,-2.1665325466778373,0.132096955620661,2.9238608523043754,-2.714043279073617,2.4703354144308425,1.7919268920970297,0.6216513467184127,-0.8728212735845453,2.9666599924996158,2.2767300243173727,1.1173441125009775,-1.2738846286858445,-2.8160738328391166,2.703745570384206,2.900722715066106,-0.9048865815809592
450,-0.7494124652697643,-0.18420271665766783,-2.1665645770114685,0.13206398951190987,2.923904812962646,-2.714055765770026,2.470309361870777,1.7919036273031905,0.6217117469546685,-0.8728212735845453,2.9666599924996158,2.2767300243173727,1.1173441125009775,-1.2738846286858445,-2.8160738328391166,2.703745570384206,2.900722715066106,-0.9048865815809592
460,-0.7494189238673045,-0.18417010978056084,-2.1665769420642005,0.13203410410083832,2.923906258316219,-2.7140425733201523,2.4703026802838455,1.7918972289385553,0.6217104201301451,-0.8728212735845453,2.9666599924996158,2.2767300243173727,1.1173441125009775,-1.2738846286858445,-2.8160738328391166,2.703745570384206,2.900722715066106,-0.9048865815809592
470,-0.749462347271385,-0.18419518450545583,-2.166549252631818,0.1320306520046814,2.923897573809929,-2.713995048221532,2.4703406108066503,1.7919196996429747,0.6216908933945502,-0.8728212735845453,2.9666599924996158,2.2767300243173727,1.1173441125009775,-1.2738846286858445,-2.8160738328391166,2.703745570384206,2.900722715066106,-0.9048865815809592
480,-0.7495834514463434,-0.18428532668339495,-2.166457675082716,0.13208133856638218,2.923843196130519,-2.71384426745312,2.4704474099518716,1.7920069014986781,0.6216914003440477,-0.8728212735845453,2.9666599924996158,2.2767300243173727,1.1173441125009775,-1.2738846286858445,-2.8160738328391166,2.703745570384206,2.900722715066106,-0.9048865815809592
490,-0.7497020074392228,-0.1843655765368603,-2.1663756640723215,0.13220058377242486,2.923765365979037,-2.7137172203056696,2.47052777763429,1.7920683832831248,0.6216714150162012,-0.8728212735845453,2.9666599924996158,2.2767300243173727,1.1173441125009775,-1.2738846286858445,-2.8160738328391166,2.703745570384206,2.900722715066106,-0.9048865815809592
500,-0.749811781272734,-0.18451125919538172,-2.1662710602257884,0.13221613797624024,2.9236553283230062,-2.713622748491771,2.4706147232380227,1.7921679947512321,0.6215566127078173,-0.8728212735845453,2.9666599924996158,2.2767300243173727,1.1173441125009775,-1.2738846286858445,-2.8160738328391166,2.703745570384206,2.900722715066106,-0.9048865815809592
510,-0.7498832133680884,-0.18460699448489257,-2.166206708453288,0.13220608522021762,2.9235847232588847,-2.7135634156974056,2.470669712368444,1.792234708655911,0.6214837998917623,-0.8728212735845453,2.9666599924996158,2.2767300243173727,1.1173441125009775,-1.2738846286858445,-2.8160738328391166,2.703745570384206,2.900722715066106,-0.9048865815809592
520,-0.7499090860261962,-0.18463333528553796,-2.166194335293493,0.13219555483552334,2.9235721745422976,-2.7135397723880343,2.4706804947310745,1.7922468242517073,0.6214715364707273,-0.8728212735845453,2.9666599924996158,2.2767300243173727,1.1173441125009775,-1.2738846286858445,-2.8160738328391166,2.703745570384206,2.900722715066106,-0.9048865815809592
530,-0.7498734416951577,-0.18462621878949462,-2.1662279685809342,0.13217280258233358,2.923600510671613,-2.713578937804144,2.470645189708331,1.7922027422525604,0.6214692576066275,-0.8728212735845453,2.9666599924996158,2.2767300243173727,1.1173441125009775,-1.2738846286858445,-2.8160738328391166,2.703745570384206,2.900722715066106,-0.9048865815809592
540,-0.7497933496057799,-0.18456751610905703,-2.166320685265758,0.13209400022252943,2.923661426080593,-2.7136275245789463,2.470581575023847,1.7921217702872403,0.6214660453705338,-0.8728212735845453,2.9666599924996158,2.2767300243173727,1.1173441125009775,-1.2738846286858445,-2.8160738328391166,2.703745570384206,2.900722715066106,-0.9048865815809592
550,-0.7496320990135318,-0.18450323403283164,-2.166388938329969,0.13204230988131344,2.923709228334371,-2.713797442577945,2.4705069170558236,1.7920464336343693,0.6214909226516978,-0.8728212735845453,2.9666599924996158,2.2767300243173727,1.1173441125009775,-1.2738846286858445,-2.8160738328391166,2.703745570384206,2.900722715066106,-0.9048865815809592
560,-0.7496039983556663,-0.18449737533370664,-2.1664126012124623,0.13201937329170732,2.923712896912283,-2.713822654914266,2.4704808206672406,1.792019487035826,0.6214888009566979,-0.8728212735845453,2.9666599924996158,2.2767300243173727,1.1173441125009775,-1.2738846286858445,-2.8160738328391166,2.703745570384206,2.900722715066106,-0.9048865815809592
570,-0.7494866343392392,-0.1843725611547368,-2.1665098227838433,0.13194525531320075,2.923780812150864,-2.7139136680544027,2.4703748750019137,1.7919309172640203,0.6215489129084708,-0.8728212735845453,2.9666599924996158,2.2767300243173727,1.1173441125009775,-1.2738846286858445,-2.8160738328391166,2.703745570384206,2.900722715066106,-0.9048865815809592
580,-0.7492510898886119,-0.18420057379456972,-2.1666352988217192,0.13187245526109212,2.9238571588305544,-2.714144289900879,2.470215714327382,1.7917591910898503,0.621613271332691,-0.8728212735845453,2.9666599924996158,2.2767300243173727,1.1173441125009775,-1.2738846286858445,-2.8160738328391166,2.703745570384206,2.900722715066106,-0.9048865815809592
590,-0.7491031823549124,-0.1840760907226092,-2.1667716226668845,0.1318306804337219,2.924026417177133,-2.714285306307025,2.4700938358356628,1.7916109655481085,0.6217975074477825,-0.8728212735845453,2.9666599924996158,2.2767300243173727,1.1173441125009775,-1.2738846286858445,-2.8160738328391166,2.703745570384206,2.900722715066106,-0.9048865815809592
600,-0.7489286888183877,-0.18393212076675924,-2.166905862981374,0.13175139885022188,2.9241659996663993,-2.7144596486694343,2.4699470389224216,1.7914484553892063,0.6218775545229573,-0.8728212735845453,2.9666599924996158,2.2767300243173727,1.1173441125009775,-1.2738846286858445,-2.8160738328391166,2.703745570384206,2.900722715066106,-0.9048865815809592
610,-0.7487053607936652,-0.183736122614918,-2.1670719974535206,0.13165222473451293,2.9244451362790764,-2.7146900356176435,2.4697530618041417,1.7912514318241792,0.622149166613275,-0.8728212735845453,2.9666599924996158,2.2767300243173727,1.1173441125009775,-1.2738846286858445,-2.8160738328391166,2.703745570384206,2.900722715066106,-0.9048865815809592
620,-0.7482169361792222,-0.18348364050178506,-2.167372718228096,0.1314612718048892,2.9247757348133776,-2.7152306311895242,2.4693880838374365,1.7908670832954239,0.6223880581830683,-0.8728212735845453,2.9666599924996158,2.2767300243173727,1.1173441125009775,-1.2738846286858445,-2.8160738328391166,2.703745570384206,2.900722715066106,-0.9048865815809592
630,-0.7480496913725184,-0.18344700512186513,-2.167444629177362,0.1313482203862086,2.9248262998654035,-2.7154240225208315,2.469297869230589,1.790773868325346,0.6223856914813107,-0.8728212735845453,2.9666599924996158,2.2767300243173727,1.1173441125009775,-1.2738846286858445,-2.8160738328391166,2.703745570384206,2.900722715066106,-0.9048865815809592
640,-0.748006471128865,-0.1834359137411201,-2.167463391407601,0.13131955819086857,2.924836570132047,-2.715472385623689,2.4692721161303535,1.790748632794485,0.622384470052932,-0.8728212735845453,2.9666599924996158,2.2767300243173727,1.1173441125009775,-1.2738846286858445,-2.8160738328391166,2.703745570384206,2.900722715066106,-0.9048865815809592
650,-0.747986696604205,-0.1834325803353208,-2.167478428269033,0.13129405380515707,2.9248375724998366,-2.7154978614932976,2.469251252340714,1.7907314852169374,0.6223760939781291,-0.8728212735845453,2.9666599924996158,2.2767300243173727,1.1173441125009775,-1.2738846286858445,-2.8160738328391166,2.703745570384206,2.900722715066106,-0.9048865815809592
660,-0.7480029266835073,-0.18356208475607885,-2.167380315754728,0.13131530732035301,2.924673416542959,-2.7155079756915055,2.46934300306315,1.7908078251158446,0.6222119772029941,-0.8728212735845453,2.9666599924996158,2.2767300243173727,1.1173441125009775,-1.2738846286858445,-2.8160738328391166,2.703745570384206,2.900722715066106,-0.9048865815809592
670,-0.7480499480983082,-0.183620253873166,-2.167329524413066,0.131349401358329,2.9245884860811806,-2.715465443337558,2.4694019462652497,1.7908631928103296,0.6220660369841209,-0.8728212735845453,2.9666599924996158,2.2767300243173727,1.1173441125009775,-1.2738846286858445,-2.8160738328391166,2.703745570384206,2.900722715066106,-0.9048865815809592
680,-0.7481454615629515,-0.18375497302968896,-2.167246746695931,0.13133893108483174,2.9244297917777424,-2.715366522058019,2.46947689337114,1.7909511517054413,0.6218708897248908,-0.8728212735845453,2.9666599924996158,2.2767300243173727,1.1173441125009775,-1.2738846286858445,-2.8160738328391166,2.703745570384206,2.900722715066106,-0.9048865815809592
690,-0.7482562988215993,-0.1839314720047509,-2.1671540795314286,0.1314929796820502,2.9242426517447497,-2.7152795493636845,2.4695676833264812,1.7910270217563629,0.6215780547188017,-0.8728212735845453,2.9666599924996158,2.2767300243173727,1.1173441125009775,-1.2738846286858445,-2.8160738328391166,2.703745570384206,2.900722715066106,-0.9048865815809592
700,-0.7484600210562272,-0.18417299205132218,-2.1669522383569553,0.13179614617754512,2.923995494488941,-2.7150345299318905,2.4697155087940663,1.7911755601086305,0.6211320213954016,-0.8728212735845453,2.9666599924996158,2.2767300243173727,1.1173441125009775,-1.2738846286858445,-2.8160738328391166,2.703745570384206,2.900722715066106,-0.9048865815809592
710,-0.7485954848777197,-0.1844668456015188,-2.1667345414542503,0.13191881347881412,2.923729190558715,-2.7149549090895566,2.469894987642239,1.7913383818732431,0.6209098059152023,-0.8728212735845453,2.9666599924996158,2.2767300243173727,1.1173441125009775,-1.2738846286858445,-2.8160738328391166,2.703745570384206,2.900722715066106,-0.9048865815809592
720,-0.7488859778084186,-0.18490958070138125,-2.166511652786186,0.13182246473675668,2.923293248043001,-2.7146621211680864,2.4701960317814793,1.7916498769463416,0.6205416537061239,-0.8728212735845453,2.9666599924996158,2.2767300243173727,1.1173441125009775,-1.2738846286858445,-2.8160738328391166,2.703745570384206,2.900722715066106,-0.9048865815809592
730,-0.7492086358396546,-0.1853336486517294,-2.16624005490329,0.13199664576597805,2.923046139660481,-2.7143746741742194,2.47048729643177,1.7919264576300742,0.620379518533355,-0.8728212735845453,2.9666599924996158,2.2767300243173727,1.1173441125009775,-1.2738846286858445,-2.8160738328391166,2.703745570384206,2.900722715066106,-0.9048865815809592
740,-0.7494101799321224,-0.18557650591533234,-2.1660455161215904,0.13219211745870613,2.9227931036934836,-2.7142312983836336,2.47070559640586,1.792129947749432,0.6201516075189526,-0.8728212735845453,2.9666599924996158,2.2767300243173727,1.1173441125009775,-1.2738846286858445,-2.8160738328391166,2.703745570384206,2.900722715066106,-0.9048865815809592
750,-0.7496158278610011,-0.18572285524329832,-2.165860731355308,0.13238244507509367,2.9225813675590833,-2.714036110708727,2.4708599147751253,1.7922912567318356,0.6199496309994177,-0.8728212735845453,2.9666599924996158,2.2767300243173727,1.1173441125009775,-1.2738846286858445,-2.8160738328391166,2.703745570384206,2.900722715066106,-0.9048865815809592
760,-0.7497407900429587,-0.18585077559234903,-2.165744135406989,0.13250826523183346,2.9224239486977304,-2.7139090132923895,2.4709807362185656,1.7924058906973757,0.6198033997846328,-0.8728212735845453,2.9666599924996158,2.2767300243173727,1.1173441125009775,-1.2738846286858445,-2.8160738328391166,2.703745570384206,2.900722715066106,-0.9048865815809592
770,-0.7498103283297481,-0.18592779142433,-2.1656407923190084,0.13262228697414527,2.922308583214833,-2.7138509267771465,2.471073761155043,1.7924945074364633,0.6196568058295004,-0.8728212735845453,2.9666599924996158,2.2767300243173727,1.1173441125009775,-1.2738846286858445,-2.8160738328391166,2.703745570384206,2.900722715066106,-0.9048865815809592
780,-0.7498811170843049,-0.1860202354512339,-2.1655624261362463,0.13269214350513725,2.922223499350576,-2.7138108199195363,2.471143263069453,1.7925519164271377,0.6195761304869896,-0.8728212735845453,2.9666599924996158,2.2767300243173727,1.1173441125009775,-1.2738846286858445,-2.8160738328391166,2.703745570384206,2.900722715066106,-0.9048865815809592
790,-0.7499154058284981,-0.18612528720646287,-2.165510463937893,0.1327830595903674,2.922153680792666,-2.7137916957262767,2.471197407983192,1.7925875408909437,0.6195019716369407,-0.8728212735845453,2.9666599924996158,2.2767300243173727,1.1173441125009775,-1.2738846286858445,-2.8160738328391166,2.703745570384206,2.900722715066106,-0.9048865815809592
800,-0.7498990502881739,-0.18616889759993419,-2.1655112597335204,0.13278292061744007,2.922133956978585,-2.7138145781480745,2.471189132258581,1.792581131752794,0.619501744169986,-0.8728212735845453,2.9666599924996158,2.2767300243173727,1.1173441125009775,-1.2738846286858445,-2.8160738328391166,2.703745570384206,2.900722715066106,-0.9048865815809592
810,-0.7499183304845904,-0.18622753301825576,-2.1654773415537925,0.13276364269784796,2.9221031952322907,-2.7138006511523147,2.4712139888149776,1.792619669295026,0.6194785439501512,-0.8728212735845453,2.9666599924996158,2.2767300243173727,1.1173441125009775,-1.2738846286858445,-2.8160738328391166,2.703745570384206,2.900722715066106,-0.9048865815809592
820,-0.749943749630849,-0.18628801832549183,-2.165421158429527,0.13277218563057103,2.922064571838325,-2.713780382196201,2.471266239770407,1.7926672655515814,0.6194544753517572,-0.8728212735845453,2.9666599924996158,2.2767300243173727,1.1173441125009775,-1.2738846286858445,-2.8160738328391166,2.703745570384206,2.900722715066106,-0.9048865815809592
830,-0.7499451076812182,-0.186352280773361,-2.1654078200758486,0.13268832932846494,2.9220423205814257,-2.713783298440796,2.4712801472434416,1.7926998698115615,0.6193776821754438,-0.8728212735845453,2.9666599924996158,2.2767300243173727,1.1173441125009775,-1.2738846286858445,-2.8160738328391166,2.703745570384206,2.900722715066106,-0.9048865815809592
840,-0.7499132546740904,-0.18632606375121136,-2.1654283786672153,0.13263859558023577,2.922074464883228,-2.7138068238168978,2.4712403289776566,1.7926759744763532,0.6193752442776175,-0.8728212735845453,2.9666599924996158,2.2767300243173727,1.1173441125009775,-1.2738846286858445,-2.8160738328391166,2.703745570384206,2.900722715066106,-0.9048865815809592
850,-0.7498336163406242,-0.1862597221175148,-2.165509936825213,0.13256500416581105,2.922150165629591,-2.713889730051543,2.4711538159717965,1.7925923321468855,0.6193900329637276,-0.8728212735845453,2.9666599924996158,2.2767300243173727,1.1173441125009775,-1.2738846286858445,-2.8160738328391166,2.703745570384206,2.900722715066106,-0.9048865815809592
860,-0.7497288900440738,-0.18611649252380832,-2.165651660186729,0.13246829138628136,2.9222946782996995,-2.7139989605414208,2.4709962319056245,1.7924409832904076,0.6194643095134045,-0.8728212735845453,2.9666599924996158,2.2767300243173727,1.1173441125009775,-1.2738846286858445,-2.8160738328391166,2.703745570384206,2.900722715066106,-0.9048865815809592
870,-0.7496839778769786,-0.1860487630294352,-2.1657275694429425,0.13240036656960286,2.9223445257357716,-2.714038397613728,2.4709026334500863,1.792357726697077,0.6194615417808963,-0.8728212735845453,2.9666599924996158,2.2767300243173727,1.1173441125009775,-1.2738846286858445,-2.8160738328391166,2.703745570384206,2.900722715066106,-0.9048865815809592
880,-0.7496797633273005,-0.18603876339826897,-2.1657438269823834,0.13238419927704922,2.922345984755556,-2.7140424356110233,2.4708688606485656,1.792331925513063,0.6194230810767325,-0.8728212735845453,2.9666599924996158,2.2767300243173727,1.1173441125009775,-1.2738846286858445,-2.8160738328391166,2.703745570384206,2.900722715066106,-0.9048865815809592
890,-0.7497093753813204,-0.1860606063718775,-2.165703740014268,0.13240018880299634,2.922316142006694,-2.7140089275908865,2.470895087251384,1.792365315890384,0.6193802542324607,-0.8728212735845453,2.9666599924996158,2.2767300243173727,1.1173441125009775,-1.2738846286858445,-2.8160738328391166,2.703745570384206,2.900722715066106,-0.9048865815809592
900,-0.7497823243769263,-0.1861561436215898,-2.1656310535843972,0.132502210910459,2.922238806434969,-2.71397083237281,2.470968862495846,1.7924223236592214,0.6192858861127404,-0.8728212735845453,2.9666599924996158,2.2767300243173727,1.1173441125009775,-1.2738846286858445,-2.8160738328391166,2.703745570384206,2.900722715066106,-0.9048865815809592
910,-0.7499029695279508,-0.18626139076246978,-2.16552276569928,0.13259197867112663,2.9220534329369636,-2.7138800826737883,2.471067562665077,1.7925028543658754,0.619039186212811,-0.8728212735845453,2.9666599924996158,2.2767300243173727,1.1173441125009775,-1.2738846286858445,-2.8160738328391166,2.703745570384206,2.900722715066106,-0.9048865815809592
920,-0.7499893691859258,-0.18632839382110983,-2.165391189327402,0.13279554585055353,2.921908536407263,-2.713835051827912,2.4711626687373793,1.7926099218514138,0.6188741069509978,-0.8728212735845453,2.9666599924996158,2.2767300243173727,1.1173441125009775,-1.2738846286858445,-2.8160738328391166,2.703745570384206,2.900722715066106,-0.9048865815809592
930,-0.7501234248222968,-0.18653526266987872,-2.1652815816935163,0.13292847284919268,2.9217082643865977,-2.713691596790785,2.471269156927329,1.7927013839659394,0.6187440555441256,-0.8728212735845453,2.9666599924996158,2.2767300243173727,1.1173441125009775,-1.2738846286858445,-2.8160738328391166,2.703745570384206,2.900722715066106,-0.9048865815809592
940,-0.7501575485058518,-0.18657152539685865,-2.165343091209158,0.13287827268554284,2.9216165910776954,-2.7136516653057985,2.471182737845683,1.7926208710501554,0.618725288026186,-0.8728212735845453,2.9666599924996158,2.2767300243173727,1.1173441125009775,-1.2738846286858445,-2.8160738328391166,2.703745570384206,2.900722715066106,-0.9048865815809592
950,-0.7500229928874909,-0.18641037586700762,-2.1656864655133172,0.1327978214901671,2.92175433305126,-2.713830674213434,2.4708711014388247,1.7922594502459195,0.6189212932033714,-0.8728212735845453,2.9666599924996158,2.2767300243173727,1.1173441125009775,-1.2738846286858445,-2.8160738328391166,2.703745570384206,2.900722715066106,-0.9048865815809592
960,-0.7496651094944238,-0.18600525179792846,-2.1662757095042506,0.13266729669113833,2.922118811922378,-2.714189814730836,2.4703271842250945,1.7916059310100563,0.6191132774954295,-0.8728212735845453,2.9666599924996158,2.2767300243173727,1.1173441125009775,-1.2738846286858445,-2.8160738328391166,2.703745570384206,2.900722715066106,-0.9048865815809592
970,-0.7492734460927195,-0.18553861973832741,-2.1667934761660494,0.13283254535060518,2.92264670314862,-2.7146141732790214,2.4697863382657093,1.7909169687933941,0.6196529930966155,-0.8728212735845453,2.9666599924996158,2.2767300243173727,1.1173441125009775,-1.2738846286858445,-2.8160738328391166,2.703745570384206,2.900722715066106,-0.9048865815809592
980,-0.7488914081956223,-0.18505265121513587,-2.1671946566004046,0.1327056430640683,2.923174282849079,-2.714963286214653,2.4693780658016604,1.79044523793765,0.6201530970506899,-0.8728212735845453,2.9666599924996158,2.2767300243173727,1.1173441125009775,-1.2738846286858445,-2.8160738328391166,2.703745570384206,2.900722715066106,-0.9048865815809592
990,-0.7486030099385724,-0.18480526419505863,-2.1675127663365874,0.13261335689094272,2.92349754808218,-2.7152474201041366,2.4691066810107336,1.7901196690824064,0.6205939514380246,-0.8728212735845453,2.9666599924996158,2.2767300243173727,1.1173441125009775,-1.2738846286858445,-2.8160738328391166,2.703745570384206,2.900722715066106,-0.9048865815809592
1000,-0.7483675605756299,-0.18461718547693787,-2.167800679972943,0.13248068270401656,2.923710293141524,-2.7154660368398753,2.4688617506913304,1.7898370605919185,0.6208413713417956,-0.8728212735845453,2.9666599924996158,2.2767300243173727,1.1173441125009775,-1.2738846286858445,-2.8160738328391166,2.703745570384206,2.900722715066106,-0.9048865815809592
1010,-0.7481715981473279,-0.18442647402492113,-2.1680623879416476,0.13238090315162446,2.9239636997924348,-2.715628591923821,2.4685806730118274,1.789553776875296,0.6210424677880634,-0.8728212735845453,2.9666599924996158,2.2767300243173727,1.1173441125009775,-1.2738846286858445,-2.8160738328391166,2.703745570384206,2.900722715066106,-0.9048865815809592
1020,-0.7479654642882829,-0.18421960971185852,-2.168272353746576,0.13225655396186486,2.9241131344293345,-2.715784116086504,2.468371991520033,1.7893468449892467,0.6211212720521769,-0.8728212735845453,2.9666599924996158,2.2767300243173727,1.1173441125009775,-1.2738846286858445,-2.8160738328391166,2.703745570384206,2.900722715066106,-0.9048865815809592
1030,-0.7477281857103565,-0.1839493165936368,-2.1684737233650484,0.13206967410132014,2.924235067722444,-2.715966823538491,2.468151277471222,1.7891452907235128,0.6212326076654555,-0.8728212735845453,2.9666599924996158,2.2767300243173727,1.1173441125009775,-1.2738846286858445,-2.8160738328391166,2.703745570384206,2.900722715066106,-0.9048865815809592
1040,-0.747594477039316,-0.18375227986375745,-2.1686312446637186,0.13184296657178798,2.9243430019391776,-2.7160365263436947,2.46797282416044,1.7890137275797535,0.6214057104931207,-0.8728212735845453,2.9666599924996158,2.2767300243173727,1.1173441125009775,-1.2738846286858445,-2.8160738328391166,2.703745570384206,2.900722715066106,-0.9048865815809592
1050,-0.7474743596537385,-0.1836023002185593,-2.1687805927825523,0.1317147310848756,2.9245188353272993,-2.7161305017245603,2.4678050973473367,1.7888410854425625,0.6216410171047759,-0.8728212735845453,2.9666599924996158,2.2767300243173727,1.1173441125009775,-1.2738846286858445,-2.8160738328391166,2.703745570384206,2.900722715066106,-0.9048865815809592
1060,-0.7473851227503776,-0.18348152781046606,-2.1689025453518296,0.13161731836820997,2.9246727543143285,-2.7161912385339937,2.467671232681716,1.788710680391113,0.6218169916687751,-0.8728212735845453,2.9666599924996158,2.2767300243173727,1.1173441125009775,-1.2738846286858445,-2.8160738328391166,2.703745570384206,2.900722715066106,-0.9048865815809592
1070,-0.747299111210575,-0.18334970775336296,-2.1690294747577346,0.131497562661457,2.9247913058481094,-2.7162538254963517,2.4675482687897796,1.7885896254334175,0.6219345366501993,-0.8728212735845453,2.9666599924996158,2.2767300243173727,1.1173441125009775,-1.2738846286858445,-2.8160738328391166,2.703745570384206,2.900722715066106,-0.9048865815809592
1080,-0.7472494759492202,-0.18329884727082818,-2.1691325272356887,0.1313932208186362,2.9248752049895006,-2.716314453455577,2.4674705496062517,1.7885068585317756,0.6220305040779485,-0.8728212735845453,2.9666599924996158,2.2767300243173727,1.1173441125009775,-1.2738846286858445,-2.8160738328391166,2.703745570384206,2.900722715066106,-0.9048865815809592
1090,-0.7471902188159376,-0.18327020382005027,-2.1692342122046195,0.13128665374059714,2.924956211845777,-2.716384301010173,2.4674145561373355,1.7884298957230562,0.6221071586594809,-0.8728212735845453,2.9666599924996158,2.2767300243173727,1.1173441125009775,-1.2738846286858445,-2.8160738328391166,2.703745570384206,2.900722715066106,-0.9048865815809592
1100,-0.7471325963109382,-0.183214123616298,-2.169306053404413,0.13123346696447916,2.9250067568568046,-2.716429155879761,2.467356804605128,1.7883683378226305,0.6221363863716121,-0.8728212735845453,2.9666599924996158,2.2767300243173727,1.1173441125009775,-1.2738846286858445,-2.8160738328391166,2.703745570384206,2.900722715066106,-0.9048865815809592
1110,-0.7471046350979897,-0.1831812376487426,-2.1693519165117574,0.13122261095690074,2.9250424410093716,-2.7164537833679963,2.4673139172927328,1.7883198415770774,0.6221746052728155,-0.8728212735845453,2.9666599924996158,2.2767300243173727,1.1173441125009775,-1.2738846286858445,-2.8160738328391166,2.703745570384206,2.900722715066106,-0.9048865815809592
1120,-0.7470754054337861,-0.18314163556200905,-2.169389534142274,0.13120607368100906,2.9250715277378037,-2.716485372084561,2.467276885950083,1.788280683296999,0.6222036461357429,-0.8728212735845453,2.9666599924996158,2.2767300243173727,1.1173441125009775,-1.2738846286858445,-2.8160738328391166,2.703745570384206,2.900722715066106,-0.9048865815809592
1130,-0.7470479657458873,-0.1831181638482634,-2.1694153697103915,0.1311928150580928,2.9250871521473623,-2.7165181814869346,2.4672511824325833,1.7882534348567711,0.6222147059781856,-0.8728212735845453,2.9666599924996158,2.2767300243173727,1.1173441125009775,-1.2738846286858445,-2.8160738328391166,2.703745570384206,2.900722715066106,-0.9048865815809592
1140,-0.7470344535690355,-0.1831085998558528,-2.169426270662153,0.13118208940954565,2.9250893515339813,-2.716535690087807,2.4672412410434124,1.7882422585748161,0.6222139470530453,-0.8728212735845453,2.9666599924996158,2.2767300243173727,1.1173441125009775,-1.2738846286858445,-2.8160738328391166,2.703745570384206,2.900722715066106,-0.9048865815809592
1150,-0.7470612807395891,-0.18313181144002158,-2.1693939502357424,0.1311993727968044,2.9250470158630573,-2.7165131229805706,2.4672667606883523,1.7882665179430979,0.6221655519699184,-0.8728212735845453,2.9666599924996158,2.2767300243173727,1.1173441125009775,-1.2738846286858445,-2.8160738328391166,2.703745570384206,2.900722715066106,-0.9048865815809592
1160,-0.7470933600754638,-0.18319845244684177,-2.169330318272794,0.13127254499187016,2.9249628037884228,-2.7164729258881004,2.4673399413717556,1.7883429876880934,0.6220811745585266,-0.8728212735845453,2.9666599924996158,2.2767300243173727,1.1173441125009775,-1.2738846286858445,-2.8160738328391166,2.703745570384206,2.900722715066106,-0.9048865815809592
1170,-0.7471533414262348,-0.18326239233357877,-2.1692147596694342,0.131355650529498,2.9248156077165843,-2.716384160769972,2.467476887617153,1.788488715261837,0.6219443070762426,-0.8728212735845453,2.9666599924996158,2.2767300243173727,1.1173441125009775,-1.2738846286858445,-2.8160738328391166,2.703745570384206,2.900722715066106,-0.9048865815809592
1180,-0.7472392055927285,-0.18334317407912606,-2.169078793766836,0.1314831669746696,2.9246901769108944,-2.716293291297488,2.4676139110938884,1.7886431197944874,0.6218113311837287,-0.8728212735845453,2.9666599924996158,2.2767300243173727,1.1173441125009775,-1.2738846286858445,-2.8160738328391166,2.703745570384206,2.900722715066106,-0.9048865815809592
1190,-0.7473858765455302,-0.18344179320075277,-2.168916170412683,0.13166374398353814,2.924536789254294,-2.7161618905675504,2.46778663690126,1.7888328633896167,0.6216338932240014,-0.8728212735845453,2.9666599924996158,2.2767300243173727,1.1173441125009775,-1.2738846286858445,-2.8160738328391166,2.703745570384206,2.900722715066106,-0.9048865815809592
1200,-0.7475608342415843,-0.18357489962041174,-2.1686978495683857,0.13177675616550605,2.924344775304585,-2.7160179041075665,2.468005870519408,1.7890557458837992,0.6214107804215041,-0.8728212735845453,2.9666599924996158,2.2767300243173727,1.1173441125009775,-1.2738846286858445,-2.8160738328391166,2.703745570384206,2.900722715066106,-0.9048865815809592
1210,-0.7477289316086183,-0.18375617675755543,-2.1684795199363496,0.13200361417261117,2.9241637659156634,-2.7158671300560333,2.4682558582748744,1.7892781978224148,0.621119894291751,-0.8728212735845453,2.9666599924996158,2.2767300243173727,1.1173441125009775,-1.2738846286858445,-2.8160738328391166,2.703745570384206,2.900722715066106,-0.9048865815809592
1220,-0.7479434951790092,-0.18398995089982784,-2.1681799901217977,0.13241243530044006,2.9239535360865827,-2.7156319599249445,2.4685566980663802,1.7895342982139484,0.6208952953098245,-0.8728212735845453,2.9666599924996158,2.2767300243173727,1.1173441125009775,-1.2738846286858445,-2.8160738328391166,2.703745570384206,2.900722715066106,-0.9048865815809592
1230,-0.7481044800589203,-0.18420918941702277,-2.1679128813425486,0.13257373195869235,2.923774509789486,-2.715510165373563,2.468874071581627,1.7898136814258356,0.6207424829052085,-0.8728212735845453,2.9666599924996158,2.2767300243173727,1.1173441125009775,-1.2738846286858445,-2.8160738328391166,2.703745570384206,2.900722715066106,-0.9048865815809592
1240,-0.7483001991735406,-0.184416246131299,-2.1676713781408523,0.13267185912385718,2.923592243507738,-2.7153498850197533,2.4691322123940154,1.7900537899370546,0.6205591866387018,-0.8728212735845453,2.9666599924996158,2.2767300243173727,1.1173441125009775,-1.2738846286858445,-2.8160738328391166,2.703745570384206,2.900722715066106,-0.9048865815809592
1250,-0.7484579348121099,-0.18458543239773714,-2.167418340307475,0.13279389220081375,2.9234657233498567,-2.7152383913514413,2.4693792793547833,1.7902886625305856,0.6204470532558409,-0.8728212735845453,2.9666599924996158,2.2767300243173727,1.1173441125009775,-1.2738846286858445,-2.8160738328391166,2.703745570384206,2.900722715066106,-0.9048865815809592
1260,-0.7486376362990854,-0.18483037264859373,-2.167092609364429,0.13303281406919293,2.9233309760132054,-2.715109606648159,2.469702461941283,1.79056948490407,0.6203570179538566,-0.8728212735845453,2.9666599924996158,2.2767300243173727,1.1173441125009775,-1.2738846286858445,-2.8160738328391166,2.703745570384206,2.900722715066106,-0.9048865815809592
1270,-0.748873271117933,-0.185014426650944,-2.1667684445255193,0.13338213800430412,2.9231135567144113,-2.7149001589473025,2.469970055194586,1.79082533948114,0.6201467403860331,-0.8728212735845453,2.9666599924996158,2.2767300243173727,1.1173441125009775,-1.2738846286858445,-2.8160738328391166,2.703745570384206,2.900722715066106,-0.9048865815809592
1280,-0.7491031849690745,-0.18518980157237522,-2.1664607457333025,0.13366033097351315,2.922885865762475,-2.7146782179778763,2.4702076224181275,1.7910395829513561,0.6198438815553695,-0.8728212735845453,2.9666599924996158,2.2767300243173727,1.1173441125009775,-1.2738846286858445,-2.8160738328391166,2.703745570384206,2.900722715066106,-0.9048865815809592
1290,-0.7493448454085259,-0.1853734575074566,-2.166144731401854,0.1340019949528005,2.9226430619921855,-2.7144237326503884,2.4704838528569657,1.7912936256801997,0.6195375060254815,-0.8728212735845453,2.9666599924996158,2.2767300243173727,1.1173441125009775,-1.2738846286858445,-2.8160738328391166,2.703745570384206,2.900722715066106,-0.9048865815809592
1300,-0.749554754216204,-0.1855270235170654,-2.1658577622132493,0.13415515076270487,2.922465690122806,-2.7142310845200717,2.4707221619143214,1.7915311344647633,0.6194169011372079,-0.8728212735845453,2.9666599924996158,2.2767300243173727,1.1173441125009775,-1.2738846286858445,-2.8160738328391166,2.703745570384206,2.900722715066106,-0.9048865815809592
1310,-0.7497216505196844,-0.18565270093815237,-2.1656483388770185,0.13425324662442725,2.922365645707365,-2.714048125269936,2.470925319205495,1.791742911545723,0.6193820868814763,-0.8728212735845453,2.9666599924996158,2.2767300243173727,1.1173441125009775,-1.2738846286858445,-2.8160738328391166,2.703745570384206,2.900722715066106,-0.9048865815809592
1320,-0.7498290647190845,-0.18570264228724004,-2.165533839195906,0.1343173109202839,2.9222993543947173,-2.7139164150996242,2.4710410784298587,1.7918679319454172,0.6193136036820338,-0.8728212735845453,2.9666599924996158,2.2767300243173727,1.1173441125009775,-1.2738846286858445,-2.8160738328391166,2.703745570384206,2.900722715066106,-0.9048865815809592
1330,-0.7498570923525466,-0.18564253989555177,-2.1655013479355385,0.134267327096893,2.9223227083445376,-2.7138628948982517,2.4710802115699875,1.7919261930358672,0.6192959824428441,-0.8728212735845453,2.9666599924996158,2.2767300243173727,1.1173441125009775,-1.2738846286858445,-2.8160738328391166,2.703745570384206,2.900722715066106,-0.9048865815809592
1340,-0.7498499274096473,-0.18562811594034495,-2.1654894074237,0.13423159919815494,2.92237729166844,-2.7138551794816888,2.471114495694826,1.7919670253637103,0.6193608778093478,-0.8728212735845453,2.9666599924996158,2.2767300243173727,1.1173441125009775,-1.2738846286858445,-2.8160738328391166,2.703745570384206,2.900722715066106,-0.9048865815809592
1350,-0.7498108522067731,-0.18555109934322397,-2.1655119568755192,0.13419490704395381,2.922441821084929,-2.7138662814347865,2.471092532350972,1.791978249037827,0.6194077958076788,-0.8728212735845453,2.9666599924996158,2.2767300243173727,1.1173441125009775,-1.2738846286858445,-2.8160738328391166,2.703745570384206,2.900722715066106,-0.9048865815809592
1360,-0.750052363903819,-0.18563076107248,-2.1653167895917322,0.13427137629684457,2.922320366779271,-2.7136413738793492,2.4712987858487176,1.7921841143769954,0.6193153707944933,-0.8728212735845453,2.9666599924996158,2.2767300243173727,1.1173441125009775,-1.2738846286858445,-2.8160738328391166,2.703745570384206,2.900722715066106,-0.9048865815809592
1370,-0.7501236028451796,-0.18565689459010706,-2.1652595526915928,0.13430257509998217,2.9223580316971782,-2.7136021315061982,2.47137111961035,1.7922448961222712,0.619347930009895,-0.8728212735845453,2.9666599924996158,2.2767300243173727,1.1173441125009775,-1.2738846286858445,-2.8160738328391166,2.703745570384206,2.900722715066106,-0.9048865815809592
1380,-0.750052590206864,-0.1856145540413412,-2.165305318569109,0.13426098531175124,2.9224535474865503,-2.713709511419037,2.471315046012518,1.7921801387460734,0.6194039195628127,-0.8728212735845453,2.9666599924996158,2.2767300243173727,1.1173441125009775,-1.2738846286858445,-2.8160738328391166,2.703745570384206,2.900722715066106,-0.9048865815809592
1390,-0.7497712615155072,-0.18538304380432333,-2.165526976411458,0.13393643145702122,2.922782987778678,-2.7139618103920964,2.4710450153523786,1.7919428382134641,0.6196915963929733,-0.8728212735845453,2.9666599924996158,2.2767300243173727,1.1173441125009775,-1.2738846286858445,-2.8160738328391166,2.703745570384206,2.900722715066106,-0.9048865815809592
1400,-0.7497335687007035,-0.18529449932788167,-2.1655403917819314,0.13387299556391086,2.9229478262363755,-2.713975373243639,2.471010898954141,1.7919301273841446,0.6198498780437847,-0.8728212735845453,2.9666599924996158,2.2767300243173727,1.1173441125009775,-1.2738846286858445,-2.8160738328391166,2.703745570384206,2.900722715066106,-0.9048865815809592
1410,-0.7496205416289459,-0.18506705298942602,-2.165708463081272,0.13365703842612756,2.9231904586040125,-2.714098882539,2.470885649690182,1.791774247837569,0.6202329064283278,-0.8728212735845453,2.9666599924996158,2.2767300243173727,1.1173441125009775,-1.2738846286858445,-2.8160738328391166,2.703745570384206,2.900722715066106,-0.9048865815809592
1420,-0.7491966977885014,-0.1847817843449048,-2.165983561505581,0.1333605597508021,2.923630155837711,-2.7145183182473014,2.470601792493689,1.791508344482412,0.6208455672583341,-0.8728212735845453,2.9666599924996158,2.2767300243173727,1.1173441125009775,-1.2738846286858445,-2.8160738328391166,2.703745570384206,2.900722715066106,-0.9048865815809592
1430,-0.7488843795308416,-0.18457095624270894,-2.166175850769594,0.13327926379226754,2.923926643039459,-2.7148147661557016,2.470438863916454,1.7913288567035563,0.6210813161849651,-0.8728212735845453,2.9666599924996158,2.2767300243173727,1.1173441125009775,-1.2738846286858445,-2.8160738328391166,2.703745570384206,2.900722715066106,-0.9048865815809592
1440,-0.7487823531955602,-0.18448792746696815,-2.1662379158665024,0.13322796341097054,2.9240296564134436,-2.7149153664794614,2.4703792955838195,1.7912713532653857,0.6211646115252093,-0.8728212735845453,2.9666599924996158,2.2767300243173727,1.1173441125009775,-1.2738846286858445,-2.8160738328391166,2.703745570384206,2.900722715066106,-0.9048865815809592
1450,-0.7486699623189461,-0.1843574194728251,-2.166322851682858,0.13305348320072485,2.924133539074523,-2.7150201547088137,2.4702869567015733,1.7911877673110839,0.6212320775691171,-0.8728212735845453,2.9666599924996158,2.2767300243173727,1.1173441125009775,-1.2738846286858445,-2.8160738328391166,2.703745570384206,2.900722715066106,-0.9048865815809592
1460,-0.7486196416770754,-0.1842922099305892,-2.1663518438022766,0.13298431814759964,2.9241944786915743,-2.7150686369644785,2.470254297632851,1.7911600783700177,0.6212626614938145,-0.8728212735845453,2.9666599924996158,2.2767300243173727,1.1173441125009775,-1.2738846286858445,-2.8160738328391166,2.703745570384206,2.900722715066106,-0.9048865815809592
1470,-0.7485884491347949,-0.18425631653607158,-2.1663628832297945,0.132946102823444,2.924225466422235,-2.7151002770944843,2.4702388468490164,1.7911495619095341,0.6212682601777362,-0.8728212735845453,2.9666599924996158,2.2767300243173727,1.1173441125009775,-1.2738846286858445,-2.8160738328391166,2.703745570384206,2.900722715066106,-0.9048865815809592
1480,-0.7485797574955544,-0.18425009620221033,-2.1663522320764117,0.1329124531117219,2.92426113529937,-2.715114426369277,2.4702447685617335,1.7911545659178312,0.621298009478622,-0.8728212735845453,2.9666599924996158,2.2767300243173727,1.1173441125009775,-1.2738846286858445,-2.8160738328391166,2.703745570384206,2.900722715066106,-0.9048865815809592
1490,-0.7485528784152934,-0.18423284951799318,-2.1663615404253176,0.13286070892654828,2.9242917605474927,-2.715138615601026,2.4702446468742614,1.7911534150859878,0.6213269386287276,-0.8728212735845453,2.9666599924996158,2.2767300243173727,1.1173441125009775,-1.2738846286858445,-2.8160738328391166,2.703745570384206,2.900722715066106,-0.9048865815809592
1500,-0.7484876438627792,-0.18417008603546495,-2.1663989657632468,0.132809405493513,2.9243246708065205,-2.7152050876325444,2.470199423469066,1.7911211132244869,0.6213340572409667,-0.8728212735845453,2.9666599924996158,2.2767300243173727,1.1173441125009775,-1.2738846286858445,-2.8160738328391166,2.703745570384206,2.900722715066106,-0.9048865815809592
1510,-0.7485982177393381,-0.18429248230519524,-2.1663601830090626,0.13280070018096654,2.924279765904649,-2.7151013832679793,2.470272374974971,1.7911798239866763,0.6213333492248897,-0.8728212735845453,2.9666599924996158,2.2767300243173727,1.1173441125009775,-1.2738846286858445,-2.8160738328391166,2.703745570384206,2.900722715066106,-0.9048865815809592
1520,-0.748813074529312,-0.18444027161948112,-2.1662064680000914,0.13287249149731872,2.9241856949733673,-2.7148992808398873,2.4704408953069765,1.7913297340328016,0.6212969343736722,-0.8728212735845453,2.9666599924996158,2.2767300243173727,1.1173441125009775,-1.2738846286858445,-2.8160738328391166,2.703745570384206,2.900722715066106,-0.9048865815809592
1530,-0.7489571725486471,-0.18452689215735837,-2.1660467213997134,0.13288933133461028,2.9240749554072223,-2.7147647873468967,2.470582582279114,1.7914740825809294,0.621248960226093,-0.8728212735845453,2.9666599924996158,2.2767300243173727,1.1173441125009775,-1.2738846286858445,-2.8160738328391166,2.703745570384206,2.900722715066106,-0.9048865815809592
1540,-0.7489233891210227,-0.18443466779504408,-2.166092800993619,0.13277956404046878,2.924047206142951,-2.71482377357326,2.4705472538661293,1.7914651736884515,0.6212533428897963,-0.8728212735845453,2.9666599924996158,2.2767300243173727,1.1173441125009775,-1.2738846286858445,-2.8160738328391166,2.703745570384206,2.900722715066106,-0.9048865815809592
1550,-0.7488793095601908,-0.18440500551491476,-2.166074394794514,0.13266247721813293,2.923963026912742,-2.7149463217701797,2.470552160085322,1.7915028272393432,0.6211700631263725,-0.8728212735845453,2.9666599924996158,2.2767300243173727,1.1173441125009775,-1.2738846286858445,-2.8160738328391166,2.703745570384206,2.900722715066106,-0.9048865815809592
1560,-0.7488491711862802,-0.1844436886935737,-2.1661018975212385,0.1326487646975612,2.9239466022649667,-2.714986048006421,2.470541874135421,1.7915115334891512,0.6212235486399831,-0.8728212735845453,2.9666599924996158,2.2767300243173727,1.1173441125009775,-1.2738846286858445,-2.8160738328391166,2.703745570384206,2.900722715066106,-0.9048865815809592
1570,-0.7490398003819821,-0.18459114645034935,-2.165950048360563,0.1328111777692243,2.9239222548058565,-2.714838702845174,2.4707154554866757,1.791716163874876,0.6212741118800906,-0.8728212735845453,2.9666599924996158,2.2767300243173727,1.1173441125009775,-1.2738846286858445,-2.8160738328391166,2.703745570384206,2.900722715066106,-0.9048865815809592
1580,-0.7491930940371195,-0.18466777124716746,-2.165790463984945,0.13290726173661335,2.9238375998337656,-2.714740219097609,2.4708562342093376,1.7918929043366023,0.6213086980610028,-0.8728212735845453,2.9666599924996158,2.2767300243173727,1.1173441125009775,-1.2738846286858445,-2.8160738328391166,2.703745570384206,2.900722715066106,-0.9048865815809592
1590,-0.7496825266073844,-0.18519999339313165,-2.165271247658149,0.13301341559199065,2.9234001621536927,-2.714344981035216,2.471375047401846,1.7924367783560617,0.6211031552837833,-0.8728212735845453,2.9666599924996158,2.2767300243173727,1.1173441125009775,-1.2738846286858445,-2.8160738328391166,2.703745570384206,2.900722715066106,-0.9048865815809592
1600,-0.7499909935285234,-0.18546800095741692,-2.1649543017973745,0.13328038408822307,2.923076452485915,-2.7140365228453462,2.4717039573086437,1.7927732110366033,0.6208300461025423,-0.8728212735845453,2.9666599924996158,2.2767300243173727,1.1173441125009775,-1.2738846286858445,-2.8160738328391166,2.703745570384206,2.900722715066106,-0.9048865815809592
1610,-0.7501894111921209,-0.18574044692920136,-2.1647343063787075,0.1333510573517275,2.922798068646763,-2.713833055110987,2.471905783422127,1.7929812350071574,0.6205625919373102,-0.8728212735845453,2.9666599924996158,2.2767300243173727,1.1173441125009775,-1.2738846286858445,-2.8160738328391166,2.703745570384206,2.900722715066106,-0.9048865815809592
1620,-0.7502639935894134,-0.18595999189600587,-2.164535638627281,0.1335505568831398,2.922598776335837,-2.713812253737383,2.472074921570921,1.7931302901183253,0.6203097701824036,-0.8728212735845453,2.9666599924996158,2.2767300243173727,1.1173441125009775,-1.2738846286858445,-2.8160738328391166,2.703745570384206,2.900722715066106,-0.9048865815809592
1630,-0.7504233821004928,-0.18609345451449516,-2.164389591376798,0.13377951075524938,2.9223861181985114,-2.7137181337580816,2.4722157615315363,1.7932453476123047,0.6201456011836646,-0.8728212735845453,2.9666599924996158,2.2767300243173727,1.1173441125009775,-1.2738846286858445,-2.8160738328391166,2.703745570384206,2.900722715066106,-0.9048865815809592
1640,-0.750530071933548,-0.18627017756008923,-2.164233783548144,0.13403574778619992,2.9222131214719433,-2.7136481398396106,2.4723208386089244,1.793322194186781,0.620008791422418,-0.8728212735845453,2.9666599924996158,2.2767300243173727,1.1173441125009775,-1.2738846286858445,-2.8160738328391166,2.703745570384206,2.900722715066106,-0.9048865815809592
1650,-0.750567132162057,-0.18635392170980072,-2.16418389140412,0.13413883047000638,2.92213756174235,-2.7136148009670333,2.4723482106642454,1.7933396248749054,0.6199264122044651,-0.8728212735845453,2.9666599924996158,2.2767300243173727,1.1173441125009775,-1.2738846286858445,-2.8160738328391166,2.703745570384206,2.900722715066106,-0.9048865815809592
1660,-0.7505166123092829,-0.18632959367814364,-2.1641402905554323,0.13442247589555503,2.921984205932722,-2.713649940080176,2.4722791748857027,1.793292694872809,0.6196793172097859,-0.8728212735845453,2.9666599924996158,2.2767300243173727,1.1173441125009775,-1.2738846286858445,-2.8160738328391166,2.703745570384206,2.900722715066106,-0.9048865815809592
1670,-0.7506826487679618,-0.18642598265751167,-2.1640451955936224,0.1346661535895928,2.9216992277288516,-2.713481732076046,2.4723048153199647,1.7933575690051957,0.6192388370376152,-0.8728212735845453,2.9666599924996158,2.2767300243173727,1.1173441125009775,-1.2738846286858445,-2.8160738328391166,2.703745570384206,2.900722715066106,-0.9048865815809592
1680,-0.7507971815217142,-0.18654614099239936,-2.1639255816678857,0.13482600732806888,2.9214888368351963,-2.713382082328378,2.4723886853758312,1.7934513662343314,0.6189369791407002,-0.8728212735845453,2.9666599924996158,2.2767300243173727,1.1173441125009775,-1.2738846286858445,-2.8160738328391166,2.703745570384206,2.900722715066106,-0.9048865815809592
1690,-0.7509569800300231,-0.1865369282722651,-2.1638051904868925,0.13500782561472074,2.9213311463009566,-2.7131663826014907,2.4724819727018543,1.7936062932056125,0.6187563558625738,-0.8728212735845453,2.9666599924996158,2.2767300243173727,1.1173441125009775,-1.2738846286858445,-2.8160738328391166,2.703745570384206,2.900722715066106,-0.9048865815809592
1700,-0.7511531829467228,-0.18675380008480247,-2.1635878088221827,0.135234633196023,2.9210114476687195,-2.712910276306794,2.4727462549743175,1.7938529844534035,0.618385581834141,-0.8728212735845453,2.9666599924996158,2.2767300243173727,1.1173441125009775,-1.2738846286858445,-2.8160738328391166,2.703745570384206,2.900722715066106,-0.9048865815809592
1710,-0.7512943697820376,-0.18686979650284263,-2.1634248415622004,0.1353024264425259,2.9207615968793847,-2.71273402669249,2.472839016584234,1.7939952846788711,0.6181386377656432,-0.8728212735845453,2.9666599924996158,2.2767300243173727,1.1173441125009775,-1.2738846286858445,-2.8160738328391166,2.703745570384206,2.900722715066106,-0.9048865815809592
1720,-0.7513990928578175,-0.18696326762212576,-2.1633344184002374,0.13536480529975245,2.9205838890511924,-2.712603178072942,2.4729058940258786,1.7940830742241514,0.6179625860320496,-0.8728212735845453,2.9666599924996158,2.2767300243173727,1.1173441125009775,-1.2738846286858445,-2.8160738328391166,2.703745570384206,2.900722715066106,-0.9048865815809592
1730,-0.7515129025098232,-0.1872267013275387,-2.1633226335679696,0.13563518606618177,2.920327866312974,-2.712484972983733,2.4729412528016437,1.794078776744505,0.6177021282478573,-0.8728212735845453,2.9666599924996158,2.2767300243173727,1.1173441125009775,-1.2738846286858445,-2.8160738328391166,2.703745570384206,2.900722715066106,-0.9048865815809592
1740,-0.7515288777678553,-0.18741565193760987,-2.1634178247245464,0.13569094512607488,2.920218477654266,-2.712504199284685,2.472860797841587,1.7939921466562243,0.6175237087570865,-0.8728212735845453,2.9666599924996158,2.2767300243173727,1.1173441125009775,-1.2738846286858445,-2.8160738328391166,2.703745570384206,2.900722715066106,-0.9048865815809592
1750,-0.7514287816893229,-0.18741672987768326,-2.163628180129532,0.13564138546818916,2.9202617115032856,-2.7126464006862534,2.4726979978579795,1.793827369667472,0.6175155629620882,-0.8728212735845453,2.9666599924996158,2.2767300243173727,1.1173441125009775,-1.2738846286858445,-2.8160738328391166,2.703745570384206,2.900722715066106,-0.9048865815809592
1760,-0.751256265955327,-0.1871867038045769,-2.1640642801090495,0.1353602897536277,2.920541605393207,-2.7128381860817834,2.4723136521058,1.7934481067395602,0.6177474073942391,-0.8728212735845453,2.9666599924996158,2.2767300243173727,1.1173441125009775,-1.2738846286858445,-2.8160738328391166,2.703745570384206,2.900722715066106,-0.9048865815809592
1770,-0.7509076137791486,-0.18701260835507427,-2.164686017407115,0.13510584172806336,2.920885282417586,-2.7132229811871746,2.4717870381830283,1.7929058933065278,0.6180804531717425,-0.8728212735845453,2.9666599924996158,2.2767300243173727,1.1173441125009775,-1.2738846286858445,-2.8160738328391166,2.703745570384206,2.900722715066106,-0.9048865815809592
1780,-0.7503575466338887,-0.18672086592632275,-2.165304663893917,0.13481605871554725,2.921238122364124,-2.713798490264609,2.4712635223860238,1.7923732603169573,0.6183258364563239,-0.8728212735845453,2.9666599924996158,2.2767300243173727,1.1173441125009775,-1.2738846286858445,-2.8160738328391166,2.703745570384206,2.900722715066106,-0.9048865815809592
1790,-0.7498849535208816,-0.18632600356332799,-2.165807256421731,0.13447796550040553,2.9215394395857195,-2.714269224210234,2.4707974434760946,1.7919326885499034,0.618556238178786,-0.8728212735845453,2.9666599924996158,2.2767300243173727,1.1173441125009775,-1.2738846286858445,-2.8160738328391166,2.703745570384206,2.900722715066106,-0.9048865815809592
1800,-0.7494507978091468,-0.18595352318546943,-2.166268635301588,0.13436396415308538,2.9219044452196075,-2.71470705504004,2.470357514549081,1.791484146017457,0.6188412356759572,-0.8728212735845453,2.9666599924996158,2.2767300243173727,1.1173441125009775,-1.2738846286858445,-2.8160738328391166,2.703745570384206,2.900722715066106,-0.9048865815809592
1810,-0.7491545188431511,-0.18566535951031918,-2.166646155708913,0.13411149011841791,2.9222121741195464,-2.7150252278713105,2.469998200678761,1.7910902458785185,0.619070312269475,-0.8728212735845453,2.9666599924996158,2.2767300243173727,1.1173441125009775,-1.2738846286858445,-2.8160738328391166,2.703745570384206,2.900722715066106,-0.9048865815809592
1820,-0.7488245821879861,-0.18542888968002172,-2.1669639755338546,0.13389400133498297,2.922510730783596,-2.7153199745218757,2.4696914953880373,1.7907761794452781,0.6192073733536366,-0.8728212735845453,2.9666599924996158,2.2767300243173727,1.1173441125009775,-1.2738846286858445,-2.8160738328391166,2.703745570384206,2.900722715066106,-0.9048865815809592
1830,-0.7485802291939971,-0.18524367145090098,-2.167216825346792,0.13372864685932453,2.9227113511333283,-2.71556389001151,2.4694578680110317,1.7905583876884286,0.6193224793054654,-0.8728212735845453,2.9666599924996158,2.2767300243173727,1.1173441125009775,-1.2738846286858445,-2.8160738328391166,2.703745570384206,2.900722715066106,-0.9048865815809592
1840,-0.7484023913668019,-0.18498784784013528,-2.16744566076928,0.13364457522634027,2.922935977219737,-2.7157454908802205,2.4692446500250385,1.7903608728951825,0.6194555205380038,-0.8728212735845453,2.9666599924996158,2.2767300243173727,1.1173441125009775,-1.2738846286858445,-2.8160738328391166,2.703745570384206,2.900722715066106,-0.9048865815809592
1850,-0.7482579369878047,-0.18482434503683576,-2.167661542391452,0.13357377306926912,2.9230999268772435,-2.7158684461525704,2.469110733787361,1.7901960508559869,0.6195893082747715,-0.8728212735845453,2.9666599924996158,2.2767300243173727,1.1173441125009775,-1.2738846286858445,-2.8160738328391166,2.703745570384206,2.900722715066106,-0.9048865815809592
1860,-0.748139145420564,-0.1847175797059144,-2.167802292486623,0.13362093296610916,2.9232388073800784,-2.7159848061417007,2.4690136921000208,1.7900639581952775,0.6197193540967337,-0.8728212735845453,2.9666599924996158,2.2767300243173727,1.1173441125009775,-1.2738846286858445,-2.8160738328391166,2.703745570384206,2.900722715066106,-0.9048865815809592
1870,-0.7480326822578903,-0.18465086700830322,-2.1679280255255517,0.13356455867603356,2.923330480631892,-2.716095013964053,2.4689259565298793,1.7899574308130182,0.6198228811377852,-0.8728212735845453,2.9666599924996158,2.2767300243173727,1.1173441125009775,-1.2738846286858445,-2.8160738328391166,2.703745570384206,2.900722715066106,-0.9048865815809592
1880,-0.7479520574142484,-0.18460701130030538,-2.1680481451584437,0.13353619980733844,2.923414547393461,-2.7161851286168854,2.468849160494077,1.7898425836165828,0.6199048048918455,-0.8728212735845453,2.9666599924996158,2.2767300243173727,1.1173441125009775,-1.2738846286858445,-2.8160738328391166,2.703745570384206,2.900722715066106,-0.9048865815809592
1890,-0.7478556281697344,-0.18454163529694873,-2.1681638408098096,0.13345576759442687,2.9235345496338168,-2.7162970431469775,2.4687554323484546,1.7897393847903664,0.6200117228795354,-0.8728212735845453,2.9666599924996158,2.2767300243173727,1.1173441125009775,-1.2738846286858445,-2.8160738328391166,2.703745570384206,2.900722715066106,-0.9048865815809592
1900,-0.7477922198825742,-0.18450677938163776,-2.16824659947704,0.13336523146293003,2.9236139923885505,-2.7163681843408773,2.4686918832391487,1.7896683274400833,0.6200655751683023,-0.8728212735845453,2.9666599924996158,2.2767300243173727,1.1173441125009775,-1.2738846286858445,-2.8160738328391166,2.703745570384206,2.900722715066106,-0.9048865815809592
1910,-0.7477175515324179,-0.18443824253817692,-2.168322402396116,0.1333027542431235,2.9236766618331016,-2.7164398410403865,2.4686213052754886,1.7896014140992642,0.6201297696452155,-0.8728212735845453,2.9666599924996158,2.2767300243173727,1.1173441125009775,-1.2738846286858445,-2.8160738328391166,2.703745570384206,2.900722715066106,-0.9048865815809592
1920,-0.7476541818810395,-0.18432048451645583,-2.1684171807535404,0.13323578041957135,2.923764885922582,-2.7164784090912315,2.468534928313373,1.789524098025414,0.6202371165400598,-0.8728212735845453,2.9666599924996158,2.2767300243173727,1.1173441125009775,-1.2738846286858445,-2.8160738328391166,2.703745570384206,2.900722715066106,-0.9048865815809592
1930,-0.7475802600807621,-0.18422379039565126,-2.1685145425588557,0.13318982347808167,2.9238751413870507,-2.7165384511342676,2.468450906214117,1.789437397827283,0.6203187032824089,-0.8728212735845453,2.9666599924996158,2.2767300243173727,1.1173441125009775,-1.2738846286858445,-2.8160738328391166,2.703745570384206,2.900722715066106,-0.9048865815809592
1940,-0.7475381171760337,-0.18415773956577533,-2.168576707641589,0.13318775947849246,2.9239344191908376,-2.7165752571360033,2.4683967560120315,1.789379188799598,0.6203968444341986,-0.8728212735845453,2.9666599924996158,2.2767300243173727,1.1173441125009775,-1.2738846286858445,-2.8160738328391166,2.703745570384206,2.900722715066106,-0.9048865815809592
1950,-0.7475126371967721,-0.18412107633341943,-2.168617422582974,0.13313107073520133,2.923971250308032,-2.7166104765899703,2.468356377688498,1.7893341888597707,0.620431706156154,-0.8728212735845453,2.9666599924996158,2.2767300243173727,1.1173441125009775,-1.2738846286858445,-2.8160738328391166,2.703745570384206,2.900722715066106,-0.9048865815809592
1960,-0.7474666130067866,-0.18408488889030683,-2.1686614683425653,0.1331062660632719,2.9239971014823163,-2.7166567232645025,2.46831818281227,1.789293734616614,0.620438891745821,-0.8728212735845453,2.9666599924996158,2.2767300243173727,1.1173441125009775,-1.2738846286858445,-2.8160738328391166,2.703745570384206,2.900722715066106,-0.9048865815809592
1970,-0.7474235270805689,-0.1840217025380478,-2.1687179004582213,0.13306156814912098,2.924054038232914,-2.7166908964884113,2.4682811784206518,1.7892565573263273,0.620485041153145,-0.8728212735845453,2.9666599924996158,2.2767300243173727,1.1173441125009775,-1.2738846286858445,-2.8160738328391166,2.703745570384206,2.900722715066106,-0.9048865815809592
1980,-0.7473929388072815,-0.18397855410826833,-2.168762309043975,0.1330359039599829,2.924099714827474,-2.7167177758104057,2.4682533142532836,1.789228596368397,0.6205290289717765,-0.8728212735845453,2.9666599924996158,2.2767300243173727,1.1173441125009775,-1.2738846286858445,-2.8160738328391166,2.703745570384206,2.900722715066106,-0.9048865815809592
1990,-0.7473675998208239,-0.1839182774944747,-2.168810658252833,0.13298305326793047,2.924148969505706,-2.716740235486314,2.468215918201535,1.7891941754319254,0.6205733169276884,-0.8728212735845453,2.9666599924996158,2.2767300243173727,1.1173441125009775,-1.2738846286858445,-2.8160738328391166,2.703745570384206,2.900722715066106,-0.9048865815809592
2000,-0.7473475196509954,-0.1838882825430609,-2.1688449225411404,0.13295198345491552,2.9241695281625115,-2.716762033257883,2.4681919202289815,1.7891655897951837,0.6205934393602852,-0.8728212735845453,2.9666599924996158,2.2767300243173727,1.1173441125009775,-1.2738846286858445,-2.8160738328391166,2.703745570384206,2.900722715066106,-0.9048865815809592
2010,-0.7473261741630509,-0.18386928135268632,-2.1688725116050027,0.13290260575835122,2.9241762249103034,-2.716786741182882,2.468171444201279,1.7891436968012102,0.6205883807922199,-0.8728212735845453,2.9666599924996158,2.2767300243173727,1.1173441125009775,-1.2738846286858445,-2.8160738328391166,2.703745570384206,2.900722715066106,-0.9048865815809592
2020,-0.7472927177104245,-0.18384558274226379,-2.1689053705244628,0.13286693360823584,2.9242029964994867,-2.7168221104959303,2.468151553391722,1.7891193801080874,0.6206089137426155,-0.8728212735845453,2.9666599924996158,2.2767300243173727,1.1173441125009775,-1.2738846286858445,-2.8160738328391166,2.703745570384206,2.900722715066106,-0.9048865815809592
2030,-0.7472551170779458,-0.18380387343374674,-2.1689555350233305,0.13284090998972414,2.9242519018869357,-2.7168446545122706,2.4681058482610214,1.789072631374822,0.6206669036038883,-0.8728212735845453,2.9666599924996158,2.2767300243173727,1.1173441125009775,-1.2738846286858445,-2.8160738328391166,2.703745570384206,2.900722715066106,-0.9048865815809592
2040,-0.7472340478588538,-0.18376997480726734,-2.169006192197646,0.1328508417146513,2.9242968682015364,-2.716845172524576,2.468067873352305,1.7890273432463262,0.6207111447953658,-0.8728212735845453,2.9666599924996158,2.2767300243173727,1.1173441125009775,-1.2738846286858445,-2.8160738328391166,2.703745570384206,2.900722715066106,-0.9048865815809592
2050,-0.7472111397312227,-0.18373812020002767,-2.169056930008037,0.1328517859798849,2.924338823923726,-2.7168604290996052,2.4680304616657223,1.7889817256966338,0.6207560045924816,-0.8728212735845453,2.9666599924996158,2.2767300243173727,1.1173441125009775,-1.2738846286858445,-2.8160738328391166,2.703745570384206,2.900722715066106,-0.9048865815809592
2060,-0.747171395672253,-0.1837226751156756,-2.1691121768054216,0.13281805784268835,2.924393811153692,-2.716898385312238,2.4679854779150707,1.7889242201152111,0.6208194793809112,-0.8728212735845453,2.9666599924996158,2.2767300243173727,1.1173441125009775,-1.2738846286858445,-2.8160738328391166,2.703745570384206,2.900722715066106,-0.9048865815809592
2070,-0.7471194621999251,-0.18369135399156417,-2.169180650314798,0.1327947692388516,2.9244448055579904,-2.7169484222533176,2.4679297304758254,1.7888599271313133,0.6208556482265358,-0.8728212735845453,2.9666599924996158,2.2767300243173727,1.1173441125009775,-1.2738846286858445,-2.8160738328391166,2.703745570384206,2.900722715066106,-0.9048865815809592
2080,-0.747065062141567,-0.18365773247024433,-2.1692356354649305,0.13276139267240042,2.9245038381876554,-2.7170098181126403,2.4678851201038094,1.7888163154313017,0.6209214240984002,-0.8728212735845453,2.9666599924996158,2.2767300243173727,1.1173441125009775,-1.2738846286858445,-2.8160738328391166,2.703745570384206,2.900722715066106,-0.9048865815809592
2090,-0.7470094205867961,-0.18358874339243972,-2.1693168367385045,0.13267858825734494,2.9245661040588096,-2.7170510869949,2.467823375184191,1.788754388132061,0.6209787455767842,-0.8728212735845453,2.9666599924996158,2.2767300243173727,1.1173441125009775,-1.2738846286858445,-2.8160738328391166,2.703745570384206,2.900722715066106,-0.9048865815809592
2100,-0.7469534199277925,-0.1835293045056912,-2.169382885089024,0.13261577059676094,2.9246254973472916,-2.717103331901544,2.467770194897441,1.7887014627864535,0.621034180356427,-0.8728212735845453,2.9666599924996158,2.2767300243173727,1.1173441125009775,-1.2738846286858445,-2.8160738328391166,2.703745570384206,2.900722715066106,-0.9048865815809592
2110,-0.7469085774193013,-0.18347108020400604,-2.1694569271743642,0.13255808307694986,2.924674302424134,-2.717149575753861,2.4677163475858666,1.7886515381622528,0.6210828508497908,-0.8728212735845453,2.9666599924996158,2.2767300243173727,1.1173441125009775,-1.2738846286858445,-2.8160738328391166,2.703745570384206,2.900722715066106,-0.9048865815809592
2120,-0.7468431622981969,-0.1833916840254104,-2.1695282170444523,0.13250691565641928,2.924734075697957,-2.717204331986088,2.467643524656441,1.788587023445785,0.6211206276703284,-0.8728212735845453,2.9666599924996158,2.2767300243173727,1.1173441125009775,-1.2738846286858445,-2.8160738328391166,2.703745570384206,2.900722715066106,-0.9048865815809592
2130,-0.7467748780603737,-0.18330641345192467,-2.169601577373267,0.13244077382857056,2.9248005074098535,-2.7172676370294395,2.46756134541738,1.7885148415219239,0.6211458368472697,-0.8728212735845453,2.9666599924996158,2.2767300243173727,1.1173441125009775,-1.2738846286858445,-2.8160738328391166,2.703745570384206,2.900722715066106,-0.9048865815809592
2140,-0.7467012424974759,-0.1832116701280752,-2.1696732353870387,0.1323742753325653,2.9248956044940093,-2.7173306180669674,2.4674770386346694,1.7884350192288958,0.6212195840183544,-0.8728212735845453,2.9666599924996158,2.2767300243173727,1.1173441125009775,-1.2738846286858445,-2.8160738328391166,2.703745570384206,2.900722715066106,-0.9048865815809592
2150,-0.7466349538644674,-0.18314047264524333,-2.1697615629906633,0.13234478891327892,2.924986506501692,-2.7174039496330633,2.467401774700126,1.7883567506542293,0.6212992070492774,-0.8728212735845453,2.9666599924996158,2.2767300243173727,1.1173441125009775,-1.2738846286858445,-2.8160738328391166,2.703745570384206,2.900722715066106,-0.9048865815809592
2160,-0.7465843511581169,-0.18307634154464494,-2.1698339942267353,0.13228759449602318,2.9250542799234154,-2.7174426768216193,2.4673339449745546,1.7882963536208631,0.6213592781265783,-0.8728212735845453,2.9666599924996158,2.2767300243173727,1.1173441125009775,-1.2738846286858445,-2.8160738328391166,2.703745570384206,2.900722715066106,-0.9048865815809592
2170,-0.7465409456614379,-0.18301442228556594,-2.1699038320979582,0.13222109266792773,2.9251070985542786,-2.7174798286888033,2.4672733843632044,1.7882332745552887,0.6214034825381863,-0.8728212735845453,2.9666599924996158,2.2767300243173727,1.1173441125009775,-1.2738846286858445,-2.8160738328391166,2.703745570384206,2.900722715066106,-0.9048865815809592
2180,-0.7464692006441884,-0.1829671636603623,-2.169986044754902,0.13213479619679525,2.925152871122936,-2.7175570170107517,2.4672099533944567,1.7881730503450493,0.6214574035717187,-0.8728212735845453,2.9666599924996158,2.2767300243173727,1.1173441125009775,-1.2738846286858445,-2.8160738328391166,2.703745570384206,2.900722715066106,-0.9048865815809592
2190,-0.7464144901329838,-0.1829263752196637,-2.1700463813235658,0.13210646144350982,2.9252002177914918,-2.717603755661935,2.4671554026959877,1.7881205390147832,0.6214876234655247,-0.8728212735845453,2.9666599924996158,2.2767300243173727,1.1173441125009775,-1.2738846286858445,-2.8160738328391166,2.703745570384206,2.900722715066106,-0.9048865815809592
2200,-0.7463883819297795,-0.182896101954068,-2.1700846547384463,0.13209238538977303,2.9252363200704226,-2.7176222136865102,2.4671199673236925,1.7880857647971447,0.6215099268049977,-0.8728212735845453,2.9666599924996158,2.2767300243173727,1.1173441125009775,-1.2738846286858445,-2.8160738328391166,2.703745570384206,2.900722715066106,-0.9048865815809592
2210,-0.7463755612501616,-0.18288049122173153,-2.1701052214750383,0.13208337427438044,2.9252537762883923,-2.717632551221904,2.467100873623384,1.7880665300890892,0.6215216163027489,-0.8728212735845453,2.9666599924996158,2.2767300243173727,1.1173441125009775,-1.2738846286858445,-2.8160738328391166,2.703745570384206,2.900722715066106,-0.9048865815809592
2220,-0.7463686888860399,-0.1828696390590546,-2.170115922831121,0.13207961353508535,2.9252622661989234,-2.7176371323170234,2.467088284404382,1.7880555420362887,0.6215260647760016,-0.8728212735845453,2.9666599924996158,2.2767300243173727,1.1173441125009775,-1.2738846286858445,-2.8160738328391166,2.703745570384206,2.900722715066106,-0.9048865815809592
2230,-0.7463673691069977,-0.18286482365509255,-2.1701205016900054,0.13207959975552405,2.9252642895904497,-2.7176371378742705,2.4670820515051837,1.7880501863905787,0.6215247065074733,-0.8728212735845453,2.9666599924996158,2.2767300243173727,1.1173441125009775,-1.2738846286858445,-2.8160738328391166,2.703745570384206,2.900722715066106,-0.9048865815809592
2240,-0.7463719566117148,-0.18286462106050852,-2.1701205968039803,0.13208028452716292,2.925263236431656,-2.7176296858416977,2.4670806087867505,1.7880497847828785,0.6215206760911983,-0.8728212735845453,2.9666599924996158,2.2767300243173727,1.1173441125009775,-1.2738846286858445,-2.8160738328391166,2.703745570384206,2.900722715066106,-0.9048865815809592
2250,-0.7463774457321136,-0.1828663711964649,-2.1701167781298007,0.13208265578242737,2.92525981499476,-2.7176219559084145,2.467081867424529,1.7880531848013625,0.6215188544184898,-0.8728212735845453,2.9666599924996158,2.2767300243173727,1.1173441125009775,-1.2738846286858445,-2.8160738328391166,2.703745570384206,2.900722715066106,-0.9048865815809592
2260,-0.7463942495946433,-0.1828732104221261,-2.1701050096532435,0.13209573880389952,2.9252476766003155,-2.7176019945476546,2.4670921098667433,1.7880633109469595,0.621506753374385,-0.8728212735845453,2.9666599924996158,2.2767300243173727,1.1173441125009775,-1.2738846286858445,-2.8160738328391166,2.703745570384206,2.900722715066106,-0.9048865815809592
2270,-0.7464081432706289,-0.1828792826172666,-2.1700912912389945,0.13210043935343893,2.9252357968568377,-2.7175869766465874,2.467100859594078,1.7880741735569914,0.6214968639078643,-0.8728212735845453,2.9666599924996158,2.2767300243173727,1.1173441125009775,-1.2738846286858445,-2.8160738328391166,2.703745570384206,2.900722715066106,-0.9048865815809592
2280,-0.7464292470899936,-0.1828860133175772,-2.1700694565940886,0.1321216075956234,2.9252160379482457,-2.717563133563578,2.4671129746486864,1.788091550849422,0.6214776884494455,-0.8728212735845453,2.9666599924996158,2.2767300243173727,1.1173441125009775,-1.2738846286858445,-2.8160738328391166,2.703745570384206,2.900722715066106,-0.9048865815809592
2290,-0.7464559374397742,-0.18292002370636018,-2.1700446118840317,0.13218021865435242,2.925188877809945,-2.7175286356190016,2.4671387528902504,1.7881203160914123,0.6214452351961307,-0.8728212735845453,2.9666599924996158,2.2767300243173727,1.1173441125009775,-1.2738846286858445,-2.8160738328391166,2.703745570384206,2.900722715066106,-0.9048865815809592
2300,-0.7464890774140944,-0.18294964764192642,-2.1700172629703576,0.1322200742190729,2.925157968900908,-2.7174907741483456,2.4671689270017843,1.788152382665699,0.6214066954739806,-0.8728212735845453,2.9666599924996158,2.2767300243173727,1.1173441125009775,-1.2738846286858445,-2.8160738328391166,2.703745570384206,2.900722715066106,-0.9048865815809592
2310,-0.7465217224925224,-0.18297940323167572,-2.16998363630361,0.132284004524748,2.925129168709665,-2.7174555725059206,2.4672032288103343,1.788184893981969,0.621375359266615,-0.8728212735845453,2.9666599924996158,2.2767300243173727,1.1173441125009775,-1.2738846286858445,-2.8160738328391166,2.703745570384206,2.900722715066106,-0.9048865815809592
2320,-0.7465576613514494,-0.18301751356470738,-2.169941707532639,0.13232020252632215,2.92510166121621,-2.7174172626469955,2.467236662801788,1.7882198935872455,0.6213527670869042,-0.8728212735845453,2.9666599924996158,2.2767300243173727,1.1173441125009775,-1.2738846286858445,-2.8160738328391166,2.703745570384206,2.900722715066106,-0.9048865815809592
2330,-0.7466172149863674,-0.18307510035937297,-2.169889737706034,0.13238173211386747,2.925065470336213,-2.7173533010926167,2.4672996216569043,1.7882766879012235,0.6213193019854945,-0.8728212735845453,2.9666599924996158,2.2767300243173727,1.1173441125009775,-1.2738846286858445,-2.8160738328391166,2.703745570384206,2.900722715066106,-0.9048865815809592
2340,-0.7466907719276461,-0.18311928302410285,-2.1698272641141907,0.1324650821347502,2.9250190357081958,-2.717268672384814,2.4673566773945144,1.7883322692729573,0.6212592000028886,-0.8728212735845453,2.9666599924996158,2.2767300243173727,1.1173441125009775,-1.2738846286858445,-2.8160738328391166,2.703745570384206,2.900722715066106,-0.9048865815809592
2350,-0.7467631726729119,-0.18320362240015803,-2.1697442029869594,0.13249890848025067,2.9249516288522295,-2.7171924747196026,2.4674352350085864,1.788412630825441,0.6211821380637922,-0.8728212735845453,2.9666599924996158,2.2767300243173727,1.1173441125009775,-1.2738846286858445,-2.8160738328391166,2.703745570384206,2.900722715066106,-0.9048865815809592
2360,-0.7468245575642048,-0.18326888523984822,-2.1696618228124684,0.13253964257265197,2.9248865747744213,-2.7171400294988715,2.4675048604749428,1.7884816634299527,0.6211317465050958,-0.8728212735845453,2.9666599924996158,2.2767300243173727,1.1173441125009775,-1.2738846286858445,-2.8160738328391166,2.703745570384206,2.900722715066106,-0.9048865815809592
2370,-0.7469008351702967,-0.18332271235176018,-2.1695882629521943,0.1326047021246698,2.924834314985281,-2.717071028292419,2.4675687555449666,1.788543756661847,0.6210945772202882,-0.8728212735845453,2.9666599924996158,2.2767300243173727,1.1173441125009775,-1.2738846286858445,-2.8160738328391166,2.703745570384206,2.900722715066106,-0.9048865815809592
2380,-0.7469823672271604,-0.18340609142069011,-2.1694980465530462,0.1327086422892905,2.924776587267968,-2.7169876050714223,2.467650330038597,1.788616597103849,0.621067885224511,-0.8728212735845453,2.9666599924996158,2.2767300243173727,1.1173441125009775,-1.2738846286858445,-2.8160738328391166,2.703745570384206,2.900722715066106,-0.9048865815809592
2390,-0.7470660164750501,-0.18346591773157825,-2.1693925118382573,0.13282953161840694,2.92470533661586,-2.716907038307261,2.467730923536052,1.7887112940647658,0.6210335180544843,-0.8728212735845453,2.9666599924996158,2.2767300243173727,1.1173441125009775,-1.2738846286858445,-2.8160738328391166,2.703745570384206,2.900722715066106,-0.9048865815809592
2400,-0.7471775324397896,-0.18355659409842157,-2.1692426228665296,0.13296171640460866,2.9245565695030047,-2.7167798019384444,2.467836924345841,1.7888357767520617,0.6208692600006817,-0.8728212735845453,2.9666599924996158,2.2767300243173727,1.1173441125009775,-1.2738846286858445,-2.8160738328391166,2.703745570384206,2.900722715066106,-0.9048865815809592
2410,-0.7472748274740644,-0.18367879396266304,-2.169103594150499,0.13309345737881725,2.9244248312458514,-2.7166770880870885,2.4679794733856597,1.7889754436133003,0.6207101361793983,-0.8728212735845453,2.9666599924996158,2.2767300243173727,1.1173441125009775,-1.2738846286858445,-2.8160738328391166,2.703745570384206,2.900722715066106,-0.9048865815809592
2420,-0.7473831349183655,-0.18382275675827184,-2.1689449788062904,0.13323852352964322,2.9243240438529288,-2.7165932073529504,2.468141459764082,1.7891053253739597,0.6206015456363835,-0.8728212735845453,2.9666599924996158,2.2767300243173727,1.1173441125009775,-1.2738846286858445,-2.8160738328391166,2.703745570384206,2.900722715066106,-0.9048865815809592
2430,-0.7475112065681017,-0.1839734611476649,-2.168780058117729,0.13335629261556106,2.924227979937767,-2.7164718954366136,2.4683043311446857,1.789238864451629,0.6204749311617846,-0.8728212735845453,2.9666599924996158,2.2767300243173727,1.1173441125009775,-1.2738846286858445,-2.8160738328391166,2.703745570384206,2.900722715066106,-0.9048865815809592
2440,-0.7476014628864998,-0.1841273465325101,-2.1686069264352206,0.13346360997646023,2.9240713915581824,-2.7163778538421535,2.4684642700705326,1.7893863806675583,0.6202706841902873,-0.8728212735845453,2.9666599924996158,2.2767300243173727,1.1173441125009775,-1.2738846286858445,-2.8160738328391166,2.703745570384206,2.900722715066106,-0.9048865815809592
2450,-0.7477106163985814,-0.1842214425289923,-2.1684146352454725,0.1335239516316158,2.9239660090003703,-2.7162424475752602,2.4686258917755066,1.7895927180113187,0.620184675628406,-0.8728212735845453,2.9666599924996158,2.2767300243173727,1.1173441125009775,-1.2738846286858445,-2.8160738328391166,2.703745570384206,2.900722715066106,-0.9048865815809592
2460,-0.7478914825825733,-0.184400925244866,-2.168203598685849,0.13374128303578176,2.923856670449432,-2.7160974562704627,2.468846454015269,1.7898128322661697,0.6201411760578813,-0.8728212735845453,2.9666599924996158,2.2767300243173727,1.1173441125009775,-1.2738846286858445,-2.8160738328391166,2.703745570384206,2.900722715066106,-0.9048865815809592
2470,-0.748051167808896,-0.18461387789702297,-2.1679761394177364,0.1339329373024472,2.9237315379335143,-2.7159773363412323,2.469066339869536,1.7900680197690833,0.6200823521670065,-0.8728212735845453,2.9666599924996158,2.2767300243173727,1.1173441125009775,-1.2738846286858445,-2.8160738328391166,2.703745570384206,2.900722715066106,-0.9048865815809592
2480,-0.7482497613319763,-0.18480969959797489,-2.167777899932282,0.13410497975064012,2.9235704079166744,-2.715784046660959,2.469307957228542,1.7903139296811617,0.6199948735528176,-0.8728212735845453,2.9666599924996158,2.2767300243173727,1.1173441125009775,-1.2738846286858445,-2.8160738328391166,2.703745570384206,2.900722715066106,-0.9048865815809592
2490,-0.7485290858339656,-0.18498949061797212,-2.167519311560183,0.13439876114367957,2.9234250820701706,-2.71546459184767,2.469558717352055,1.7905740826036505,0.6199450325799185,-0.8728212735845453,2.9666599924996158,2.2767300243173727,1.1173441125009775,-1.2738846286858445,-2.8160738328391166,2.703745570384206,2.900722715066106,-0.9048865815809592
2500,-0.7487521568158761,-0.18526636616123,-2.1672600782855125,0.13452837939836357,2.9232568699036268,-2.7151967302304447,2.469814583101367,1.7908515717629025,0.619812641278618,-0.8728212735845453,2.9666599924996158,2.2767300243173727,1.1173441125009775,-1.2738846286858445,-2.8160738328391166,2.703745570384206,2.900722715066106,-0.9048865815809592
2510,-0.7490188816553263,-0.1855210917619796,-2.1670351782121022,0.13466117325131954,2.9230538262664694,-2.714902455472358,2.470028343132307,1.7910680358256161,0.619622152225106,-0.8728212735845453,2.9666599924996158,2.2767300243173727,1.1173441125009775,-1.2738846286858445,-2.8160738328391166,2.703745570384206,2.900722715066106,-0.9048865815809592
2520,-0.749175253219811,-0.18558928660138815,-2.1668309023601706,0.13480862183562778,2.922892892530182,-2.7147417313449753,2.4701764612083728,1.7912348211781586,0.6195403920546333,-0.8728212735845453,2.9666599924996158,2.2767300243173727,1.1173441125009775,-1.2738846286858445,-2.8160738328391166,2.703745570384206,2.900722715066106,-0.9048865815809592
2530,-0.7493334385810086,-0.18566163235550814,-2.1666330572188413,0.13501449910812724,2.922747813090232,-2.7145597614059875,2.470341744083018,1.7914062910591122,0.61945745963564,-0.8728212735845453,2.9666599924996158,2.2767300243173727,1.1173441125009775,-1.2738846286858445,-2.8160738328391166,2.703745570384206,2.900722715066106,-0.9048865815809592
2540,-0.7494763511247206,-0.1858424722167049,-2.166445555888278,0.13515895241231918,2.922548210502536,-2.714425857407422,2.4705362298870956,1.7915971054212756,0.6193640662967619,-0.8728212735845453,2.9666599924996158,2.2767300243173727,1.1173441125009775,-1.2738846286858445,-2.8160738328391166,2.703745570384206,2.900722715066106,-0.9048865815809592
2550,-0.749631239880674,-0.18601584597455392,-2.166272713026615,0.1354164507813571,2.9223595188448224,-2.7142887537407163,2.4707355545247918,1.7918074010905471,0.6192418553601801,-0.8728212735845453,2.9666599924996158,2.2767300243173727,1.1173441125009775,-1.2738846286858445,-2.8160738328391166,2.703745570384206,2.900722715066106,-0.9048865815809592
2560,-0.7498508921175041,-0.1861368367115916,-2.166090382140468,0.13544573669928767,2.922167105749453,-2.7140887323512195,2.4709185404283986,1.792014010220473,0.619129968211865,-0.8728212735845453,2.9666599924996158,2.2767300243173727,1.1173441125009775,-1.2738846286858445,-2.8160738328391166,2.703745570384206,2.900722715066106,-0.9048865815809592
2570,-0.7500542459251237,-0.18627665942734056,-2.165877472660126,0.13549720158151204,2.9219682306723267,-2.7138969623128495,2.4711248987371564,1.7922479302942307,0.6189537828846378,-0.8728212735845453,2.9666599924996158,2.2767300243173727,1.1173441125009775,-1.2738846286858445,-2.8160738328391166,2.703745570384206,2.900722715066106,-0.9048865815809592
2580,-0.750226688189152,-0.18647661248049485,-2.165633474145625,0.13550229157879037,2.921726307390451,-2.7137021456511006,2.4713430971315486,1.792530074056177,0.6187206387130314,-0.8728212735845453,2.9666599924996158,2.2767300243173727,1.1173441125009775,-1.2738846286858445,-2.8160738328391166,2.703745570384206,2.900722715066106,-0.9048865815809592
2590,-0.7504531414814736,-0.18667458059823921,-2.1653077298628145,0.1354904953391246,2.921524409192565,-2.713459725988861,2.4716572155405507,1.7928757522875582,0.6183843222522207,-0.8728212735845453,2.9666599924996158,2.2767300243173727,1.1173441125009775,-1.2738846286858445,-2.8160738328391166,2.703745570384206,2.900722715066106,-0.9048865815809592
2600,-0.7506565270381232,-0.18686869803142395,-2.1649846486861737,0.13560632874102838,2.9213607866135103,-2.7132430538609547,2.471942075470668,1.7931716508565334,0.6181044302379776,-0.8728212735845453,2.9666599924996158,2.2767300243173727,1.1173441125009775,-1.2738846286858445,-2.8160738328391166,2.703745570384206,2.900722715066106,-0.9048865815809592
2610,-0.7510551837794979,-0.18722097326342374,-2.16456732573648,0.1356937731454555,2.9209947376467693,-2.7128045140660797,2.472352796265604,1.7936201211409535,0.6178849653513875,-0.8728212735845453,2.9666599924996158,2.2767300243173727,1.1173441125009775,-1.2738846286858445,-2.8160738328391166,2.703745570384206,2.900722715066106,-0.9048865815809592
2620,-0.7512486172665068,-0.18739554311007375,-2.164336211761206,0.13583126486816555,2.9207941536218365,-2.712589157398927,2.47255875680489,1.793873831968246,0.6177810269690089,-0.8728212735845453,2.9666599924996158,2.2767300243173727,1.1173441125009775,-1.2738846286858445,-2.8160738328391166,2.703745570384206,2.900722715066106,-0.9048865815809592
2630,-0.7511848158913813,-0.1873021343118311,-2.16446254590518,0.13573525246993529,2.9208490464166736,-2.712595048361319,2.4724263207903054,1.7937607941927622,0.617827918280202,-0.8728212735845453,2.9666599924996158,2.2767300243173727,1.1173441125009775,-1.2738846286858445,-2.8160738328391166,2.703745570384206,2.900722715066106,-0.9048865815809592
2640,-0.7510217132922669,-0.18702292098873347,-2.1648561461106612,0.13548465426674317,2.9211951633893083,-2.7127573255306836,2.4720105393921625,1.7933495061743177,0.6181670882715685,-0.8728212735845453,2.9666599924996158,2.2767300243173727,1.1173441125009775,-1.2738846286858445,-2.8160738328391166,2.703745570384206,2.900722715066106,-0.9048865815809592
2650,-0.7505550101944529,-0.18659377301044594,-2.1653810536881015,0.13500424200395095,2.921537882532398,-2.7132186176465374,2.471401586901116,1.7927744284428981,0.6182944103627214,-0.8728212735845453,2.9666599924996158,2.2767300243173727,1.1173441125009775,-1.2738846286858445,-2.8160738328391166,2.703745570384206,2.900722715066106,-0.9048865815809592
2660,-0.7500331457813264,-0.1860641154941927,-2.165956044876208,0.13479685909728084,2.921946519670469,-2.7137310405923025,2.4708099455868124,1.7922262240304154,0.6184903993059896,-0.8728212735845453,2.9666599924996158,2.2767300243173727,1.1173441125009775,-1.2738846286858445,-2.8160738328391166,2.703745570384206,2.900722715066106,-0.9048865815809592
2670,-0.7493863372711922,-0.1853014414442835,-2.1667081204231913,0.13438866436967764,2.922418250934766,-2.7143300953718557,2.4701564767951005,1.7915880125872417,0.6189245091511772,-0.8728212735845453,2.9666599924996158,2.2767300243173727,1.1173441125009775,-1.2738846286858445,-2.8160738328391166,2.703745570384206,2.900722715066106,-0.9048865815809592
2680,-0.7489550553509688,-0.1849060971216166,-2.1671395676965006,0.13399393024687575,2.9228660923649956,-2.7147342506329695,2.4697943720977635,1.7912047370922963,0.6194008121538088,-0.8728212735845453,2.9666599924996158,2.2767300243173727,1.1173441125009775,-1.2738846286858445,-2.8160738328391166,2.703745570384206,2.900722715066106,-0.9048865815809592
2690,-0.7486771173110552,-0.18470856399035454,-2.1674358961144238,0.1338598458237863,2.9231857536915475,-2.7150022763215014,2.4695328856399787,1.7909377888467273,0.6196817818862353,-0.8728212735845453,2.9666599924996158,2.2767300243173727,1.1173441125009775,-1.2738846286858445,-2.8160738328391166,2.703745570384206,2.900722715066106,-0.9048865815809592
2700,-0.7485091679895148,-0.1846149066121441,-2.1676458342004348,0.13376053756437742,2.923456872051354,-2.715186953528367,2.4693274581056444,1.790699577619305,0.6199379337005362,-0.8728212735845453,2.9666599924996158,2.2767300243173727,1.1173441125009775,-1.2738846286858445,-2.8160738328391166,2.703745570384206,2.900722715066106,-0.9048865815809592
2710,-0.748368809927449,-0.1845176443999162,-2.1678177297448418,0.13360727667699526,2.923637655082171,-2.715356838447068,2.4691719118199367,1.790525490048678,0.6200870750152883,-0.8728212735845453,2.9666599924996158,2.2767300243173727,1.1173441125009775,-1.2738846286858445,-2.8160738328391166,2.703745570384206,2.900722715066106,-0.9048865815809592
2720,-0.7482182386277909,-0.18440726321521073,-2.1679676087184943,0.13351430438135867,2.923761817774135,-2.715529542878375,2.4690362773029135,1.7903780176852169,0.6201885571534745,-0.8728212735845453,2.9666599924996158,2.2767300243173727,1.1173441125009775,-1.2738846286858445,-2.8160738328391166,2.703745570384206,2.900722715066106,-0.9048865815809592
2730,-0.7480842014307529,-0.1842469535496244,-2.168121985414348,0.13336741698590926,2.9238795862120215,-2.715642531389356,2.468892663051235,1.7902494011544223,0.6202406568859643,-0.8728212735845453,2.9666599924996158,2.2767300243173727,1.1173441125009775,-1.2738846286858445,-2.8160738328391166,2.703745570384206,2.900722715066106,-0.9048865815809592
2740,-0.7479935061312137,-0.18409977995469748,-2.1682489221258407,0.13323718865387127,2.9239743311539534,-2.7157125626884047,2.4687891348835773,1.7901440532434527,0.6202620255897263,-0.8728212735845453,2.9666599924996158,2.2767300243173727,1.1173441125009775,-1.2738846286858445,-2.8160738328391166,2.703745570384206,2.900722715066106,-0.9048865815809592
2750,-0.7479046389880268,-0.1839905422479543,-2.1683580568033873,0.1330076606367716,2.9240733704153876,-2.7158022725832174,2.468690003376501,1.7900460895242853,0.6203014427470271,-0.8728212735845453,2.9666599924996158,2.2767300243173727,1.1173441125009775,-1.2738846286858445,-2.8160738328391166,2.703745570384206,2.900722715066106,-0.9048865815809592
2760,-0.7478211650032511,-0.18391569985233774,-2.1684473018765287,0.13287948430374133,2.9241233149487194,-2.715888623892351,2.468603629918227,1.7899689679730504,0.6203251611266939,-0.8728212735845453,2.9666599924996158,2.2767300243173727,1.1173441125009775,-1.2738846286858445,-2.8160738328391166,2.703745570384206,2.900722715066106,-0.9048865815809592
2770,-0.7477568339567404,-0.1838621673163253,-2.1685131844330905,0.13280075758727145,2.9241596561287806,-2.7159456793636285,2.4685348610960625,1.7899041673721594,0.6203611768604758,-0.8728212735845453,2.9666599924996158,2.2767300243173727,1.1173441125009775,-1.2738846286858445,-2.8160738328391166,2.703745570384206,2.900722715066106,-0.9048865815809592
2780,-0.7476994243325951,-0.1838269629892211,-2.168569207089892,0.1327604264318859,2.924207999629686,-2.7160075633926977,2.468475509399395,1.7898427875845289,0.6203790540778713,-0.8728212735845453,2.9666599924996158,2.2767300243173727,1.1173441125009775,-1.2738846286858445,-2.8160738328391166,2.703745570384206,2.900722715066106,-0.9048865815809592
2790,-0.7476107549632298,-0.18376516662964487,-2.1686436466564865,0.13271506606530026,2.924276714551585,-2.7160936392828305,2.4683914143976358,1.7897551107886562,0.6204454289634798,-0.8728212735845453,2.9666599924996158,2.2767300243173727,1.1173441125009775,-1.2738846286858445,-2.8160738328391166,2.703745570384206,2.900722715066106,-0.9048865815809592
2800,-0.7475545531605736,-0.18369860608965083,-2.168716200677746,0.1326566434269948,2.9243479757606474,-2.7161371239254577,2.468313281111462,1.7896806732421768,0.6205126503844695,-0.8728212735845453,2.9666599924996158,2.2767300243173727,1.1173441125009775,-1.2738846286858445,-2.8160738328391166,2.703745570384206,2.900722715066106,-0.9048865815809592
2810,-0.7474918303701894,-0.1836580158768127,-2.1687943937701677,0.13259715015093193,2.9244353494807633,-2.716203182318316,2.4682332461652767,1.789590588159228,0.6206081653920174,-0.8728212735845453,2.9666599924996158,2.2767300243173727,1.1173441125009775,-1.2738846286858445,-2.8160738328391166,2.703745570384206,2.900722715066106,-0.9048865815809592
2820,-0.7474437988353292,-0.1836282059645943,-2.1688492225293063,0.1325695262060515,2.924494063575705,-2.7162501488835615,2.4681703163033246,1.7895253086997303,0.6206673200212712,-0.8728212735845453,2.9666599924996158,2.2767300243173727,1.1173441125009775,-1.2738846286858445,-2.8160738328391166,2.703745570384206,2.900722715066106,-0.9048865815809592
2830,-0.747444008542325,-0.18363218240109278,-2.168849610768843,0.13258472550842854,2.924495488029512,-2.716253010012973,2.468169589725144,1.7895199637675054,0.6206604977555104,-0.8728212735845453,2.9666599924996158,2.2767300243173727,1.1173441125009775,-1.2738846286858445,-2.8160738328391166,2.703745570384206,2.900722715066106,-0.9048865815809592
2840,-0.7475062234328261,-0.18367438182631318,-2.168790785616418,0.13264754255618985,2.9244349832440446,-2.716196477216896,2.4682195454452294,1.7895673784613941,0.6205982920018445,-0.8728212735845453,2.9666599924996158,2.2767300243173727,1.1173441125009775,-1.2738846286858445,-2.8160738328391166,2.703745570384206,2.900722715066106,-0.9048865815809592
