10,-0.44496037723820864,1.4329255194053139,-3.019064505320348,-2.4825275720564717,-2.6777091581458774,0.9010346081771935,1.0587952928529516,-0.3846064991214052,-0.21604763142363057,1.572408301156318,1.997701698455475,-2.4031971130021987,-1.5568955164432814,-1.9066976726898468,-2.6316358701699203,-1.835672473033201,1.742061231543837,1.9508372726178704,-0.9844781608635129,1.359219429894527
20,-0.44475336929302245,1.4331227326448859,-3.019285776760266,-2.482460644727494,-2.677577045535383,0.9010414591278879,1.0587469044585844,-0.38442194553454867,-0.2162230604120607,1.572408301156318,1.997701698455475,-2.4031971130021987,-1.5568955164432814,-1.9066976726898468,-2.6316358701699203,-1.835672473033201,1.742061231543837,1.9508372726178704,-0.9844781608635129,1.359044000906097
30,-0.4445739732183474,1.4333093230583969,-3.019543668473602,-2.4826186253602667,-2.6776276648982003,0.9009213398955473,1.058867928471035,-0.3842567025626046,-0.21637434131414923,1.572408301156318,1.997701698455475,-2.4031971130021987,-1.5568955164432814,-1.9066976726898468,-2.6316358701699203,-1.835672473033201,1.742061231543837,1.9508372726178704,-0.9844781608635129,1.3588927200040084
40,-0.44429468754089263,1.4335822707339734,-3.0198423552967926,-2.4829247867362776,-2.6778070137968886,0.9009337942230408,1.0591487231468302,-0.38396476168802307,-0.21666131695410815,1.572408301156318,1.997701698455475,-2.4031971130021987,-1.5568955164432814,-1.9066976726898468,-2.6316358701699203,-1.835672473033201,1.742061231543837,1.9508372726178704,-0.9844781608635129,1.3586057443640496
50,-0.44406437304666146,1.4337489907095855,-3.020123319386688,-2.483181979415349,-2.6780666645508857,0.9007209748937678,1.0594324384215135,-0.3837939708639737,-0.21682224370488917,1.572408301156318,1.997701698455475,-2.4031971130021987,-1.5568955164432814,-1.9066976726898468,-2.6316358701699203,-1.835672473033201,1.742061231543837,1.9508372726178704,-0.9844781608635129,1.3584448176132686
60,-0.44378020482813096,1.4338656265520924,-3.0204442764116846,-2.483479554757086,-2.678413668613858,0.9004912468473695,1.0597260512225801,-0.3836396779757347,-0.21691238043984631,1.572408301156318,1.997701698455475,-2.4031971130021987,-1.5568955164432814,-1.9066976726898468,-2.6316358701699203,-1.835672473033201,1.742061231543837,1.9508372726178704,-0.9844781608635129,1.3583546808783116
70,-0.44337811906260677,1.4338660045818346,-3.020807438917582,-2.4838385681059396,-2.678802585126966,0.9000948081935868,1.0601284011924987,-0.383557297073286,-0.21703010451074298,1.572408301156318,1.997701698455475,-2.4031971130021987,-1.5568955164432814,-1.9066976726898468,-2.6316358701699203,-1.835672473033201,1.742061231543837,1.9508372726178704,-0.9844781608635129,1.3582369568074149
80,-0.44294211603972844,1.4339484531554854,-3.02121289608227,-2.4842288583730654,-2.6792259542915584,0.8997128835459839,1.0605306427459902,-0.38346816390514665,-0.21710359017320968,1.572408301156318,1.997701698455475,-2.4031971130021987,-1.5568955164432814,-1.9066976726898468,-2.6316358701699203,-1.835672473033201,1.742061231543837,1.9508372726178704,-0.9844781608635129,1.358163471144948
90,-0.44255767636110177,1.4342183419871763,-3.0216173672998394,-2.4846140732511954,-2.6796392466106425,0.899311667556165,1.0609294607285997,-0.38345480720506414,-0.21719443791182907,1.572408301156318,1.997701698455475,-2.4031971130021987,-1.5568955164432814,-1.9066976726898468,-2.6316358701699203,-1.835672473033201,1.742061231543837,1.9508372726178704,-0.9844781608635129,1.3580726234063285
100,-0.4421516300573629,1.4346231931957012,-3.0220469214432186,-2.485051500100998,-2.680060159857706,0.8989070474384595,1.0613434203890635,-0.3835072247583208,-0.2172759925266513,1.572408301156318,1.997701698455475,-2.4031971130021987,-1.5568955164432814,-1.9066976726898468,-2.6316358701699203,-1.835672473033201,1.742061231543837,1.9508372726178704,-0.9844781608635129,1.3579910687915062
110,-0.44167698690187324,1.4350711553188533,-3.0224877253575477,-2.4855019749155134,-2.6805213163741044,0.8984489240733302,1.0617995955921515,-0.38383976972252914,-0.21703602322115428,1.572408301156318,1.997701698455475,-2.4031971130021987,-1.5568955164432814,-1.9066976726898468,-2.6316358701699203,-1.835672473033201,1.742061231543837,1.9508372726178704,-0.9844781608635129,1.3582310380970033
120,-0.4412413674936763,1.4355639943062717,-3.0229569682456936,-2.486001755881795,-2.6809970761225035,0.8980310370326103,1.0622523246552358,-0.3838680540132334,-0.2171016524807858,1.572408301156318,1.997701698455475,-2.4031971130021987,-1.5568955164432814,-1.9066976726898468,-2.6316358701699203,-1.835672473033201,1.742061231543837,1.9508372726178704,-0.9844781608635129,1.3581654088373718
130,-0.44075134538867194,1.4359686941086967,-3.023442198642601,-2.4864286438631726,-2.681469510991493,0.8975956668412864,1.0627043761541648,-0.3838673902931276,-0.21723461312642164,1.572408301156318,1.997701698455475,-2.4031971130021987,-1.5568955164432814,-1.9066976726898468,-2.6316358701699203,-1.835672473033201,1.742061231543837,1.9508372726178704,-0.9844781608635129,1.3580324481917359
140,-0.4402610748456742,1.4364509818642435,-3.02394213611981,-2.4869180437085614,-2.681972660595246,0.8970881821913165,1.0632071022399094,-0.38380602495181554,-0.2172505859758925,1.572408301156318,1.997701698455475,-2.4031971130021987,-1.5568955164432814,-1.9066976726898468,-2.6316358701699203,-1.835672473033201,1.742061231543837,1.9508372726178704,-0.9844781608635129,1.358016475342265
150,-0.43978394373145574,1.4369489681679883,-3.0244123604614352,-2.4874075843253047,-2.6824289925994784,0.8966624988329247,1.0636504503271509,-0.38365478776779754,-0.21720320203028007,1.572408301156318,1.997701698455475,-2.4031971130021987,-1.5568955164432814,-1.9066976726898468,-2.6316358701699203,-1.835672473033201,1.742061231543837,1.9508372726178704,-0.9844781608635129,1.3580638592878773
160,-0.43938271978816357,1.4373821073041324,-3.024838631955486,-2.4878935630826144,-2.682832824602967,0.8963472120581361,1.0640099526813689,-0.38311329855242693,-0.21769346876010337,1.572408301156318,1.997701698455475,-2.4031971130021987,-1.5568955164432814,-1.9066976726898468,-2.6316358701699203,-1.835672473033201,1.742061231543837,1.9508372726178704,-0.9844781608635129,1.3575735925580539
170,-0.43899049260816553,1.4376194947140237,-3.025191626793351,-2.4882634877286267,-2.68319406360151,0.8959862914073808,1.0643808836358548,-0.38278607672228515,-0.2181244113125865,1.572408301156318,1.997701698455475,-2.4031971130021987,-1.5568955164432814,-1.9066976726898468,-2.6316358701699203,-1.835672473033201,1.742061231543837,1.9508372726178704,-0.9844781608635129,1.3571426500055708
180,-0.43863962784525856,1.4379097875836386,-3.025553966022961,-2.4886587577009918,-2.6835175918099456,0.895683905737581,1.0647109457963708,-0.3823158270803161,-0.21857867465215103,1.572408301156318,1.997701698455475,-2.4031971130021987,-1.5568955164432814,-1.9066976726898468,-2.6316358701699203,-1.835672473033201,1.742061231543837,1.9508372726178704,-0.9844781608635129,1.3566883866660062
190,-0.43829345863497954,1.438370985961962,-3.02591944455658,-2.4889998883385416,-2.6838540541699007,0.8953359128673282,1.0650506379431366,-0.3822270423478425,-0.21862293427789498,1.572408301156318,1.997701698455475,-2.4031971130021987,-1.5568955164432814,-1.9066976726898468,-2.6316358701699203,-1.835672473033201,1.742061231543837,1.9508372726178704,-0.9844781608635129,1.3566441270402623
200,-0.43801251719688833,1.4387018749774076,-3.0262570890102123,-2.4893033437887238,-2.6842175136195663,0.8949926907168662,1.0653966939478268,-0.3821156087529431,-0.21889446606200963,1.572408301156318,1.997701698455475,-2.4031971130021987,-1.5568955164432814,-1.9066976726898468,-2.6316358701699203,-1.835672473033201,1.742061231543837,1.9508372726178704,-0.9844781608635129,1.3563725952561476
210,-0.4377424954332498,1.438916236548647,-3.0264406939827198,-2.4895174921690444,-2.6844412053066162,0.8947261976500902,1.065648262484849,-0.3820767246437861,-0.21912215313107175,1.572408301156318,1.997701698455475,-2.4031971130021987,-1.5568955164432814,-1.9066976726898468,-2.6316358701699203,-1.835672473033201,1.742061231543837,1.9508372726178704,-0.9844781608635129,1.3561449081870856
220,-0.4375476771304531,1.4391377181267349,-3.0266369925229397,-2.4897247605338246,-2.684645852747404,0.8945473051815193,1.065858867753452,-0.38190086991947225,-0.21937488222904647,1.572408301156318,1.997701698455475,-2.4031971130021987,-1.5568955164432814,-1.9066976726898468,-2.6316358701699203,-1.835672473033201,1.742061231543837,1.9508372726178704,-0.9844781608635129,1.355892179089111
230,-0.4374087851820892,1.4392851517837555,-3.0268025735441655,-2.4899022696283546,-2.684790404969129,0.8944405234273167,1.0660096724203696,-0.3816474939782097,-0.2196654217176001,1.572408301156318,1.997701698455475,-2.4031971130021987,-1.5568955164432814,-1.9066976726898468,-2.6316358701699203,-1.835672473033201,1.742061231543837,1.9508372726178704,-0.9844781608635129,1.3556016396005575
240,-0.4373028826186445,1.4393906550523001,-3.026915377173451,-2.490026380709049,-2.684899675864861,0.8943458777457299,1.066132278738679,-0.38152595431221065,-0.21993221431656898,1.572408301156318,1.997701698455475,-2.4031971130021987,-1.5568955164432814,-1.9066976726898468,-2.6316358701699203,-1.835672473033201,1.742061231543837,1.9508372726178704,-0.9844781608635129,1.3553348470015887
250,-0.4372312699838641,1.4394964435206437,-3.0269796316173263,-2.4901746112809646,-2.684966512933122,0.8942931594633178,1.066211652077723,-0.3813139122691908,-0.22028614120707538,1.572408301156318,1.997701698455475,-2.4031971130021987,-1.5568955164432814,-1.9066976726898468,-2.6316358701699203,-1.835672473033201,1.742061231543837,1.9508372726178704,-0.9844781608635129,1.3549809201110823
260,-0.43717921839538887,1.439575235252593,-3.0270351622351273,-2.490280680954368,-2.6850083918905248,0.894247725814459,1.0662709296003872,-0.3811442541001678,-0.22054476947766863,1.572408301156318,1.997701698455475,-2.4031971130021987,-1.5568955164432814,-1.9066976726898468,-2.6316358701699203,-1.835672473033201,1.742061231543837,1.9508372726178704,-0.9844781608635129,1.354722291840489
270,-0.43713810777520956,1.4396244656407802,-3.0270703870124,-2.490340271326858,-2.6850367409040286,0.8942184838938103,1.0663102737984596,-0.3810428278581122,-0.22071785015439854,1.572408301156318,1.997701698455475,-2.4031971130021987,-1.5568955164432814,-1.9066976726898468,-2.6316358701699203,-1.835672473033201,1.742061231543837,1.9508372726178704,-0.9844781608635129,1.3545492111637591
280,-0.4371145116524823,1.4396773975536263,-3.0270963196517853,-2.4903925412248538,-2.6850555560225424,0.894212593889349,1.06632778756604,-0.3809165103469247,-0.22088677877631813,1.572408301156318,1.997701698455475,-2.4031971130021987,-1.5568955164432814,-1.9066976726898468,-2.6316358701699203,-1.835672473033201,1.742061231543837,1.9508372726178704,-0.9844781608635129,1.3543802825418396
290,-0.4370923689398575,1.4397368422500136,-3.0271185393199604,-2.490440380090189,-2.68507034433998,0.8942162374651449,1.0663434574909612,-0.3807989169459406,-0.22103150276769595,1.572408301156318,1.997701698455475,-2.4031971130021987,-1.5568955164432814,-1.9066976726898468,-2.6316358701699203,-1.835672473033201,1.742061231543837,1.9508372726178704,-0.9844781608635129,1.3542355585504617
300,-0.43707045923296955,1.4397915550508842,-3.0271394211974534,-2.4904793098428355,-2.6850874207452753,0.8942039603643273,1.0663642556033008,-0.3807105823572528,-0.22116204661340932,1.572408301156318,1.997701698455475,-2.4031971130021987,-1.5568955164432814,-1.9066976726898468,-2.6316358701699203,-1.835672473033201,1.742061231543837,1.9508372726178704,-0.9844781608635129,1.3541050147047484
310,-0.43705035559096755,1.4398567658164187,-3.027168253263121,-2.490505063891312,-2.6851119190491177,0.8941979882591338,1.066379451326074,-0.3806333840535027,-0.22125165960476373,1.572408301156318,1.997701698455475,-2.4031971130021987,-1.5568955164432814,-1.9066976726898468,-2.6316358701699203,-1.835672473033201,1.742061231543837,1.9508372726178704,-0.9844781608635129,1.354015401713394
320,-0.4370266273381002,1.4399179524116044,-3.0271986884579447,-2.490534917906017,-2.685144011250086,0.894167641027358,1.066414841707739,-0.38057616024441054,-0.22135871629257994,1.572408301156318,1.997701698455475,-2.4031971130021987,-1.5568955164432814,-1.9066976726898468,-2.6316358701699203,-1.835672473033201,1.742061231543837,1.9508372726178704,-0.9844781608635129,1.353908345025578
330,-0.4370049169317056,1.439986306033132,-3.0272352213985694,-2.4905723985986437,-2.6851765210836738,0.8941455176398947,1.0664449911334186,-0.3804902655181419,-0.22147037389854526,1.572408301156318,1.997701698455475,-2.4031971130021987,-1.5568955164432814,-1.9066976726898468,-2.6316358701699203,-1.835672473033201,1.742061231543837,1.9508372726178704,-0.9844781608635129,1.3537966874196126
340,-0.4369876873666308,1.44004858099096,-3.0272619509809013,-2.4906090889230894,-2.6851995313063384,0.8941335615043331,1.0664647493210526,-0.38039960142017276,-0.22158046840477708,1.572408301156318,1.997701698455475,-2.4031971130021987,-1.5568955164432814,-1.9066976726898468,-2.6316358701699203,-1.835672473033201,1.742061231543837,1.9508372726178704,-0.9844781608635129,1.3536865929133808
350,-0.4369686882703341,1.4400977458632627,-3.027285620308047,-2.4906486766598537,-2.6852298333847835,0.8940966375537628,1.0665015135844687,-0.3803381441431837,-0.22171099010384598,1.572408301156318,1.997701698455475,-2.4031971130021987,-1.5568955164432814,-1.9066976726898468,-2.6316358701699203,-1.835672473033201,1.742061231543837,1.9508372726178704,-0.9844781608635129,1.3535560712143118
360,-0.43695402361671726,1.4401408303840553,-3.027307634082146,-2.4906730110775097,-2.6852516638421493,0.8940658510519164,1.066531972194122,-0.3803027319995126,-0.22179502275899915,1.572408301156318,1.997701698455475,-2.4031971130021987,-1.5568955164432814,-1.9066976726898468,-2.6316358701699203,-1.835672473033201,1.742061231543837,1.9508372726178704,-0.9844781608635129,1.3534720385591588
370,-0.4369651885075828,1.440144742662469,-3.027305378714124,-2.4906711344606682,-2.6852470247587052,0.894070648921765,1.066529797983658,-0.38028392079616563,-0.2218284079701645,1.572408301156318,1.997701698455475,-2.4031971130021987,-1.5568955164432814,-1.9066976726898468,-2.6316358701699203,-1.835672473033201,1.742061231543837,1.9508372726178704,-0.9844781608635129,1.3534386533479934
380,-0.436985994587747,1.4401305261350732,-3.02728743980236,-2.4906470534659095,-2.6852249910751103,0.8940871866810144,1.0665106253763417,-0.3803025415271384,-0.2218086182667352,1.572408301156318,1.997701698455475,-2.4031971130021987,-1.5568955164432814,-1.9066976726898468,-2.6316358701699203,-1.835672473033201,1.742061231543837,1.9508372726178704,-0.9844781608635129,1.3534584430514227
390,-0.43699803961413103,1.4401231932180967,-3.027275645315212,-2.490633666375519,-2.6852094855498057,0.8941008975440417,1.066498913395208,-0.38029516496995164,-0.22181806956629854,1.572408301156318,1.997701698455475,-2.4031971130021987,-1.5568955164432814,-1.9066976726898468,-2.6316358701699203,-1.835672473033201,1.742061231543837,1.9508372726178704,-0.9844781608635129,1.3534489917518593
400,-0.4369912302183515,1.4401336961455389,-3.027274636767984,-2.490637586444106,-2.685207596582799,0.8941037707123183,1.066500334515962,-0.38026729083740257,-0.22185558601557595,1.572408301156318,1.997701698455475,-2.4031971130021987,-1.5568955164432814,-1.9066976726898468,-2.6316358701699203,-1.835672473033201,1.742061231543837,1.9508372726178704,-0.9844781608635129,1.3534114753025819
410,-0.43696518317502886,1.4401540007531612,-3.027286276265785,-2.4906488732667458,-2.6852181927166514,0.8940916115642357,1.0665157495940611,-0.38024166186782227,-0.221888465980726,1.572408301156318,1.997701698455475,-2.4031971130021987,-1.5568955164432814,-1.9066976726898468,-2.6316358701699203,-1.835672473033201,1.742061231543837,1.9508372726178704,-0.9844781608635129,1.3533785953374318
420,-0.43693643496616424,1.44019287370168,-3.027306220424733,-2.490676162268595,-2.6852334808101905,0.8940867358938301,1.0665308950475512,-0.3801792639442975,-0.22195691257504152,1.572408301156318,1.997701698455475,-2.4031971130021987,-1.5568955164432814,-1.9066976726898468,-2.6316358701699203,-1.835672473033201,1.742061231543837,1.9508372726178704,-0.9844781608635129,1.3533101487431163
430,-0.4369065367602434,1.440239549618963,-3.027327563928139,-2.4907104653355887,-2.6852513688433834,0.8940719489412678,1.0665520305033158,-0.3801184398999934,-0.2220418148612678,1.572408301156318,1.997701698455475,-2.4031971130021987,-1.5568955164432814,-1.9066976726898468,-2.6316358701699203,-1.835672473033201,1.742061231543837,1.9508372726178704,-0.9844781608635129,1.3532252464568901
440,-0.43688207534742324,1.4402753533158088,-3.0273430066858844,-2.490736478106291,-2.6852626682626335,0.8940655263018594,1.0665653174149081,-0.3800652551614252,-0.22210797477410762,1.572408301156318,1.997701698455475,-2.4031971130021987,-1.5568955164432814,-1.9066976726898468,-2.6316358701699203,-1.835672473033201,1.742061231543837,1.9508372726178704,-0.9844781608635129,1.3531590865440501
450,-0.4368673691066458,1.4402945649469179,-3.0273501185353378,-2.49074885736559,-2.685267465849395,0.8940612648452267,1.0665731320198726,-0.3800325237673155,-0.22215049895799655,1.572408301156318,1.997701698455475,-2.4031971130021987,-1.5568955164432814,-1.9066976726898468,-2.6316358701699203,-1.835672473033201,1.742061231543837,1.9508372726178704,-0.9844781608635129,1.353116562360161
460,-0.4368681380877286,1.4402916774409107,-3.027344277117559,-2.49074518484257,-2.685261477245318,0.8940719428937915,1.0665684869049104,-0.3800246010766259,-0.22216452385370047,1.572408301156318,1.997701698455475,-2.4031971130021987,-1.5568955164432814,-1.9066976726898468,-2.6316358701699203,-1.835672473033201,1.742061231543837,1.9508372726178704,-0.9844781608635129,1.3531025374644572
470,-0.4368859380628962,1.440265891066914,-3.027317834652085,-2.49072390419129,-2.685238216257908,0.8940973613427393,1.0665500645105899,-0.3800452113862565,-0.22214529504333233,1.572408301156318,1.997701698455475,-2.4031971130021987,-1.5568955164432814,-1.9066976726898468,-2.6316358701699203,-1.835672473033201,1.742061231543837,1.9508372726178704,-0.9844781608635129,1.3531217662748252
480,-0.4369299462498507,1.4402188343275713,-3.027277682288052,-2.490685483651467,-2.6851946011082135,0.8941442294031354,1.0665061556752709,-0.38006814366336733,-0.2221114745112546,1.572408301156318,1.997701698455475,-2.4031971130021987,-1.5568955164432814,-1.9066976726898468,-2.6316358701699203,-1.835672473033201,1.742061231543837,1.9508372726178704,-0.9844781608635129,1.353155586806903
490,-0.437003430921998,1.4401108895657044,-3.0272192868639634,-2.490629419991227,-2.685139933828718,0.8942006925140843,1.0664463759031106,-0.38008242673550346,-0.22208905942087764,1.572408301156318,1.997701698455475,-2.4031971130021987,-1.5568955164432814,-1.9066976726898468,-2.6316358701699203,-1.835672473033201,1.742061231543837,1.9508372726178704,-0.9844781608635129,1.3531780018972799
500,-0.43707854635184856,1.439954664054204,-3.0271350454395347,-2.4905435519929795,-2.6850566035352395,0.8942503693183859,1.0663741734472474,-0.3801482643513577,-0.222020233493669,1.572408301156318,1.997701698455475,-2.4031971130021987,-1.5568955164432814,-1.9066976726898468,-2.6316358701699203,-1.835672473033201,1.742061231543837,1.9508372726178704,-0.9844781608635129,1.3532468278244885
510,-0.4371646189521811,1.4398353558489174,-3.0270196706967494,-2.490460605360406,-2.68498497806491,0.8943437113893914,1.0662723579569275,-0.38021834320630876,-0.22193023200398665,1.572408301156318,1.997701698455475,-2.4031971130021987,-1.5568955164432814,-1.9066976726898468,-2.6316358701699203,-1.835672473033201,1.742061231543837,1.9508372726178704,-0.9844781608635129,1.3533368293141708
520,-0.4372658767578049,1.4396631529243673,-3.026878738972194,-2.4903524153908485,-2.6848754701283895,0.89444938706184,1.0661530984528735,-0.3803219136962645,-0.2218186330758646,1.572408301156318,1.997701698455475,-2.4031971130021987,-1.5568955164432814,-1.9066976726898468,-2.6316358701699203,-1.835672473033201,1.742061231543837,1.9508372726178704,-0.9844781608635129,1.3534484282422927
530,-0.43740892727466024,1.4394429657655967,-3.0267242102670586,-2.4902345189921626,-2.6847378272339553,0.8946122637169533,1.0659976944792602,-0.38035892914215264,-0.22176480083193253,1.572408301156318,1.997701698455475,-2.4031971130021987,-1.5568955164432814,-1.9066976726898468,-2.6316358701699203,-1.835672473033201,1.742061231543837,1.9508372726178704,-0.9844781608635129,1.3535022604862248
540,-0.43759161138934255,1.4392944543948014,-3.026570217429539,-2.4901213991442375,-2.6846092732559694,0.8947736115102326,1.0658584661955846,-0.3804650702430316,-0.22169341651900035,1.572408301156318,1.997701698455475,-2.4031971130021987,-1.5568955164432814,-1.9066976726898468,-2.6316358701699203,-1.835672473033201,1.742061231543837,1.9508372726178704,-0.9844781608635129,1.353573644799157
550,-0.43777484632648056,1.439150899587983,-3.0264329213297763,-2.4900140868456644,-2.6845228254599225,0.8948943276880229,1.0657436126255941,-0.3805739447068198,-0.2216274769308633,1.572408301156318,1.997701698455475,-2.4031971130021987,-1.5568955164432814,-1.9066976726898468,-2.6316358701699203,-1.835672473033201,1.742061231543837,1.9508372726178704,-0.9844781608635129,1.3536395843872941
560,-0.4379029626909771,1.4389905611434664,-3.026302904136419,-2.4899159576412226,-2.6844521962279075,0.8949712681250171,1.0656568659482963,-0.3806778453069955,-0.2215749362705198,1.572408301156318,1.997701698455475,-2.4031971130021987,-1.5568955164432814,-1.9066976726898468,-2.6316358701699203,-1.835672473033201,1.742061231543837,1.9508372726178704,-0.9844781608635129,1.3536921250476377
570,-0.43804256356916066,1.4388060502216968,-3.0261832781755813,-2.489820479040904,-2.684352865060736,0.8950590503939944,1.0655670419343433,-0.38074111487732337,-0.2215422068115188,1.572408301156318,1.997701698455475,-2.4031971130021987,-1.5568955164432814,-1.9066976726898468,-2.6316358701699203,-1.835672473033201,1.742061231543837,1.9508372726178704,-0.9844781608635129,1.3537248545066387
580,-0.4382019581123945,1.4385936964843409,-3.0260435147158495,-2.489699054375234,-2.684233384125649,0.8951631423176162,1.0654357658085245,-0.3808233560526749,-0.22145049333843786,1.572408301156318,1.997701698455475,-2.4031971130021987,-1.5568955164432814,-1.9066976726898468,-2.6316358701699203,-1.835672473033201,1.742061231543837,1.9508372726178704,-0.9844781608635129,1.3538165679797196
590,-0.43840388784387063,1.4383769618852458,-3.02587019152381,-2.48955321276943,-2.684105782001519,0.8953230186319319,1.0652623702611304,-0.38094850077906034,-0.22132966423314768,1.572408301156318,1.997701698455475,-2.4031971130021987,-1.5568955164432814,-1.9066976726898468,-2.6316358701699203,-1.835672473033201,1.742061231543837,1.9508372726178704,-0.9844781608635129,1.35393739708501
600,-0.43863069419990847,1.4381494039793823,-3.025668396025077,-2.489380914214049,-2.6840115265597095,0.8954433348696192,1.0651185773688627,-0.38117613021858243,-0.2210975880881227,1.572408301156318,1.997701698455475,-2.4031971130021987,-1.5568955164432814,-1.9066976726898468,-2.6316358701699203,-1.835672473033201,1.742061231543837,1.9508372726178704,-0.9844781608635129,1.354169473230035
610,-0.43885354815556504,1.4380628269510645,-3.0254353187764953,-2.489237591474744,-2.6838847334919564,0.8956209175208677,1.064918317390162,-0.3814078926570967,-0.22080519240534505,1.572408301156318,1.997701698455475,-2.4031971130021987,-1.5568955164432814,-1.9066976726898468,-2.6316358701699203,-1.835672473033201,1.742061231543837,1.9508372726178704,-0.9844781608635129,1.3544618689128125
620,-0.43909381772576833,1.4378443098551583,-3.0251580830404463,-2.4890188926531116,-2.683724740380963,0.8957148448551524,1.0647404081723089,-0.3818038592235733,-0.22043229992623126,1.572408301156318,1.997701698455475,-2.4031971130021987,-1.5568955164432814,-1.9066976726898468,-2.6316358701699203,-1.835672473033201,1.742061231543837,1.9508372726178704,-0.9844781608635129,1.3548347613919263
630,-0.4392811164308001,1.437703618970133,-3.025004074768966,-2.4888853761409,-2.6836169810592243,0.895799770548991,1.0645994845301967,-0.38198853096685936,-0.22024984637271747,1.572408301156318,1.997701698455475,-2.4031971130021987,-1.5568955164432814,-1.9066976726898468,-2.6316358701699203,-1.835672473033201,1.742061231543837,1.9508372726178704,-0.9844781608635129,1.35501721494544
640,-0.43939792526046545,1.4376258003496682,-3.024928272641924,-2.488815616234564,-2.6835542961171277,0.8958518739277737,1.0645289699851082,-0.3820459591106592,-0.22019187761530615,1.572408301156318,1.997701698455475,-2.4031971130021987,-1.5568955164432814,-1.9066976726898468,-2.6316358701699203,-1.835672473033201,1.742061231543837,1.9508372726178704,-0.9844781608635129,1.3550751837028512
650,-0.43949754181826334,1.4375463269149946,-3.0248547148879084,-2.488774431401872,-2.6835164726910987,0.895874658311778,1.064494491100935,-0.3821001844275502,-0.22016281943633584,1.572408301156318,1.997701698455475,-2.4031971130021987,-1.5568955164432814,-1.9066976726898468,-2.6316358701699203,-1.835672473033201,1.742061231543837,1.9508372726178704,-0.9844781608635129,1.3551042418818215
660,-0.4395733272612185,1.437489096285051,-3.0247975929008306,-2.4887536393052385,-2.6834966478496574,0.8958902032105904,1.0644785364834508,-0.38217119097168345,-0.22012070180808704,1.572408301156318,1.997701698455475,-2.4031971130021987,-1.5568955164432814,-1.9066976726898468,-2.6316358701699203,-1.835672473033201,1.742061231543837,1.9508372726178704,-0.9844781608635129,1.3551463595100703
670,-0.4396667762320509,1.4373832730513418,-3.024702535907651,-2.4887020370131796,-2.6834701310669336,0.8958696217753417,1.064458151010754,-0.3823470426224085,-0.21993833062174353,1.572408301156318,1.997701698455475,-2.4031971130021987,-1.5568955164432814,-1.9066976726898468,-2.6316358701699203,-1.835672473033201,1.742061231543837,1.9508372726178704,-0.9844781608635129,1.3553287306964137
680,-0.43987679020825327,1.4371962318802252,-3.024560581291705,-2.4885603743276614,-2.6833851404775464,0.8958834729686437,1.064383589032457,-0.38271311327368196,-0.2195681755936348,1.572408301156318,1.997701698455475,-2.4031971130021987,-1.5568955164432814,-1.9066976726898468,-2.6316358701699203,-1.835672473033201,1.742061231543837,1.9508372726178704,-0.9844781608635129,1.3556988857245225
690,-0.43993786137484076,1.4371265684795351,-3.0245617461092715,-2.488558266429863,-2.6834056175022005,0.8958678459284495,1.064396877196541,-0.3828693438650325,-0.2193985914305883,1.572408301156318,1.997701698455475,-2.4031971130021987,-1.5568955164432814,-1.9066976726898468,-2.6316358701699203,-1.835672473033201,1.742061231543837,1.9508372726178704,-0.9844781608635129,1.355868469887569
700,-0.4400663220804313,1.4369996758072663,-3.024496104888242,-2.4885359077967895,-2.6833316166646353,0.8958998927028612,1.0643507774419454,-0.38298042996010284,-0.21932486030640008,1.572408301156318,1.997701698455475,-2.4031971130021987,-1.5568955164432814,-1.9066976726898468,-2.6316358701699203,-1.835672473033201,1.742061231543837,1.9508372726178704,-0.9844781608635129,1.355942201011757
710,-0.4399175474021497,1.4371270158918423,-3.02463692055544,-2.4886894475786696,-2.6833837089540276,0.8958110408243514,1.0644300430193487,-0.38273758198168323,-0.21956688909779992,1.572408301156318,1.997701698455475,-2.4031971130021987,-1.5568955164432814,-1.9066976726898468,-2.6316358701699203,-1.835672473033201,1.742061231543837,1.9508372726178704,-0.9844781608635129,1.3557001722203572
720,-0.4394383347009872,1.4376009255920292,-3.025008990547386,-2.48902318688035,-2.683592388133477,0.895717411688545,1.0646851898505867,-0.3823019538775104,-0.21999043660115863,1.572408301156318,1.997701698455475,-2.4031971130021987,-1.5568955164432814,-1.9066976726898468,-2.6316358701699203,-1.835672473033201,1.742061231543837,1.9508372726178704,-0.9844781608635129,1.3552766247169985
730,-0.439059590284219,1.4380366967133547,-3.0253730577214917,-2.489391408157616,-2.6838098781677657,0.8955274605013025,1.06502454732791,-0.3819360308408739,-0.2205100384243561,1.572408301156318,1.997701698455475,-2.4031971130021987,-1.5568955164432814,-1.9066976726898468,-2.6316358701699203,-1.835672473033201,1.742061231543837,1.9508372726178704,-0.9844781608635129,1.354757022893801
740,-0.43869988269429905,1.438455504293288,-3.025732650817727,-2.48976503800195,-2.6841527211094274,0.8953060699224352,1.0653382710100476,-0.3815089171424795,-0.2210262913711205,1.572408301156318,1.997701698455475,-2.4031971130021987,-1.5568955164432814,-1.9066976726898468,-2.6316358701699203,-1.835672473033201,1.742061231543837,1.9508372726178704,-0.9844781608635129,1.3542407699470367
750,-0.4385185427354943,1.4386671776724114,-3.0259220405033163,-2.4899598472892737,-2.6843187141664053,0.8951951700750698,1.0654954685538467,-0.38125809783304726,-0.22131691815625082,1.572408301156318,1.997701698455475,-2.4031971130021987,-1.5568955164432814,-1.9066976726898468,-2.6316358701699203,-1.835672473033201,1.742061231543837,1.9508372726178704,-0.9844781608635129,1.3539501431619063
760,-0.4384329595519503,1.4387447386950858,-3.0260064739159764,-2.490030314093876,-2.684388883160878,0.8951531077856333,1.06555018153358,-0.3811631440248768,-0.22141563731635247,1.572408301156318,1.997701698455475,-2.4031971130021987,-1.5568955164432814,-1.9066976726898468,-2.6316358701699203,-1.835672473033201,1.742061231543837,1.9508372726178704,-0.9844781608635129,1.3538514240018047
770,-0.4383773524251497,1.4388029925571413,-3.0260564288980007,-2.4900815285264324,-2.6844277368560396,0.895128964885123,1.0655773439139504,-0.38113115764032107,-0.2214310232608852,1.572408301156318,1.997701698455475,-2.4031971130021987,-1.5568955164432814,-1.9066976726898468,-2.6316358701699203,-1.835672473033201,1.742061231543837,1.9508372726178704,-0.9844781608635129,1.353836038057272
780,-0.43831065327809715,1.4388799645913373,-3.026128648531315,-2.490156914615874,-2.6844737840416517,0.8951036597622641,1.065638470982812,-0.3810644547712677,-0.22149826316884935,1.572408301156318,1.997701698455475,-2.4031971130021987,-1.5568955164432814,-1.9066976726898468,-2.6316358701699203,-1.835672473033201,1.742061231543837,1.9508372726178704,-0.9844781608635129,1.3537687981493078
790,-0.43824567096434097,1.4389226772610266,-3.0261936356793058,-2.4902223109996213,-2.6845443927392014,0.8950427153254625,1.0657131441338006,-0.381028400167973,-0.22154662756555066,1.572408301156318,1.997701698455475,-2.4031971130021987,-1.5568955164432814,-1.9066976726898468,-2.6316358701699203,-1.835672473033201,1.742061231543837,1.9508372726178704,-0.9844781608635129,1.3537204337526065
800,-0.4381832405248064,1.4390129471226785,-3.0262747845842752,-2.4903092219946097,-2.6846206747489214,0.8949888386947715,1.065792079476472,-0.38094384916373686,-0.22163940521407788,1.572408301156318,1.997701698455475,-2.4031971130021987,-1.5568955164432814,-1.9066976726898468,-2.6316358701699203,-1.835672473033201,1.742061231543837,1.9508372726178704,-0.9844781608635129,1.3536276561040794
810,-0.4381119148428075,1.4391147302834641,-3.0263374180886395,-2.4903722212177475,-2.6846746349030175,0.8949409748795965,1.0658574778849363,-0.3808407232716553,-0.2217613802144319,1.572408301156318,1.997701698455475,-2.4031971130021987,-1.5568955164432814,-1.9066976726898468,-2.6316358701699203,-1.835672473033201,1.742061231543837,1.9508372726178704,-0.9844781608635129,1.3535056811037254
820,-0.4380572975670401,1.4391735309563338,-3.026377052490877,-2.4904160098068573,-2.6847149511910766,0.8948895070972966,1.0659082001541158,-0.3807790576431294,-0.2218478906924038,1.572408301156318,1.997701698455475,-2.4031971130021987,-1.5568955164432814,-1.9066976726898468,-2.6316358701699203,-1.835672473033201,1.742061231543837,1.9508372726178704,-0.9844781608635129,1.3534191706257535
830,-0.43800009467512935,1.439272020529406,-3.0264157919463504,-2.4904660327503554,-2.684750463355241,0.8948613832258787,1.0659446558986054,-0.3807013791530352,-0.22194467923979333,1.572408301156318,1.997701698455475,-2.4031971130021987,-1.5568955164432814,-1.9066976726898468,-2.6316358701699203,-1.835672473033201,1.742061231543837,1.9508372726178704,-0.9844781608635129,1.353322382078364
840,-0.4379284649122213,1.4393561520047813,-3.026464171026769,-2.490523766125204,-2.684778758844976,0.8948352580196969,1.0659836006449044,-0.3805927911351292,-0.22204581270693854,1.572408301156318,1.997701698455475,-2.4031971130021987,-1.5568955164432814,-1.9066976726898468,-2.6316358701699203,-1.835672473033201,1.742061231543837,1.9508372726178704,-0.9844781608635129,1.3532212486112187
850,-0.4378888416561209,1.4393888398258095,-3.026499250882857,-2.490549016160446,-2.684817566343909,0.8948116810638775,1.0660099106662393,-0.38061533667447467,-0.22202084790319837,1.572408301156318,1.997701698455475,-2.4031971130021987,-1.5568955164432814,-1.9066976726898468,-2.6316358701699203,-1.835672473033201,1.742061231543837,1.9508372726178704,-0.9844781608635129,1.3532462134149588
860,-0.437841087528621,1.4394724258976912,-3.02655954568077,-2.4905811574061905,-2.6848636982015917,0.8947697392542814,1.0660561627136405,-0.3805905946648528,-0.22204664054160536,1.572408301156318,1.997701698455475,-2.4031971130021987,-1.5568955164432814,-1.9066976726898468,-2.6316358701699203,-1.835672473033201,1.742061231543837,1.9508372726178704,-0.9844781608635129,1.3532204207765517
870,-0.437792221230552,1.43951805466108,-3.026602386642018,-2.490617079462532,-2.684907172872955,0.894731006866426,1.066088831262793,-0.3805834483887791,-0.22203925288205448,1.572408301156318,1.997701698455475,-2.4031971130021987,-1.5568955164432814,-1.9066976726898468,-2.6316358701699203,-1.835672473033201,1.742061231543837,1.9508372726178704,-0.9844781608635129,1.3532278084361027
880,-0.4377276813114659,1.4396184520984976,-3.0266684985346095,-2.4906795067149203,-2.6849423985446137,0.8947004874326226,1.0661178833757199,-0.38045681400868336,-0.22214607467057854,1.572408301156318,1.997701698455475,-2.4031971130021987,-1.5568955164432814,-1.9066976726898468,-2.6316358701699203,-1.835672473033201,1.742061231543837,1.9508372726178704,-0.9844781608635129,1.3531209866475786
890,-0.4376595806369063,1.4397062029730572,-3.0267464237772996,-2.4907525953328564,-2.6850037856476834,0.8946707006106793,1.0661742744591924,-0.3803135871496075,-0.2223198860461469,1.572408301156318,1.997701698455475,-2.4031971130021987,-1.5568955164432814,-1.9066976726898468,-2.6316358701699203,-1.835672473033201,1.742061231543837,1.9508372726178704,-0.9844781608635129,1.3529471752720104
900,-0.4375994207998125,1.439791752325632,-3.026820806721286,-2.4908252193719864,-2.6850463938210285,0.8946605810619396,1.0662187859150591,-0.38016476227518453,-0.2224885108499198,1.572408301156318,1.997701698455475,-2.4031971130021987,-1.5568955164432814,-1.9066976726898468,-2.6316358701699203,-1.835672473033201,1.742061231543837,1.9508372726178704,-0.9844781608635129,1.3527785504682375
910,-0.43755786741611224,1.4398491462683225,-3.026867504714688,-2.4908786477001232,-2.6850792925213454,0.8946373983033882,1.0662532496091617,-0.38010563769542394,-0.2225488236071272,1.572408301156318,1.997701698455475,-2.4031971130021987,-1.5568955164432814,-1.9066976726898468,-2.6316358701699203,-1.835672473033201,1.742061231543837,1.9508372726178704,-0.9844781608635129,1.35271823771103
920,-0.43751920249211695,1.4398991993706616,-3.0269049795139016,-2.490889500338561,-2.6851340681320557,0.8945784435807848,1.0662884289278194,-0.3801429921452784,-0.22248623131915785,1.572408301156318,1.997701698455475,-2.4031971130021987,-1.5568955164432814,-1.9066976726898468,-2.6316358701699203,-1.835672473033201,1.742061231543837,1.9508372726178704,-0.9844781608635129,1.3527808299989996
930,-0.43752446491963515,1.4398643376135023,-3.0268933717568354,-2.4908650518762467,-2.685150340342739,0.8945362998138273,1.066294663448624,-0.3802644132339396,-0.22234022932150968,1.572408301156318,1.997701698455475,-2.4031971130021987,-1.5568955164432814,-1.9066976726898468,-2.6316358701699203,-1.835672473033201,1.742061231543837,1.9508372726178704,-0.9844781608635129,1.3529268319966476
940,-0.4374948993132823,1.439927201246873,-3.0269222270293463,-2.4908799494454623,-2.685164305113243,0.8945163471580599,1.0663131892048157,-0.3802242499117339,-0.22237237039519295,1.572408301156318,1.997701698455475,-2.4031971130021987,-1.5568955164432814,-1.9066976726898468,-2.6316358701699203,-1.835672473033201,1.742061231543837,1.9508372726178704,-0.9844781608635129,1.3528946909229642
950,-0.4374540606728536,1.4400111391441894,-3.0269590688794215,-2.4909101865456047,-2.6851880659120924,0.8945114314520908,1.0663316338337507,-0.3801464164025718,-0.22245260606433043,1.572408301156318,1.997701698455475,-2.4031971130021987,-1.5568955164432814,-1.9066976726898468,-2.6316358701699203,-1.835672473033201,1.742061231543837,1.9508372726178704,-0.9844781608635129,1.3528144552538266
960,-0.43741823199330554,1.4400759283363642,-3.026988295951267,-2.490917634831344,-2.685219955884904,0.8944904599745059,1.0663528874421422,-0.3801033135275791,-0.22247261081604863,1.572408301156318,1.997701698455475,-2.4031971130021987,-1.5568955164432814,-1.9066976726898468,-2.6316358701699203,-1.835672473033201,1.742061231543837,1.9508372726178704,-0.9844781608635129,1.3527944505021083
970,-0.4374147062408471,1.4401040609149887,-3.02700218933424,-2.4908970530892547,-2.6852368897083956,0.8944868078007258,1.066358903411451,-0.380107156975294,-0.22241443459871924,1.572408301156318,1.997701698455475,-2.4031971130021987,-1.5568955164432814,-1.9066976726898468,-2.6316358701699203,-1.835672473033201,1.742061231543837,1.9508372726178704,-0.9844781608635129,1.3528526267194376
980,-0.43736358986014173,1.440203991312517,-3.0270515296727174,-2.490909864041216,-2.6852901022805247,0.8944482611967237,1.066394534150744,-0.38003480911619103,-0.2224248670448308,1.572408301156318,1.997701698455475,-2.4031971130021987,-1.5568955164432814,-1.9066976726898468,-2.6316358701699203,-1.835672473033201,1.742061231543837,1.9508372726178704,-0.9844781608635129,1.352842194273326
990,-0.43732322398808815,1.4402719756093212,-3.0270922339159743,-2.490906922850593,-2.6853152952631527,0.894437578851549,1.06640282347595,-0.380002127052461,-0.22237672078282186,1.572408301156318,1.997701698455475,-2.4031971130021987,-1.5568955164432814,-1.9066976726898468,-2.6316358701699203,-1.835672473033201,1.742061231543837,1.9508372726178704,-0.9844781608635129,1.352890340535335
1000,-0.4372396129114042,1.4403409570367887,-3.0271485289798656,-2.4909386769109325,-2.6853515521359554,0.8943968714949354,1.0664416713360487,-0.37993201125987236,-0.22241478182483587,1.572408301156318,1.997701698455475,-2.4031971130021987,-1.5568955164432814,-1.9066976726898468,-2.6316358701699203,-1.835672473033201,1.742061231543837,1.9508372726178704,-0.9844781608635129,1.352852279493321
1010,-0.43717200459483824,1.440412450800479,-3.027175125886317,-2.490933500786013,-2.6853462379311512,0.8943877113122765,1.066425798574285,-0.3799103980246046,-0.22234034326849836,1.572408301156318,1.997701698455475,-2.4031971130021987,-1.5568955164432814,-1.9066976726898468,-2.6316358701699203,-1.835672473033201,1.742061231543837,1.9508372726178704,-0.9844781608635129,1.3529267180496587
1020,-0.4374229450540863,1.4401773393644375,-3.0268268957275453,-2.490640040754689,-2.685094057038999,0.8946623176414971,1.0661338075569484,-0.3803566210037832,-0.2218756536284704,1.572408301156318,1.997701698455475,-2.4031971130021987,-1.5568955164432814,-1.9066976726898468,-2.6316358701699203,-1.835672473033201,1.742061231543837,1.9508372726178704,-0.9844781608635129,1.3533914076896867
1030,-0.4375898994969668,1.440076742264822,-3.0266150787358277,-2.490469629868592,-2.684975932920279,0.8948363562984307,1.0659505062233132,-0.38057513155323414,-0.22161230162974693,1.572408301156318,1.997701698455475,-2.4031971130021987,-1.5568955164432814,-1.9066976726898468,-2.6316358701699203,-1.835672473033201,1.742061231543837,1.9508372726178704,-0.9844781608635129,1.35365475968841
1040,-0.4377740659396613,1.4399454075109461,-3.0264488896831216,-2.4903193197910585,-2.6848677884604624,0.8949552434885829,1.0657959721758334,-0.38073657296681535,-0.2214183358635544,1.572408301156318,1.997701698455475,-2.4031971130021987,-1.5568955164432814,-1.9066976726898468,-2.6316358701699203,-1.835672473033201,1.742061231543837,1.9508372726178704,-0.9844781608635129,1.3538487254546026
1050,-0.43823915780764944,1.4396061954149497,-3.0260105276779097,-2.4899021571687165,-2.6844530312365484,0.8951679885992947,1.0655054219451638,-0.38121931920262314,-0.2209590981416134,1.572408301156318,1.997701698455475,-2.4031971130021987,-1.5568955164432814,-1.9066976726898468,-2.6316358701699203,-1.835672473033201,1.742061231543837,1.9508372726178704,-0.9844781608635129,1.3543079631765436
1060,-0.4384933324390244,1.439407314128012,-3.0257162526431425,-2.489601855894103,-2.6842177127582225,0.8952998093440526,1.065321297225049,-0.3814612765611799,-0.22082025897839377,1.572408301156318,1.997701698455475,-2.4031971130021987,-1.5568955164432814,-1.9066976726898468,-2.6316358701699203,-1.835672473033201,1.742061231543837,1.9508372726178704,-0.9844781608635129,1.3544468023397631
1070,-0.43853682083187767,1.43942339810071,-3.0256789865814766,-2.4895623685958532,-2.6841753097337926,0.8953594595692145,1.0652879928414254,-0.3813789290606555,-0.22095338178151303,1.572408301156318,1.997701698455475,-2.4031971130021987,-1.5568955164432814,-1.9066976726898468,-2.6316358701699203,-1.835672473033201,1.742061231543837,1.9508372726178704,-0.9844781608635129,1.354313679536644
1080,-0.43845611889114555,1.4395480871574553,-3.025751244564855,-2.4896294161810544,-2.6842358763904777,0.8953396855344238,1.0653517724197237,-0.38123510080738027,-0.22111613908506164,1.572408301156318,1.997701698455475,-2.4031971130021987,-1.5568955164432814,-1.9066976726898468,-2.6316358701699203,-1.835672473033201,1.742061231543837,1.9508372726178704,-0.9844781608635129,1.3541509222330954
1090,-0.43840370756786823,1.4396314685003277,-3.0257994900906193,-2.4896921539024093,-2.684289316737898,0.895318433597294,1.0654059431916596,-0.38114706917065533,-0.2212257909783182,1.572408301156318,1.997701698455475,-2.4031971130021987,-1.5568955164432814,-1.9066976726898468,-2.6316358701699203,-1.835672473033201,1.742061231543837,1.9508372726178704,-0.9844781608635129,1.354041270339839
1100,-0.43831851098439456,1.439724003183462,-3.0258552920483264,-2.4897835878528767,-2.684338442144845,0.8953086890708832,1.0654608854773724,-0.3810194421131367,-0.2213780890169778,1.572408301156318,1.997701698455475,-2.4031971130021987,-1.5568955164432814,-1.9066976726898468,-2.6316358701699203,-1.835672473033201,1.742061231543837,1.9508372726178704,-0.9844781608635129,1.3538889723011793
1110,-0.4382152038568897,1.4398495754306961,-3.025953469038519,-2.489879881494075,-2.684427515205377,0.8952806171271662,1.0655207437743361,-0.3808749963662812,-0.22151726105743175,1.572408301156318,1.997701698455475,-2.4031971130021987,-1.5568955164432814,-1.9066976726898468,-2.6316358701699203,-1.835672473033201,1.742061231543837,1.9508372726178704,-0.9844781608635129,1.3537498002607253
1120,-0.4381238297943808,1.4399818262595059,-3.026048670654583,-2.4899934231827965,-2.684473457342729,0.8952954588785509,1.0655605015016978,-0.3806755810704517,-0.2216922058139096,1.572408301156318,1.997701698455475,-2.4031971130021987,-1.5568955164432814,-1.9066976726898468,-2.6316358701699203,-1.835672473033201,1.742061231543837,1.9508372726178704,-0.9844781608635129,1.3535748555042475
1130,-0.4380388620703134,1.4400674395148927,-3.02613681606227,-2.4900965900933847,-2.684534451699794,0.8952379350469095,1.065646831929396,-0.3805243196416732,-0.22187178854658424,1.572408301156318,1.997701698455475,-2.4031971130021987,-1.5568955164432814,-1.9066976726898468,-2.6316358701699203,-1.835672473033201,1.742061231543837,1.9508372726178704,-0.9844781608635129,1.3533952727715728
1140,-0.43794454027563556,1.440160464385226,-3.0262614407649244,-2.4901803881995965,-2.6846161233667285,0.8951815403775957,1.0657384313400524,-0.380416114276006,-0.22198756913781467,1.572408301156318,1.997701698455475,-2.4031971130021987,-1.5568955164432814,-1.9066976726898468,-2.6316358701699203,-1.835672473033201,1.742061231543837,1.9508372726178704,-0.9844781608635129,1.3532794921803424
1150,-0.43787031603229365,1.4402123022068198,-3.0263356200100096,-2.4902387023423835,-2.6846830732783475,0.8951141506585824,1.0658122175052784,-0.38038348484356493,-0.22201896094925905,1.572408301156318,1.997701698455475,-2.4031971130021987,-1.5568955164432814,-1.9066976726898468,-2.6316358701699203,-1.835672473033201,1.742061231543837,1.9508372726178704,-0.9844781608635129,1.353248100368898
1160,-0.43775827650269694,1.4402458885033949,-3.0264118166680594,-2.4903195836647862,-2.684769404586195,0.8950203140380412,1.065908736916556,-0.38033542846357926,-0.22207309445710327,1.572408301156318,1.997701698455475,-2.4031971130021987,-1.5568955164432814,-1.9066976726898468,-2.6316358701699203,-1.835672473033201,1.742061231543837,1.9508372726178704,-0.9844781608635129,1.3531939668610538
1170,-0.4375310577270307,1.440306768771417,-3.026504089402442,-2.4904794579940828,-2.684911774823965,0.8949070353987928,1.066039796459072,-0.38020599339711075,-0.22219763149816013,1.572408301156318,1.997701698455475,-2.4031971130021987,-1.5568955164432814,-1.9066976726898468,-2.6316358701699203,-1.835672473033201,1.742061231543837,1.9508372726178704,-0.9844781608635129,1.353069429819997
1180,-0.43722531591044445,1.4404275731981475,-3.0267470086907657,-2.4907025292145843,-2.6851906469797746,0.8946316880086697,1.0663316799265419,-0.3801412853588249,-0.22231323939784176,1.572408301156318,1.997701698455475,-2.4031971130021987,-1.5568955164432814,-1.9066976726898468,-2.6316358701699203,-1.835672473033201,1.742061231543837,1.9508372726178704,-0.9844781608635129,1.3529538219203154
1190,-0.4365571960624,1.440936249910342,-3.027250983632025,-2.491304921433334,-2.6858310868112367,0.8940813004934755,1.0669262796735786,-0.37986211821360655,-0.22264216231397027,1.572408301156318,1.997701698455475,-2.4031971130021987,-1.5568955164432814,-1.9066976726898468,-2.6316358701699203,-1.835672473033201,1.742061231543837,1.9508372726178704,-0.9844781608635129,1.352624899004187
1200,-0.4360432276306626,1.4412674462952848,-3.027611864593861,-2.4917260632916047,-2.68622047505956,0.8937543309306843,1.067313373169245,-0.3796059160634299,-0.22292480147054056,1.572408301156318,1.997701698455475,-2.4031971130021987,-1.5568955164432814,-1.9066976726898468,-2.6316358701699203,-1.835672473033201,1.742061231543837,1.9508372726178704,-0.9844781608635129,1.3523422598476165
1210,-0.43566516186510695,1.4415337097532894,-3.0279353865711394,-2.4919717886890154,-2.686543658394087,0.8935237224913108,1.067581123437179,-0.37946451585081337,-0.22294178730811098,1.572408301156318,1.997701698455475,-2.4031971130021987,-1.5568955164432814,-1.9066976726898468,-2.6316358701699203,-1.835672473033201,1.742061231543837,1.9508372726178704,-0.9844781608635129,1.352325274010046
1220,-0.43537105213727084,1.4417901486012765,-3.0281827955830867,-2.492213000328336,-2.6867735038630474,0.8933677658687745,1.0677901197229338,-0.3793104127625027,-0.22307196229228524,1.572408301156318,1.997701698455475,-2.4031971130021987,-1.5568955164432814,-1.9066976726898468,-2.6316358701699203,-1.835672473033201,1.742061231543837,1.9508372726178704,-0.9844781608635129,1.3521950990258718
1230,-0.43514273724517144,1.4419890920475469,-3.028374697089196,-2.492424638197972,-2.686967768761884,0.8932185034559531,1.0679918291400745,-0.37918457672333117,-0.22323482993939378,1.572408301156318,1.997701698455475,-2.4031971130021987,-1.5568955164432814,-1.9066976726898468,-2.6316358701699203,-1.835672473033201,1.742061231543837,1.9508372726178704,-0.9844781608635129,1.3520322313787632
1240,-0.43499605470288194,1.442099609935809,-3.0285035829747127,-2.492572298201177,-2.6870781990500126,0.8931373505880653,1.0681084478379335,-0.3790636117099001,-0.22336818849822265,1.572408301156318,1.997701698455475,-2.4031971130021987,-1.5568955164432814,-1.9066976726898468,-2.6316358701699203,-1.835672473033201,1.742061231543837,1.9508372726178704,-0.9844781608635129,1.3518988728199344
1250,-0.43492385981142767,1.4421248008900567,-3.02855708151554,-2.492627534526718,-2.687127832206248,0.8930776486316587,1.0681697795965919,-0.3790320406120463,-0.2234021818524358,1.572408301156318,1.997701698455475,-2.4031971130021987,-1.5568955164432814,-1.9066976726898468,-2.6316358701699203,-1.835672473033201,1.742061231543837,1.9508372726178704,-0.9844781608635129,1.351864879465721
1260,-0.4349014440324433,1.4421271373531084,-3.028580057623395,-2.4926203555027846,-2.6871485424514265,0.8930471644363663,1.0681802130791471,-0.37904940413241006,-0.22334351119058593,1.572408301156318,1.997701698455475,-2.4031971130021987,-1.5568955164432814,-1.9066976726898468,-2.6316358701699203,-1.835672473033201,1.742061231543837,1.9508372726178704,-0.9844781608635129,1.351923550127571
1270,-0.4349023763577381,1.442095770377574,-3.0285158262798064,-2.492558336678455,-2.687085746856116,0.8930709966877819,1.068117255263431,-0.37914033634975564,-0.22321125012694273,1.572408301156318,1.997701698455475,-2.4031971130021987,-1.5568955164432814,-1.9066976726898468,-2.6316358701699203,-1.835672473033201,1.742061231543837,1.9508372726178704,-0.9844781608635129,1.3520558111912142
1280,-0.4349335756852296,1.442063739059173,-3.028463710574233,-2.492478240737329,-2.687024131154416,0.8931325353535164,1.068039270863015,-0.37922048104471456,-0.2230487774845348,1.572408301156318,1.997701698455475,-2.4031971130021987,-1.5568955164432814,-1.9066976726898468,-2.6316358701699203,-1.835672473033201,1.742061231543837,1.9508372726178704,-0.9844781608635129,1.352218283833622
1290,-0.4349681183972884,1.4420199389484616,-3.0284098782851676,-2.492383952040014,-2.686961886014594,0.8931788070398258,1.067965106876076,-0.3793374258877457,-0.2228772787727726,1.572408301156318,1.997701698455475,-2.4031971130021987,-1.5568955164432814,-1.9066976726898468,-2.6316358701699203,-1.835672473033201,1.742061231543837,1.9508372726178704,-0.9844781608635129,1.3523897825453843
1300,-0.43504280561109027,1.441914722368372,-3.028213262929146,-2.4922052800677608,-2.6867701318115,0.8933898119048095,1.06771225229289,-0.37948053216133326,-0.22265609878553386,1.572408301156318,1.997701698455475,-2.4031971130021987,-1.5568955164432814,-1.9066976726898468,-2.6316358701699203,-1.835672473033201,1.742061231543837,1.9508372726178704,-0.9844781608635129,1.352610962532623
1310,-0.4351122242476776,1.441853265797799,-3.0280979980282345,-2.4920848124006536,-2.6866672724278757,0.8934762444941856,1.0675920653485302,-0.37961574621965416,-0.2225057034435814,1.572408301156318,1.997701698455475,-2.4031971130021987,-1.5568955164432814,-1.9066976726898468,-2.6316358701699203,-1.835672473033201,1.742061231543837,1.9508372726178704,-0.9844781608635129,1.3527613578745754
1320,-0.43517120922066244,1.4418000414336063,-3.028014104120622,-2.4919830313501503,-2.6865639843427904,0.8935367367036511,1.0675065962890005,-0.3797446906295543,-0.22236021095891592,1.572408301156318,1.997701698455475,-2.4031971130021987,-1.5568955164432814,-1.9066976726898468,-2.6316358701699203,-1.835672473033201,1.742061231543837,1.9508372726178704,-0.9844781608635129,1.3529068503592407
1330,-0.4352817812159262,1.441705244261644,-3.0277871614470357,-2.491799294548875,-2.6864070265982822,0.8936214418328757,1.0673140786682094,-0.3799028582850711,-0.22213039215037989,1.572408301156318,1.997701698455475,-2.4031971130021987,-1.5568955164432814,-1.9066976726898468,-2.6316358701699203,-1.835672473033201,1.742061231543837,1.9508372726178704,-0.9844781608635129,1.3531366691677769
1340,-0.43539566469181507,1.4415990751982297,-3.027563422767856,-2.491578770362909,-2.6862183072374273,0.8937642526451977,1.067062314540815,-0.38008742147572894,-0.2218256087235217,1.572408301156318,1.997701698455475,-2.4031971130021987,-1.5568955164432814,-1.9066976726898468,-2.6316358701699203,-1.835672473033201,1.742061231543837,1.9508372726178704,-0.9844781608635129,1.3534414525946352
1350,-0.4355346210216054,1.4414858606066618,-3.0274312919097657,-2.4913202685469997,-2.6860114689110994,0.8939084193090684,1.066842051648763,-0.38033619758210785,-0.2214577477068812,1.572408301156318,1.997701698455475,-2.4031971130021987,-1.5568955164432814,-1.9066976726898468,-2.6316358701699203,-1.835672473033201,1.742061231543837,1.9508372726178704,-0.9844781608635129,1.3538093136112757
1360,-0.43584666794821836,1.4414772988320435,-3.027080065477165,-2.4910263207154926,-2.685666913885456,0.894198415995174,1.0665345211889945,-0.3807149456603991,-0.22112197141492076,1.572408301156318,1.997701698455475,-2.4031971130021987,-1.5568955164432814,-1.9066976726898468,-2.6316358701699203,-1.835672473033201,1.742061231543837,1.9508372726178704,-0.9844781608635129,1.3541450899032361
1370,-0.43609131323703676,1.4414146775249772,-3.0267224705463813,-2.4906399217247492,-2.6853188523766276,0.8943866307788554,1.066292836538712,-0.38125839409254103,-0.22061393616567432,1.572408301156318,1.997701698455475,-2.4031971130021987,-1.5568955164432814,-1.9066976726898468,-2.6316358701699203,-1.835672473033201,1.742061231543837,1.9508372726178704,-0.9844781608635129,1.3546531251524827
1380,-0.43625332502926634,1.44125941419037,-3.026472514267037,-2.490186818808867,-2.685041013789258,0.8944178272605728,1.0660883481586427,-0.3818412743424717,-0.21999563888841808,1.572408301156318,1.997701698455475,-2.4031971130021987,-1.5568955164432814,-1.9066976726898468,-2.6316358701699203,-1.835672473033201,1.742061231543837,1.9508372726178704,-0.9844781608635129,1.3552714224297389
1390,-0.4364498318332319,1.4412840192855798,-3.026249382773502,-2.489903287112228,-2.684889970610338,0.8945061731323676,1.0658546769612998,-0.3821788850866009,-0.21965810837035324,1.572408301156318,1.997701698455475,-2.4031971130021987,-1.5568955164432814,-1.9066976726898468,-2.6316358701699203,-1.835672473033201,1.742061231543837,1.9508372726178704,-0.9844781608635129,1.3556089529478037
1400,-0.4366628463364528,1.4412643913690715,-3.026020639728345,-2.489639294341662,-2.684638915662306,0.8945908085413548,1.0656170671783203,-0.38245057229253754,-0.21937522919641514,1.572408301156318,1.997701698455475,-2.4031971130021987,-1.5568955164432814,-1.9066976726898468,-2.6316358701699203,-1.835672473033201,1.742061231543837,1.9508372726178704,-0.9844781608635129,1.355891832121742
1410,-0.4368561913622785,1.4412118543665484,-3.0258343176628943,-2.489305482530684,-2.6843918546727195,0.8946561992462416,1.065402540491922,-0.3828539481302842,-0.21895450481740789,1.572408301156318,1.997701698455475,-2.4031971130021987,-1.5568955164432814,-1.9066976726898468,-2.6316358701699203,-1.835672473033201,1.742061231543837,1.9508372726178704,-0.9844781608635129,1.3563125565007492
1420,-0.43701985280762023,1.4411553852597043,-3.0255989364698888,-2.488903316872089,-2.6840895567480563,0.8947772859823979,1.065145253134625,-0.3832466136019926,-0.21854123109683585,1.572408301156318,1.997701698455475,-2.4031971130021987,-1.5568955164432814,-1.9066976726898468,-2.6316358701699203,-1.835672473033201,1.742061231543837,1.9508372726178704,-0.9844781608635129,1.3567258302213212
1430,-0.43716841661293193,1.4410862463287364,-3.025393456742882,-2.488541989518635,-2.6839266396401125,0.8948235474215036,1.0649535098781917,-0.3836196096595956,-0.21824652590622157,1.572408301156318,1.997701698455475,-2.4031971130021987,-1.5568955164432814,-1.9066976726898468,-2.6316358701699203,-1.835672473033201,1.742061231543837,1.9508372726178704,-0.9844781608635129,1.3570205354119356
1440,-0.43726231601537513,1.4410136344063165,-3.025129286089263,-2.488192121156112,-2.6837418121494334,0.8948824504406252,1.064734170679372,-0.38404746194516404,-0.2178584763551079,1.572408301156318,1.997701698455475,-2.4031971130021987,-1.5568955164432814,-1.9066976726898468,-2.6316358701699203,-1.835672473033201,1.742061231543837,1.9508372726178704,-0.9844781608635129,1.357408584963049
1450,-0.43728110124206154,1.440895473594255,-3.024878613920717,-2.4879025342295065,-2.6835855468239096,0.894897115026147,1.0645185302741134,-0.38441573054163886,-0.2174851331093941,1.572408301156318,1.997701698455475,-2.4031971130021987,-1.5568955164432814,-1.9066976726898468,-2.6316358701699203,-1.835672473033201,1.742061231543837,1.9508372726178704,-0.9844781608635129,1.3577819282087629
1460,-0.43730318284232045,1.4407887053967354,-3.024636465614453,-2.487609025635523,-2.6832647171532242,0.8949743922689112,1.0642895481026193,-0.38473123032389356,-0.21710492721569058,1.572408301156318,1.997701698455475,-2.4031971130021987,-1.5568955164432814,-1.9066976726898468,-2.6316358701699203,-1.835672473033201,1.742061231543837,1.9508372726178704,-0.9844781608635129,1.3581621341024666
1470,-0.43739278816558447,1.440783887173384,-3.0243840735702916,-2.4873765355486586,-2.683006711291313,0.8950858133041493,1.0640950094810826,-0.38494594321414055,-0.2169131066390077,1.572408301156318,1.997701698455475,-2.4031971130021987,-1.5568955164432814,-1.9066976726898468,-2.6316358701699203,-1.835672473033201,1.742061231543837,1.9508372726178704,-0.9844781608635129,1.3583539546791494
1480,-0.43745258385504054,1.4407143178800872,-3.0241826226471122,-2.4870872452461024,-2.6827574620478205,0.8951610002690631,1.0639208689880943,-0.38525526781742336,-0.21665104621704165,1.572408301156318,1.997701698455475,-2.4031971130021987,-1.5568955164432814,-1.9066976726898468,-2.6316358701699203,-1.835672473033201,1.742061231543837,1.9508372726178704,-0.9844781608635129,1.3586160151011155
1490,-0.4375134122198079,1.4406754038517897,-3.023932556793512,-2.4867948000589473,-2.682510947755933,0.8951822793901933,1.0637878160460374,-0.38560052227207486,-0.2164501193879489,1.572408301156318,1.997701698455475,-2.4031971130021987,-1.5568955164432814,-1.9066976726898468,-2.6316358701699203,-1.835672473033201,1.742061231543837,1.9508372726178704,-0.9844781608635129,1.3588169419302083
1500,-0.43747520471972373,1.4405163707095132,-3.0237846495654663,-2.4865576392460462,-2.6823923942602015,0.8951072687580544,1.0637022668525815,-0.38590270001280597,-0.21618216179963357,1.572408301156318,1.997701698455475,-2.4031971130021987,-1.5568955164432814,-1.9066976726898468,-2.6316358701699203,-1.835672473033201,1.742061231543837,1.9508372726178704,-0.9844781608635129,1.3590848995185236
1510,-0.43747207888568945,1.4404081110722655,-3.023642397170967,-2.4863186521250538,-2.682201128291245,0.8951596898498226,1.0635643903365093,-0.38613927903522344,-0.21592996972685632,1.572408301156318,1.997701698455475,-2.4031971130021987,-1.5568955164432814,-1.9066976726898468,-2.6316358701699203,-1.835672473033201,1.742061231543837,1.9508372726178704,-0.9844781608635129,1.359337091591301
1520,-0.43747152074864304,1.4402593906688637,-3.0235571055293415,-2.4860825989847735,-2.682119304321586,0.8951072628939981,1.0634731278754692,-0.38638525120781003,-0.21566496629678286,1.572408301156318,1.997701698455475,-2.4031971130021987,-1.5568955164432814,-1.9066976726898468,-2.6316358701699203,-1.835672473033201,1.742061231543837,1.9508372726178704,-0.9844781608635129,1.3596020950213745
1530,-0.4372751462546563,1.439972986768063,-3.023479402668664,-2.485951335882416,-2.682151476130724,0.894900943787675,1.063566051245739,-0.38678602656099564,-0.2153644075289017,1.572408301156318,1.997701698455475,-2.4031971130021987,-1.5568955164432814,-1.9066976726898468,-2.6316358701699203,-1.835672473033201,1.742061231543837,1.9508372726178704,-0.9844781608635129,1.3599026537892556
1540,-0.437040762385797,1.4396823464805817,-3.023381722044416,-2.4859148557681006,-2.6821815426925713,0.8947425608311995,1.0636451178980366,-0.3871394684185986,-0.2150681946154927,1.572408301156318,1.997701698455475,-2.4031971130021987,-1.5568955164432814,-1.9066976726898468,-2.6316358701699203,-1.835672473033201,1.742061231543837,1.9508372726178704,-0.9844781608635129,1.3601988667026645
1550,-0.4369102110516958,1.4394634900316274,-3.023303731369245,-2.485852313506935,-2.68226670686502,0.8945515455571885,1.063715097773101,-0.38746240395558235,-0.21483289606130512,1.572408301156318,1.997701698455475,-2.4031971130021987,-1.5568955164432814,-1.9066976726898468,-2.6316358701699203,-1.835672473033201,1.742061231543837,1.9508372726178704,-0.9844781608635129,1.3604341652568521
1560,-0.43677475225551066,1.4392503135299943,-3.023231632213617,-2.485797957482329,-2.6823312768827874,0.8943900905112103,1.0637849810305249,-0.3877762191217027,-0.21457988027441077,1.572408301156318,1.997701698455475,-2.4031971130021987,-1.5568955164432814,-1.9066976726898468,-2.6316358701699203,-1.835672473033201,1.742061231543837,1.9508372726178704,-0.9844781608635129,1.3606871810437464
1570,-0.43652399879218035,1.438848481090493,-3.023276190441605,-2.485723597788644,-2.6824565836954974,0.8942573908944037,1.0638870082516703,-0.38804155255888206,-0.21419330982241477,1.572408301156318,1.997701698455475,-2.4031971130021987,-1.5568955164432814,-1.9066976726898468,-2.6316358701699203,-1.835672473033201,1.742061231543837,1.9508372726178704,-0.9844781608635129,1.3610737514957423
1580,-0.43640353717897373,1.4385254938440766,-3.023281920078934,-2.485481503600315,-2.6824104513615374,0.8940717323166362,1.0639177176857904,-0.38843114491850506,-0.2137723058749721,1.572408301156318,1.997701698455475,-2.4031971130021987,-1.5568955164432814,-1.9066976726898468,-2.6316358701699203,-1.835672473033201,1.742061231543837,1.9508372726178704,-0.9844781608635129,1.3614947554431849
1590,-0.43632262588090687,1.4382584606040651,-3.0232542789254926,-2.485213170312011,-2.6823523428827407,0.8939263749886629,1.063923776583863,-0.3888001620995009,-0.21344145245781046,1.572408301156318,1.997701698455475,-2.4031971130021987,-1.5568955164432814,-1.9066976726898468,-2.6316358701699203,-1.835672473033201,1.742061231543837,1.9508372726178704,-0.9844781608635129,1.3618256088603466
1600,-0.43622098073010046,1.4379790045900602,-3.0231942555467324,-2.485005659394355,-2.68236479552277,0.8937898347349805,1.0639526660627987,-0.3891499480074685,-0.2132031793897073,1.572408301156318,1.997701698455475,-2.4031971130021987,-1.5568955164432814,-1.9066976726898468,-2.6316358701699203,-1.835672473033201,1.742061231543837,1.9508372726178704,-0.9844781608635129,1.3620638819284498
1610,-0.43605873863659167,1.4376773670793348,-3.023081431938495,-2.484939281576038,-2.682362002471654,0.8936720602585049,1.063992386822189,-0.38943836042943364,-0.21298179775129292,1.572408301156318,1.997701698455475,-2.4031971130021987,-1.5568955164432814,-1.9066976726898468,-2.6316358701699203,-1.835672473033201,1.742061231543837,1.9508372726178704,-0.9844781608635129,1.3622852635668643
1620,-0.43579265769084957,1.4372416784014197,-3.023007910448136,-2.4848629421756225,-2.6823852455455928,0.8934589319613909,1.0641061858060106,-0.3898301797520369,-0.2126447255785518,1.572408301156318,1.997701698455475,-2.4031971130021987,-1.5568955164432814,-1.9066976726898468,-2.6316358701699203,-1.835672473033201,1.742061231543837,1.9508372726178704,-0.9844781608635129,1.3626223357396055
1630,-0.4355552182534729,1.4367685172476927,-3.023057312379095,-2.4847031834716815,-2.682365202942581,0.8933033277839759,1.0641729015524468,-0.390202389236165,-0.21217410395043668,1.572408301156318,1.997701698455475,-2.4031971130021987,-1.5568955164432814,-1.9066976726898468,-2.6316358701699203,-1.835672473033201,1.742061231543837,1.9508372726178704,-0.9844781608635129,1.3630929573677206
1640,-0.4352873071270165,1.4362819351685867,-3.0231697720192057,-2.484747155887752,-2.6826005924379452,0.8929634322552485,1.0644052896422032,-0.39062358894816496,-0.21172810396184577,1.572408301156318,1.997701698455475,-2.4031971130021987,-1.5568955164432814,-1.9066976726898468,-2.6316358701699203,-1.835672473033201,1.742061231543837,1.9508372726178704,-0.9844781608635129,1.3635389573563115
1650,-0.434993373000015,1.4358057529611927,-3.0233944393540635,-2.4849827752851734,-2.6829710718767443,0.8925826274786075,1.0647248922201182,-0.39104503289536185,-0.2112471845363255,1.572408301156318,1.997701698455475,-2.4031971130021987,-1.5568955164432814,-1.9066976726898468,-2.6316358701699203,-1.835672473033201,1.742061231543837,1.9508372726178704,-0.9844781608635129,1.3640198767818317
1660,-0.43454905820199313,1.4351946717691868,-3.023774171545922,-2.4853430345836145,-2.683560623827905,0.8919838145107263,1.0652588942239063,-0.3915271922977996,-0.2107116471796366,1.572408301156318,1.997701698455475,-2.4031971130021987,-1.5568955164432814,-1.9066976726898468,-2.6316358701699203,-1.835672473033201,1.742061231543837,1.9508372726178704,-0.9844781608635129,1.3645554141385206
1670,-0.4340426437895077,1.434546780309638,-3.0241747820771048,-2.485765693132814,-2.6841150583826257,0.8913740518018461,1.0657936942877708,-0.39195281988770964,-0.21025856749347485,1.572408301156318,1.997701698455475,-2.4031971130021987,-1.5568955164432814,-1.9066976726898468,-2.6316358701699203,-1.835672473033201,1.742061231543837,1.9508372726178704,-0.9844781608635129,1.3650084938246823
1680,-0.4335768839879928,1.4339794090463183,-3.024508149984004,-2.486283236458406,-2.68464052636528,0.8908510148072447,1.0662807029795605,-0.39229531818505115,-0.2098598988011348,1.572408301156318,1.997701698455475,-2.4031971130021987,-1.5568955164432814,-1.9066976726898468,-2.6316358701699203,-1.835672473033201,1.742061231543837,1.9508372726178704,-0.9844781608635129,1.3654071625170223
1690,-0.43313764492409046,1.4334974453770306,-3.0248398085453583,-2.486785419539355,-2.685163788060423,0.8904625670539215,1.0667240713184318,-0.3924503749859168,-0.20954693735556207,1.572408301156318,1.997701698455475,-2.4031971130021987,-1.5568955164432814,-1.9066976726898468,-2.6316358701699203,-1.835672473033201,1.742061231543837,1.9508372726178704,-0.9844781608635129,1.365720123962595
1700,-0.43279359703162484,1.4331170274505776,-3.0251378838253955,-2.487241855513504,-2.685611092133857,0.8901153038377806,1.0671073079925257,-0.3925411877099471,-0.2093424473690712,1.572408301156318,1.997701698455475,-2.4031971130021987,-1.5568955164432814,-1.9066976726898468,-2.6316358701699203,-1.835672473033201,1.742061231543837,1.9508372726178704,-0.9844781608635129,1.3659246139490857
1710,-0.43252858822957935,1.432848929326569,-3.025469794823493,-2.487621979468444,-2.6861342108295494,0.8896742911500564,1.0675574281812157,-0.39276574855810065,-0.20917438493756255,1.572408301156318,1.997701698455475,-2.4031971130021987,-1.5568955164432814,-1.9066976726898468,-2.6316358701699203,-1.835672473033201,1.742061231543837,1.9508372726178704,-0.9844781608635129,1.3660926763805943
1720,-0.4323151470781117,1.4326628128394436,-3.0256894513161376,-2.4879683453899073,-2.686597551639289,0.8893334163802209,1.0679094394554693,-0.39282764016130195,-0.2090993159550778,1.572408301156318,1.997701698455475,-2.4031971130021987,-1.5568955164432814,-1.9066976726898468,-2.6316358701699203,-1.835672473033201,1.742061231543837,1.9508372726178704,-0.9844781608635129,1.366167745363079
1730,-0.4321425992035626,1.4325085334572694,-3.02588089294806,-2.4882941900504423,-2.6869040456499356,0.8891137914336071,1.0681788478261378,-0.39274773384358386,-0.2090221503234557,1.572408301156318,1.997701698455475,-2.4031971130021987,-1.5568955164432814,-1.9066976726898468,-2.6316358701699203,-1.835672473033201,1.742061231543837,1.9508372726178704,-0.9844781608635129,1.366244910994701
1740,-0.43197308488433267,1.4323582227267542,-3.0261132570035603,-2.4885285201411267,-2.68720123916397,0.8889291599471341,1.0683994964253645,-0.39272703190667463,-0.20893526552276365,1.572408301156318,1.997701698455475,-2.4031971130021987,-1.5568955164432814,-1.9066976726898468,-2.6316358701699203,-1.835672473033201,1.742061231543837,1.9508372726178704,-0.9844781608635129,1.3663317957953929
1750,-0.4318313214823473,1.432244113979713,-3.026295314897789,-2.488786482037005,-2.6874923735365073,0.8887812370974832,1.068590487395087,-0.39269043977920937,-0.2088813614956257,1.572408301156318,1.997701698455475,-2.4031971130021987,-1.5568955164432814,-1.9066976726898468,-2.6316358701699203,-1.835672473033201,1.742061231543837,1.9508372726178704,-0.9844781608635129,1.366385699822531
1760,-0.4317345982057697,1.4321602130365496,-3.026446106408057,-2.4889817545177544,-2.6877177119053037,0.8886774346264564,1.0687375764195672,-0.3926511272733606,-0.20886472343544388,1.572408301156318,1.997701698455475,-2.4031971130021987,-1.5568955164432814,-1.9066976726898468,-2.6316358701699203,-1.835672473033201,1.742061231543837,1.9508372726178704,-0.9844781608635129,1.3664023378827128
1770,-0.43165149933754837,1.4320808286922968,-3.026605141448138,-2.489133109885785,-2.6879415052922053,0.8885098983957499,1.0689152409039588,-0.39266892850786683,-0.2088434297401441,1.572408301156318,1.997701698455475,-2.4031971130021987,-1.5568955164432814,-1.9066976726898468,-2.6316358701699203,-1.835672473033201,1.742061231543837,1.9508372726178704,-0.9844781608635129,1.3664236315780125
1780,-0.43156953905313616,1.43201890874352,-3.026715046122876,-2.4892837152393477,-2.6880715162600164,0.8884251171815989,1.0690232248519833,-0.3926542721876312,-0.2087899487074404,1.572408301156318,1.997701698455475,-2.4031971130021987,-1.5568955164432814,-1.9066976726898468,-2.6316358701699203,-1.835672473033201,1.742061231543837,1.9508372726178704,-0.9844781608635129,1.366477112610716
1790,-0.4314951823187433,1.4319670925573096,-3.0268073872460826,-2.489441651349034,-2.688209869620729,0.8883825141535538,1.0691071849282765,-0.392612206097774,-0.20877876126016198,1.572408301156318,1.997701698455475,-2.4031971130021987,-1.5568955164432814,-1.9066976726898468,-2.6316358701699203,-1.835672473033201,1.742061231543837,1.9508372726178704,-0.9844781608635129,1.3664883000579944
1800,-0.4314083731864985,1.431885896954616,-3.0268920745617813,-2.4895423000694428,-2.6883425932575427,0.8882885619188768,1.0692094987364384,-0.39263766006794065,-0.2087413941548154,1.572408301156318,1.997701698455475,-2.4031971130021987,-1.5568955164432814,-1.9066976726898468,-2.6316358701699203,-1.835672473033201,1.742061231543837,1.9508372726178704,-0.9844781608635129,1.366525667163341
1810,-0.43132614159814736,1.4318155532735837,-3.0269865384066836,-2.4896534927619074,-2.6884783837973365,0.8881719627886047,1.0693187709072953,-0.3926593570804517,-0.20868799793415369,1.572408301156318,1.997701698455475,-2.4031971130021987,-1.5568955164432814,-1.9066976726898468,-2.6316358701699203,-1.835672473033201,1.742061231543837,1.9508372726178704,-0.9844781608635129,1.3665790633840027
1820,-0.43123266211840666,1.4317384829543114,-3.027074635333498,-2.489749907516742,-2.688592031424465,0.8880823537711198,1.0694138291432767,-0.3926589642607533,-0.2086429902686463,1.572408301156318,1.997701698455475,-2.4031971130021987,-1.5568955164432814,-1.9066976726898468,-2.6316358701699203,-1.835672473033201,1.742061231543837,1.9508372726178704,-0.9844781608635129,1.3666240710495101
1830,-0.4311562696719791,1.4316805392117251,-3.027139894076154,-2.48984172093025,-2.688718473501655,0.8879832883040011,1.0695230500181863,-0.39268255484481424,-0.2086300322992203,1.572408301156318,1.997701698455475,-2.4031971130021987,-1.5568955164432814,-1.9066976726898468,-2.6316358701699203,-1.835672473033201,1.742061231543837,1.9508372726178704,-0.9844781608635129,1.3666370290189362
1840,-0.43109304089406425,1.4316400039653419,-3.0272255470367337,-2.4899489801869024,-2.6888330372266322,0.8879009041114625,1.069630372711647,-0.3926937885510803,-0.2086186778024926,1.572408301156318,1.997701698455475,-2.4031971130021987,-1.5568955164432814,-1.9066976726898468,-2.6316358701699203,-1.835672473033201,1.742061231543837,1.9508372726178704,-0.9844781608635129,1.366648383515664
1850,-0.43103525862216147,1.4316049819907775,-3.0273026045754463,-2.490045292930923,-2.688924338049425,0.8878503381295667,1.069703531906017,-0.39271036672680326,-0.20858244208792093,1.572408301156318,1.997701698455475,-2.4031971130021987,-1.5568955164432814,-1.9066976726898468,-2.6316358701699203,-1.835672473033201,1.742061231543837,1.9508372726178704,-0.9844781608635129,1.3666846192302355
1860,-0.4309844602065057,1.4315676341566854,-3.027362391232596,-2.490111552238701,-2.688999822348277,0.8878057117577158,1.0697611506260185,-0.39271831158704534,-0.2085558188679263,1.572408301156318,1.997701698455475,-2.4031971130021987,-1.5568955164432814,-1.9066976726898468,-2.6316358701699203,-1.835672473033201,1.742061231543837,1.9508372726178704,-0.9844781608635129,1.3667112424502303
1870,-0.43093428789857025,1.4315279757031238,-3.0273995571104173,-2.490164178255061,-2.6890531325855225,0.8877679701726499,1.0698075454611824,-0.39272793660390015,-0.20852983401818934,1.572408301156318,1.997701698455475,-2.4031971130021987,-1.5568955164432814,-1.9066976726898468,-2.6316358701699203,-1.835672473033201,1.742061231543837,1.9508372726178704,-0.9844781608635129,1.3667372272999672
1880,-0.4308835840710116,1.4314909222349808,-3.0274460373765786,-2.4902318650372965,-2.6891194246136547,0.887715786805039,1.069859251629803,-0.39273447632512476,-0.20849577661373184,1.572408301156318,1.997701698455475,-2.4031971130021987,-1.5568955164432814,-1.9066976726898468,-2.6316358701699203,-1.835672473033201,1.742061231543837,1.9508372726178704,-0.9844781608635129,1.3667712847044247
1890,-0.4308353596082226,1.4314515802429535,-3.0274912135588825,-2.4902769819808044,-2.689177148909528,0.88766863452264,1.0699056777338498,-0.39274747043661684,-0.20846749986283195,1.572408301156318,1.997701698455475,-2.4031971130021987,-1.5568955164432814,-1.9066976726898468,-2.6316358701699203,-1.835672473033201,1.742061231543837,1.9508372726178704,-0.9844781608635129,1.3667995614553246
1900,-0.4307959841068059,1.431414900082163,-3.027529861425034,-2.4903066232607594,-2.689226531107147,0.8876164197129268,1.0699525773137344,-0.39277001384119903,-0.20843577252321616,1.572408301156318,1.997701698455475,-2.4031971130021987,-1.5568955164432814,-1.9066976726898468,-2.6316358701699203,-1.835672473033201,1.742061231543837,1.9508372726178704,-0.9844781608635129,1.3668312887949403
1910,-0.43076411448934165,1.4313870025867785,-3.027571269830588,-2.490331691277916,-2.6892733675938,0.88757650949557,1.069995422701843,-0.39277739055425037,-0.20841968354697304,1.572408301156318,1.997701698455475,-2.4031971130021987,-1.5568955164432814,-1.9066976726898468,-2.6316358701699203,-1.835672473033201,1.742061231543837,1.9508372726178704,-0.9844781608635129,1.3668473777711834
1920,-0.4307361225622316,1.4313682624029298,-3.027607845249451,-2.490358771013453,-2.689312997475514,0.8875444482809478,1.07003038857158,-0.39279033093235194,-0.20839921107785048,1.572408301156318,1.997701698455475,-2.4031971130021987,-1.5568955164432814,-1.9066976726898468,-2.6316358701699203,-1.835672473033201,1.742061231543837,1.9508372726178704,-0.9844781608635129,1.366867850240306
1930,-0.4307193459078051,1.431334430146011,-3.0276412667729526,-2.490339347629182,-2.6893388339302526,0.8875115010316983,1.0700469245196174,-0.3928281862293077,-0.20835634124124405,1.572408301156318,1.997701698455475,-2.4031971130021987,-1.5568955164432814,-1.9066976726898468,-2.6316358701699203,-1.835672473033201,1.742061231543837,1.9508372726178704,-0.9844781608635129,1.3669107200769124
1940,-0.43070569247956064,1.431309817262515,-3.027668901962526,-2.4903191275129424,-2.689357251517134,0.8874750175166795,1.0700632706204014,-0.3928696890699775,-0.20831671357720907,1.572408301156318,1.997701698455475,-2.4031971130021987,-1.5568955164432814,-1.9066976726898468,-2.6316358701699203,-1.835672473033201,1.742061231543837,1.9508372726178704,-0.9844781608635129,1.3669503477409475
1950,-0.43069736729334235,1.4312932873875077,-3.0276878359086243,-2.4902909852139468,-2.6893603973153906,0.8874503770634291,1.0700691428675622,-0.392911662754005,-0.20827807078486307,1.572408301156318,1.997701698455475,-2.4031971130021987,-1.5568955164432814,-1.9066976726898468,-2.6316358701699203,-1.835672473033201,1.742061231543837,1.9508372726178704,-0.9844781608635129,1.3669889905332935
1960,-0.4306964879028933,1.4312545289404623,-3.0277240315870753,-2.490217923393204,-2.6893771072444816,0.8874036201412359,1.0700673262733364,-0.39296775904877584,-0.20821505072600577,1.572408301156318,1.997701698455475,-2.4031971130021987,-1.5568955164432814,-1.9066976726898468,-2.6316358701699203,-1.835672473033201,1.742061231543837,1.9508372726178704,-0.9844781608635129,1.3670520105921509
1970,-0.43070199610196525,1.4312430544596382,-3.0277333277144054,-2.4901614345810947,-2.689393199979732,0.887373494850769,1.0700677908703242,-0.3930164239641083,-0.20818946683475817,1.572408301156318,1.997701698455475,-2.4031971130021987,-1.5568955164432814,-1.9066976726898468,-2.6316358701699203,-1.835672473033201,1.742061231543837,1.9508372726178704,-0.9844781608635129,1.3670775944833984
1980,-0.4307201531452983,1.431247279416182,-3.0277020114417192,-2.4900669820009003,-2.6893323470650516,0.8874163033557115,1.0700031917281354,-0.39304635490556666,-0.20815091195277807,1.572408301156318,1.997701698455475,-2.4031971130021987,-1.5568955164432814,-1.9066976726898468,-2.6316358701699203,-1.835672473033201,1.742061231543837,1.9508372726178704,-0.9844781608635129,1.3671161493653785
1990,-0.4307715662892189,1.4312301437580794,-3.0276663934540626,-2.48981982821941,-2.6891765462826216,0.8874707073467435,1.069895495449525,-0.3931418943982396,-0.20805354268405876,1.572408301156318,1.997701698455475,-2.4031971130021987,-1.5568955164432814,-1.9066976726898468,-2.6316358701699203,-1.835672473033201,1.742061231543837,1.9508372726178704,-0.9844781608635129,1.367213518634098
2000,-0.43083952314041474,1.4312202242439995,-3.0275386757571403,-2.48957431239413,-2.6890303997381366,0.8875094672590452,1.069758844700077,-0.393278078061561,-0.20801590498057224,1.572408301156318,1.997701698455475,-2.4031971130021987,-1.5568955164432814,-1.9066976726898468,-2.6316358701699203,-1.835672473033201,1.742061231543837,1.9508372726178704,-0.9844781608635129,1.3672511563375844
2010,-0.4309132873296215,1.431248406043304,-3.0274123180694197,-2.489387336051122,-2.688862858122995,0.8875961061519125,1.0696107180618804,-0.3933264157944812,-0.20800184790991946,1.572408301156318,1.997701698455475,-2.4031971130021987,-1.5568955164432814,-1.9066976726898468,-2.6316358701699203,-1.835672473033201,1.742061231543837,1.9508372726178704,-0.9844781608635129,1.3672652134082373
2020,-0.43098552750715236,1.4313010128569326,-3.0272682137681595,-2.489225992409096,-2.688701385663479,0.8876694005912631,1.0694854546466603,-0.3934083675181603,-0.20799108866879132,1.572408301156318,1.997701698455475,-2.4031971130021987,-1.5568955164432814,-1.9066976726898468,-2.6316358701699203,-1.835672473033201,1.742061231543837,1.9508372726178704,-0.9844781608635129,1.3672759726493653
2030,-0.43106478369743806,1.4313379543447677,-3.027089083786825,-2.489013690808634,-2.6884895529634822,0.887824141846455,1.0692996427350203,-0.3934853316483064,-0.20799259655076419,1.572408301156318,1.997701698455475,-2.4031971130021987,-1.5568955164432814,-1.9066976726898468,-2.6316358701699203,-1.835672473033201,1.742061231543837,1.9508372726178704,-0.9844781608635129,1.3672744647673925
2040,-0.43116102670622986,1.4313635350621896,-3.0269691851958944,-2.4887750077977078,-2.688281852958243,0.8879558321854282,1.0691241123299284,-0.3935451859262083,-0.20796852300634583,1.572408301156318,1.997701698455475,-2.4031971130021987,-1.5568955164432814,-1.9066976726898468,-2.6316358701699203,-1.835672473033201,1.742061231543837,1.9508372726178704,-0.9844781608635129,1.3672985383118108
2050,-0.43126040986282205,1.431380583230566,-3.0268599660810627,-2.4884822682458982,-2.6880504831758576,0.8881031152961739,1.06887082453099,-0.393581420043689,-0.2078595133977689,1.572408301156318,1.997701698455475,-2.4031971130021987,-1.5568955164432814,-1.9066976726898468,-2.6316358701699203,-1.835672473033201,1.742061231543837,1.9508372726178704,-0.9844781608635129,1.3674075479203878
2060,-0.43137011266953795,1.4313465873383011,-3.0267112507923577,-2.4880423386971913,-2.687788502183238,0.8881925700518489,1.0685575675439778,-0.3937427396138558,-0.2077110191354701,1.572408301156318,1.997701698455475,-2.4031971130021987,-1.5568955164432814,-1.9066976726898468,-2.6316358701699203,-1.835672473033201,1.742061231543837,1.9508372726178704,-0.9844781608635129,1.3675560421826864
2070,-0.43149491869509354,1.4314067137892332,-3.026537605208826,-2.4877249003590975,-2.687481703556263,0.8883459236229145,1.0683020221575488,-0.39379080009415274,-0.20769555612623322,1.572408301156318,1.997701698455475,-2.4031971130021987,-1.5568955164432814,-1.9066976726898468,-2.6316358701699203,-1.835672473033201,1.742061231543837,1.9508372726178704,-0.9844781608635129,1.3675715051919233
2080,-0.4316590405224371,1.4315041517973217,-3.0263743065627833,-2.487471412240652,-2.687175371165629,0.8884695266518615,1.068071379200215,-0.3938332371988407,-0.20769255484159352,1.572408301156318,1.997701698455475,-2.4031971130021987,-1.5568955164432814,-1.9066976726898468,-2.6316358701699203,-1.835672473033201,1.742061231543837,1.9508372726178704,-0.9844781608635129,1.367574506476563
2090,-0.4318046461454145,1.4316163025675204,-3.0261280213037507,-2.4871727186364954,-2.686854060779297,0.8886725147377789,1.0678061882918248,-0.393850715216818,-0.20777643575505103,1.572408301156318,1.997701698455475,-2.4031971130021987,-1.5568955164432814,-1.9066976726898468,-2.6316358701699203,-1.835672473033201,1.742061231543837,1.9508372726178704,-0.9844781608635129,1.3674906255631056
2100,-0.43198230208043864,1.431768012961728,-3.02587325847099,-2.4868568886445312,-2.6865186551812688,0.888890139022636,1.067533904022854,-0.3938866689505312,-0.2078765230521095,1.572408301156318,1.997701698455475,-2.4031971130021987,-1.5568955164432814,-1.9066976726898468,-2.6316358701699203,-1.835672473033201,1.742061231543837,1.9508372726178704,-0.9844781608635129,1.3673905382660472
2110,-0.43215536090626416,1.431952141341686,-3.0256045813284347,-2.486539644273327,-2.68616846448366,0.8891092731867831,1.0672963907390443,-0.39386184436063454,-0.20802263187708964,1.572408301156318,1.997701698455475,-2.4031971130021987,-1.5568955164432814,-1.9066976726898468,-2.6316358701699203,-1.835672473033201,1.742061231543837,1.9508372726178704,-0.9844781608635129,1.367244429441067
2120,-0.4323010371565846,1.4320768220390983,-3.025293398197395,-2.486096419641128,-2.6856862028800284,0.889367274809399,1.0669849671415466,-0.39388096777135645,-0.2081070127577862,1.572408301156318,1.997701698455475,-2.4031971130021987,-1.5568955164432814,-1.9066976726898468,-2.6316358701699203,-1.835672473033201,1.742061231543837,1.9508372726178704,-0.9844781608635129,1.3671600485603705
2130,-0.43246897504863174,1.4322519229995803,-3.0250076252036044,-2.485734687355971,-2.6852693004811696,0.8896302122342679,1.0666937600847897,-0.3938648150105563,-0.2082473778387691,1.572408301156318,1.997701698455475,-2.4031971130021987,-1.5568955164432814,-1.9066976726898468,-2.6316358701699203,-1.835672473033201,1.742061231543837,1.9508372726178704,-0.9844781608635129,1.3670196834793877
2140,-0.4326597367204835,1.4324447922708603,-3.0247778448495026,-2.485388518674217,-2.684865385473392,0.8898973579097006,1.0664166157884205,-0.39387578096472364,-0.20836199963243407,1.572408301156318,1.997701698455475,-2.4031971130021987,-1.5568955164432814,-1.9066976726898468,-2.6316358701699203,-1.835672473033201,1.742061231543837,1.9508372726178704,-0.9844781608635129,1.3669050616857228
2150,-0.4328397622704014,1.4326053578008944,-3.024549073606865,-2.485035785014497,-2.6844707321845016,0.8902126339836939,1.0661170320175883,-0.393827663565737,-0.20853749175642217,1.572408301156318,1.997701698455475,-2.4031971130021987,-1.5568955164432814,-1.9066976726898468,-2.6316358701699203,-1.835672473033201,1.742061231543837,1.9508372726178704,-0.9844781608635129,1.3667295695617347
2160,-0.4329881910893983,1.4327269452078817,-3.0242937133698717,-2.4847736185299363,-2.684168820466716,0.8905255020577898,1.0658592243241292,-0.39370087949977545,-0.20876456641539595,1.572408301156318,1.997701698455475,-2.4031971130021987,-1.5568955164432814,-1.9066976726898468,-2.6316358701699203,-1.835672473033201,1.742061231543837,1.9508372726178704,-0.9844781608635129,1.366502494902761
2170,-0.4331118336980626,1.4328340350044118,-3.024112346447063,-2.4846196371058475,-2.683974670797361,0.8907341025555383,1.0656970520949667,-0.3936535626764706,-0.2089208523213969,1.572408301156318,1.997701698455475,-2.4031971130021987,-1.5568955164432814,-1.9066976726898468,-2.6316358701699203,-1.835672473033201,1.742061231543837,1.9508372726178704,-0.9844781608635129,1.3663462089967602
2180,-0.433190760893262,1.4329573315673974,-3.0239186788196153,-2.484548957494732,-2.683772532749228,0.8909563896583428,1.065572965569277,-0.39354656042740355,-0.2090622185056098,1.572408301156318,1.997701698455475,-2.4031971130021987,-1.5568955164432814,-1.9066976726898468,-2.6316358701699203,-1.835672473033201,1.742061231543837,1.9508372726178704,-0.9844781608635129,1.3662048428125473
2190,-0.43326631659540554,1.433125260900696,-3.023702441949105,-2.4846009470558936,-2.6835980639598387,0.8912276434775259,1.0654355501793635,-0.3933290967056565,-0.2092922974868424,1.572408301156318,1.997701698455475,-2.4031971130021987,-1.5568955164432814,-1.9066976726898468,-2.6316358701699203,-1.835672473033201,1.742061231543837,1.9508372726178704,-0.9844781608635129,1.3659747638313147
2200,-0.43332727629931833,1.4332296868200765,-3.0235712256821854,-2.4846083528471095,-2.6834831784178843,0.8914116976310674,1.0653251833782147,-0.39317301199785254,-0.20944776922005737,1.572408301156318,1.997701698455475,-2.4031971130021987,-1.5568955164432814,-1.9066976726898468,-2.6316358701699203,-1.835672473033201,1.742061231543837,1.9508372726178704,-0.9844781608635129,1.3658192920980998
2210,-0.4333751885119332,1.4334161819971656,-3.023441988431053,-2.484755780476522,-2.683438572785221,0.8916129669394196,1.0652971652100827,-0.39298537719046917,-0.2096596932704434,1.572408301156318,1.997701698455475,-2.4031971130021987,-1.5568955164432814,-1.9066976726898468,-2.6316358701699203,-1.835672473033201,1.742061231543837,1.9508372726178704,-0.9844781608635129,1.3656073680477139
2220,-0.43341656286301194,1.4336055384425173,-3.02328425348044,-2.4849273596095824,-2.6834444115408576,0.8917992461658625,1.0652840813678799,-0.39276233950093364,-0.2099588188490009,1.572408301156318,1.997701698455475,-2.4031971130021987,-1.5568955164432814,-1.9066976726898468,-2.6316358701699203,-1.835672473033201,1.742061231543837,1.9508372726178704,-0.9844781608635129,1.3653082424691565
2230,-0.43349445233343314,1.4337890358089593,-3.0231984948654866,-2.4850184883671846,-2.68340798216533,0.8919606396769156,1.0652395136148898,-0.3925770659851678,-0.2101574847399812,1.572408301156318,1.997701698455475,-2.4031971130021987,-1.5568955164432814,-1.9066976726898468,-2.6316358701699203,-1.835672473033201,1.742061231543837,1.9508372726178704,-0.9844781608635129,1.3651095765781762
2240,-0.4335637844004022,1.4340353457522272,-3.0230449873268226,-2.4852030175831246,-2.683372959562616,0.8920514447447451,1.0652399332145084,-0.39242589820497625,-0.2104559622449259,1.572408301156318,1.997701698455475,-2.4031971130021987,-1.5568955164432814,-1.9066976726898468,-2.6316358701699203,-1.835672473033201,1.742061231543837,1.9508372726178704,-0.9844781608635129,1.3648110990732314
2250,-0.4335928964790301,1.434165293905294,-3.0230052848663176,-2.485356041853244,-2.6834409195365097,0.8920542339906926,1.065286137376495,-0.39226297860746423,-0.2106528217343817,1.572408301156318,1.997701698455475,-2.4031971130021987,-1.5568955164432814,-1.9066976726898468,-2.6316358701699203,-1.835672473033201,1.742061231543837,1.9508372726178704,-0.9844781608635129,1.3646142395837757
2260,-0.4335572643372871,1.434247559770478,-3.023042052125784,-2.4855783577177855,-2.6836555601925345,0.8919957127378434,1.0654541434820697,-0.39214813922564395,-0.21086934113804337,1.572408301156318,1.997701698455475,-2.4031971130021987,-1.5568955164432814,-1.9066976726898468,-2.6316358701699203,-1.835672473033201,1.742061231543837,1.9508372726178704,-0.9844781608635129,1.364397720180114
2270,-0.4335005540195922,1.4342615355887731,-3.023123183123154,-2.4857845138154007,-2.68377261218101,0.8919203081595422,1.065576555201463,-0.39207214387454675,-0.210870112447014,1.572408301156318,1.997701698455475,-2.4031971130021987,-1.5568955164432814,-1.9066976726898468,-2.6316358701699203,-1.835672473033201,1.742061231543837,1.9508372726178704,-0.9844781608635129,1.3643969488711434
2280,-0.4334576977419708,1.4342594950020837,-3.023121168640586,-2.485854851932889,-2.6837695990235035,0.8919077161723055,1.065619175809797,-0.3920211240880387,-0.21087613928335613,1.572408301156318,1.997701698455475,-2.4031971130021987,-1.5568955164432814,-1.9066976726898468,-2.6316358701699203,-1.835672473033201,1.742061231543837,1.9508372726178704,-0.9844781608635129,1.3643909220348012
2290,-0.4334417200014222,1.4342794303316047,-3.023144654266041,-2.4859046363337742,-2.6837725337833014,0.8919248180367996,1.0656329293811506,-0.3919441500199668,-0.21090046660413173,1.572408301156318,1.997701698455475,-2.4031971130021987,-1.5568955164432814,-1.9066976726898468,-2.6316358701699203,-1.835672473033201,1.742061231543837,1.9508372726178704,-0.9844781608635129,1.3643665947140255
2300,-0.4333486813514727,1.4342153885938886,-3.02321349063485,-2.4859950513623073,-2.683864142943527,0.8918611488093132,1.0657191269107722,-0.39193116878791756,-0.21087596587356125,1.572408301156318,1.997701698455475,-2.4031971130021987,-1.5568955164432814,-1.9066976726898468,-2.6316358701699203,-1.835672473033201,1.742061231543837,1.9508372726178704,-0.9844781608635129,1.3643910954445961
2310,-0.43330241069719877,1.4342228603106748,-3.023264132538803,-2.486104800583392,-2.683949001990472,0.8917917321919229,1.0658093445192793,-0.3918865568351293,-0.21092805053955505,1.572408301156318,1.997701698455475,-2.4031971130021987,-1.5568955164432814,-1.9066976726898468,-2.6316358701699203,-1.835672473033201,1.742061231543837,1.9508372726178704,-0.9844781608635129,1.3643390107786024
2320,-0.43326476917230283,1.4343475008913753,-3.0231726921704976,-2.4863709478681826,-2.6840822963001116,0.8915212301738297,1.0660286830280215,-0.3919454408443145,-0.21124642869594715,1.572408301156318,1.997701698455475,-2.4031971130021987,-1.5568955164432814,-1.9066976726898468,-2.6316358701699203,-1.835672473033201,1.742061231543837,1.9508372726178704,-0.9844781608635129,1.3640206326222104
2330,-0.43320892671218786,1.4344098755247712,-3.0231254997457224,-2.4865698667244014,-2.6842090062387958,0.8912947568825901,1.0662090248853942,-0.39199683685642117,-0.21146681024005298,1.572408301156318,1.997701698455475,-2.4031971130021987,-1.5568955164432814,-1.9066976726898468,-2.6316358701699203,-1.835672473033201,1.742061231543837,1.9508372726178704,-0.9844781608635129,1.3638002510781047
2340,-0.4331688936605012,1.4344135878783861,-3.02314302861052,-2.486642377831895,-2.6842607240764464,0.8912144689409167,1.0662697141578688,-0.39197682367853626,-0.21150876342964783,1.572408301156318,1.997701698455475,-2.4031971130021987,-1.5568955164432814,-1.9066976726898468,-2.6316358701699203,-1.835672473033201,1.742061231543837,1.9508372726178704,-0.9844781608635129,1.3637582978885099
2350,-0.4330316161207134,1.4343302385741237,-3.023254782313897,-2.486756227437654,-2.6843400587353066,0.8911093537625814,1.0663769136858674,-0.39196286072288333,-0.21143296880248652,1.572408301156318,1.997701698455475,-2.4031971130021987,-1.5568955164432814,-1.9066976726898468,-2.6316358701699203,-1.835672473033201,1.742061231543837,1.9508372726178704,-0.9844781608635129,1.3638340925156711
2360,-0.4329271684412881,1.434272283698428,-3.023402490898894,-2.486884010319874,-2.684500629108025,0.8909417706498577,1.0665306539004613,-0.3919691425821054,-0.21139196234201388,1.572408301156318,1.997701698455475,-2.4031971130021987,-1.5568955164432814,-1.9066976726898468,-2.6316358701699203,-1.835672473033201,1.742061231543837,1.9508372726178704,-0.9844781608635129,1.363875098976144
2370,-0.43285621152253173,1.4342356038905897,-3.0234947746224217,-2.4869644402456923,-2.6846052576811545,0.8908291842399941,1.0666283119905522,-0.39199245358404683,-0.21135610479955652,1.572408301156318,1.997701698455475,-2.4031971130021987,-1.5568955164432814,-1.9066976726898468,-2.6316358701699203,-1.835672473033201,1.742061231543837,1.9508372726178704,-0.9844781608635129,1.3639109565186014
2380,-0.4327813479985085,1.4341801805843866,-3.0235716552694796,-2.487031177084342,-2.68469168485079,0.8907335931871941,1.0667125013795045,-0.3920224263582164,-0.21132014690415318,1.572408301156318,1.997701698455475,-2.4031971130021987,-1.5568955164432814,-1.9066976726898468,-2.6316358701699203,-1.835672473033201,1.742061231543837,1.9508372726178704,-0.9844781608635129,1.3639469144140046
2390,-0.43268044498877034,1.4340918779048704,-3.0235997665223553,-2.4870503328399,-2.6848212610866433,0.8906169169704913,1.0667709343710627,-0.3921628344500183,-0.21130770267752763,1.572408301156318,1.997701698455475,-2.4031971130021987,-1.5568955164432814,-1.9066976726898468,-2.6316358701699203,-1.835672473033201,1.742061231543837,1.9508372726178704,-0.9844781608635129,1.3639593586406302
2400,-0.43263713047501623,1.433973586273278,-3.0235963488256337,-2.4868693530169166,-2.6849269779294374,0.8903959908767081,1.0668321013813822,-0.39257979254670655,-0.2112192571960619,1.572408301156318,1.997701698455475,-2.4031971130021987,-1.5568955164432814,-1.9066976726898468,-2.6316358701699203,-1.835672473033201,1.742061231543837,1.9508372726178704,-0.9844781608635129,1.364047804122096
2410,-0.4325936506186929,1.4338082898713285,-3.0235919182832345,-2.4865593174963774,-2.6848898520451985,0.8901833596267539,1.0668753925376173,-0.39306303951045424,-0.21098237923482335,1.572408301156318,1.997701698455475,-2.4031971130021987,-1.5568955164432814,-1.9066976726898468,-2.6316358701699203,-1.835672473033201,1.742061231543837,1.9508372726178704,-0.9844781608635129,1.3642846820833345
2420,-0.43249775060423873,1.4336725014922331,-3.0235051237008133,-2.486413944124177,-2.6848026099676487,0.8901437239146448,1.0668403387029561,-0.3933262643264518,-0.21079012800809943,1.572408301156318,1.997701698455475,-2.4031971130021987,-1.5568955164432814,-1.9066976726898468,-2.6316358701699203,-1.835672473033201,1.742061231543837,1.9508372726178704,-0.9844781608635129,1.3644769333100584
2430,-0.43250757882257784,1.4337070697647905,-3.023148540649654,-2.4861991315199767,-2.684578399825846,0.8902613593441852,1.066583911170199,-0.3935268363808301,-0.21077307313894586,1.572408301156318,1.997701698455475,-2.4031971130021987,-1.5568955164432814,-1.9066976726898468,-2.6316358701699203,-1.835672473033201,1.742061231543837,1.9508372726178704,-0.9844781608635129,1.364493988179212
2440,-0.4325192915575441,1.4337335929882504,-3.022812628371263,-2.485846468502585,-2.684248084588028,0.8904277883774022,1.066355679827927,-0.3938339667884378,-0.21070769417258992,1.572408301156318,1.997701698455475,-2.4031971130021987,-1.5568955164432814,-1.9066976726898468,-2.6316358701699203,-1.835672473033201,1.742061231543837,1.9508372726178704,-0.9844781608635129,1.3645593671455678
2450,-0.432704400964609,1.4340217081763527,-3.0223660373342307,-2.485284947294365,-2.6836177176100917,0.8909572718616979,1.0659008967573014,-0.39391037410413887,-0.21088816936751428,1.572408301156318,1.997701698455475,-2.4031971130021987,-1.5568955164432814,-1.9066976726898468,-2.6316358701699203,-1.835672473033201,1.742061231543837,1.9508372726178704,-0.9844781608635129,1.3643788919506434
2460,-0.4329052455217024,1.4343010703949475,-3.0217603374045763,-2.484668885222221,-2.6828617123420124,0.8916291184805029,1.0653071965429344,-0.39389673490231353,-0.21108612220944878,1.572408301156318,1.997701698455475,-2.4031971130021987,-1.5568955164432814,-1.9066976726898468,-2.6316358701699203,-1.835672473033201,1.742061231543837,1.9508372726178704,-0.9844781608635129,1.364180939108709
2470,-0.43307678719322573,1.4344521071874805,-3.0214640963750266,-2.484219882326391,-2.682390272053669,0.8918946125977061,1.0649641020032392,-0.39404185333223596,-0.2111013544161434,1.572408301156318,1.997701698455475,-2.4031971130021987,-1.5568955164432814,-1.9066976726898468,-2.6316358701699203,-1.835672473033201,1.742061231543837,1.9508372726178704,-0.9844781608635129,1.3641657069020143
2480,-0.4332553383525515,1.4347343081940607,-3.0211280732387804,-2.483847666343441,-2.6819213843554808,0.8922359762090445,1.0645913740171062,-0.39408868080990467,-0.21120137994701413,1.572408301156318,1.997701698455475,-2.4031971130021987,-1.5568955164432814,-1.9066976726898468,-2.6316358701699203,-1.835672473033201,1.742061231543837,1.9508372726178704,-0.9844781608635129,1.3640656813711436
2490,-0.43318203710098624,1.4346742178064031,-3.0206445699105986,-2.483528014459688,-2.681623066099673,0.8922680268110444,1.0644964191961017,-0.39459997727712987,-0.21112561105170366,1.572408301156318,1.997701698455475,-2.4031971130021987,-1.5568955164432814,-1.9066976726898468,-2.6316358701699203,-1.835672473033201,1.742061231543837,1.9508372726178704,-0.9844781608635129,1.3641414502664542
2500,-0.43303488274036045,1.4344615927648843,-3.02045280962163,-2.4832848567897927,-2.68150058770636,0.8922358757326919,1.0645091260403259,-0.39501244512986056,-0.21098127957256554,1.572408301156318,1.997701698455475,-2.4031971130021987,-1.5568955164432814,-1.9066976726898468,-2.6316358701699203,-1.835672473033201,1.742061231543837,1.9508372726178704,-0.9844781608635129,1.3642857817455922
2510,-0.43282613500999967,1.4342264769407223,-3.0203115457630507,-2.482840092406382,-2.6813308072473627,0.891999777748978,1.0646743453600855,-0.39584668982309684,-0.21064026091128027,1.572408301156318,1.997701698455475,-2.4031971130021987,-1.5568955164432814,-1.9066976726898468,-2.6316358701699203,-1.835672473033201,1.742061231543837,1.9508372726178704,-0.9844781608635129,1.3646268004068776
2520,-0.43234292336524077,1.433501327864089,-3.0201406384876965,-2.482478495708965,-2.6810428002951787,0.8919696320963008,1.064683890075437,-0.3966395625556512,-0.21000077018635005,1.572408301156318,1.997701698455475,-2.4031971130021987,-1.5568955164432814,-1.9066976726898468,-2.6316358701699203,-1.835672473033201,1.742061231543837,1.9508372726178704,-0.9844781608635129,1.3652662911318079
2530,-0.4318863574938999,1.4328076987351441,-3.0204232046123822,-2.4825393564078744,-2.681321778259964,0.8914399616411149,1.0651209931324332,-0.3972137313592046,-0.20951061182606825,1.572408301156318,1.997701698455475,-2.4031971130021987,-1.5568955164432814,-1.9066976726898468,-2.6316358701699203,-1.835672473033201,1.742061231543837,1.9508372726178704,-0.9844781608635129,1.3657564494920897
2540,-0.4314434260769531,1.432155801424757,-3.0206993771099535,-2.4827459047635534,-2.681777129100648,0.8908513502258137,1.0656205384726773,-0.397768532766962,-0.2089953267991631,1.572408301156318,1.997701698455475,-2.4031971130021987,-1.5568955164432814,-1.9066976726898468,-2.6316358701699203,-1.835672473033201,1.742061231543837,1.9508372726178704,-0.9844781608635129,1.3662717345189948
2550,-0.43128892773570005,1.4317610821660627,-3.0206148484522615,-2.4824105796940596,-2.6820996531842494,0.8904298410381288,1.0657080256067957,-0.398497255089972,-0.20901364771956826,1.572408301156318,1.997701698455475,-2.4031971130021987,-1.5568955164432814,-1.9066976726898468,-2.6316358701699203,-1.835672473033201,1.742061231543837,1.9508372726178704,-0.9844781608635129,1.3662534135985898
